#ifndef MY_MODEL_H
#define MY_MODEL_H
// ======================================================
// IMPORTANT: After copying this file to your sketch folder,
// update BOTH of the following lines in your main sketch
// to match the number of classes and labels used during training:
//
//   #define NUM_CLASSES 6
//   String myClassLabels[NUM_CLASSES] = {"0Blank", "1Cup", "2Pen", "3unknown", "4Circle", "5Mouse"};
//
// Then uncomment:  #define USE_BAKED_WEIGHTS
// ======================================================
const float myModel_conv1_w[] = { 0.158872f, 0.041493f, 0.097245f, 0.086976f, -0.022793f, -0.078330f, -0.116501f, 0.100615f, 
-0.045278f, 0.263574f, -0.174605f, 0.024550f, 0.290119f, -0.027905f, 0.347698f, -0.164920f, 
0.272591f, -0.152370f, 0.318995f, 0.078848f, 0.293430f, 0.004309f, 0.187458f, 0.131941f, 
0.001609f, -0.187545f, 0.280102f, 0.014156f, 0.471616f, 0.269379f, 0.243810f, 0.374427f, 
0.583387f, 0.321354f, 0.218994f, 0.274528f, 0.386162f, 0.576491f, 0.629009f, 0.240985f, 
0.442952f, 0.586656f, 0.202339f, 0.509515f, 0.624787f, 0.040204f, 0.516555f, 0.619113f, 
0.535086f, 0.396719f, 0.612499f, 0.229163f, 0.472286f, 0.555036f, 0.179538f, -0.156594f, 
-0.210370f, 0.067002f, -0.143104f, -0.018365f, -0.289793f, 0.062298f, -0.055352f, 0.272019f, 
-0.119915f, 0.294204f, -0.125889f, 0.211044f, 0.060170f, 0.095539f, -0.122400f, -0.107421f, 
0.108753f, 0.238992f, 0.135922f, -0.026261f, -0.224300f, 0.166851f, 0.034268f, -0.222875f, 
-0.118598f, 0.281168f, 0.108154f, 0.242926f, 0.240209f, 0.123299f, -0.072149f, 0.087429f, 
0.204083f, -0.209235f, -0.022989f, -0.133594f, -0.202609f, 0.013204f, 0.027235f, 0.061808f, 
0.077050f, -0.249784f, -0.002597f, 0.031448f, -0.002494f, -0.259189f, 0.055746f, -0.139649f, 
-0.123368f, 0.136975f, 0.240943f, -0.131314f };
const float myModel_conv1_b[] = { 0.054086f, -0.231292f, 0.007400f, -0.123449f };
const float myModel_conv2_w[] = { -0.071130f, 0.010126f, -0.043090f, 0.202926f, 0.038298f, -0.105796f, -0.102157f, -0.118134f, 
-0.286734f, 0.097353f, 0.020071f, 0.008523f, 0.162693f, -0.117644f, -0.273668f, 0.205932f, 
-0.022105f, 0.103301f, 0.310871f, -0.151214f, -0.012570f, 0.219806f, 0.011644f, 0.218582f, 
-0.161440f, -0.017670f, -0.196182f, 0.256950f, 0.232393f, 0.216459f, -0.047444f, 0.071539f, 
0.251360f, -0.051665f, 0.008413f, 0.250325f, 0.188945f, 0.120552f, -0.166413f, 0.049481f, 
0.147340f, -0.144475f, -0.186254f, 0.151882f, -0.261909f, -0.011653f, 0.231229f, 0.244799f, 
-0.192447f, 0.198573f, -0.054376f, 0.088778f, -0.239630f, -0.127857f, -0.426185f, 0.179548f, 
0.092943f, -0.289793f, -0.234443f, -0.242863f, -0.249432f, -0.031882f, -0.207279f, -0.112771f, 
0.100252f, 0.285830f, 0.034667f, -0.108271f, 0.222414f, 0.130887f, -0.093261f, 0.019493f, 
-0.279603f, -0.103591f, -0.076969f, -0.246645f, 0.101399f, 0.226398f, 0.192965f, -0.102591f, 
0.032158f, -0.242545f, -0.128473f, 0.153409f, 0.139425f, -0.163352f, 0.062695f, 0.159650f, 
-0.148358f, 0.251443f, 0.045712f, 0.021376f, 0.173932f, 0.510866f, -0.015720f, 0.511460f, 
0.144577f, 0.076040f, 0.419888f, 0.041727f, 0.285099f, 0.445416f, -0.000071f, -0.032541f, 
0.415834f, 0.187237f, -0.027761f, 0.221099f, -0.113929f, -0.173535f, 0.064367f, 0.237224f, 
-0.015103f, -0.142053f, 0.010203f, 0.049799f, 0.054448f, 0.250948f, 0.009388f, -0.166477f, 
-0.065485f, 0.044867f, -0.169236f, -0.174474f, -0.034417f, -0.209548f, -0.087103f, 0.008367f, 
-0.169725f, 0.244439f, -0.145873f, -0.203811f, 0.047807f, -0.130060f, 0.153312f, -0.197754f, 
-0.019515f, -0.044455f, 0.062244f, -0.067963f, 0.003995f, 0.034110f, -0.101452f, 0.258636f, 
0.050675f, -0.169465f, 0.032723f, 0.046203f, -0.202444f, -0.119430f, 0.238934f, -0.086562f, 
-0.072989f, 0.112062f, 0.216891f, -0.027993f, -0.052077f, -0.038486f, -0.001887f, 0.083070f, 
-0.097317f, -0.141115f, 0.448802f, 0.451782f, 0.401738f, 0.531570f, 0.452107f, 0.486343f, 
0.302942f, 0.425968f, -0.033152f, -0.020021f, -0.099925f, -0.135176f, -0.169285f, 0.246288f, 
0.028103f, 0.220813f, 0.072710f, 0.003790f, 0.208155f, 0.103366f, 0.230368f, -0.168277f, 
-0.078255f, -0.099615f, 0.025379f, -0.204405f, 0.112727f, 0.080692f, -0.077084f, -0.163290f, 
0.112977f, 0.178271f, -0.123487f, 0.181246f, -0.125644f, -0.096612f, 0.534730f, 0.765107f, 
0.507255f, 0.362449f, 0.664239f, 0.601174f, 0.560087f, 0.658313f, 0.701223f, 0.190880f, 
0.087498f, 0.014576f, 0.080454f, -0.140541f, 0.067467f, -0.177437f, -0.042421f, 0.087380f, 
0.213400f, -0.200695f, -0.177156f, 0.214797f, -0.142460f, -0.150257f, 0.215851f, 0.279465f, 
-0.155376f, 0.206725f, -0.230255f, -0.153067f, 0.031864f, -0.045288f, -0.061630f, 0.052420f, 
0.122760f, 0.097557f, 0.484000f, 0.651195f, -0.031580f, 0.433573f, 0.778173f, 0.108530f, 
0.784286f, 0.649911f, 0.600556f, -0.100147f, 0.128297f, 0.038713f, 0.014231f, 0.059395f, 
-0.175715f, -0.121047f, -0.178750f, -0.063702f, -0.192746f, 0.102504f, 0.068646f, 0.232313f, 
-0.212491f, -0.134886f, 0.239291f, 0.041754f, 0.147229f, 0.167911f, -0.175593f, 0.200539f, 
-0.130563f, 0.028710f, -0.190470f, -0.140180f, 0.026765f, 0.113957f, 0.096412f, 0.135623f, 
0.149288f, 0.372825f, 0.328850f, 0.057928f, 0.020034f, 0.023688f, 0.501378f, -0.118173f, 
0.164394f, 0.045153f, 0.017493f, -0.074726f, 0.246536f, -0.200591f, 0.212308f, 0.116779f
 };
const float myModel_conv2_b[] = { -0.126536f, -0.145321f, -0.086605f, 0.082705f, -0.009062f, -0.011111f, 0.041118f, 0.177718f
 };
const float myModel_output_w[] = { 0.052436f, 0.016625f, 0.035954f, 0.023118f, 0.006556f, 0.014690f, 0.016716f, 0.020010f, 
0.010192f, 0.010468f, -0.006101f, -0.004634f, -0.023115f, -0.024026f, -0.016514f, -0.023371f, 
-0.010309f, -0.037894f, -0.012344f, -0.018819f, -0.033649f, -0.013798f, -0.015655f, -0.014583f, 
-0.024901f, -0.045228f, -0.023840f, -0.013368f, -0.019385f, 0.016394f, 0.010612f, 0.010124f, 
0.022889f, 0.004016f, 0.021317f, 0.009295f, 0.031050f, 0.018169f, -0.001725f, 0.010461f, 
0.005196f, 0.004189f, -0.027796f, -0.013277f, -0.019607f, -0.010620f, -0.012580f, -0.019803f, 
-0.011780f, -0.038896f, -0.026569f, -0.014399f, -0.019784f, -0.024039f, -0.022603f, -0.026201f, 
-0.022446f, -0.008403f, 0.014277f, 0.037756f, 0.018224f, 0.024233f, 0.008459f, 0.022396f, 
0.000020f, 0.018959f, 0.015978f, -0.005355f, -0.007482f, 0.010128f, -0.024092f, -0.025866f, 
-0.015724f, -0.007216f, -0.024141f, -0.019317f, -0.011348f, -0.027408f, -0.012070f, -0.010083f, 
-0.024121f, -0.027377f, 0.001015f, -0.002765f, -0.033238f, -0.035550f, -0.002786f, 0.013675f, 
0.033637f, 0.032306f, 0.013095f, -0.003233f, 0.004465f, 0.015606f, 0.009720f, 0.010675f, 
0.009145f, 0.017080f, -0.000861f, -0.017585f, 0.005582f, -0.003227f, -0.009589f, 0.005651f, 
-0.011856f, -0.025552f, -0.015162f, -0.018142f, -0.010101f, -0.007840f, -0.024684f, 0.001944f, 
-0.008022f, -0.012978f, -0.025601f, -0.019691f, -0.003689f, 0.034784f, 0.016668f, 0.003129f, 
0.015301f, 0.017054f, 0.008364f, 0.022253f, 0.010945f, 0.014333f, -0.004482f, -0.012596f, 
0.011464f, 0.008574f, 0.005931f, -0.003473f, -0.000238f, -0.004050f, -0.020520f, -0.004734f, 
-0.005487f, -0.024275f, -0.010561f, -0.022577f, 0.000114f, 0.003644f, -0.004399f, -0.026376f, 
-0.017773f, 0.024701f, 0.029777f, 0.020920f, 0.021535f, 0.015121f, -0.001301f, -0.007146f, 
0.016185f, 0.025439f, 0.024259f, 0.025042f, -0.005061f, -0.010915f, 0.008582f, -0.011908f, 
-0.011274f, 0.006003f, 0.002048f, -0.006106f, -0.005751f, -0.010497f, -0.011679f, 0.004241f, 
-0.005806f, -0.006064f, -0.014038f, -0.013703f, -0.010151f, -0.027936f, 0.008392f, 0.002706f, 
0.030357f, 0.031389f, 0.025513f, 0.013622f, 0.027199f, 0.013673f, 0.009033f, -0.003277f, 
-0.004501f, 0.025723f, -0.004453f, 0.011542f, -0.001631f, -0.009892f, 0.009221f, -0.007317f, 
-0.013865f, -0.022258f, 0.003570f, 0.001104f, -0.011992f, -0.007935f, -0.006668f, -0.005528f, 
-0.012558f, -0.007439f, -0.006145f, 0.010003f, 0.016685f, 0.001473f, 0.000054f, 0.012626f, 
0.006351f, 0.027026f, 0.014873f, 0.018516f, 0.030974f, 0.005328f, 0.017379f, 0.012253f, 
-0.015787f, -0.009367f, -0.016147f, -0.005056f, -0.014538f, -0.006879f, -0.014180f, -0.001619f, 
-0.015549f, -0.007441f, -0.014457f, -0.013594f, 0.006283f, -0.004535f, -0.021104f, -0.028832f, 
0.014061f, 0.005954f, 0.002156f, 0.005692f, 0.033402f, 0.002534f, 0.019344f, 0.025660f, 
0.012289f, 0.012303f, 0.040199f, 0.020279f, -0.004148f, 0.019474f, -0.003133f, 0.013431f, 
-0.022913f, -0.019074f, -0.020435f, -0.017649f, -0.008726f, -0.023091f, 0.008998f, 0.002918f, 
-0.024501f, 0.000490f, -0.025304f, -0.024548f, -0.020943f, 0.008389f, 0.007780f, -0.004968f, 
0.004855f, 0.015839f, 0.012532f, 0.013325f, 0.018747f, -0.000785f, 0.020505f, 0.020997f, 
0.015736f, 0.018199f, 0.003927f, 0.007216f, -0.010874f, -0.002335f, -0.007939f, 0.012819f, 
0.005957f, 0.008724f, -0.013763f, -0.016397f, 0.007595f, -0.009853f, -0.008097f, -0.017001f, 
-0.014192f, -0.039432f, -0.012210f, 0.003527f, 0.002125f, 0.018907f, 0.035747f, 0.030508f, 
0.012000f, 0.014916f, 0.013933f, 0.025321f, 0.037423f, 0.000176f, 0.018104f, -0.002803f, 
0.016375f, 0.004814f, 0.008850f, -0.012869f, 0.008406f, 0.004129f, -0.013869f, -0.024352f, 
0.012426f, 0.002435f, 0.007200f, -0.025650f, -0.001370f, -0.009661f, -0.024815f, 0.008122f, 
0.014665f, 0.027650f, 0.007329f, 0.021235f, 0.018413f, 0.009740f, 0.029219f, 0.004548f, 
0.023060f, 0.035513f, 0.015344f, 0.015770f, 0.013004f, 0.011734f, 0.013502f, 0.015358f, 
0.017596f, 0.006209f, 0.000373f, -0.000041f, 0.000173f, 0.001396f, 0.002619f, -0.014106f, 
0.013103f, -0.012553f, 0.000512f, -0.014209f, -0.012319f, 0.010964f, 0.027837f, 0.022699f, 
0.008591f, 0.031108f, 0.007517f, 0.023073f, 0.024125f, 0.035820f, 0.017179f, 0.022162f, 
0.023238f, 0.002217f, -0.001923f, -0.005868f, -0.007673f, -0.001194f, 0.007217f, -0.004587f, 
-0.000784f, -0.009322f, -0.004603f, 0.023040f, -0.004200f, 0.006468f, -0.005793f, -0.012655f, 
-0.032161f, 0.010154f, 0.002359f, 0.005227f, 0.017178f, 0.023413f, 0.015311f, 0.009766f, 
0.005703f, 0.020646f, 0.006341f, 0.044883f, 0.038701f, 0.007808f, 0.022988f, 0.011830f, 
0.002909f, -0.006893f, -0.015314f, -0.003859f, -0.001679f, -0.017712f, 0.016656f, 0.009184f, 
0.008653f, 0.019479f, 0.006806f, -0.001939f, -0.008098f, -0.018947f, -0.003811f, -0.000806f, 
0.020727f, -0.001176f, 0.003573f, 0.017180f, 0.021275f, 0.030075f, 0.024486f, 0.036994f, 
0.037263f, 0.040707f, 0.021570f, 0.010000f, -0.003623f, -0.014091f, -0.015165f, -0.004028f, 
0.010108f, -0.010823f, 0.000327f, -0.003401f, 0.015639f, -0.001443f, 0.011535f, -0.014784f, 
-0.029311f, -0.002003f, -0.014295f, -0.012213f, 0.013167f, -0.002277f, 0.009223f, 0.006645f, 
0.025093f, 0.016703f, 0.006579f, 0.020657f, 0.049531f, 0.050330f, 0.018696f, 0.038912f, 
0.023869f, 0.020478f, -0.005768f, -0.018247f, 0.003275f, -0.009832f, -0.015372f, -0.009149f, 
-0.011393f, -0.004733f, 0.001289f, 0.000000f, 0.005696f, -0.029493f, -0.013131f, -0.011701f, 
0.015255f, -0.000933f, -0.002368f, 0.002857f, 0.004556f, 0.016316f, 0.027755f, 0.030028f, 
0.036594f, 0.022696f, 0.027677f, 0.036514f, 0.020783f, 0.021802f, 0.026244f, 0.011056f, 
0.012103f, -0.017624f, -0.004913f, -0.013946f, -0.016008f, -0.015362f, -0.020136f, 0.004314f, 
-0.004366f, 0.001428f, -0.005399f, -0.018281f, -0.005050f, 0.008637f, 0.002184f, 0.005264f, 
-0.004281f, 0.028632f, 0.030709f, 0.011869f, 0.019998f, 0.028885f, 0.006430f, 0.031827f, 
0.029112f, 0.034964f, 0.032922f, 0.015998f, 0.004754f, -0.014914f, -0.004117f, 0.005511f, 
-0.014777f, 0.002961f, 0.005574f, -0.010706f, 0.008221f, -0.024396f, -0.013747f, -0.011920f, 
-0.021137f, 0.005349f, -0.019505f, 0.005986f, -0.015024f, 0.020695f, 0.011610f, 0.005960f, 
0.002239f, 0.017877f, 0.005468f, 0.041613f, 0.021532f, 0.034977f, 0.015214f, 0.015736f, 
0.000048f, 0.021226f, 0.002550f, -0.010705f, 0.002893f, -0.000752f, -0.017312f, -0.018277f, 
-0.024836f, -0.003812f, -0.010970f, -0.019306f, -0.021572f, -0.024613f, 0.002399f, 0.002355f, 
-0.000815f, 0.006214f, -0.000059f, 0.005197f, 0.027169f, 0.000008f, 0.004738f, 0.019782f, 
0.037719f, 0.017035f, 0.043731f, 0.031861f, 0.027850f, 0.008948f, 0.017077f, 0.011950f, 
-0.002336f, -0.003061f, -0.018225f, -0.003040f, 0.002745f, -0.009173f, -0.022460f, -0.022658f, 
-0.017371f, -0.004453f, -0.006761f, -0.010491f, -0.015043f, -0.003271f, -0.000123f, -0.005080f, 
-0.010989f, 0.014098f, 0.015130f, 0.010937f, 0.028337f, 0.008792f, 0.026305f, 0.025930f, 
0.003225f, 0.030901f, 0.015031f, 0.003394f, -0.012196f, -0.004311f, -0.014588f, -0.004989f, 
-0.006287f, -0.022429f, -0.007854f, -0.027733f, -0.012895f, -0.024603f, -0.022171f, -0.002692f, 
-0.012519f, -0.019543f, 0.003309f, -0.014913f, 0.004388f, 0.011846f, 0.007302f, 0.008179f, 
0.021901f, 0.002435f, 0.009110f, 0.027966f, 0.000980f, 0.012221f, 0.026864f, 0.002907f, 
0.020593f, -0.004548f, 0.006321f, -0.020199f, -0.008204f, 0.006267f, -0.017232f, -0.009926f, 
-0.019518f, -0.012432f, -0.001255f, -0.005708f, -0.002377f, -0.016098f, -0.007830f, -0.010881f, 
-0.006636f, -0.011609f, 0.015655f, 0.000106f, 0.019030f, 0.010778f, 0.007921f, 0.015131f, 
0.024685f, -0.003039f, 0.015853f, -0.001387f, 0.017706f, 0.003981f, -0.022663f, -0.008052f, 
-0.002927f, -0.009500f, -0.015281f, -0.003770f, -0.021141f, -0.002421f, -0.019336f, 0.012887f, 
-0.003338f, -0.017559f, 0.005786f, -0.002553f, -0.016338f, -0.016784f, 0.003434f, 0.000519f, 
0.008601f, -0.004531f, 0.009708f, 0.009141f, 0.010501f, 0.019427f, -0.019283f, -0.007145f, 
0.021845f, 0.018039f, -0.015331f, -0.024710f, -0.001669f, -0.021162f, -0.017343f, -0.017078f, 
0.006042f, 0.012205f, 0.001432f, 0.012753f, 0.017366f, -0.000797f, 0.007217f, 0.002921f, 
-0.014877f, -0.025014f, -0.012090f, -0.012240f, -0.008564f, 0.010319f, -0.013809f, 0.001936f, 
-0.009888f, 0.004708f, -0.014293f, -0.010697f, 0.015592f, -0.010468f, 0.005187f, -0.003558f, 
-0.001875f, -0.030434f, 0.003844f, 0.002036f, -0.000106f, 0.002186f, 0.004677f, -0.001773f, 
0.021710f, 0.016469f, -0.004296f, 0.010989f, -0.016250f, -0.016906f, -0.006618f, -0.002699f, 
0.005112f, -0.004706f, 0.017362f, -0.003777f, -0.022082f, 0.003178f, -0.007826f, -0.004095f, 
-0.008975f, 0.006970f, 0.013553f, -0.009021f, -0.009362f, -0.004487f, -0.014489f, 0.003707f, 
-0.008457f, -0.000237f, 0.012358f, -0.016988f, -0.005252f, -0.002825f, 0.018055f, 0.009671f, 
0.009671f, -0.017700f, -0.012153f, 0.001393f, -0.006659f, 0.008863f, 0.017553f, -0.014147f, 
0.003280f, -0.010723f, -0.007499f, 0.002415f, 0.008945f, 0.010933f, 0.007366f, -0.005890f, 
-0.008681f, -0.006335f, -0.014954f, -0.025532f, -0.031392f, -0.011196f, 0.007993f, -0.018236f, 
-0.008166f, 0.007529f, 0.019005f, -0.003601f, 0.025292f, 0.004051f, -0.002812f, 0.000618f, 
-0.016309f, -0.002596f, 0.001075f, -0.017227f, 0.002831f, -0.017933f, -0.017960f, 0.011015f, 
-0.009661f, 0.003412f, 0.014780f, 0.003131f, 0.005521f, 0.014657f, -0.017414f, -0.016381f, 
-0.005120f, -0.003265f, 0.005068f, -0.006031f, 0.003399f, -0.003386f, 0.018423f, 0.016547f, 
0.017932f, 0.013907f, 0.013266f, -0.011671f, -0.000926f, 0.010826f, -0.012222f, -0.001569f, 
-0.008355f, 0.011500f, -0.017451f, -0.007377f, 0.001247f, 0.010045f, -0.003327f, -0.006663f, 
0.000273f, -0.009803f, -0.017769f, 0.003342f, -0.023555f, -0.023640f, -0.024661f, -0.026812f, 
-0.006714f, -0.014847f, 0.001471f, 0.008750f, 0.008708f, 0.012544f, -0.008154f, -0.011962f, 
0.007671f, 0.017344f, 0.043564f, 0.029352f, 0.028181f, 0.038636f, 0.013397f, 0.037217f, 
-0.001871f, 0.003310f, -0.019503f, -0.020311f, -0.000843f, -0.035879f, -0.027702f, -0.022076f, 
-0.014366f, -0.036529f, -0.033047f, -0.051002f, -0.047023f, -0.047579f, -0.045605f, -0.053239f, 
-0.031648f, -0.017964f, -0.009145f, -0.031059f, -0.037722f, -0.025151f, 0.036937f, 0.030440f, 
0.040598f, 0.043112f, 0.027580f, 0.035483f, -0.005640f, -0.001082f, -0.006081f, -0.042763f, 
-0.042471f, -0.032179f, -0.032667f, -0.037155f, -0.031973f, -0.018371f, -0.026870f, -0.025219f, 
-0.032395f, -0.047988f, -0.053749f, -0.042491f, -0.033436f, -0.028960f, -0.030709f, -0.003894f, 
-0.018403f, -0.017285f, -0.011197f, 0.057295f, 0.030748f, 0.041638f, 0.026033f, 0.013028f, 
0.007381f, -0.007920f, -0.017111f, -0.017871f, -0.021313f, -0.002974f, -0.029872f, -0.015720f, 
-0.029967f, -0.045610f, -0.042627f, -0.026394f, -0.032615f, -0.051078f, -0.043690f, -0.044483f, 
-0.025295f, -0.024366f, -0.035423f, -0.036662f, 0.001517f, -0.010833f, 0.001895f, -0.007340f, 
0.035602f, 0.033379f, 0.020238f, 0.014609f, 0.000128f, -0.000813f, 0.003469f, 0.004930f, 
-0.020141f, -0.011380f, -0.030417f, -0.017943f, -0.020641f, -0.040980f, -0.041353f, -0.045050f, 
-0.022114f, -0.038135f, -0.028845f, -0.021733f, -0.017105f, -0.013874f, -0.016350f, -0.005587f, 
-0.023112f, -0.029612f, -0.026290f, -0.007688f, -0.003072f, 0.025868f, 0.014753f, 0.003745f, 
0.014208f, 0.021931f, 0.031500f, -0.014184f, -0.000354f, -0.014897f, -0.030084f, -0.025606f, 
-0.023005f, -0.036596f, -0.008605f, -0.005933f, -0.008365f, -0.015675f, -0.021355f, -0.008103f, 
0.001943f, -0.012392f, -0.029763f, -0.010265f, -0.019050f, -0.018861f, -0.033500f, -0.015968f, 
-0.002359f, -0.026862f, 0.036619f, 0.002300f, 0.011048f, 0.025423f, 0.035971f, 0.027548f, 
0.015332f, 0.006065f, 0.010570f, -0.021209f, -0.012874f, -0.014806f, -0.007317f, -0.024177f, 
0.009713f, -0.016158f, -0.012668f, -0.016909f, 0.010673f, -0.011726f, 0.005394f, -0.002708f, 
-0.006173f, -0.020204f, 0.002797f, -0.013794f, -0.022455f, -0.007795f, -0.009258f, 0.036996f, 
0.014707f, 0.019219f, 0.013824f, 0.023785f, 0.036106f, 0.007313f, 0.036813f, 0.007998f, 
0.002027f, -0.000957f, 0.016935f, 0.019004f, -0.004686f, -0.009183f, 0.009059f, -0.014912f, 
0.010244f, -0.013932f, 0.006167f, 0.004395f, -0.011164f, 0.011279f, 0.005793f, -0.001830f, 
-0.024277f, -0.032483f, -0.018148f, -0.030665f, 0.021030f, 0.000520f, 0.009816f, 0.000661f, 
0.004790f, 0.030588f, 0.015710f, 0.030131f, 0.018522f, -0.002166f, 0.011471f, -0.015495f, 
0.011421f, -0.007634f, 0.018005f, -0.020010f, 0.003710f, -0.004944f, -0.004744f, -0.019224f, 
0.016791f, 0.022645f, 0.009802f, -0.003372f, -0.019527f, -0.010638f, -0.033174f, -0.018246f, 
-0.005132f, 0.035583f, -0.000623f, 0.018445f, 0.021376f, 0.014071f, 0.028702f, 0.016474f, 
0.016893f, -0.005640f, 0.009318f, 0.023044f, -0.015424f, -0.019237f, -0.021250f, -0.022734f, 
-0.023485f, -0.019390f, -0.018688f, 0.006460f, -0.007089f, 0.005444f, -0.003988f, -0.009104f, 
-0.011689f, -0.007947f, -0.022605f, -0.020807f, -0.032835f, -0.020491f, 0.008701f, -0.000570f, 
0.012208f, 0.004983f, 0.017161f, 0.009574f, 0.034121f, 0.006175f, -0.005818f, 0.035445f, 
-0.004460f, 0.006761f, -0.015044f, -0.008327f, -0.013005f, -0.040203f, -0.013043f, 0.002900f, 
0.001271f, -0.008717f, -0.013226f, -0.021035f, -0.036191f, -0.011958f, -0.015561f, -0.016551f, 
-0.023667f, -0.036218f, -0.015319f, 0.016140f, 0.023530f, 0.017949f, 0.038107f, 0.033689f, 
-0.002287f, 0.033030f, 0.029613f, 0.023141f, 0.001931f, -0.008529f, 0.011197f, 0.003656f, 
-0.005066f, -0.031132f, -0.039037f, -0.019772f, 0.003979f, -0.015854f, -0.016032f, -0.011826f, 
-0.004017f, -0.021802f, -0.027088f, -0.035371f, -0.019316f, -0.034633f, -0.004653f, -0.018954f, 
0.029267f, 0.013529f, 0.029596f, 0.024098f, 0.024872f, 0.020986f, 0.032139f, 0.019805f, 
0.036144f, 0.027724f, 0.023003f, 0.006594f, -0.011301f, -0.024434f, -0.013862f, -0.006234f, 
-0.002416f, -0.015530f, 0.006768f, -0.019837f, -0.005440f, -0.010766f, -0.016244f, 0.004138f, 
-0.035051f, -0.031498f, -0.028988f, -0.043351f, -0.034334f, 0.037736f, 0.024218f, 0.008110f, 
0.007177f, 0.027193f, 0.013050f, 0.021505f, 0.019092f, -0.002626f, 0.009439f, 0.023527f, 
0.004328f, 0.019353f, 0.004756f, 0.021859f, 0.005777f, 0.005039f, -0.018807f, -0.018228f, 
-0.008947f, 0.015858f, 0.002587f, -0.011039f, 0.014029f, -0.009256f, -0.028764f, -0.018138f, 
-0.025723f, -0.032304f, 0.036301f, 0.002696f, 0.018406f, 0.004151f, -0.006330f, 0.009523f, 
-0.007216f, 0.027670f, 0.028849f, 0.000926f, 0.011412f, 0.019262f, 0.031741f, 0.013074f, 
0.012604f, 0.003922f, 0.018680f, -0.006799f, -0.009581f, -0.014700f, -0.001633f, -0.008088f, 
-0.005352f, 0.012944f, -0.018177f, -0.011807f, -0.017302f, -0.024967f, -0.027425f, 0.034755f, 
0.016555f, 0.016629f, 0.001222f, 0.028965f, 0.022909f, 0.024186f, 0.028714f, 0.026661f, 
0.026030f, 0.039224f, 0.022799f, 0.001560f, 0.022330f, 0.027997f, 0.013119f, 0.020071f, 
0.022550f, 0.017941f, 0.036052f, 0.030807f, 0.024991f, 0.015084f, 0.026853f, 0.005572f, 
-0.019632f, 0.002727f, -0.008839f, -0.041693f, 0.037341f, 0.014044f, 0.018244f, 0.025307f, 
0.030582f, 0.021147f, 0.017833f, 0.022519f, 0.019608f, 0.021683f, 0.026907f, 0.027199f, 
0.013818f, 0.006201f, -0.004783f, 0.011987f, -0.004601f, 0.008282f, 0.010926f, 0.018058f, 
0.031689f, 0.022486f, 0.023182f, 0.018676f, 0.021602f, 0.008877f, 0.010814f, -0.009520f, 
-0.041093f, 0.035374f, 0.013797f, 0.013152f, 0.013207f, 0.019303f, 0.013879f, 0.031773f, 
0.010719f, 0.024959f, 0.002923f, -0.002829f, 0.009893f, 0.012127f, 0.016707f, -0.008805f, 
0.007760f, 0.015252f, -0.010984f, -0.003251f, -0.010962f, 0.012163f, 0.024428f, 0.016578f, 
-0.003051f, -0.016327f, -0.021909f, -0.012882f, -0.015473f, -0.025112f, 0.008877f, 0.002040f, 
0.010678f, 0.018431f, 0.026034f, 0.038625f, 0.037956f, 0.040699f, 0.041201f, 0.017652f, 
0.035074f, 0.011810f, 0.005349f, -0.013868f, 0.003536f, -0.003029f, -0.017096f, -0.021438f, 
-0.006897f, 0.005711f, -0.013793f, -0.000917f, 0.012434f, -0.001082f, -0.022337f, -0.021537f, 
-0.027130f, -0.019127f, -0.020240f, 0.001728f, 0.003547f, 0.011069f, 0.014978f, 0.020353f, 
0.020325f, 0.031350f, 0.030984f, 0.055432f, 0.055232f, 0.039618f, 0.012730f, -0.003595f, 
0.015247f, -0.006801f, -0.015882f, -0.017353f, -0.025862f, -0.004957f, 0.009689f, -0.023571f, 
-0.011610f, -0.010370f, -0.006526f, -0.014201f, -0.002555f, -0.005665f, 0.008034f, 0.007885f, 
0.002155f, 0.006774f, 0.034160f, 0.016268f, 0.014876f, 0.019296f, 0.034071f, 0.027975f, 
0.050951f, 0.041878f, 0.032016f, 0.035903f, 0.008380f, -0.005811f, 0.000418f, 0.013467f, 
-0.005674f, 0.015165f, -0.007013f, -0.001335f, -0.005947f, 0.003631f, -0.008567f, -0.019945f, 
-0.000678f, 0.003831f, -0.005359f, -0.008089f, -0.010980f, 0.015629f, -0.003633f, 0.026517f, 
0.018071f, 0.023077f, 0.016956f, 0.020688f, 0.036354f, 0.048183f, 0.025259f, 0.022334f, 
0.026744f, 0.010451f, 0.004979f, 0.009553f, 0.006544f, 0.002336f, 0.005553f, -0.021140f, 
-0.018859f, -0.023699f, -0.024124f, -0.019068f, -0.028644f, -0.027715f, -0.043122f, -0.044686f, 
-0.048021f, -0.045519f, -0.003844f, 0.019268f, 0.010627f, 0.024705f, 0.042081f, 0.041108f, 
0.032942f, 0.030313f, 0.044728f, 0.031663f, 0.047371f, 0.017893f, 0.035773f, 0.020500f, 
0.031774f, -0.017742f, -0.025525f, -0.022873f, -0.026484f, -0.023543f, -0.019487f, -0.026681f, 
-0.057811f, -0.038042f, -0.009262f, -0.024311f, -0.017796f, -0.011102f, -0.014767f, 0.005113f, 
0.028515f, 0.023790f, 0.029087f, 0.034419f, 0.035464f, 0.037311f, 0.028982f, 0.047490f, 
0.044114f, 0.047523f, 0.011449f, 0.000377f, 0.014970f, 0.026923f, -0.006662f, 0.003003f, 
-0.029526f, -0.032938f, -0.009573f, -0.039171f, -0.026646f, -0.028090f, -0.043676f, -0.007470f, 
0.006943f, -0.020290f, -0.031694f, -0.008963f, -0.015337f, -0.010230f, 0.003333f, -0.011169f, 
0.023930f, 0.004185f, 0.034395f, 0.026680f, 0.035598f, 0.039782f, 0.020416f, 0.019378f, 
0.009600f, 0.002999f, -0.013859f, -0.010524f, 0.002087f, -0.001063f, -0.010524f, 0.003547f, 
-0.028129f, -0.005644f, -0.021943f, -0.008514f, -0.009866f, -0.004615f, -0.017122f, -0.007154f, 
-0.021439f, -0.010359f, -0.019004f, -0.014106f, -0.018518f, -0.006113f, 0.024022f, -0.007657f, 
-0.009652f, 0.017334f, -0.022325f, -0.030015f, -0.021055f, -0.014017f, 0.010903f, -0.015018f, 
-0.000305f, 0.009464f, -0.021197f, 0.004998f, 0.016202f, 0.018020f, 0.004813f, 0.000273f, 
0.004853f, 0.010761f, -0.008823f, 0.004486f, 0.002661f, -0.018519f, -0.003752f, -0.010817f, 
-0.010337f, -0.004112f, 0.024338f, 0.023095f, 0.013353f, -0.012646f, -0.007907f, -0.006092f, 
-0.002798f, -0.002876f, -0.000633f, -0.006862f, -0.011078f, 0.012188f, 0.011992f, -0.004568f, 
-0.001783f, 0.000379f, 0.003819f, -0.003441f, 0.005502f, -0.018850f, -0.015741f, -0.003846f, 
0.009054f, -0.021485f, 0.006073f, -0.007879f, -0.019635f, 0.015427f, -0.011730f, -0.015899f, 
0.005376f, -0.021416f, 0.010846f, -0.006620f, -0.012467f, 0.005179f, 0.025543f, 0.003404f, 
0.010463f, -0.001502f, -0.014555f, -0.001511f, -0.026840f, -0.029219f, 0.000287f, 0.004685f, 
0.004189f, 0.015419f, -0.009905f, -0.000430f, -0.006585f, -0.007382f, -0.001584f, 0.019213f, 
-0.017172f, -0.007876f, -0.018745f, -0.015757f, -0.006398f, -0.013199f, -0.012748f, -0.023375f, 
-0.006253f, 0.021541f, 0.006504f, 0.011074f, -0.018174f, -0.002187f, -0.016505f, -0.014959f, 
-0.019158f, -0.018621f, -0.016833f, -0.023398f, -0.018219f, -0.022434f, -0.002814f, 0.004258f, 
0.010748f, 0.034530f, 0.001240f, -0.001350f, 0.025169f, 0.002169f, -0.019739f, 0.002780f, 
-0.034831f, -0.022548f, -0.004094f, -0.016980f, -0.012683f, 0.010420f, 0.002681f, -0.002269f, 
0.005573f, -0.033569f, -0.022208f, -0.043378f, -0.020234f, -0.029482f, -0.028321f, -0.013681f, 
-0.017011f, 0.012214f, 0.013667f, 0.022109f, 0.010015f, 0.004456f, -0.002175f, 0.018647f, 
0.004716f, 0.018990f, -0.015810f, -0.002918f, -0.018503f, -0.012914f, -0.012810f, 0.011578f, 
-0.034478f, -0.027487f, -0.030232f, -0.037438f, -0.014397f, -0.061993f, -0.048496f, -0.061231f, 
-0.013435f, -0.025333f, -0.048464f, -0.019905f, 0.004277f, -0.010015f, -0.005530f, 0.039332f, 
0.023818f, 0.019582f, -0.002147f, -0.000542f, -0.016095f, -0.074316f, -0.008373f, -0.009424f, 
0.008576f, -0.010070f, -0.043578f, -0.045072f, -0.001680f, -0.036652f, -0.042481f, -0.017266f, 
-0.004121f, 0.012336f, 0.002340f, -0.030320f, -0.022120f, 0.015002f, 0.031835f, -0.011216f, 
0.002351f, 0.016157f, 0.012673f, 0.014200f, 0.004456f, 0.023911f, 0.004367f, 0.020714f, 
0.022728f, -0.005556f, -0.095890f, -0.082951f, -0.024135f, -0.038955f, -0.017030f, -0.033515f, 
-0.027086f, 0.015454f, -0.003403f, -0.019374f, 0.002939f, -0.002861f, -0.011939f, -0.027726f, 
-0.007942f, -0.002736f, -0.006714f, 0.025910f, 0.021430f, 0.005726f, 0.003903f, 0.019810f, 
0.024582f, 0.005879f, -0.020113f, -0.040568f, 0.005615f, -0.015000f, -0.002200f, -0.070770f, 
-0.079839f, -0.046815f, -0.044989f, -0.021215f, -0.012515f, -0.008237f, 0.019555f, 0.022743f, 
0.007465f, 0.019645f, 0.021690f, -0.012409f, 0.002196f, -0.017057f, 0.029154f, 0.008246f, 
0.047932f, 0.017409f, 0.034347f, 0.037943f, 0.020348f, 0.022625f, 0.022824f, 0.022664f, 
-0.022179f, -0.052770f, -0.033551f, -0.006994f, -0.032961f, -0.084566f, -0.050849f, -0.047267f, 
-0.018486f, -0.004462f, 0.004986f, 0.009412f, 0.025628f, 0.004869f, 0.022867f, 0.020905f, 
0.037074f, 0.018845f, 0.001718f, 0.056735f, 0.007406f, 0.024229f, 0.012160f, 0.055629f, 
0.027563f, 0.031411f, 0.011597f, -0.024196f, 0.023562f, -0.015035f, -0.046352f, -0.056567f, 
-0.015917f, -0.011598f, -0.058450f, -0.018742f, -0.036722f, -0.014291f, 0.010844f, 0.006834f, 
0.007755f, 0.013763f, 0.003094f, 0.003313f, 0.026250f, 0.016224f, -0.007300f, -0.030857f, 
0.020758f, -0.011306f, 0.032652f, 0.007397f, -0.009102f, 0.019173f, 0.013324f, -0.003216f, 
-0.015299f, -0.020309f, -0.007147f, -0.016101f, -0.084704f, -0.011268f, -0.022733f, -0.069557f, 
0.021306f, -0.023561f, -0.004244f, 0.014293f, 0.030651f, 0.019331f, 0.034366f, -0.005084f, 
0.009607f, 0.047930f, -0.021017f, 0.002085f, -0.024070f, -0.025252f, -0.017277f, -0.010930f, 
0.011665f, -0.010039f, 0.007974f, 0.000228f, 0.021766f, -0.011282f, -0.036039f, -0.003846f, 
-0.028112f, -0.080532f, -0.058175f, -0.033042f, -0.052640f, 0.003595f, 0.008939f, -0.019516f, 
0.005152f, 0.002372f, 0.034123f, 0.027022f, 0.008965f, 0.028545f, 0.036871f, -0.026092f, 
-0.036399f, -0.036204f, 0.011952f, 0.002128f, -0.002780f, 0.007478f, 0.010680f, -0.014233f, 
0.028795f, 0.030719f, 0.002454f, -0.014432f, -0.057508f, -0.029777f, -0.052153f, -0.080583f, 
-0.038651f, -0.045414f, -0.010387f, 0.012960f, -0.015891f, 0.017626f, 0.026276f, 0.027580f, 
0.029196f, 0.006023f, 0.033419f, 0.010886f, 0.012485f, -0.025687f, -0.005543f, 0.026094f, 
0.012248f, 0.003862f, 0.029349f, 0.018442f, 0.009959f, 0.016211f, 0.012114f, 0.011963f, 
-0.000608f, -0.047528f, -0.039839f, -0.051701f, -0.068991f, -0.009729f, -0.029101f, -0.011798f, 
0.006749f, 0.023864f, 0.021308f, 0.011249f, 0.024214f, 0.047128f, 0.060696f, 0.011420f, 
0.034156f, 0.006347f, -0.002652f, -0.014140f, -0.001057f, 0.026542f, 0.036394f, 0.052280f, 
0.029511f, -0.003436f, 0.024299f, 0.033209f, 0.022154f, 0.028368f, 0.022654f, -0.009355f, 
-0.027139f, -0.019234f, -0.025343f, -0.027768f, 0.013962f, 0.030556f, 0.036617f, 0.019618f, 
0.017648f, 0.037973f, 0.032246f, 0.060706f, 0.018481f, -0.003186f, -0.002867f, 0.026700f, 
0.018434f, 0.012010f, 0.024772f, 0.033264f, 0.024897f, 0.037496f, 0.032267f, 0.019348f, 
0.065377f, 0.015135f, 0.042183f, 0.028058f, -0.012469f, -0.009144f, -0.030815f, -0.034394f, 
-0.044952f, 0.023413f, 0.010386f, 0.028673f, -0.003616f, -0.000578f, 0.025450f, 0.032439f, 
0.063868f, 0.024508f, -0.005134f, 0.000581f, 0.004865f, -0.010675f, 0.018220f, 0.012456f, 
0.044185f, 0.034812f, 0.025435f, 0.006024f, 0.023879f, 0.031384f, 0.058715f, -0.003308f, 
-0.020046f, -0.027455f, -0.025673f, -0.024745f, -0.026261f, -0.046160f, 0.027196f, -0.013103f, 
0.003992f, 0.041498f, 0.008797f, 0.048994f, 0.071236f, 0.073866f, 0.070494f, 0.048104f, 
0.021557f, -0.002314f, -0.031093f, -0.003178f, -0.003873f, 0.002906f, 0.009335f, 0.010706f, 
0.030173f, 0.050935f, 0.047175f, 0.044786f, -0.011477f, -0.024765f, -0.004911f, -0.037763f, 
-0.021878f, -0.018377f, -0.035419f, 0.005263f, -0.002371f, 0.004994f, 0.048621f, 0.057657f, 
0.066965f, 0.081495f, 0.093890f, 0.062757f, 0.016711f, 0.022944f, 0.006425f, -0.005665f, 
-0.009929f, -0.027281f, -0.021078f, -0.022556f, -0.011673f, -0.007728f, 0.049351f, 0.020749f, 
0.006836f, 0.003832f, -0.037342f, -0.023461f, -0.010165f, -0.021084f, -0.026742f, -0.020912f, 
0.011669f, 0.031722f, 0.038999f, 0.040606f, 0.041844f, 0.071901f, 0.054508f, 0.074020f, 
0.078193f, 0.015621f, -0.005460f, -0.014064f, -0.020460f, -0.019391f, -0.002871f, -0.011705f, 
-0.033141f, -0.021222f, -0.038888f, -0.021339f, -0.000036f, -0.019935f, -0.049670f, -0.054993f, 
-0.052993f, -0.026547f, -0.036875f, -0.031501f, -0.043805f, 0.001380f, 0.023206f, 0.009880f, 
0.034922f, 0.040731f, 0.053254f, 0.058462f, 0.064921f, 0.072741f, 0.051430f, 0.005365f, 
-0.037946f, -0.001701f, -0.028778f, -0.015509f, 0.006866f, -0.025314f, -0.034801f, -0.012960f, 
-0.045500f, -0.019170f, -0.022508f, -0.058817f, -0.087481f, -0.059612f, -0.031290f, -0.016736f, 
-0.047027f, -0.039245f, 0.034636f, 0.038876f, 0.046354f, 0.028054f, 0.027469f, 0.068257f, 
0.061925f, 0.034980f, 0.041358f, 0.048930f, 0.010616f, 0.005402f, -0.009405f, -0.030997f, 
-0.008636f, 0.002038f, -0.011776f, -0.077602f, -0.034514f, -0.034002f, 0.017761f, -0.011194f, 
-0.043006f, -0.071126f, -0.023443f, -0.007905f, 0.015651f, 0.000665f, -0.018024f, 0.015807f, 
0.051241f, 0.058555f, 0.042128f, 0.036280f, 0.042761f, 0.042669f, 0.047609f, 0.024291f, 
0.035164f, -0.043581f, -0.043122f, -0.015281f, -0.012135f, -0.038229f, -0.023433f, -0.000812f, 
-0.028129f, -0.017237f, -0.035737f, -0.020053f, 0.006803f, -0.021317f, -0.066532f, 0.008999f, 
-0.003594f, 0.002290f, 0.006781f, -0.019952f, 0.037620f, 0.023650f, 0.036092f, 0.026685f, 
0.016647f, 0.052941f, 0.025731f, 0.021108f, 0.011473f, 0.047750f, -0.018988f, -0.045184f, 
-0.054708f, -0.016346f, -0.037227f, -0.070546f, -0.018819f, -0.050228f, -0.049967f, -0.036766f, 
-0.029070f, -0.020228f, 0.003665f, -0.040599f, -0.001581f, -0.008418f, -0.039015f, -0.053617f, 
-0.075971f, 0.018460f, 0.028886f, 0.039029f, 0.041082f, 0.002426f, 0.028106f, 0.034033f, 
0.024938f, 0.004002f, 0.040168f, -0.026266f, -0.041825f, -0.024515f, -0.022635f, -0.016127f, 
-0.050548f, -0.050492f, -0.039745f, -0.075624f, -0.021962f, -0.033598f, -0.028619f, -0.012772f, 
-0.007399f, -0.026803f, 0.003432f, -0.042999f, -0.058031f, -0.086660f, 0.001021f, 0.032980f, 
0.023018f, 0.039982f, -0.005256f, 0.006343f, 0.026717f, 0.046545f, 0.017796f, 0.024411f, 
-0.020518f, -0.034528f, -0.037241f, -0.062062f, -0.059690f, -0.066049f, -0.052369f, 0.002383f, 
-0.054326f, -0.049006f, -0.018083f, -0.034398f, 0.025617f, 0.068505f, 0.030611f, 0.031978f, 
0.010245f, -0.011322f, -0.000122f, -0.009920f, 0.005677f, -0.016948f, 0.019783f, -0.010986f, 
-0.027870f, 0.016947f, 0.000400f, 0.030941f, -0.010170f, -0.000884f, -0.021838f, -0.060492f, 
-0.057513f, -0.042742f, -0.062594f, -0.059867f, 0.008261f, -0.000213f, -0.029663f, -0.001344f, 
-0.015824f, 0.038173f, 0.049657f, 0.012123f, -0.006516f, 0.012499f, -0.011162f, -0.022583f, 
-0.019639f, -0.028962f, -0.018868f, -0.003107f, -0.004040f, 0.003922f, -0.018495f, -0.002563f, 
-0.017236f, -0.031294f, -0.015750f, -0.042155f, -0.064301f, -0.074989f, -0.067795f, -0.020203f, 
-0.022838f, -0.012968f, 0.009525f, 0.010131f, 0.005764f, 0.040929f, 0.043143f, 0.084751f, 
0.046242f, -0.004121f, 0.003057f, -0.065437f, -0.047145f, -0.022611f, 0.001982f, 0.003566f, 
0.003591f, 0.017687f, -0.015120f, -0.001302f, -0.033532f, 0.000898f, -0.045140f, -0.015732f, 
-0.009980f, -0.071912f, -0.041945f, -0.057597f, -0.023558f, -0.003290f, -0.012458f, 0.039732f, 
-0.003081f, 0.025586f, 0.034069f, 0.020194f, 0.008075f, 0.018236f, 0.012227f, -0.016138f, 
-0.070197f, -0.046312f, -0.016374f, 0.022177f, 0.015747f, 0.011712f, -0.003411f, 0.005426f, 
0.030941f, -0.020044f, 0.007681f, 0.015653f, 0.034046f, 0.009813f, -0.032145f, -0.063604f, 
-0.050815f, -0.015223f, 0.015958f, -0.009186f, 0.023238f, -0.012001f, 0.010733f, 0.005427f, 
-0.018859f, 0.018989f, -0.001620f, -0.002547f, -0.011868f, -0.013495f, -0.032015f, -0.042808f, 
-0.006565f, -0.019134f, -0.022010f, -0.043942f, -0.038984f, -0.012388f, -0.022114f, 0.001600f, 
0.009684f, 0.000045f, 0.021752f, -0.015688f, -0.078802f, -0.041063f, -0.065108f, -0.008480f, 
-0.009303f, 0.024733f, 0.007071f, -0.002684f, 0.017295f, -0.007646f, -0.002943f, -0.013237f, 
-0.012961f, -0.018212f, -0.038312f, -0.037129f, -0.036322f, 0.008900f, -0.027414f, -0.008731f, 
-0.048064f, -0.026246f, 0.015004f, 0.025494f, -0.000134f, 0.031654f, -0.008250f, -0.021398f, 
-0.036284f, -0.104426f, -0.049200f, -0.042743f, 0.023721f, 0.003227f, 0.036687f, 0.019150f, 
0.037556f, 0.021459f, 0.000733f, 0.001233f, -0.006561f, -0.059188f, -0.044347f, -0.035928f, 
-0.036508f, -0.019724f, -0.003131f, -0.024915f, -0.012515f, -0.022626f, 0.026522f, 0.036639f, 
0.027045f, 0.032661f, 0.038125f, -0.035528f, -0.048454f, -0.039919f, -0.058361f, -0.051402f, 
-0.030566f, 0.007915f, 0.025859f, 0.028351f, 0.018805f, 0.026807f, 0.015386f, 0.003631f, 
0.008819f, -0.012266f, -0.061796f, -0.097646f, -0.081103f, -0.051836f, -0.006244f, 0.015604f, 
-0.015966f, 0.000776f, -0.026938f, 0.012961f, 0.041201f, 0.015257f, 0.007369f, 0.020599f, 
-0.018650f, -0.045445f, -0.037002f, -0.053229f, -0.008676f, -0.008638f, 0.024578f, 0.055341f, 
0.047849f, 0.015790f, 0.003539f, 0.034502f, 0.003324f, -0.031564f, -0.063179f, -0.094818f, 
-0.084836f, -0.058579f, -0.084453f, -0.036222f, -0.037268f, -0.026966f, -0.035338f, -0.003889f, 
-0.013467f, -0.008001f, 0.000518f, 0.000305f, 0.007518f, 0.002333f, 0.013953f, 0.019206f, 
0.031005f, 0.000428f, 0.006693f, 0.004281f, 0.002018f, 0.029032f, 0.004877f, 0.015207f, 
0.020408f, 0.018966f, 0.001475f, 0.016420f, 0.002657f, 0.005929f, -0.005404f, 0.010525f, 
-0.038328f, -0.018581f, -0.027862f, -0.035418f, -0.009428f, -0.019948f, 0.003203f, -0.009259f, 
0.008034f, 0.012492f, -0.014212f, -0.004446f, 0.003524f, 0.010907f, 0.020857f, 0.002689f, 
0.017704f, 0.006322f, -0.005666f, 0.009067f, -0.010128f, -0.009201f, -0.006934f, 0.006453f, 
0.011535f, -0.004636f, -0.011036f, -0.002388f, 0.019940f, -0.018017f, -0.044359f, -0.038316f, 
-0.012268f, -0.007720f, -0.010437f, -0.015103f, 0.000738f, -0.021297f, -0.000135f, -0.001175f, 
-0.007618f, 0.003345f, 0.000366f, 0.020863f, 0.023255f, 0.008613f, 0.024635f, -0.004959f, 
0.003598f, -0.004529f, 0.008769f, -0.005811f, -0.010508f, -0.010522f, -0.007961f, 0.005258f, 
-0.008369f, 0.007414f, -0.015073f, -0.012003f, -0.036240f, -0.026531f, -0.032459f, -0.012955f, 
-0.010162f, -0.002478f, 0.005449f, -0.012786f, 0.012336f, 0.010973f, -0.002980f, -0.005359f, 
0.005431f, 0.001181f, 0.012457f, 0.002622f, -0.014514f, 0.010838f, 0.015074f, 0.013314f, 
0.008231f, 0.010215f, 0.012902f, 0.013452f, 0.013061f, 0.013029f, 0.009794f, -0.013157f, 
-0.027485f, -0.034518f, -0.006195f, -0.016919f, -0.026009f, -0.008748f, -0.010662f, -0.021466f, 
-0.005652f, -0.013221f, -0.006648f, 0.000186f, -0.013095f, -0.007444f, 0.018026f, -0.001709f, 
0.000216f, -0.004723f, -0.016781f, -0.017766f, -0.006547f, -0.006524f, 0.011205f, -0.009453f, 
0.023153f, 0.020738f, 0.002178f, 0.011857f, -0.029463f, -0.039078f, -0.026286f, -0.024215f, 
-0.016281f, -0.032452f, -0.013402f, -0.001394f, -0.004375f, -0.010425f, -0.024839f, -0.012963f, 
-0.002759f, 0.004219f, -0.009962f, 0.005218f, 0.010433f, -0.004638f, -0.005729f, 0.005123f, 
-0.005863f, -0.009384f, -0.017884f, -0.006239f, 0.005441f, 0.002041f, -0.008968f, -0.004728f, 
0.002233f, -0.018785f, -0.029864f, -0.026853f, -0.021329f, -0.017905f, -0.018548f, -0.022721f, 
-0.024410f, -0.001500f, -0.026352f, -0.008563f, -0.011441f, -0.016444f, 0.013157f, 0.001626f, 
-0.009722f, -0.003577f, 0.011293f, 0.001219f, 0.013332f, 0.010296f, -0.020407f, -0.009945f, 
0.004442f, 0.010402f, 0.011948f, 0.025848f, 0.013522f, 0.013246f, -0.033296f, -0.034904f, 
-0.030417f, -0.036185f, -0.013490f, -0.015113f, -0.014134f, -0.004727f, -0.016771f, -0.028501f, 
-0.005178f, 0.010775f, -0.006844f, -0.009756f, 0.017226f, -0.002804f, -0.011513f, -0.001847f, 
-0.001311f, 0.002285f, -0.001893f, 0.013094f, -0.009775f, -0.013410f, 0.015934f, 0.006075f, 
0.006909f, 0.021738f, 0.001814f, -0.013552f, -0.017160f, -0.013652f, -0.025745f, -0.019297f, 
-0.026310f, -0.037647f, -0.037486f, -0.005419f, -0.022545f, -0.013738f, 0.004511f, -0.015789f, 
-0.016015f, -0.006251f, -0.012270f, 0.005110f, -0.006276f, -0.011610f, 0.008225f, -0.011314f, 
-0.002960f, -0.014828f, 0.001174f, 0.006964f, -0.006343f, -0.004769f, -0.005040f, 0.012780f, 
-0.028380f, -0.009935f, -0.041744f, -0.033230f, -0.014932f, -0.021352f, -0.006473f, -0.038377f, 
-0.027753f, -0.005165f, -0.000882f, -0.007925f, -0.003480f, 0.001562f, 0.011524f, 0.008262f, 
-0.014177f, 0.003899f, 0.011261f, -0.015360f, -0.004242f, 0.013691f, 0.013239f, -0.007712f, 
0.000289f, -0.004556f, 0.014474f, 0.021029f, 0.002883f, -0.031789f, -0.021717f, -0.016174f, 
-0.014851f, -0.029953f, -0.024666f, -0.018475f, -0.011239f, -0.005724f, -0.005305f, -0.013712f, 
-0.018868f, -0.028017f, 0.007215f, 0.004532f, -0.002640f, -0.002682f, 0.001570f, -0.005652f, 
0.006665f, -0.019550f, 0.007426f, 0.005324f, 0.012695f, -0.010529f, -0.011625f, 0.007695f, 
0.002202f, 0.017903f, -0.038940f, -0.041380f, -0.039317f, -0.010904f, -0.023897f, -0.038767f, 
-0.005152f, -0.039270f, -0.036564f, -0.024868f, -0.003668f, -0.023277f, -0.010017f, -0.024224f, 
-0.023739f, -0.007122f, -0.008135f, -0.007918f, -0.007064f, -0.008853f, -0.020505f, 0.000573f, 
-0.016498f, -0.000034f, 0.012033f, -0.003882f, 0.017604f, 0.000446f, 0.020881f, -0.008216f, 
-0.006183f, -0.019976f, -0.028640f, -0.017478f, -0.037020f, -0.040829f, -0.029550f, -0.017885f, 
-0.029023f, -0.019910f, -0.018684f, -0.028355f, -0.011290f, 0.008832f, -0.006181f, -0.011627f, 
0.009796f, -0.017015f, 0.004564f, -0.002330f, -0.008445f, 0.006480f, 0.005525f, -0.015256f, 
-0.003213f, -0.003632f, 0.024672f, 0.026849f, -0.014437f, -0.009932f, -0.028283f, -0.011682f, 
-0.010882f, -0.028728f, -0.021499f, -0.044021f, -0.017654f, -0.018114f, -0.007310f, -0.020249f, 
0.003600f, 0.005151f, 0.003865f, -0.009420f, -0.007457f, -0.011047f, 0.011482f, 0.005711f, 
-0.019905f, -0.000064f, -0.022823f, 0.001157f, -0.001361f, -0.000667f, -0.001469f, 0.016767f, 
0.014288f, -0.003113f, -0.029173f, -0.033540f, -0.013855f, -0.012926f, -0.028665f, -0.046171f, 
-0.047416f, -0.046137f, -0.011676f, -0.004425f, -0.006971f, -0.018655f, 0.001678f, -0.014652f, 
0.003648f, -0.007247f, 0.002445f, 0.003743f, -0.010036f, 0.006681f, 0.003001f, -0.009162f, 
0.012074f, 0.001239f, 0.012862f, -0.003057f, -0.013137f, 0.008678f, -0.018662f, -0.016373f, 
-0.022121f, -0.019691f, -0.010722f, -0.026141f, -0.034941f, -0.024890f, -0.016939f, -0.025133f, 
-0.006332f, -0.004603f, 0.001575f, -0.008969f, 0.003372f, -0.008688f, 0.001258f, 0.012252f, 
-0.013263f, -0.012770f, 0.016371f, -0.012847f, 0.006923f, 0.009490f, 0.012106f, 0.019228f, 
0.007280f, 0.001671f, -0.005054f, -0.029326f, -0.029314f, -0.025642f, -0.015767f, -0.020088f, 
-0.012459f, -0.020337f, -0.050046f, -0.029785f, -0.043590f, -0.034492f, -0.035950f, -0.018708f, 
0.008671f, -0.011780f, 0.014345f, 0.012276f, 0.008529f, -0.012193f, 0.011709f, 0.017281f, 
0.014482f, 0.009526f, 0.020156f, 0.019342f, 0.016780f, -0.003214f, -0.004026f, 0.010391f, 
-0.013595f, -0.035016f, -0.028200f, -0.036974f, -0.039261f, -0.023769f, -0.034635f, -0.034280f, 
-0.046919f, -0.027892f, -0.024161f, -0.007179f, -0.008873f, -0.018289f, -0.016664f, 0.009794f, 
0.004852f, -0.000922f, -0.004977f, 0.007055f, 0.009656f, 0.017378f, 0.008449f, -0.006698f, 
0.001122f, 0.015833f, -0.020899f, -0.002486f, -0.000996f, -0.024203f, -0.018870f, -0.009683f, 
-0.029213f, -0.030044f, -0.007792f, -0.020802f, -0.041418f, -0.010426f, -0.032408f, -0.041095f, 
-0.029643f, -0.017554f, -0.019840f, -0.010948f, -0.001574f, 0.006689f, 0.017755f, -0.005837f, 
0.001786f, 0.018505f, 0.025488f, 0.002822f, 0.015601f, 0.001698f, -0.000642f, 0.003193f, 
-0.010394f, 0.000829f, -0.030835f, -0.031511f, -0.017721f, -0.035611f, -0.020597f, -0.032599f, 
-0.026555f, -0.039845f, -0.032168f, -0.025427f, -0.015538f, -0.025517f, -0.021798f, -0.006668f, 
0.008069f, 0.006430f, 0.000308f, -0.001852f, 0.009664f, 0.003932f, 0.001434f, 0.012691f, 
-0.001598f, -0.006285f, 0.009867f, -0.008605f, 0.015338f, 0.001144f, 0.022978f, -0.011704f, 
-0.007172f, -0.024961f, -0.007582f, -0.024575f, -0.021658f, -0.024641f, -0.039262f, -0.027859f, 
-0.036371f, -0.019297f, -0.003137f, -0.007874f, -0.016890f, -0.021428f, -0.009573f, -0.003802f, 
0.010252f, 0.011329f, -0.009698f, 0.006018f, -0.007991f, 0.005918f, 0.011798f, -0.004371f, 
-0.001248f, 0.009593f, -0.010828f, 0.000688f, -0.014302f, -0.022949f, 0.004592f, -0.021154f, 
-0.030526f, -0.014423f, -0.008816f, -0.018741f, -0.024789f, -0.023008f, -0.028916f, -0.006773f, 
-0.012343f, 0.008686f, 0.000882f, -0.004904f, -0.010634f, 0.007326f, 0.000319f, 0.014044f, 
0.004027f, 0.009638f, 0.012048f, -0.012374f, -0.012033f, -0.001288f, -0.014372f, 0.005542f, 
0.011863f, -0.024999f, 0.008594f, -0.023350f, -0.005349f, -0.020259f, -0.018304f, -0.006445f, 
-0.007433f, -0.004776f, -0.019481f, -0.016886f, -0.011910f, -0.021613f, -0.009659f, 0.011625f, 
0.008168f, 0.012984f, -0.014666f, -0.016099f, -0.015280f, -0.023266f, -0.006718f, -0.015762f, 
-0.019309f, -0.021282f, -0.009132f, -0.016259f, -0.002883f, -0.004318f, 0.009076f, -0.011083f, 
-0.006567f, -0.020291f, 0.000103f, -0.008981f, -0.001409f, -0.008453f, -0.005902f, -0.004069f, 
-0.018588f, -0.010955f, -0.025107f, 0.013560f, -0.011884f, -0.000543f, 0.008981f, 0.006835f, 
-0.012480f, 0.004884f, -0.026219f, -0.029716f, -0.031280f, -0.030317f, -0.033727f, -0.011576f, 
-0.018239f, -0.011755f, -0.023679f, -0.012122f, -0.015379f, -0.018144f, -0.014641f, -0.009365f, 
0.003168f, 0.004559f, -0.008759f, -0.004678f, 0.003301f, -0.002906f, -0.011598f, -0.024035f, 
-0.001317f, -0.008051f, -0.010266f, -0.007883f, -0.003608f, -0.008927f, -0.013814f, -0.004021f, 
-0.000384f, -0.022513f, -0.034038f, -0.004921f, -0.019262f, -0.003255f, -0.009472f, 0.001505f, 
-0.017232f, -0.011447f, -0.025681f, -0.002555f, -0.016053f, -0.019196f, -0.009749f, -0.009823f, 
-0.010720f, -0.022770f, -0.002198f, -0.005901f, -0.019674f, -0.012838f, 0.010580f, -0.012537f, 
0.016280f, 0.013694f, -0.013646f, -0.013946f, -0.008861f, -0.025851f, -0.012499f, -0.026091f, 
-0.032137f, -0.011953f, -0.027062f, -0.017009f, -0.005721f, -0.000463f, 0.000572f, -0.007785f, 
0.005349f, 0.006948f, -0.018971f, -0.009219f, -0.018808f, -0.012094f, -0.022412f, 0.002677f, 
0.003420f, -0.012417f, 0.009943f, 0.003300f, 0.003795f, 0.007900f, -0.016242f, -0.000333f, 
0.000403f, -0.001414f, -0.040590f, -0.037988f, -0.023540f, -0.021152f, -0.031206f, -0.028769f, 
0.000995f, -0.013153f, -0.018860f, -0.015074f, -0.026276f, -0.001761f, -0.006676f, -0.005420f, 
-0.014074f, 0.000164f, -0.014778f, -0.003863f, -0.019921f, -0.004831f, 0.003366f, -0.002115f, 
-0.016070f, -0.015969f, -0.017684f, -0.018414f, -0.012220f, -0.031608f, -0.034554f, -0.022185f, 
-0.032204f, -0.044224f, -0.019056f, -0.028571f, -0.007276f, 0.004860f, 0.010816f, -0.029973f, 
-0.005745f, -0.034360f, -0.005951f, -0.015458f, -0.007002f, -0.026861f, -0.012949f, 0.001504f, 
-0.030674f, -0.023645f, 0.000608f, -0.019069f, 0.002202f, 0.002318f, -0.001181f, -0.029343f, 
-0.026351f, -0.027933f, -0.008455f, -0.036689f, -0.022494f, -0.024375f, -0.033625f, -0.003933f, 
-0.022693f, -0.013698f, -0.009680f, 0.002953f, -0.026142f, -0.070079f, -0.020272f, 0.019829f, 
0.033762f, 0.057636f, 0.098391f, 0.056495f, -0.009776f, -0.036643f, -0.080605f, -0.064335f, 
0.052435f, 0.036473f, -0.094628f, -0.069891f, -0.099065f, -0.129004f, -0.089371f, -0.084868f, 
-0.058049f, -0.107510f, -0.136169f, -0.015924f, -0.094149f, -0.147582f, -0.211006f, -0.235376f, 
-0.115011f, -0.058910f, -0.059875f, 0.028329f, 0.118777f, 0.092237f, -0.018826f, -0.035718f, 
-0.055243f, -0.061081f, -0.126382f, -0.151792f, -0.036855f, -0.036399f, -0.101022f, -0.162006f, 
-0.132398f, -0.149773f, -0.200888f, -0.209643f, -0.153686f, -0.094011f, -0.120987f, -0.256347f, 
-0.232923f, -0.132713f, -0.143641f, -0.194141f, -0.220517f, -0.160277f, -0.059045f, 0.010358f, 
0.046882f, 0.020001f, -0.067572f, -0.073660f, -0.122883f, -0.190433f, -0.106185f, -0.057165f, 
-0.105452f, -0.032432f, -0.048984f, -0.126916f, -0.194958f, -0.069068f, -0.144605f, -0.212410f, 
-0.230909f, -0.212983f, -0.156003f, -0.149419f, -0.201890f, -0.171276f, -0.085293f, -0.113966f, 
-0.240958f, -0.230839f, -0.115490f, -0.116183f, -0.047599f, -0.021533f, -0.028471f, -0.131176f, 
-0.219750f, -0.195076f, -0.133224f, -0.084404f, -0.102895f, -0.145398f, -0.145373f, -0.125860f, 
-0.128580f, -0.150368f, -0.140885f, -0.215257f, -0.232763f, -0.247318f, -0.228122f, -0.219304f, 
-0.217422f, -0.182330f, -0.096373f, -0.128266f, -0.170202f, -0.286239f, -0.260129f, -0.127864f, 
-0.104823f, -0.124040f, -0.067466f, -0.020578f, -0.082532f, -0.140477f, -0.233170f, -0.112422f, 
-0.039383f, -0.185876f, -0.215897f, -0.190555f, -0.145328f, -0.146290f, -0.113198f, -0.088863f, 
-0.195924f, -0.223051f, -0.206268f, -0.213272f, -0.193115f, -0.193838f, -0.126271f, -0.028060f, 
-0.139479f, -0.150887f, -0.173858f, -0.232170f, -0.111616f, -0.087377f, -0.035234f, -0.065377f, 
-0.053896f, -0.098556f, -0.123692f, -0.214978f, -0.166662f, -0.104991f, -0.190754f, -0.172550f, 
-0.132876f, -0.137383f, -0.183870f, -0.102785f, -0.074594f, -0.134252f, -0.191970f, -0.194101f, 
-0.206208f, -0.185219f, -0.170663f, -0.075936f, -0.000386f, -0.038899f, -0.125530f, -0.101002f, 
-0.079444f, -0.063816f, -0.011752f, -0.025830f, -0.022836f, -0.138856f, -0.152646f, -0.124427f, 
-0.176162f, -0.175181f, -0.124477f, -0.190342f, -0.161087f, -0.087859f, -0.130936f, -0.144346f, 
-0.047386f, -0.038829f, -0.114588f, -0.171703f, -0.200304f, -0.152758f, -0.143573f, -0.106779f, 
-0.071175f, 0.049139f, -0.005403f, -0.079326f, -0.177345f, -0.130597f, -0.072536f, -0.030924f, 
-0.074475f, -0.175078f, -0.196634f, -0.210080f, -0.212665f, -0.213938f, -0.126443f, -0.227986f, 
-0.193975f, -0.123259f, -0.146229f, -0.192109f, -0.156075f, -0.092059f, -0.079945f, -0.183917f, 
-0.181559f, -0.190078f, -0.174584f, -0.171680f, -0.080526f, 0.027000f, 0.021040f, -0.083149f, 
-0.031922f, -0.087840f, -0.095497f, -0.068657f, -0.096711f, -0.130408f, -0.225558f, -0.179409f, 
-0.097945f, -0.047341f, -0.231727f, -0.226886f, -0.225566f, -0.193055f, -0.129804f, -0.181755f, 
-0.260607f, -0.132562f, -0.154837f, -0.135999f, -0.199396f, -0.202332f, -0.162155f, -0.132066f, 
-0.136148f, -0.076057f, 0.008344f, -0.009918f, -0.034665f, -0.046379f, -0.069565f, -0.073266f, 
-0.055212f, -0.166732f, -0.178985f, -0.172826f, -0.063270f, -0.011376f, -0.061577f, -0.227999f, 
-0.272198f, -0.274927f, -0.186033f, -0.187010f, -0.238941f, -0.235111f, -0.177841f, -0.177650f, 
-0.168229f, -0.177570f, -0.195868f, -0.140421f, -0.110782f, -0.137017f, -0.134842f, -0.048724f, 
0.038510f, -0.003628f, -0.073331f, -0.113702f, -0.071213f, -0.061787f, -0.214470f, -0.185863f, 
-0.056252f, 0.047740f, 0.016523f, -0.119343f, -0.223692f, -0.160284f, -0.208422f, -0.220522f, 
-0.226918f, -0.287986f, -0.212411f, -0.197542f, -0.143479f, -0.145473f, -0.145095f, -0.162124f, 
-0.119477f, -0.148299f, -0.169439f, -0.155815f, -0.122850f, -0.042231f, -0.019982f, -0.022984f, 
0.018619f, 0.024216f, 0.017612f, -0.083855f, 0.030655f, 0.039022f, 0.031734f, -0.012170f, 
-0.133077f, -0.194315f, -0.252306f, -0.219727f, -0.166422f, -0.183744f, -0.192172f, -0.208304f, 
-0.223645f, -0.181379f, -0.139068f, -0.182563f, -0.136684f, -0.087059f, -0.166097f, -0.217572f, 
-0.106712f, -0.049804f, 0.031564f, -0.006150f, -0.012978f, -0.002515f, -0.018422f, 0.023963f, 
-0.067720f, -0.064159f, -0.032382f, -0.113192f, -0.168914f, -0.220379f, -0.222503f, -0.234132f, 
-0.340665f, -0.329927f, -0.209826f, -0.198111f, -0.137420f, -0.104697f, -0.120571f, -0.080669f, 
-0.159327f, -0.175372f, -0.187755f, -0.216951f, -0.163742f, -0.081683f, -0.047454f, 0.025037f, 
0.025040f, 0.041362f, -0.065835f, -0.068559f, -0.031961f, 0.006562f, -0.007245f, -0.088319f, 
-0.157900f, -0.205257f, -0.221457f, -0.184654f, -0.204140f, -0.251737f, -0.233542f, -0.201343f, 
-0.207120f, -0.140516f, -0.068732f, -0.047599f, -0.101902f, -0.120945f, -0.113640f, -0.211688f, 
-0.238738f, -0.193546f, -0.096852f, -0.080227f, -0.041067f, -0.021203f, 0.004692f, -0.070545f, 
0.002325f, 0.053769f, -0.077721f, -0.021552f, -0.072571f, -0.037053f, -0.105350f, -0.198295f, 
-0.168504f, -0.152974f, -0.146150f, -0.159752f, -0.149115f, -0.122769f, -0.140176f, -0.115229f, 
-0.105339f, -0.199689f, -0.228281f, -0.150056f, -0.101474f, -0.039305f, -0.102078f, -0.117545f, 
-0.055514f, -0.018203f, -0.004691f, 0.047660f, -0.077124f, 0.010555f, 0.080824f, 0.037314f, 
0.019219f, -0.055664f, -0.047251f, -0.033836f, -0.059017f, -0.090240f, -0.166022f, -0.148371f, 
-0.055061f, -0.072733f, -0.095381f, -0.128024f, -0.166457f, -0.189052f, -0.229468f, -0.167976f, 
-0.147640f, -0.081159f, -0.062838f, -0.041589f, -0.081972f, -0.054961f, 0.046192f, 0.047091f, 
0.060808f, -0.082708f, -0.052912f, 0.020988f, 0.035165f, -0.032719f, -0.128257f, -0.127975f, 
-0.081565f, -0.073026f, -0.129679f, -0.160715f, -0.180053f, -0.178706f, -0.232028f, -0.210537f, 
-0.173168f, -0.158592f, -0.172132f, -0.190248f, -0.142595f, -0.146576f, -0.082969f, -0.135812f, 
-0.071434f, -0.043099f, -0.058079f, -0.024160f, 0.011050f, -0.099257f, -0.107506f, -0.065164f, 
0.000575f, -0.126997f, -0.201900f, -0.227227f, -0.226667f, -0.070864f, -0.035863f, -0.136486f, 
-0.173362f, -0.172812f, -0.174270f, -0.187958f, -0.179539f, -0.206247f, -0.189932f, -0.190689f, 
-0.169983f, -0.176225f, -0.156870f, -0.188925f, -0.110546f, -0.119367f, -0.116012f, -0.110700f, 
-0.022828f, -0.052564f, -0.106772f, -0.125501f, -0.030996f, 0.096122f, -0.039313f, -0.117470f, 
-0.154827f, -0.129097f, -0.141496f, -0.129329f, -0.136555f, -0.146937f, -0.132937f, -0.201306f, 
-0.169222f, -0.116334f, -0.153615f, -0.157868f, -0.139798f, -0.106927f, -0.137101f, -0.186696f, 
-0.143267f, -0.080793f, -0.094108f, -0.093029f, -0.090967f, -0.054213f, -0.101786f, -0.118024f, 
-0.123408f, 0.006310f, 0.123676f, -0.004303f, -0.035391f, 0.002211f, -0.009296f, -0.084420f, 
-0.146165f, -0.126055f, -0.155558f, -0.133995f, -0.163037f, -0.157079f, -0.182158f, -0.126899f, 
-0.113627f, -0.152698f, -0.130378f, -0.169888f, -0.159231f, -0.155813f, -0.034510f, -0.078486f, 
-0.098371f, -0.058756f, -0.085086f, -0.127516f, -0.099676f, -0.048345f, 0.020308f, 0.071104f, 
-0.057853f, -0.032629f, -0.069792f, -0.130826f, -0.155033f, -0.197859f, -0.147681f, -0.176959f, 
-0.185352f, -0.143448f, -0.078088f, -0.031079f, -0.003577f, -0.003032f, 0.015603f, -0.004534f, 
-0.089037f, -0.103220f, -0.047478f, -0.047127f, -0.075193f, -0.106599f, -0.051736f, -0.137564f, 
-0.175159f, -0.148010f, -0.081008f, -0.011384f, 0.029207f, -0.147791f, 0.000416f, -0.042254f, 
-0.082859f, -0.135804f, -0.158534f, -0.165566f, -0.140060f, -0.152429f, -0.054336f, 0.005260f, 
0.001654f, -0.006720f, 0.020857f, 0.080801f, 0.041289f, -0.032073f, -0.060984f, -0.019123f, 
-0.048551f, -0.076907f, -0.125411f, -0.113975f, -0.129184f, -0.128303f, -0.085746f, -0.046503f, 
-0.000792f, 0.068944f, -0.022951f, 0.000678f, -0.029365f, -0.088603f, -0.141490f, -0.112991f, 
-0.068824f, -0.016397f, -0.020377f, 0.076640f, 0.140263f, -0.027656f, -0.050189f, 0.021215f, 
0.093309f, 0.053402f, -0.057139f, -0.017935f, -0.028475f, -0.097758f, -0.125423f, -0.164739f, 
-0.169949f, -0.151874f, -0.063466f, 0.032290f, 0.031776f, 0.000522f, -0.033465f, 0.038970f, 
-0.082110f, -0.165480f, -0.197467f, -0.111287f, -0.052651f, -0.089426f, -0.051010f, 0.001715f, 
0.098377f, 0.059287f, -0.009440f, -0.072653f, 0.060270f, 0.012052f, -0.024062f, -0.089279f, 
-0.085619f, -0.049898f, -0.110232f, -0.099888f, -0.132016f, -0.140885f, -0.064645f, -0.033770f, 
0.020144f, 0.012436f, 0.026091f, -0.019137f, -0.084276f, -0.208429f, -0.223942f, -0.258854f, 
-0.166087f, -0.084082f, -0.112657f, -0.112993f, -0.045475f, 0.005226f, -0.099443f, -0.120902f, 
-0.123606f, 0.068430f, 0.095661f, -0.038062f, -0.097461f, -0.106776f, -0.081176f, -0.106860f, 
-0.057045f, -0.084894f, -0.089889f, -0.037309f, -0.027750f, -0.022525f, -0.048101f, -0.045850f, 
-0.096256f, -0.161045f, -0.179361f, -0.177597f, -0.117095f, -0.056686f, -0.039290f, -0.057753f, 
-0.073220f, -0.064878f, -0.122248f, -0.217107f, -0.158281f, -0.037284f, 0.073214f, 0.018410f, 
-0.062629f, -0.025581f, -0.079388f, -0.101014f, -0.078813f, -0.080085f, -0.072393f, -0.086217f, 
-0.057977f, -0.099966f, -0.096303f, -0.051422f, -0.020752f, -0.024058f, -0.150110f, -0.113641f, 
-0.077310f, -0.081899f, -0.073823f, -0.068910f, -0.109007f, -0.055386f, -0.069317f, -0.109547f, 
-0.171929f, -0.076271f, 0.116727f, 0.120851f, 0.082714f, -0.034269f, -0.049894f, -0.088842f, 
-0.158456f, -0.119100f, -0.088444f, -0.151848f, -0.182900f, -0.109723f, -0.051930f, 0.010878f, 
0.001869f, 0.033432f, 0.062394f, -0.188420f, -0.186672f, -0.129261f, -0.179298f, -0.156932f, 
-0.129176f, -0.174617f, -0.164757f, -0.117020f, -0.119584f, -0.091850f, -0.038139f, 0.069875f, 
-0.010098f, -0.040970f, -0.105978f, -0.180937f, -0.146735f, -0.133533f, -0.183127f, -0.210276f, 
-0.187616f, -0.113545f, -0.045027f, 0.068981f, 0.160753f, 0.127277f, 0.045696f, 0.011963f, 
-0.202212f, -0.219169f, -0.192308f, -0.184498f, -0.193295f, -0.129253f, -0.131760f, -0.183048f, 
-0.135735f, -0.124981f, -0.086876f, -0.067118f, -0.039558f, -0.069048f, -0.103462f, -0.182594f, 
-0.161153f, -0.184150f, -0.177504f, -0.174148f, -0.145789f, -0.102165f, -0.070700f, 0.012150f, 
0.064363f, 0.079417f, 0.079655f, 0.033885f, 0.019823f, -0.029568f, -0.095719f, -0.013020f, 
0.006790f, 0.039913f, 0.041018f, 0.121332f, 0.115608f, 0.080694f, -0.011006f, -0.106889f, 
-0.000706f, 0.064596f, 0.084375f, 0.054971f, 0.002264f, -0.027964f, -0.052548f, 0.003879f, 
0.029348f, 0.082554f, 0.035604f, 0.013687f, 0.096630f, -0.017172f, -0.088994f, -0.085782f, 
-0.011118f, 0.001794f, -0.050781f, -0.081427f, -0.031276f, -0.010001f, 0.027647f, -0.087572f, 
-0.004775f, -0.022487f, -0.018575f, -0.069381f, -0.155824f, -0.004487f, 0.026594f, 0.015707f, 
-0.047376f, -0.007316f, -0.069506f, -0.095186f, -0.097251f, -0.024851f, -0.007852f, 0.018277f, 
-0.030196f, 0.091849f, 0.031526f, -0.109659f, -0.182394f, -0.085287f, -0.024097f, -0.090528f, 
-0.008860f, 0.028422f, -0.027739f, -0.069551f, -0.182034f, -0.119859f, -0.039331f, -0.007446f, 
-0.078191f, -0.121177f, -0.003993f, -0.019404f, -0.059249f, -0.068222f, 0.028704f, -0.039580f, 
-0.127309f, -0.116145f, -0.062924f, -0.026470f, -0.047092f, -0.026403f, 0.133953f, 0.098785f, 
-0.095498f, -0.146999f, -0.125206f, 0.023226f, -0.114841f, -0.050298f, 0.010686f, -0.029001f, 
-0.035078f, -0.199673f, -0.177992f, -0.032977f, 0.030501f, -0.045485f, -0.117971f, -0.099596f, 
-0.006918f, -0.066380f, -0.015520f, 0.025222f, -0.061391f, -0.116489f, -0.125059f, -0.109477f, 
-0.034360f, -0.014244f, -0.028280f, 0.136557f, 0.055528f, -0.042950f, -0.147525f, -0.101240f, 
0.041460f, -0.192666f, -0.023268f, -0.022254f, -0.049418f, -0.107123f, -0.185101f, -0.199645f, 
-0.073261f, 0.016565f, -0.102523f, -0.152126f, -0.081231f, 0.000172f, -0.078541f, 0.016482f, 
0.029715f, -0.069366f, -0.139631f, -0.178570f, -0.126040f, -0.033491f, -0.017668f, 0.042912f, 
0.046258f, 0.059793f, 0.000451f, -0.094448f, -0.102896f, 0.056996f, -0.146942f, -0.076743f, 
-0.015313f, -0.124842f, -0.111081f, -0.225356f, -0.232968f, -0.081364f, -0.100168f, -0.132297f, 
-0.145259f, -0.084193f, -0.016222f, -0.074423f, 0.019256f, 0.003740f, -0.071118f, -0.112049f, 
-0.152769f, -0.119534f, -0.071934f, -0.017140f, 0.064447f, 0.066319f, 0.042742f, 0.022907f, 
-0.081527f, -0.080861f, 0.029962f, -0.114366f, -0.101296f, -0.072067f, -0.152060f, -0.080127f, 
-0.207720f, -0.259682f, -0.096598f, -0.121204f, -0.168732f, -0.157580f, -0.063994f, -0.100122f, 
-0.081545f, 0.026149f, -0.034836f, -0.095668f, -0.107634f, -0.153682f, -0.159495f, -0.095579f, 
-0.016731f, 0.064426f, 0.086492f, -0.003387f, 0.038617f, -0.045575f, -0.068609f, -0.010296f, 
-0.088190f, -0.099418f, -0.117757f, -0.137980f, -0.089815f, -0.139517f, -0.227356f, -0.206935f, 
-0.168297f, -0.187759f, -0.152019f, -0.078707f, -0.104601f, -0.038429f, -0.022880f, -0.059091f, 
-0.124313f, -0.147922f, -0.148294f, -0.158903f, -0.128033f, -0.069674f, 0.077327f, 0.076033f, 
0.030452f, 0.026510f, -0.017908f, -0.033195f, -0.060614f, -0.112851f, -0.143980f, -0.180753f, 
-0.156299f, -0.068639f, -0.097872f, -0.250997f, -0.262801f, -0.190515f, -0.158167f, -0.156854f, 
-0.102363f, -0.105043f, -0.008743f, -0.017911f, -0.040108f, -0.109012f, -0.126405f, -0.122419f, 
-0.121208f, -0.090812f, -0.017616f, 0.033292f, 0.054042f, -0.002181f, 0.031915f, -0.036681f, 
-0.046158f, -0.056045f, -0.169027f, -0.137071f, -0.142535f, -0.063578f, -0.035983f, -0.125875f, 
-0.257585f, -0.235172f, -0.217922f, -0.118606f, -0.164883f, -0.191899f, -0.065190f, -0.020897f, 
-0.031897f, -0.062829f, -0.118321f, -0.143618f, -0.140655f, -0.104486f, -0.100245f, -0.052824f, 
0.053644f, 0.083641f, 0.055249f, 0.029648f, 0.018534f, 0.004925f, 0.005619f, -0.155062f, 
-0.027645f, -0.087090f, -0.020353f, -0.004004f, -0.126547f, -0.246305f, -0.281212f, -0.196430f, 
-0.136983f, -0.162160f, -0.192982f, -0.122627f, -0.018553f, -0.018755f, -0.084713f, -0.131977f, 
-0.129491f, -0.092946f, -0.092431f, -0.110328f, -0.024257f, 0.104397f, 0.118450f, 0.080308f, 
0.048878f, 0.081737f, 0.047755f, -0.012764f, -0.146822f, -0.054377f, -0.052221f, -0.004456f, 
-0.071575f, -0.198091f, -0.228182f, -0.279704f, -0.284739f, -0.155343f, -0.132028f, -0.164005f, 
-0.124683f, -0.060098f, -0.039504f, -0.077812f, -0.142638f, -0.085881f, -0.080231f, -0.086806f, 
-0.126599f, -0.005464f, 0.081066f, 0.144572f, 0.122298f, 0.091285f, 0.075666f, 0.042031f, 
0.007116f, -0.106829f, -0.043170f, -0.053629f, -0.061839f, -0.177141f, -0.188104f, -0.131184f, 
-0.189506f, -0.221764f, -0.149382f, -0.145986f, -0.134745f, -0.098685f, -0.080124f, -0.045815f, 
-0.113083f, -0.085640f, -0.076428f, -0.104228f, -0.095482f, -0.096016f, -0.040182f, 0.037632f, 
0.098958f, 0.093046f, 0.114404f, 0.076826f, 0.089017f, 0.059141f, -0.084894f, -0.045210f, 
-0.066594f, -0.093116f, -0.171488f, -0.132157f, -0.099559f, -0.143600f, -0.189482f, -0.110615f, 
-0.105526f, -0.074959f, -0.090599f, -0.065460f, -0.062661f, -0.113535f, -0.130069f, -0.073833f, 
-0.087126f, -0.072154f, -0.091822f, -0.066484f, 0.041919f, 0.077042f, 0.070169f, 0.116961f, 
0.030376f, 0.092624f, 0.126529f, -0.120284f, -0.093251f, -0.041636f, -0.123511f, -0.181860f, 
-0.090394f, -0.072874f, -0.088243f, -0.147304f, -0.040242f, -0.034465f, -0.074627f, -0.025070f, 
-0.040048f, -0.083266f, -0.194030f, -0.099107f, -0.083137f, -0.116619f, -0.078290f, -0.092027f, 
-0.084437f, -0.024730f, 0.060141f, 0.053280f, 0.007358f, -0.025091f, 0.054786f, 0.125880f, 
-0.133491f, -0.104760f, -0.125131f, -0.159949f, -0.177652f, -0.133517f, -0.076746f, -0.121144f, 
-0.103874f, -0.027316f, -0.050851f, -0.125849f, -0.078350f, 0.005080f, -0.067567f, -0.193006f, 
-0.084204f, -0.088262f, -0.064911f, -0.133629f, -0.131408f, -0.106958f, -0.031188f, 0.009583f, 
0.052265f, -0.059651f, -0.056049f, 0.006051f, 0.139300f, -0.126499f, -0.177278f, -0.196706f, 
-0.189119f, -0.164752f, -0.212362f, -0.203141f, -0.135767f, -0.063766f, -0.098872f, -0.093892f, 
-0.110201f, -0.092890f, -0.024101f, -0.083965f, -0.135638f, -0.097257f, -0.068707f, -0.090709f, 
-0.094225f, -0.139250f, -0.095909f, -0.075502f, -0.020326f, 0.017823f, -0.076185f, -0.087355f, 
0.016333f, 0.118404f, -0.122399f, -0.221858f, -0.212607f, -0.173102f, -0.120502f, -0.208255f, 
-0.253265f, -0.180637f, -0.140382f, -0.169259f, -0.110100f, -0.142694f, -0.151372f, -0.113837f, 
-0.086576f, -0.081264f, -0.112709f, -0.138527f, -0.110711f, -0.048596f, -0.069904f, -0.109696f, 
-0.102608f, -0.036972f, -0.045523f, -0.085909f, -0.081797f, 0.012222f, 0.138867f, -0.088716f, 
-0.181262f, -0.215340f, -0.151230f, -0.173343f, -0.237027f, -0.276659f, -0.235228f, -0.227502f, 
-0.263050f, -0.190226f, -0.171030f, -0.163602f, -0.085556f, -0.092092f, -0.066021f, -0.134542f, 
-0.123553f, -0.070284f, -0.029071f, -0.057009f, -0.088841f, -0.097407f, -0.008265f, -0.064495f, 
-0.102381f, -0.065636f, 0.024543f, 0.147532f, -0.135746f, -0.233409f, -0.262103f, -0.194965f, 
-0.146236f, -0.181080f, -0.210728f, -0.244962f, -0.270390f, -0.249788f, -0.193076f, -0.158851f, 
-0.137287f, -0.059068f, -0.038983f, -0.073257f, -0.048097f, -0.064633f, -0.038172f, -0.009697f, 
-0.009426f, -0.081090f, -0.050059f, -0.040541f, -0.080676f, -0.098810f, -0.059014f, 0.038924f, 
0.087598f, -0.135337f, -0.161098f, -0.162220f, -0.232120f, -0.183652f, -0.137752f, -0.196348f, 
-0.224300f, -0.240511f, -0.227153f, -0.175272f, -0.111827f, -0.101066f, -0.072193f, -0.048691f, 
-0.018620f, 0.020277f, -0.114950f, -0.019859f, -0.030282f, -0.026539f, -0.059447f, -0.009885f, 
-0.093322f, -0.084972f, -0.072730f, 0.015546f, 0.102331f, 0.156574f, -0.100624f, -0.092024f, 
-0.102000f, -0.204828f, -0.178692f, -0.126792f, -0.115928f, -0.163968f, -0.200702f, -0.157257f, 
-0.145361f, -0.100305f, -0.094355f, -0.070449f, -0.011977f, -0.051803f, 0.039587f, -0.017123f, 
-0.019604f, -0.050159f, -0.050134f, -0.033368f, -0.037407f, -0.071112f, -0.077040f, 0.008119f, 
0.076382f, 0.137093f, 0.129778f, -0.084096f, -0.055343f, -0.137111f, -0.240107f, -0.207117f, 
-0.159485f, -0.127398f, -0.144166f, -0.134640f, -0.134048f, -0.117381f, -0.109624f, -0.093455f, 
-0.030961f, -0.080469f, -0.015966f, 0.000423f, 0.013569f, -0.008937f, -0.066271f, -0.050397f, 
-0.046107f, 0.036734f, -0.033264f, -0.007038f, 0.097038f, 0.112387f, 0.155871f, 0.118913f, 
-0.102457f, -0.098678f, -0.188404f, -0.224591f, -0.169603f, -0.126840f, -0.137990f, -0.121725f, 
-0.135831f, -0.042416f, -0.091908f, -0.128930f, -0.082699f, -0.010785f, -0.025543f, -0.123392f, 
-0.030508f, 0.023650f, -0.022086f, -0.093301f, -0.072588f, -0.045352f, 0.035938f, 0.078497f, 
0.072132f, 0.073193f, 0.037590f, 0.060538f, 0.096250f, -0.105749f, -0.101334f, -0.173439f, 
-0.168013f, -0.152755f, -0.137282f, -0.164936f, -0.081574f, -0.067992f, -0.040236f, -0.132651f, 
-0.157434f, -0.033496f, 0.022036f, 0.024068f, -0.080374f, -0.071047f, -0.025043f, -0.049538f, 
-0.096588f, -0.057581f, -0.033124f, 0.020463f, 0.076403f, 0.115397f, 0.103655f, 0.047440f, 
0.049923f, 0.060185f, -0.145485f, -0.122814f, -0.144137f, -0.169191f, -0.143111f, -0.127117f, 
-0.140045f, -0.042874f, -0.006228f, -0.097675f, -0.179304f, -0.103754f, 0.042080f, 0.045253f, 
-0.005497f, -0.073767f, -0.094157f, -0.092655f, -0.121339f, -0.052362f, -0.056727f, -0.104584f, 
-0.050718f, 0.069418f, 0.087745f, 0.083843f, 0.027973f, 0.039170f, 0.067547f, -0.143522f, 
-0.094123f, -0.114490f, -0.176910f, -0.131368f, -0.116993f, -0.144887f, -0.101929f, -0.073708f, 
-0.140415f, -0.132452f, -0.067270f, 0.061501f, 0.076484f, 0.020342f, -0.054893f, -0.114579f, 
-0.112479f, -0.131572f, -0.108139f, -0.058214f, -0.116782f, -0.089138f, -0.005535f, 0.061436f, 
0.145465f, 0.121671f, 0.092852f, 0.033613f, -0.130896f, -0.124487f, -0.095797f, -0.192140f, 
-0.144348f, -0.102384f, -0.115413f, -0.112098f, -0.065283f, -0.064218f, -0.124344f, -0.033328f, 
0.088154f, 0.069724f, -0.015431f, -0.079767f, -0.045321f, -0.117732f, -0.114612f, -0.107775f, 
-0.093399f, -0.102825f, -0.060907f, 0.009133f, 0.086982f, 0.138386f, 0.137245f, 0.077601f, 
0.081260f, -0.188380f, -0.169746f, -0.120753f, -0.157417f, -0.127062f, -0.054412f, -0.087394f, 
-0.071041f, -0.019309f, -0.058846f, -0.098879f, -0.047328f, 0.033762f, 0.038243f, 0.001587f, 
-0.065513f, -0.068078f, -0.056246f, -0.110747f, -0.118178f, -0.036538f, -0.062437f, -0.081568f, 
0.010653f, 0.083051f, 0.081197f, 0.112069f, 0.092937f, 0.128445f, 0.136000f, 0.074015f, 
0.079624f, 0.092147f, 0.066102f, 0.045981f, 0.051501f, 0.142898f, 0.139668f, 0.100103f, 
0.020943f, 0.045009f, 0.106157f, 0.102317f, 0.056357f, -0.015194f, 0.071494f, 0.075630f, 
0.058345f, 0.056191f, 0.082976f, 0.100300f, 0.043909f, 0.056539f, 0.024636f, -0.018292f, 
-0.008980f, 0.044901f, 0.065590f, 0.117904f, 0.026805f, 0.066113f, 0.059169f, 0.062368f, 
0.028868f, 0.044331f, 0.147322f, 0.205001f, 0.147449f, 0.049549f, 0.046234f, 0.076609f, 
0.115007f, 0.071753f, 0.011332f, 0.008348f, 0.042498f, 0.022270f, 0.035855f, 0.045785f, 
0.061482f, 0.082087f, 0.095595f, 0.059002f, -0.011537f, -0.028914f, -0.027150f, 0.063269f, 
0.034151f, 0.056732f, 0.099958f, 0.150953f, 0.091197f, 0.074469f, 0.099866f, 0.143448f, 
0.138316f, 0.057783f, 0.044178f, 0.066892f, 0.086710f, 0.108081f, 0.103336f, 0.064581f, 
0.000281f, -0.002689f, 0.013827f, 0.014133f, 0.035678f, 0.020720f, 0.024081f, 0.087925f, 
0.052934f, -0.007949f, -0.029015f, -0.062406f, 0.045669f, -0.008625f, 0.031097f, 0.093513f, 
0.099756f, 0.090924f, 0.094114f, 0.041022f, 0.121482f, 0.177147f, 0.117710f, 0.074848f, 
0.101648f, 0.112595f, 0.048947f, 0.041848f, 0.071936f, 0.073512f, 0.012059f, -0.030178f, 
-0.028571f, 0.009611f, 0.037614f, 0.012394f, 0.033003f, 0.048448f, 0.049100f, 0.006039f, 
-0.048590f, 0.033603f, -0.023004f, 0.053430f, 0.117827f, 0.078965f, 0.021164f, 0.052812f, 
0.017885f, 0.068202f, 0.181091f, 0.099981f, 0.062625f, 0.052514f, 0.091534f, 0.022268f, 
0.004342f, 0.122738f, 0.069878f, -0.008535f, -0.041585f, -0.055494f, -0.003259f, 0.047239f, 
0.021019f, 0.010318f, 0.052382f, 0.064558f, 0.019739f, -0.066066f, 0.044110f, -0.015069f, 
0.019779f, 0.094893f, 0.032952f, -0.020284f, -0.013490f, -0.017758f, 0.015723f, 0.115452f, 
0.066267f, 0.051909f, 0.016384f, 0.057017f, 0.026802f, -0.019840f, 0.024037f, -0.032696f, 
-0.042904f, -0.067344f, -0.114396f, -0.088266f, -0.041755f, 0.047074f, 0.027847f, 0.017598f, 
0.065824f, 0.029623f, -0.051157f, 0.012228f, -0.047786f, -0.001722f, 0.080412f, 0.077895f, 
0.010309f, 0.047097f, -0.057805f, -0.006652f, 0.106147f, 0.004343f, 0.029290f, 0.002704f, 
0.031208f, -0.002773f, -0.026548f, -0.010562f, -0.049154f, -0.084350f, -0.101107f, -0.089603f, 
-0.106520f, -0.065867f, 0.013574f, 0.019136f, 0.002427f, 0.001827f, 0.062248f, -0.038603f, 
0.010558f, -0.018984f, 0.019086f, 0.056937f, 0.069088f, 0.007537f, 0.013866f, -0.066523f, 
-0.075714f, 0.009587f, -0.030179f, -0.014361f, 0.000998f, 0.065263f, 0.008245f, -0.009792f, 
0.009516f, -0.034693f, -0.090366f, -0.095062f, -0.107077f, -0.103890f, -0.105190f, -0.042341f, 
0.023171f, 0.017883f, 0.000236f, 0.020272f, -0.017866f, -0.001183f, -0.076318f, -0.040825f, 
-0.010508f, -0.036539f, -0.016652f, -0.007813f, -0.080698f, -0.087366f, -0.047793f, -0.041180f, 
-0.025604f, 0.011781f, 0.070071f, 0.048873f, 0.079782f, 0.079699f, -0.019811f, -0.089132f, 
-0.070237f, -0.120231f, -0.080556f, -0.079114f, -0.016877f, 0.000646f, 0.002691f, 0.031757f, 
0.026825f, 0.018464f, 0.047013f, -0.041717f, -0.064998f, -0.043219f, -0.006777f, -0.011642f, 
-0.011740f, -0.060324f, -0.059755f, -0.069788f, -0.036405f, 0.068789f, 0.016180f, 0.032059f, 
0.063637f, 0.081800f, 0.060227f, -0.019532f, -0.069628f, -0.065697f, -0.092567f, -0.105038f, 
-0.014552f, 0.056086f, 0.043762f, 0.026301f, 0.048062f, 0.053117f, 0.031339f, 0.018307f, 
-0.018019f, -0.053784f, -0.144101f, -0.099402f, -0.007847f, -0.039691f, -0.105097f, -0.159518f, 
-0.148586f, -0.058655f, 0.047278f, -0.025135f, -0.012330f, 0.054276f, 0.053625f, 0.045735f, 
-0.023397f, -0.062769f, -0.056115f, -0.074856f, -0.072535f, -0.038224f, 0.013608f, 0.049018f, 
0.084386f, 0.053532f, 0.027826f, 0.014283f, -0.013793f, -0.130167f, -0.119121f, -0.145209f, 
-0.149149f, -0.044508f, -0.113022f, -0.114136f, -0.102103f, -0.131663f, -0.005113f, 0.008036f, 
-0.043020f, -0.034975f, 0.008251f, 0.037622f, 0.049887f, -0.017394f, -0.080273f, -0.069212f, 
-0.055223f, -0.081640f, -0.087206f, -0.029718f, 0.071800f, 0.104802f, 0.052860f, 0.036163f, 
0.082853f, 0.074271f, -0.211499f, -0.174024f, -0.168500f, -0.122456f, 0.007344f, -0.028480f, 
-0.041512f, 0.003651f, -0.063109f, 0.047577f, 0.024152f, -0.024229f, -0.076022f, -0.078509f, 
-0.088223f, -0.060914f, -0.073160f, -0.090881f, -0.057050f, -0.072538f, -0.124992f, -0.110599f, 
-0.001458f, 0.044410f, 0.065651f, 0.054260f, 0.093085f, 0.091677f, 0.127720f, -0.184548f, 
-0.112159f, -0.027268f, -0.066977f, -0.007875f, -0.025865f, -0.004962f, -0.004574f, -0.083223f, 
-0.016730f, 0.055808f, -0.008295f, -0.061355f, -0.115854f, -0.158246f, -0.120954f, -0.099170f, 
-0.083967f, -0.083038f, -0.117939f, -0.129083f, -0.106401f, -0.070224f, 0.015729f, 0.026316f, 
0.021915f, 0.076250f, 0.056693f, 0.134419f, -0.178817f, -0.166404f, -0.128972f, -0.157349f, 
-0.153717f, -0.099333f, -0.040617f, -0.016853f, -0.059426f, -0.098733f, -0.013825f, -0.071690f, 
-0.052957f, -0.032478f, -0.069317f, -0.140702f, -0.146044f, -0.098395f, -0.122537f, -0.173089f, 
-0.185513f, -0.191825f, -0.142379f, -0.061762f, -0.059323f, -0.058321f, -0.030433f, 0.005054f, 
0.055134f, -0.169754f, -0.188850f, -0.207601f, -0.143607f, -0.134665f, -0.112158f, -0.094018f, 
-0.053644f, 0.010608f, 0.010516f, 0.109902f, 0.071546f, 0.023721f, 0.030101f, -0.010124f, 
-0.157129f, -0.174918f, -0.110125f, -0.090143f, -0.127851f, -0.149008f, -0.179200f, -0.156882f, 
-0.080218f, -0.042039f, -0.062886f, -0.086903f, -0.045033f, 0.073009f, -0.106873f, -0.110543f, 
-0.133720f, -0.125927f, -0.122767f, -0.165078f, -0.203581f, -0.115991f, 0.003332f, 0.070396f, 
0.176080f, 0.143315f, 0.087586f, 0.067921f, 0.065829f, -0.030834f, -0.111912f, -0.082184f, 
-0.041725f, -0.069127f, -0.119897f, -0.168667f, -0.141991f, -0.042992f, -0.044434f, -0.067950f, 
-0.069987f, -0.005957f, 0.125608f, -0.068857f, -0.087412f, -0.132145f, -0.151515f, -0.160285f, 
-0.190027f, -0.238553f, -0.239993f, -0.141789f, -0.040785f, 0.030597f, 0.062283f, 0.021627f, 
0.037316f, 0.108412f, -0.003084f, -0.112516f, -0.086482f, -0.006587f, -0.027402f, -0.062561f, 
-0.078408f, -0.081114f, -0.031530f, 0.001475f, -0.021428f, -0.012164f, -0.018173f, 0.051367f, 
-0.058382f, -0.108060f, -0.183289f, -0.168616f, -0.100731f, -0.124632f, -0.220396f, -0.270700f, 
-0.202209f, -0.176029f, -0.128881f, -0.009837f, -0.007080f, 0.006369f, 0.025527f, -0.051898f, 
-0.132942f, -0.167024f, -0.087201f, -0.069970f, -0.065568f, -0.083942f, -0.098342f, -0.092860f, 
-0.060465f, -0.103888f, -0.101607f, -0.038824f, 0.036848f, 0.024197f, -0.149734f, -0.197023f, 
-0.157436f, -0.084222f, -0.055388f, -0.133806f, -0.217794f, -0.193954f, -0.192455f, -0.156053f, 
-0.029079f, -0.055796f, -0.043414f, -0.007989f, -0.012882f, -0.098976f, -0.172695f, -0.083191f, 
-0.031972f, -0.069853f, -0.047746f, -0.035584f, -0.087198f, -0.064597f, -0.043995f, -0.039264f, 
0.089133f, 0.114788f, 0.098475f, -0.030791f, -0.140192f, -0.173461f, -0.164910f, -0.078393f, 
-0.070936f, -0.111110f, -0.099613f, -0.173860f, -0.184531f, -0.101825f, -0.105200f, -0.102771f, 
-0.068098f, -0.024686f, -0.071081f, -0.126315f, -0.068210f, -0.013467f, 0.006905f, -0.014374f, 
0.036138f, -0.045913f, -0.060908f, 0.007479f, 0.084253f, 0.193272f, 0.177554f, -0.001880f, 
-0.069828f, -0.140172f, -0.190596f, -0.202821f, -0.171796f, -0.112513f, -0.115494f, -0.135442f, 
-0.151522f, -0.152245f, -0.143641f, -0.036892f, -0.089115f, -0.091603f, -0.051665f, -0.025458f, 
-0.038470f, -0.047417f, 0.034633f, 0.035051f, -0.003683f, 0.095707f, 0.005752f, -0.039340f, 
0.031901f, 0.081431f, 0.149228f, 0.164758f, -0.092472f, -0.047243f, -0.029097f, -0.087117f, 
-0.119916f, -0.137140f, -0.133178f, -0.149733f, -0.184629f, -0.144830f, -0.174263f, -0.079135f, 
-0.006494f, -0.017130f, -0.039100f, -0.029368f, -0.072177f, -0.030715f, 0.014535f, -0.020158f, 
0.003778f, 0.016422f, 0.084012f, 0.083297f, 0.007570f, 0.010407f, 0.014412f, 0.054843f, 
0.164282f, 0.022926f, 0.052647f, 0.072529f, 0.022075f, 0.001089f, -0.056869f, -0.107619f, 
-0.091693f, -0.073084f, -0.034420f, -0.043065f, -0.035539f, -0.047310f, -0.010683f, 0.024611f, 
-0.059857f, -0.101552f, -0.041487f, -0.050028f, -0.029066f, -0.031328f, -0.062309f, 0.011115f, 
0.101825f, 0.021562f, 0.043204f, 0.036536f, 0.047959f, 0.131815f, 0.052992f, 0.034677f, 
-0.004163f, -0.042998f, 0.006315f, 0.007820f, -0.039776f, 0.000091f, 0.091780f, 0.080378f, 
0.065801f, -0.087160f, -0.014267f, 0.046870f, 0.047103f, -0.033368f, -0.161619f, -0.126030f, 
-0.122445f, -0.073212f, -0.074465f, -0.091133f, -0.035708f, 0.081119f, 0.110190f, 0.166003f, 
0.125773f, 0.028409f, 0.082952f, 0.098867f, -0.016459f, -0.091537f, -0.111330f, -0.023755f, 
0.032478f, -0.023211f, -0.047775f, 0.075372f, 0.036575f, -0.002728f, -0.035980f, -0.001045f, 
0.017803f, 0.009656f, -0.052056f, -0.141528f, -0.138883f, -0.119258f, -0.108401f, -0.074780f, 
-0.102836f, -0.036857f, 0.098997f, 0.134248f, 0.143051f, 0.143973f, 0.056382f, 0.042720f, 
0.058749f, 0.030197f, -0.017069f, -0.028074f, -0.008821f, 0.070054f, 0.015765f, -0.058183f, 
0.048507f, 0.025858f, -0.029866f, 0.006845f, 0.060699f, 0.061795f, 0.056223f, -0.023255f, 
-0.072145f, -0.107972f, -0.129061f, -0.104775f, -0.047194f, -0.053449f, -0.020570f, 0.047747f, 
0.068877f, 0.107420f, 0.110057f, 0.039649f, -0.000776f, 0.058956f, 0.109151f, 0.147358f, 
0.094775f, 0.054032f, 0.096617f, 0.022967f, 0.023486f, 0.053502f, 0.069824f, -0.016856f, 
0.018750f, 0.105067f, 0.094850f, 0.065569f, 0.063890f, 0.046775f, -0.051094f, -0.079207f, 
-0.001786f, 0.043294f, 0.005407f, -0.027893f, 0.014413f, -0.020398f, 0.019447f, 0.040509f, 
0.041741f, 0.071058f, 0.108457f, 0.151504f, 0.177041f, 0.179483f, 0.148662f, 0.108101f, 
-0.014943f, 0.014670f, 0.078491f, 0.087974f, 0.036466f, 0.099234f, 0.151327f, 0.116134f, 
0.178641f, 0.132619f, 0.109249f, 0.036680f, -0.013813f, -0.051409f, 0.012556f, -0.051349f, 
-0.056647f, -0.052481f, -0.002305f, 0.052815f, 0.110035f, 0.062038f, 0.081851f, -0.050444f, 
-0.055169f, -0.093933f, -0.060167f, -0.055674f, -0.006254f, -0.031583f, -0.021674f, 0.044351f, 
0.041291f, 0.058811f, 0.071130f, 0.016038f, 0.053913f, 0.061951f, 0.089636f, 0.034226f, 
0.071128f, 0.064840f, 0.043508f, 0.033518f, 0.081012f, 0.071616f, 0.042746f, 0.049037f, 
0.047698f, -0.001300f, -0.017129f, -0.069276f, -0.077308f, -0.077434f, 0.000580f, -0.033531f, 
-0.013753f, 0.042003f, 0.026134f, -0.027142f, -0.023039f, 0.003546f, 0.001003f, -0.028403f, 
0.001994f, -0.003612f, 0.052740f, 0.073370f, 0.044521f, 0.078991f, 0.078144f, 0.061591f, 
0.038125f, 0.081133f, 0.075223f, 0.065065f, 0.021465f, 0.067447f, 0.028170f, 0.024857f, 
0.083149f, -0.032631f, -0.025699f, -0.017427f, 0.005634f, 0.010650f, 0.015695f, 0.009769f, 
-0.046004f, -0.054801f, -0.028677f, -0.009945f, 0.024888f, -0.006089f, 0.008110f, 0.007354f, 
0.034943f, 0.031852f, 0.040905f, 0.063027f, 0.049256f, 0.083506f, 0.007365f, 0.019649f, 
-0.007358f, -0.013510f, 0.031123f, 0.073633f, 0.041302f, 0.017174f, -0.042952f, -0.049132f, 
-0.054072f, -0.037653f, -0.040732f, 0.014448f, -0.040680f, -0.016187f, -0.007768f, 0.019521f, 
-0.004946f, 0.005058f, -0.029121f, -0.044455f, 0.000377f, 0.044580f, 0.041554f, 0.009371f, 
0.044254f, 0.070269f, 0.088307f, 0.059531f, 0.035917f, -0.001744f, 0.011793f, 0.019580f, 
0.034156f, 0.040231f, 0.022138f, 0.000937f, 0.006633f, 0.012352f, 0.005050f, 0.005542f, 
0.017146f, 0.000540f, -0.047049f, -0.047165f, -0.015150f, -0.015412f, -0.075809f, 0.005482f, 
-0.006451f, 0.015725f, 0.049177f, 0.071748f, 0.078055f, 0.077649f, 0.048402f, -0.006249f, 
0.010333f, -0.003718f, -0.033001f, 0.005268f, -0.018925f, 0.014964f, 0.036561f, 0.022973f, 
-0.002259f, -0.044318f, -0.026174f, -0.013447f, 0.018789f, 0.007189f, 0.050807f, -0.049485f, 
0.013300f, -0.000632f, 0.010245f, -0.044646f, -0.032641f, 0.029902f, 0.011033f, 0.047483f, 
0.010011f, 0.007520f, 0.017891f, 0.032723f, 0.024361f, 0.028873f, -0.008116f, 0.028911f, 
0.002737f, -0.004177f, 0.032261f, 0.037225f, 0.048722f, -0.016862f, -0.015530f, -0.009820f, 
0.020180f, 0.036852f, 0.015925f, 0.023403f, -0.053244f, -0.000050f, -0.015708f, -0.021021f, 
-0.002108f, -0.003895f, 0.034766f, 0.018242f, 0.051378f, 0.082997f, 0.077859f, 0.068716f, 
0.075689f, 0.040644f, 0.017298f, 0.023462f, 0.046976f, 0.026433f, 0.015202f, 0.040362f, 
0.015588f, 0.008578f, 0.002329f, -0.008881f, -0.006340f, -0.023494f, -0.014998f, -0.003511f, 
-0.000683f, -0.025330f, 0.045948f, -0.023510f, -0.043354f, -0.019674f, -0.013879f, 0.025243f, 
0.050704f, 0.066506f, 0.072687f, 0.074597f, 0.063190f, 0.090116f, 0.084096f, 0.057240f, 
0.015031f, 0.007027f, 0.043863f, -0.023066f, -0.024320f, 0.015336f, -0.000828f, -0.008616f, 
-0.014852f, -0.006460f, 0.000599f, -0.020870f, -0.009327f, 0.008720f, -0.003735f, -0.045918f, 
-0.022336f, -0.054575f, -0.000557f, 0.035818f, 0.029080f, 0.062284f, 0.045641f, 0.067811f, 
0.044108f, 0.048836f, 0.021602f, 0.035393f, 0.027845f, 0.010728f, 0.030057f, 0.003284f, 
0.044038f, 0.020494f, 0.048127f, 0.068692f, 0.037862f, 0.013602f, 0.006899f, -0.002345f, 
0.000135f, 0.028243f, 0.020000f, 0.011166f, -0.022874f, -0.035709f, -0.015902f, -0.034491f, 
-0.020787f, 0.018002f, 0.048395f, 0.024558f, 0.064060f, 0.058350f, 0.076171f, 0.057748f, 
0.071046f, 0.094630f, 0.019726f, 0.022471f, 0.022898f, 0.019540f, 0.036590f, 0.012539f, 
-0.000556f, 0.020337f, -0.005443f, -0.059913f, -0.060723f, -0.044302f, -0.027318f, 0.000406f, 
-0.085009f, -0.044792f, -0.089041f, -0.054850f, -0.020063f, -0.032135f, -0.002407f, 0.022471f, 
0.030619f, -0.002442f, -0.020040f, 0.010642f, 0.052007f, 0.038126f, 0.021441f, 0.013342f, 
0.018401f, 0.038274f, 0.018278f, 0.013409f, 0.031910f, 0.027455f, -0.005784f, 0.003536f, 
-0.000045f, 0.000522f, -0.008144f, 0.069402f, 0.078644f, 0.099412f, 0.016027f, 0.004568f, 
-0.019157f, -0.070351f, -0.047415f, 0.008070f, -0.002853f, 0.012878f, 0.022038f, 0.004234f, 
0.024999f, 0.050083f, 0.084685f, 0.021765f, -0.020681f, 0.019811f, -0.000396f, 0.043291f, 
0.019104f, 0.044937f, 0.073744f, -0.022631f, -0.025307f, 0.028998f, 0.013913f, 0.040693f, 
0.040849f, 0.016590f, -0.034883f, -0.025460f, 0.025553f, -0.022524f, 0.003074f, -0.011824f, 
-0.034718f, -0.025684f, -0.020532f, 0.015521f, 0.046287f, 0.067058f, 0.051457f, 0.074681f, 
0.017391f, 0.028248f, 0.005714f, 0.000424f, 0.055169f, 0.016749f, 0.064159f, 0.050262f, 
0.013621f, 0.032511f, 0.019052f, -0.008623f, 0.005293f, 0.011461f, 0.006895f, 0.011970f, 
-0.021830f, -0.038942f, -0.090908f, -0.037938f, -0.001210f, 0.022990f, 0.026980f, 0.065627f, 
0.009297f, 0.006140f, 0.000376f, 0.049605f, 0.033486f, 0.052164f, 0.050555f, 0.023353f, 
0.009857f, 0.050448f, 0.044265f, 0.031571f, 0.040393f, 0.016667f, -0.003773f, -0.011354f, 
-0.029286f, -0.027197f, 0.008125f, -0.009291f, -0.015336f, -0.000695f, -0.044116f, -0.064568f, 
-0.046282f, 0.007217f, 0.031711f, 0.042993f, 0.056647f, 0.051661f, 0.023369f, 0.048006f, 
0.064665f, 0.073053f, 0.045055f, -0.038296f, -0.026375f, -0.019156f, 0.003418f, 0.017294f, 
0.026509f, 0.047023f, 0.022073f, 0.034448f, 0.012591f, 0.021708f, 0.022128f, 0.008737f, 
0.002706f, 0.005897f, 0.017636f, 0.035613f, -0.010897f, -0.029384f, 0.006214f, 0.006175f, 
0.009095f, 0.006153f, -0.006093f, 0.036437f, 0.056894f, 0.083375f, 0.065699f, 0.069406f, 
0.034580f, 0.034643f, 0.060137f, 0.019909f, -0.000756f, 0.040026f, 0.036638f, 0.048328f, 
0.061649f, 0.071039f, 0.014937f, 0.011341f, 0.034548f, -0.018795f, -0.026972f, -0.048732f, 
-0.002831f, -0.048913f, -0.045805f, -0.031157f, -0.005409f, 0.001019f, -0.015187f, -0.014803f, 
0.046162f, 0.040087f, 0.088382f, 0.087045f, 0.042937f, 0.045650f, 0.051658f, 0.048558f, 
0.065350f, 0.022238f, 0.022762f, -0.001277f, 0.024016f, 0.044049f, 0.029995f, -0.017775f, 
-0.004822f, -0.002530f, -0.020984f, -0.017677f, -0.036848f, -0.043970f, -0.060058f, -0.111254f, 
-0.033219f, -0.059612f, -0.023600f, -0.001972f, 0.006280f, 0.036332f, 0.022415f, -0.015686f, 
0.045648f, 0.040397f, 0.021130f, 0.038740f, 0.039631f, -0.004221f, 0.001919f, -0.009301f, 
-0.043686f, 0.015575f, 0.028565f, -0.002521f, 0.012007f, 0.000333f, -0.014201f, 0.049587f, 
0.006265f, 0.000491f, 0.025616f, -0.005085f, -0.063754f, -0.041538f, -0.008903f, -0.027716f, 
-0.022628f, -0.043087f, -0.022369f, 0.008841f, -0.033964f, 0.004084f, -0.030743f, -0.029013f, 
0.027283f, 0.023876f, -0.034109f, 0.033495f, -0.036747f, 0.042713f, 0.035909f, 0.051906f, 
0.023429f, 0.003143f, 0.024896f, 0.023173f, 0.027862f, 0.041907f, 0.002497f, 0.032647f, 
-0.057076f, -0.048065f, -0.033266f, -0.037549f, -0.029911f, -0.046405f, -0.005501f, 0.034893f, 
0.018372f, 0.017470f, 0.062027f, 0.038201f, 0.076268f, 0.068342f, 0.097991f, 0.083593f, 
0.071094f, 0.086117f, 0.080539f, 0.064303f, 0.034079f, 0.030432f, 0.028484f, -0.016175f, 
0.015992f, 0.046870f, 0.016285f, 0.015731f, 0.047035f, -0.036044f, -0.013565f, -0.020949f, 
-0.026712f, -0.018699f, -0.031662f, 0.038521f, 0.029324f, 0.022357f, 0.012998f, 0.025701f, 
-0.007666f, 0.049621f, 0.052602f, 0.026949f, 0.014065f, 0.015825f, 0.019244f, 0.028617f, 
-0.002911f, -0.026121f, 0.021216f, 0.024129f, -0.005243f, -0.016611f, 0.004956f, -0.005170f, 
-0.009348f, -0.005937f, -0.036090f, 0.008356f, -0.005170f, -0.032963f, 0.001507f, 0.011265f, 
0.004708f, 0.055349f, 0.035563f, 0.045930f, 0.006004f, 0.025717f, 0.031087f, 0.026193f, 
0.001456f, 0.006251f, -0.026855f, 0.007382f, -0.010438f, 0.024785f, 0.057551f, 0.064688f, 
0.064794f, 0.079689f, 0.065803f, 0.048409f, 0.031554f, 0.018271f, 0.049014f, 0.044173f, 
0.040058f, 0.002928f, 0.012007f, -0.007043f, 0.017332f, 0.044029f, 0.027497f, 0.015868f, 
0.008929f, -0.004340f, -0.033226f, 0.006242f, -0.014906f, -0.002773f, -0.027898f, -0.007203f, 
-0.012452f, -0.001558f, 0.027112f, 0.040967f, 0.062175f, 0.054673f, 0.051844f, 0.050581f, 
0.067787f, 0.066608f, 0.049672f, 0.078554f, 0.083247f, 0.078018f, 0.025291f, -0.012238f, 
0.027959f, 0.019104f, 0.030007f, 0.010706f, 0.015750f, 0.007598f, -0.022783f, -0.027589f, 
-0.046911f, -0.002581f, -0.024947f, -0.016212f, 0.014364f, 0.011880f, -0.008350f, -0.026749f, 
0.016910f, 0.015930f, -0.019246f, 0.006700f, 0.018193f, 0.043021f, 0.035192f, 0.016175f, 
0.017283f, 0.053174f, 0.018399f, 0.014594f, -0.044206f, -0.058116f, -0.018703f, -0.001700f, 
-0.008401f, -0.002008f, 0.042062f, -0.019364f, 0.006081f, 0.026759f, 0.045823f, -0.006218f, 
-0.017493f, 0.006237f, -0.007389f, -0.007913f, 0.011422f, -0.002070f, 0.028110f, -0.006443f, 
0.035190f, 0.029025f, 0.032912f, 0.020171f, -0.005861f, 0.006293f, -0.010131f, -0.049633f, 
-0.014093f, 0.002684f, 0.019798f, 0.028440f, 0.025728f, 0.075905f, 0.048480f, 0.020161f, 
0.019180f, 0.015078f, -0.005255f, -0.011720f, -0.022390f, -0.053677f, -0.061928f, -0.059211f, 
-0.071714f, 0.000795f, 0.023944f, 0.012969f, 0.037322f, 0.039103f, 0.096725f, 0.093251f, 
0.063404f, 0.041012f, 0.029122f, 0.009835f, 0.033088f, 0.028265f, 0.009309f, -0.007535f, 
0.027648f, 0.061082f, 0.005095f, 0.049143f, 0.018793f, -0.018865f, 0.000361f, 0.018428f, 
-0.050579f, -0.080926f, -0.107548f, -0.101672f, -0.047179f, -0.040711f, -0.017881f, 0.020130f, 
0.036004f, 0.021888f, 0.027655f, 0.024617f, 0.066184f, 0.037386f, 0.009007f, 0.022607f, 
0.005966f, -0.012042f, 0.001200f, 0.006387f, 0.020598f, 0.010872f, 0.057154f, 0.006395f, 
0.015996f, -0.005236f, 0.025496f, -0.030958f, -0.104441f, -0.074891f, -0.063816f, -0.061399f, 
-0.019372f, 0.025029f, 0.031053f, -0.003910f, -0.001651f, -0.006357f, 0.018181f, -0.025405f, 
-0.046610f, 0.015641f, 0.009086f, 0.011724f, 0.031164f, -0.002474f, 0.006937f, 0.041581f, 
0.012469f, -0.007763f, -0.024515f, -0.022438f, -0.043686f, -0.048143f, -0.086754f, -0.115961f, 
-0.097330f, -0.104588f, -0.057193f, -0.028441f, -0.057729f, -0.019797f, -0.009064f, -0.006554f, 
-0.043576f, -0.024728f, 0.004052f, 0.000749f, -0.030915f, -0.034366f, -0.028429f, -0.013375f, 
-0.038619f, -0.012735f, -0.010606f, -0.012735f, -0.015875f, -0.016331f, -0.030179f, -0.039873f, 
-0.052397f, -0.031890f, -0.055513f, -0.038201f, -0.019061f, 0.006747f, -0.026434f, -0.004641f, 
-0.020128f, -0.020024f, -0.008612f, 0.007885f, -0.043246f, -0.042196f, -0.015386f, -0.014730f, 
-0.033225f, -0.039682f, -0.052704f, -0.032520f, -0.033924f, -0.039120f, -0.029319f, -0.015591f, 
-0.029508f, -0.006766f, -0.009289f, -0.003225f, -0.044315f, -0.020214f, -0.032604f, -0.043794f, 
-0.051825f, -0.046707f, -0.004865f, -0.020297f, -0.014699f, -0.010656f, -0.017478f, -0.006899f, 
-0.022835f, -0.014148f, 0.010279f, 0.005022f, -0.000633f, -0.010621f, -0.050284f, -0.027980f, 
-0.039032f, -0.029986f, -0.025536f, -0.008805f, -0.010435f, 0.002065f, -0.017326f, -0.019958f, 
0.001232f, -0.030183f, -0.041986f, -0.025580f, -0.042702f, -0.037273f, -0.020555f, 0.000745f, 
-0.004619f, -0.011287f, 0.008352f, -0.001795f, -0.034661f, -0.041106f, -0.018812f, 0.007976f, 
-0.018097f, -0.005836f, -0.016210f, -0.024552f, -0.015361f, -0.005638f, -0.032480f, -0.017856f, 
0.001495f, 0.001622f, 0.009836f, -0.012187f, -0.001069f, -0.002245f, -0.002703f, -0.020340f, 
-0.020972f, -0.029923f, -0.046462f, -0.013483f, 0.012440f, -0.009832f, 0.009036f, 0.006292f, 
-0.010207f, -0.022003f, -0.030877f, 0.007508f, -0.015103f, -0.004633f, -0.024694f, -0.030754f, 
-0.042379f, -0.050419f, -0.031310f, -0.045015f, -0.041184f, -0.025499f, 0.002427f, 0.007080f, 
-0.005028f, -0.024376f, -0.020095f, -0.035356f, -0.005537f, -0.009450f, -0.039044f, -0.043724f, 
-0.021913f, 0.009619f, -0.007551f, -0.000212f, -0.007823f, -0.004091f, -0.009109f, -0.018575f, 
0.001304f, -0.014400f, -0.014238f, -0.030245f, -0.010886f, -0.024032f, -0.036857f, -0.007567f, 
-0.041675f, -0.021904f, 0.002052f, -0.013567f, -0.012149f, 0.004076f, -0.012491f, -0.010482f, 
-0.055002f, -0.039355f, -0.034601f, -0.007231f, -0.016036f, -0.005641f, -0.011949f, -0.013300f, 
0.004395f, 0.021597f, -0.007583f, -0.020658f, 0.010250f, 0.009353f, -0.030277f, -0.033928f, 
-0.033921f, -0.026846f, -0.020027f, -0.054528f, -0.017069f, -0.020976f, -0.021036f, -0.011485f, 
-0.007670f, 0.005874f, -0.021438f, -0.029130f, -0.033656f, -0.035881f, -0.049415f, -0.040170f, 
0.009274f, -0.007023f, -0.005769f, -0.020617f, 0.002223f, 0.013870f, 0.018009f, 0.005048f, 
0.010484f, 0.009428f, 0.009483f, -0.042843f, -0.041440f, -0.020398f, -0.027525f, -0.006463f, 
-0.036685f, -0.016929f, -0.024825f, -0.006622f, -0.018833f, -0.017363f, -0.005758f, -0.011441f, 
-0.021848f, -0.031597f, -0.051156f, -0.034204f, -0.015287f, 0.015023f, 0.014158f, 0.002742f, 
0.004071f, -0.010790f, 0.015763f, -0.001404f, 0.007278f, -0.009364f, 0.017545f, 0.000342f, 
-0.039269f, -0.035069f, -0.015294f, -0.005772f, -0.006072f, -0.022924f, -0.007342f, -0.023390f, 
-0.028528f, -0.004285f, -0.020430f, 0.004379f, -0.032802f, -0.015652f, -0.031017f, -0.045186f, 
-0.035614f, -0.018156f, -0.006589f, -0.002567f, -0.003069f, -0.000332f, -0.003113f, 0.026221f, 
-0.001048f, -0.008833f, -0.006725f, -0.006285f, -0.008917f, -0.013534f, -0.049138f, -0.041553f, 
-0.008853f, -0.033980f, -0.025150f, -0.005826f, -0.026307f, -0.043547f, -0.022276f, -0.015992f, 
-0.003305f, -0.019164f, -0.031165f, 0.001780f, -0.019621f, -0.013085f, -0.012210f, -0.012053f, 
0.015472f, -0.009747f, -0.001810f, 0.021403f, 0.015854f, 0.014365f, 0.017088f, 0.017767f, 
-0.015394f, 0.012858f, -0.025310f, -0.030096f, -0.026015f, -0.027725f, -0.037428f, -0.020809f, 
-0.022398f, -0.011968f, -0.007337f, -0.037016f, -0.023137f, -0.000669f, -0.000220f, -0.013783f, 
0.011122f, 0.009282f, 0.022788f, -0.003854f, 0.005244f, 0.015739f, 0.000861f, -0.014833f, 
0.013900f, 0.017225f, -0.007346f, 0.023472f, 0.021904f, 0.012921f, -0.003444f, -0.005831f, 
-0.026263f, -0.009890f, -0.003439f, -0.029642f, -0.031882f, -0.021212f, -0.015599f, -0.016171f, 
-0.029346f, -0.016606f, 0.000197f, 0.013086f, -0.005074f, 0.030925f, 0.015208f, 0.024237f, 
0.001962f, 0.024212f, 0.002974f, -0.009567f, -0.008571f, 0.004570f, 0.008293f, 0.014412f, 
0.014846f, 0.014939f, 0.006251f, 0.012540f, -0.027880f, -0.019789f, -0.001961f, -0.006257f, 
0.010386f, -0.010347f, -0.018833f, -0.013020f, -0.013655f, -0.014899f, -0.003134f, 0.001986f, 
0.021859f, 0.026958f, 0.029075f, 0.064757f, 0.058025f, 0.038940f, 0.033877f, 0.039196f, 
0.019896f, -0.000994f, 0.018876f, 0.015391f, 0.001044f, 0.005153f, 0.021627f, -0.009800f, 
-0.002512f, -0.015348f, -0.007527f, -0.010720f, -0.008811f, 0.022209f, 0.004048f, -0.004476f, 
-0.010752f, -0.006301f, -0.011512f, -0.012359f, -0.009052f, 0.037549f, 0.030724f, 0.039202f, 
0.049878f, 0.050924f, 0.048130f, 0.050003f, 0.033122f, 0.026293f, 0.010760f, 0.000716f, 
0.030403f, 0.007773f, 0.018840f, 0.009585f, -0.012385f, -0.000215f, 0.003372f, -0.005722f, 
-0.015477f, -0.010848f, 0.018581f, -0.002622f, 0.013103f, -0.027826f, -0.017590f, 0.012115f, 
-0.013160f, 0.020068f, -0.005617f, 0.022892f, 0.041397f, 0.050754f, 0.040080f, 0.047497f, 
0.032053f, 0.013708f, 0.037136f, 0.024010f, 0.015211f, 0.018133f, 0.009764f, 0.018679f, 
0.018260f, 0.007186f, -0.002000f, -0.011415f, -0.012591f, -0.016928f, -0.015420f, 0.009721f, 
0.019801f, -0.010017f, -0.020101f, -0.002140f, -0.034250f, 0.001553f, 0.009553f, -0.005596f, 
-0.009206f, 0.018824f, 0.006182f, 0.038666f, 0.029004f, 0.030497f, 0.014652f, 0.015665f, 
0.014094f, 0.031870f, 0.029232f, 0.026687f, 0.018131f, 0.010270f, -0.014965f, -0.001911f, 
-0.006945f, -0.023484f, -0.006866f, -0.009692f, -0.018199f, 0.022321f, 0.020319f, 0.016460f, 
0.013102f, -0.010045f, -0.029794f, 0.004442f, -0.010073f, -0.003357f, 0.002653f, -0.001749f, 
0.022310f, 0.001744f, 0.014321f, 0.030777f, 0.000255f, 0.037231f, 0.023122f, 0.029581f, 
0.014360f, -0.019997f, -0.004878f, -0.013134f, -0.022580f, -0.018846f, -0.019127f, -0.015892f, 
-0.014455f, 0.005947f, 0.006871f, 0.005591f, -0.003595f, -0.007713f, -0.027760f, -0.046250f, 
-0.015067f, -0.004914f, -0.024203f, -0.025701f, -0.013783f, 0.002433f, -0.008450f, -0.006980f, 
0.008568f, 0.027900f, 0.034548f, 0.037953f, 0.023133f, -0.007467f, 0.008639f, -0.007188f, 
-0.014331f, -0.017097f, 0.002416f, 0.009253f, 0.014492f, -0.015152f, 0.003345f, -0.008477f, 
0.023047f, 0.005070f, -0.007122f, -0.007967f, -0.014697f, -0.006063f, -0.006991f, -0.004804f, 
-0.036098f, -0.032929f, -0.019807f, -0.021994f, -0.022534f, 0.024163f, 0.017860f, 0.057957f, 
0.013955f, -0.003308f, -0.015135f, 0.020094f, -0.015016f, -0.011695f, 0.003403f, 0.015057f, 
-0.010838f, 0.000510f, -0.009254f, 0.012108f, -0.013882f, -0.018258f, -0.011615f, 0.010800f, 
-0.030195f, -0.025371f, -0.034035f, -0.013889f, -0.014232f, -0.030649f, -0.043015f, -0.045610f, 
-0.047314f, -0.030339f, -0.002596f, 0.013994f, 0.040807f, -0.000116f, 0.014562f, 0.007579f, 
0.009429f, 0.000166f, -0.008123f, -0.006219f, 0.013404f, -0.001063f, 0.012284f, 0.001884f, 
-0.001890f, 0.009235f, 0.006080f, -0.004217f, 0.003923f, -0.032309f, -0.040214f, -0.039217f, 
-0.037234f, -0.023252f, -0.025162f, -0.053550f, -0.049578f, -0.013659f, -0.026859f, 0.020177f, 
0.013015f, 0.017053f, 0.026193f, 0.003523f, 0.002026f, 0.014565f, 0.007993f, 0.000411f, 
-0.019955f, 0.006460f, 0.003689f, 0.005101f, -0.023333f, -0.025341f, 0.010140f, -0.007437f, 
-0.018469f, -0.005420f, -0.003240f, 0.004211f, -0.037379f, -0.029644f, -0.026188f, -0.012227f, 
-0.024602f, -0.017930f, -0.009915f, -0.017531f, 0.019474f, 0.019521f, 0.012473f, 0.018399f, 
0.018056f, -0.006320f, -0.001767f, -0.011240f, -0.017557f, 0.002982f, 0.004792f, 0.004928f, 
-0.017986f, -0.026127f, 0.006044f, 0.006534f, 0.006495f, -0.029356f, -0.013833f, -0.022361f, 
-0.030840f, -0.030236f, -0.018522f, -0.003375f, -0.002812f, 0.005509f, -0.006459f, -0.000987f, 
0.002267f, 0.009181f, 0.005992f, 0.005607f, 0.028735f, 0.008400f, 0.018954f, 0.007099f, 
0.016446f, -0.002881f, 0.016687f, -0.001326f, -0.004131f, 0.002409f, -0.016384f, -0.017441f, 
-0.018471f, 0.002108f, -0.017930f, -0.027271f, -0.040006f, -0.045205f, -0.034297f, -0.020214f, 
-0.005499f, 0.008751f, -0.003343f, -0.018394f, 0.008789f, 0.008966f, -0.004052f, -0.001760f, 
0.029796f, 0.021840f, 0.024723f, 0.008486f, 0.021574f, 0.016719f, 0.005299f, 0.017162f, 
0.000743f, -0.010759f, -0.002409f, -0.022046f, -0.014544f, -0.011249f, -0.018067f, -0.031935f, 
-0.028326f, -0.014596f, -0.046704f, -0.052821f, -0.013856f, 0.009233f, -0.017754f, -0.025169f, 
-0.003949f, 0.003808f, 0.023655f, 0.024299f, 0.020444f, 0.027649f, 0.023142f, 0.026068f, 
0.010540f, 0.006230f, 0.015083f, 0.007277f, -0.001941f, -0.006002f, 0.003807f, -0.001792f, 
-0.003305f, 0.004552f, -0.024120f, -0.032074f, -0.014530f, -0.005449f, -0.029229f, -0.038839f, 
-0.035679f, -0.026423f, 0.003952f, 0.014633f, -0.001904f, 0.003199f, 0.006040f, 0.002173f, 
0.012691f, 0.015844f, 0.034114f, 0.038673f, 0.028768f, 0.013820f, 0.023620f, 0.013006f, 
-0.002552f, -0.003597f, 0.009804f, 0.005787f, -0.001150f, -0.012688f, -0.011808f, -0.032228f, 
-0.014944f, -0.018521f, -0.030632f, -0.034101f, -0.037441f, -0.038685f, -0.005765f, 0.006688f, 
0.020193f, 0.020001f, -0.003443f, 0.017029f, 0.025943f, 0.017650f, 0.023742f, 0.024177f, 
0.035063f, 0.043970f, 0.019715f, 0.016623f, -0.002283f, -0.000113f, -0.001618f, -0.001669f, 
-0.009935f, -0.012640f, 0.003581f, -0.027699f, -0.029688f, -0.012152f, -0.024704f, -0.030493f, 
-0.013360f, -0.028770f, -0.016747f, -0.019114f, -0.015405f, -0.009599f, 0.007558f, 0.007697f, 
0.014858f, 0.002731f, 0.013740f, 0.026007f, 0.038644f, 0.034021f, 0.040101f, 0.039459f, 
0.027727f, 0.021404f, 0.017491f, -0.006896f, 0.023149f, 0.004686f, -0.018889f, -0.008730f, 
-0.008796f, -0.000242f, -0.030001f, -0.003143f, -0.022098f, -0.002955f, -0.005912f, -0.003031f, 
-0.022052f, -0.022048f, -0.012381f, 0.001557f, 0.006952f, -0.001718f, 0.015662f, 0.022746f, 
0.033337f, 0.024515f, 0.002423f, 0.021652f, 0.033829f, 0.004754f, 0.023274f, 0.017116f, 
0.010862f, -0.075765f, -0.063642f, 0.007631f, -0.065971f, -0.083163f, -0.069571f, -0.059935f, 
-0.052925f, -0.043275f, -0.068353f, -0.056020f, -0.052952f, -0.053393f, -0.064571f, -0.083791f, 
-0.089672f, -0.054240f, -0.002883f, -0.033724f, -0.043070f, -0.035635f, -0.025413f, -0.032300f, 
-0.022847f, -0.015513f, -0.055769f, -0.093722f, -0.148652f, -0.140419f, -0.049828f, -0.020019f, 
-0.056555f, -0.067771f, -0.070086f, -0.062380f, -0.046633f, -0.084978f, -0.089499f, -0.102980f, 
-0.099645f, -0.094214f, -0.077808f, -0.065562f, -0.067630f, -0.092622f, -0.045757f, -0.018923f, 
-0.009682f, -0.005058f, -0.023065f, -0.012958f, -0.029570f, -0.022548f, 0.001951f, -0.038898f, 
-0.149928f, -0.156589f, -0.150226f, 0.004589f, -0.033207f, -0.058091f, -0.059288f, -0.067746f, 
-0.037659f, -0.068005f, -0.072642f, -0.049941f, -0.031093f, -0.019027f, -0.036452f, -0.039386f, 
-0.050941f, -0.074226f, -0.041697f, -0.042817f, -0.062420f, -0.043018f, -0.002797f, 0.025118f, 
0.003171f, -0.007623f, 0.002916f, -0.002469f, -0.017005f, -0.029670f, -0.085854f, -0.107306f, 
-0.049171f, -0.039552f, -0.043227f, -0.047137f, -0.066059f, -0.025939f, -0.031073f, -0.029152f, 
-0.015549f, -0.021062f, -0.020361f, 0.011580f, -0.018783f, -0.028957f, -0.041220f, -0.039744f, 
-0.039663f, -0.031189f, -0.057573f, -0.030385f, 0.009907f, -0.017925f, -0.020465f, -0.024869f, 
-0.044828f, -0.044002f, -0.031622f, 0.000670f, -0.056839f, -0.045967f, -0.034560f, -0.040630f, 
-0.020921f, -0.026843f, 0.010774f, 0.002472f, -0.035212f, -0.017809f, 0.011909f, 0.029261f, 
0.034544f, 0.004497f, 0.025263f, -0.005523f, -0.023082f, -0.037658f, -0.047826f, -0.045158f, 
-0.030495f, -0.037977f, -0.037742f, -0.045939f, -0.060922f, -0.055619f, -0.057027f, -0.005833f, 
-0.001007f, -0.020431f, -0.016036f, -0.023922f, -0.039206f, -0.017485f, -0.037126f, -0.010335f, 
-0.005489f, -0.010239f, 0.016135f, 0.028434f, 0.031615f, 0.018513f, -0.007731f, 0.008464f, 
0.022434f, -0.003269f, -0.033826f, -0.056543f, -0.033941f, -0.032293f, -0.002491f, -0.036892f, 
-0.009468f, -0.020831f, -0.037888f, -0.027140f, -0.006696f, 0.006479f, -0.033973f, -0.017771f, 
-0.033171f, -0.026316f, -0.062161f, -0.065351f, -0.008627f, -0.021374f, -0.005151f, 0.016644f, 
0.019097f, -0.032695f, -0.002421f, -0.051531f, -0.039898f, -0.043331f, -0.041510f, -0.075064f, 
-0.019997f, -0.030804f, -0.012644f, -0.024342f, -0.000700f, 0.027155f, -0.009280f, -0.024801f, 
-0.007832f, 0.025176f, 0.008454f, 0.008413f, -0.026398f, -0.015757f, -0.032650f, -0.070266f, 
-0.053003f, -0.023062f, -0.013581f, -0.005961f, -0.022917f, -0.052637f, -0.053073f, -0.055317f, 
-0.076489f, -0.090497f, -0.109684f, -0.087423f, -0.087208f, -0.031870f, -0.030264f, -0.032247f, 
-0.007414f, -0.016607f, 0.037733f, 0.017045f, 0.031170f, 0.006830f, -0.004062f, 0.037572f, 
0.033127f, -0.027989f, -0.026130f, -0.013867f, -0.059991f, -0.039820f, -0.028063f, -0.042019f, 
-0.034116f, -0.035307f, -0.050960f, -0.049140f, -0.064071f, -0.059480f, -0.046551f, -0.074235f, 
-0.056330f, -0.003083f, 0.010114f, -0.024870f, 0.010821f, -0.015205f, -0.007237f, -0.015169f, 
0.004580f, 0.018575f, 0.023554f, 0.036058f, 0.001365f, 0.013069f, -0.031653f, -0.032783f, 
0.003661f, -0.045366f, -0.032658f, -0.049083f, -0.041472f, -0.019683f, 0.001154f, -0.039717f, 
-0.031257f, -0.048292f, -0.036586f, -0.024902f, -0.032860f, 0.014690f, 0.005725f, 0.001965f, 
-0.008789f, 0.006536f, 0.016365f, 0.017774f, 0.006907f, 0.003904f, 0.001026f, 0.030104f, 
0.025902f, 0.013345f, 0.026291f, -0.014817f, -0.003543f, 0.002566f, 0.006692f, 0.014826f, 
-0.023601f, -0.059462f, -0.046159f, -0.014033f, -0.021657f, -0.030943f, -0.029296f, -0.045369f, 
-0.045753f, -0.034350f, 0.022757f, -0.000337f, 0.005036f, 0.007035f, 0.026720f, 0.013826f, 
0.013994f, 0.023800f, -0.013207f, 0.000097f, -0.004827f, 0.015003f, 0.025590f, 0.017561f, 
-0.014417f, -0.021568f, 0.004937f, 0.009541f, 0.029743f, -0.003504f, -0.032412f, -0.049693f, 
-0.047766f, -0.009804f, -0.032977f, -0.020108f, -0.014773f, -0.019055f, -0.007348f, 0.028683f, 
0.023586f, 0.011226f, 0.025469f, 0.032901f, 0.001994f, 0.019688f, 0.045137f, 0.013154f, 
0.010871f, 0.019871f, -0.005441f, -0.018947f, -0.013037f, -0.026283f, -0.004081f, -0.008743f, 
-0.016148f, 0.003411f, 0.026688f, 0.019484f, -0.010241f, -0.022948f, -0.001541f, -0.022483f, 
-0.014062f, -0.016877f, 0.015123f, 0.030555f, 0.015960f, 0.008934f, 0.001937f, 0.020007f, 
0.003708f, -0.018911f, 0.004730f, 0.026619f, 0.019411f, 0.017811f, -0.016515f, -0.025736f, 
-0.008527f, -0.053663f, -0.029941f, -0.018334f, -0.013037f, -0.015386f, -0.021710f, 0.024114f, 
0.029426f, 0.005641f, -0.007442f, 0.002478f, 0.021515f, 0.042935f, 0.022791f, 0.025133f, 
0.019141f, 0.006903f, -0.011666f, 0.001640f, -0.009184f, -0.011799f, -0.010185f, 0.005615f, 
