#ifndef MY_MODEL_H
#define MY_MODEL_H
// ======================================================
// IMPORTANT: After copying this file to your sketch folder,
// update BOTH of the following lines in your main sketch
// to match the number of classes and labels used during training:
//
//   #define NUM_CLASSES 2
//   String myClassLabels[NUM_CLASSES] = {"0Blank", "1Circle"};
//
// Then uncomment:  #define USE_BAKED_WEIGHTS
// ======================================================
const float myModel_conv1_w[] = { 0.102839f, 0.004846f, 0.049012f, 0.026688f, -0.066175f, -0.134533f, -0.167989f, 0.062640f, 
-0.093914f, 0.192171f, -0.225109f, -0.042984f, 0.209948f, -0.090608f, 0.265236f, -0.229477f, 
0.223427f, -0.217222f, 0.236610f, 0.016338f, 0.211182f, -0.083322f, 0.118364f, 0.040458f, 
-0.072995f, -0.244429f, 0.202056f, -0.186265f, 0.237734f, 0.004300f, -0.005027f, 0.090340f, 
0.264852f, 0.121133f, -0.024484f, -0.001630f, 0.115143f, 0.266311f, 0.276784f, -0.072671f, 
0.085325f, 0.186372f, -0.056135f, 0.198875f, 0.272820f, -0.203621f, 0.227268f, 0.292109f, 
0.244389f, 0.057525f, 0.230703f, 0.009131f, 0.196159f, 0.235567f, 0.184756f, -0.165314f, 
-0.217097f, 0.082632f, -0.141752f, -0.014261f, -0.262228f, 0.074410f, -0.038571f, 0.258791f, 
-0.148457f, 0.267236f, -0.120485f, 0.200776f, 0.052806f, 0.119971f, -0.113665f, -0.093234f, 
0.090830f, 0.205626f, 0.103761f, -0.020524f, -0.234179f, 0.160651f, 0.060076f, -0.211988f, 
-0.101871f, 0.269943f, 0.114406f, 0.266158f, 0.231121f, 0.133074f, -0.045437f, 0.085723f, 
0.220276f, -0.176990f, -0.008913f, -0.099864f, -0.149419f, 0.027057f, 0.060655f, 0.114616f, 
0.090012f, -0.217692f, 0.046966f, 0.058032f, 0.041983f, -0.194723f, 0.076855f, -0.100342f, 
-0.065702f, 0.152091f, 0.272280f, -0.084116f };
const float myModel_conv1_b[] = { -0.013419f, 0.024404f, 0.017513f, 0.013017f };
const float myModel_conv2_w[] = { -0.051941f, 0.036881f, -0.004101f, 0.224971f, 0.069930f, -0.059873f, -0.063188f, -0.074691f, 
-0.232820f, 0.125356f, 0.056561f, 0.058308f, 0.193354f, -0.075879f, -0.215920f, 0.250146f, 
0.030462f, 0.168480f, 0.169481f, -0.256920f, -0.041910f, 0.071445f, -0.123949f, 0.178615f, 
-0.215831f, -0.117068f, -0.208278f, 0.209741f, 0.192143f, 0.198501f, -0.102215f, 0.026722f, 
0.227823f, -0.105232f, -0.029306f, 0.231904f, 0.199853f, 0.109856f, -0.176789f, 0.095365f, 
0.173919f, -0.120633f, -0.105158f, 0.220935f, -0.194971f, -0.013432f, 0.210843f, 0.224549f, 
-0.163034f, 0.215376f, -0.038661f, 0.153519f, -0.179944f, -0.074572f, -0.258368f, 0.174535f, 
0.034320f, -0.164868f, -0.206622f, -0.130249f, -0.195003f, -0.011698f, 0.023354f, -0.108680f, 
0.081162f, 0.249457f, 0.038822f, -0.139472f, 0.171311f, 0.168325f, -0.077452f, 0.025146f, 
-0.225870f, -0.077047f, -0.093459f, -0.215270f, 0.111137f, 0.197641f, 0.206112f, -0.106143f, 
-0.003210f, -0.181814f, -0.094849f, 0.148646f, 0.176375f, -0.147514f, 0.042840f, 0.173588f, 
-0.151713f, 0.220109f, -0.123802f, -0.008771f, -0.041338f, 0.138011f, -0.262329f, 0.170103f, 
-0.221277f, -0.207831f, 0.083345f, -0.058097f, 0.129702f, 0.258303f, -0.063760f, -0.140475f, 
0.250320f, 0.085359f, -0.151716f, 0.053190f, -0.155626f, -0.209034f, 0.037782f, 0.195993f, 
-0.043821f, -0.165400f, -0.035535f, 0.015516f, 0.022205f, 0.209982f, -0.023659f, -0.197006f, 
-0.103153f, 0.014935f, -0.197590f, -0.215950f, -0.069280f, -0.245018f, -0.101108f, 0.017467f, 
-0.078929f, 0.232935f, -0.078991f, -0.114802f, 0.057931f, -0.088658f, 0.206033f, -0.242785f, 
-0.064242f, -0.093097f, 0.021533f, -0.107213f, -0.033620f, -0.005689f, -0.135776f, 0.222993f, 
0.024925f, -0.191080f, 0.021254f, 0.032830f, -0.203663f, -0.111683f, 0.238651f, -0.069688f, 
-0.046651f, 0.086052f, 0.195217f, -0.041658f, -0.066126f, -0.044012f, 0.000170f, 0.081322f, 
-0.087671f, -0.122724f, 0.086121f, 0.037848f, 0.069728f, 0.086463f, 0.082456f, 0.268559f, 
-0.136087f, 0.054209f, -0.188099f, -0.027590f, -0.107742f, -0.139317f, -0.186168f, 0.226741f, 
0.014252f, 0.207623f, 0.070262f, 0.007494f, 0.195547f, 0.100317f, 0.245547f, -0.178523f, 
-0.081373f, -0.083777f, 0.017213f, -0.203042f, 0.129036f, 0.070843f, -0.075948f, -0.148307f, 
0.103516f, 0.179920f, -0.106447f, 0.175557f, -0.120214f, -0.079039f, 0.002713f, 0.161269f, 
0.062345f, -0.146733f, 0.054676f, 0.117104f, 0.071668f, 0.123362f, 0.246172f, 0.179815f, 
0.084463f, 0.018866f, 0.064114f, -0.147512f, 0.073002f, -0.188442f, -0.048550f, 0.096461f, 
0.202692f, -0.175319f, -0.126994f, 0.187955f, -0.140169f, -0.119751f, 0.170182f, 0.249565f, 
-0.157799f, 0.208476f, -0.200789f, -0.106906f, 0.015284f, -0.036904f, -0.036115f, 0.015056f, 
0.102400f, 0.095378f, -0.130305f, 0.104692f, -0.087509f, -0.154641f, 0.225604f, -0.150213f, 
0.251034f, 0.090678f, 0.171927f, -0.091389f, 0.149248f, 0.065908f, 0.009149f, 0.102322f, 
-0.105837f, -0.136605f, -0.154046f, -0.022414f, -0.232464f, 0.064967f, 0.008048f, 0.202171f, 
-0.238491f, -0.179245f, 0.203143f, 0.001052f, 0.087289f, 0.135272f, -0.213175f, 0.141028f, 
-0.149172f, 0.007309f, -0.229530f, -0.164407f, -0.005602f, 0.064169f, -0.081076f, 0.040087f, 
0.034291f, 0.168808f, 0.194385f, -0.087306f, -0.108492f, -0.126519f, 0.165963f, -0.171655f, 
0.085238f, -0.061789f, -0.017648f, -0.127469f, 0.160202f, -0.227028f, 0.172901f, 0.060490f
 };
const float myModel_conv2_b[] = { -0.001483f, -0.002933f, 0.002995f, 0.001854f, 0.010021f, 0.002960f, 0.020016f, 0.001413f
 };
const float myModel_output_w[] = { 0.015771f, -0.010055f, 0.014606f, 0.002571f, -0.016660f, -0.007064f, -0.000332f, -0.004309f, 
-0.004089f, 0.004865f, -0.000111f, 0.005393f, -0.011045f, -0.007105f, 0.004210f, 0.004281f, 
0.011730f, -0.015901f, 0.015907f, 0.012621f, -0.005432f, 0.014575f, 0.012370f, 0.003295f, 
-0.005342f, -0.018128f, 0.002047f, 0.002268f, -0.009143f, -0.012737f, -0.017546f, -0.016446f, 
-0.000255f, -0.016592f, 0.002104f, -0.005628f, 0.014432f, 0.010901f, -0.002340f, 0.014753f, 
0.011486f, 0.015796f, -0.008028f, 0.007011f, 0.003280f, 0.011057f, 0.009884f, 0.004674f, 
0.011590f, -0.013804f, -0.001724f, 0.006529f, -0.006907f, -0.011269f, -0.004871f, -0.004336f, 
-0.004104f, -0.003973f, -0.010541f, 0.009729f, -0.006512f, 0.002132f, -0.014001f, 0.004585f, 
-0.009086f, 0.007871f, 0.004050f, -0.008992f, -0.006083f, 0.012521f, -0.016225f, -0.009697f, 
-0.001005f, 0.004188f, -0.008193f, 0.001903f, 0.011695f, -0.006728f, 0.006256f, 0.008417f, 
-0.000888f, -0.009377f, 0.010227f, 0.010578f, -0.016150f, -0.017139f, 0.002531f, -0.003808f, 
0.012352f, 0.013102f, 0.000236f, -0.016906f, -0.006985f, 0.006922f, -0.004625f, -0.012316f, 
-0.003250f, 0.013289f, -0.000639f, -0.011552f, 0.018552f, 0.012533f, -0.001581f, 0.017676f, 
0.003213f, -0.006031f, 0.001880f, -0.005947f, -0.000379f, 0.006756f, -0.013375f, 0.008468f, 
-0.001199f, -0.000042f, -0.004973f, -0.012108f, -0.014748f, 0.016782f, -0.003535f, -0.011637f, 
0.008622f, 0.008458f, -0.000763f, 0.005525f, -0.012628f, 0.005288f, -0.007130f, -0.010417f, 
0.012752f, 0.012668f, 0.017413f, 0.005955f, 0.009759f, 0.006173f, -0.006880f, 0.007743f, 
0.007153f, -0.013291f, -0.001286f, -0.011667f, 0.010506f, 0.010453f, 0.006102f, -0.005049f, 
-0.007034f, 0.016171f, 0.016520f, 0.004502f, 0.008891f, 0.008148f, -0.009103f, -0.013883f, 
0.000027f, 0.002665f, 0.017382f, 0.021026f, -0.005808f, -0.011229f, 0.013693f, -0.003347f, 
-0.005736f, 0.016703f, 0.015424f, 0.005326f, 0.002857f, 0.000968f, -0.003079f, 0.007466f, 
0.001669f, 0.004261f, -0.004710f, -0.005867f, 0.009303f, -0.011665f, -0.000304f, -0.009940f, 
0.013594f, 0.016769f, 0.017218f, 0.005488f, 0.017266f, -0.001655f, -0.010906f, -0.012755f, 
-0.012200f, 0.014505f, -0.009550f, 0.018506f, 0.005866f, -0.004942f, 0.020401f, 0.006919f, 
-0.004183f, -0.014174f, 0.012563f, 0.010216f, -0.007018f, -0.002393f, 0.003013f, 0.001799f, 
-0.007201f, 0.008849f, 0.012927f, -0.001076f, 0.003300f, -0.013157f, -0.011021f, 0.005584f, 
-0.006149f, 0.015586f, 0.000993f, 0.002568f, 0.021377f, -0.006842f, 0.002109f, 0.007221f, 
-0.012296f, -0.006881f, -0.011950f, 0.005655f, -0.000457f, 0.002992f, -0.006496f, 0.006257f, 
-0.010874f, -0.003983f, -0.007512f, -0.003946f, 0.014286f, 0.007144f, -0.000777f, -0.006608f, 
0.004196f, -0.003951f, -0.006054f, -0.003064f, 0.021413f, -0.012082f, 0.010657f, 0.016090f, 
0.002603f, -0.001362f, 0.020300f, 0.005501f, -0.009308f, 0.015610f, -0.003035f, 0.019437f, 
-0.009617f, -0.006220f, -0.011150f, -0.007977f, 0.003314f, -0.016962f, 0.010646f, 0.010463f, 
-0.015620f, 0.008248f, -0.014182f, -0.008853f, 0.000442f, -0.000074f, 0.000372f, -0.010738f, 
-0.006303f, -0.004133f, -0.002974f, 0.006443f, 0.011455f, -0.009310f, -0.003867f, -0.003295f, 
0.002150f, 0.010805f, -0.002161f, 0.005851f, -0.007206f, 0.006314f, -0.000448f, 0.017151f, 
0.009340f, 0.015964f, -0.008442f, -0.016553f, 0.006877f, -0.007921f, 0.002843f, -0.004095f, 
0.001633f, -0.017262f, -0.014842f, -0.002252f, -0.003243f, 0.009398f, 0.021204f, 0.019804f, 
0.005903f, 0.011622f, 0.007810f, 0.002457f, 0.016243f, -0.017149f, 0.006650f, -0.011651f, 
0.012505f, 0.003269f, 0.012472f, -0.008662f, 0.010790f, 0.008677f, -0.003890f, -0.011066f, 
0.012169f, -0.002506f, 0.005883f, -0.016233f, 0.011580f, 0.003343f, -0.006571f, 0.005227f, 
0.005506f, 0.016508f, -0.004320f, 0.006763f, 0.008223f, -0.002362f, 0.015107f, -0.011019f, 
0.000027f, 0.015573f, 0.002617f, 0.006284f, 0.003761f, 0.002281f, 0.007095f, 0.010285f, 
0.009893f, 0.003151f, 0.006548f, 0.012161f, 0.007409f, -0.002974f, -0.003130f, -0.017189f, 
0.017409f, -0.008087f, 0.010122f, 0.000039f, -0.017127f, -0.000038f, 0.015529f, 0.011489f, 
-0.003451f, 0.019524f, -0.004329f, 0.010939f, 0.008282f, 0.011468f, -0.010560f, 0.001210f, 
0.009752f, -0.002678f, -0.005840f, -0.011331f, -0.012231f, -0.008587f, 0.001953f, 0.000121f, 
0.006337f, -0.007742f, -0.011663f, 0.013592f, -0.007623f, 0.008368f, -0.002379f, -0.002880f, 
-0.020023f, 0.001701f, -0.004932f, -0.001000f, 0.010998f, 0.014410f, 0.004026f, -0.002651f, 
-0.010204f, 0.002791f, -0.015098f, 0.015733f, 0.014799f, -0.009653f, 0.009366f, 0.001321f, 
-0.001293f, -0.006226f, -0.012967f, 0.000430f, 0.005204f, -0.011030f, 0.016874f, 0.004810f, 
0.000352f, 0.014033f, 0.007506f, 0.002441f, -0.000481f, -0.008581f, -0.009647f, -0.001832f, 
0.019180f, -0.004683f, -0.005489f, 0.006418f, 0.010158f, 0.013739f, 0.002187f, 0.012036f, 
0.006910f, 0.015502f, 0.003278f, -0.005284f, -0.013825f, -0.017582f, -0.014282f, -0.005982f, 
0.013160f, -0.003959f, 0.008476f, 0.002485f, 0.015957f, -0.003296f, 0.010372f, -0.008577f, 
-0.018701f, 0.006183f, -0.005789f, -0.013829f, 0.014120f, -0.002203f, 0.005607f, -0.003861f, 
0.014779f, 0.007012f, -0.009505f, -0.005950f, 0.016039f, 0.012358f, -0.012854f, 0.014285f, 
0.007956f, 0.008640f, -0.006679f, -0.013204f, 0.006008f, -0.007096f, -0.008093f, 0.000488f, 
-0.002102f, -0.001750f, -0.000963f, 0.000436f, 0.014848f, -0.015378f, -0.003485f, -0.005386f, 
0.011752f, -0.003082f, -0.002504f, -0.000952f, -0.005192f, 0.006602f, 0.019500f, 0.019698f, 
0.012956f, -0.009193f, -0.004714f, 0.001910f, -0.002411f, 0.007664f, 0.014485f, 0.010044f, 
0.015951f, -0.009976f, 0.002787f, -0.001907f, -0.007484f, -0.004012f, -0.011376f, 0.006529f, 
-0.000393f, 0.011329f, 0.009322f, -0.005348f, 0.000422f, 0.006339f, 0.002167f, 0.005950f, 
-0.008506f, 0.021098f, 0.022999f, 0.009257f, 0.012695f, 0.012628f, -0.011135f, 0.012243f, 
-0.001662f, 0.011959f, 0.016149f, 0.006739f, 0.001519f, -0.012740f, 0.008053f, 0.017571f, 
-0.003259f, 0.012862f, 0.018194f, 0.000338f, 0.017664f, -0.013800f, 0.002537f, 0.004954f, 
-0.010105f, 0.011381f, -0.021017f, 0.010911f, -0.012847f, 0.016256f, 0.002916f, -0.006054f, 
-0.003011f, 0.010397f, -0.008982f, 0.024250f, 0.002719f, 0.008387f, -0.002460f, 0.001747f, 
-0.007931f, 0.018113f, 0.007242f, 0.009112f, 0.019629f, 0.010925f, -0.000441f, 0.000121f, 
-0.010462f, 0.012932f, 0.005487f, 0.001239f, -0.004925f, -0.016144f, 0.008343f, -0.004482f, 
-0.002133f, 0.002478f, -0.004042f, -0.002818f, 0.013146f, -0.008167f, -0.000718f, 0.010324f, 
0.026034f, 0.005414f, 0.026087f, 0.020544f, 0.022384f, 0.005587f, 0.015782f, 0.019251f, 
0.015024f, 0.013695f, -0.007795f, 0.013978f, 0.013119f, -0.001901f, -0.005210f, -0.005355f, 
-0.005408f, 0.001742f, -0.008420f, -0.011596f, -0.021638f, -0.005544f, -0.003851f, -0.010341f, 
-0.017348f, 0.001443f, 0.003360f, 0.004515f, 0.017847f, -0.005511f, 0.013597f, 0.010921f, 
-0.006990f, 0.024396f, 0.011307f, 0.002098f, -0.005696f, 0.009249f, 0.003660f, 0.005899f, 
0.004940f, -0.016956f, -0.001465f, -0.009111f, 0.005331f, -0.018863f, -0.020066f, -0.001156f, 
-0.009742f, -0.022217f, 0.001510f, -0.018142f, 0.001188f, 0.009435f, 0.003032f, 0.005930f, 
0.022104f, -0.001897f, 0.002645f, 0.020675f, -0.005360f, 0.006429f, 0.023142f, -0.003407f, 
0.020987f, 0.006773f, 0.020961f, -0.003596f, 0.001915f, 0.011189f, -0.017139f, -0.005689f, 
-0.006547f, 0.006324f, 0.006917f, -0.003489f, -0.001913f, -0.020101f, -0.015128f, -0.016093f, 
-0.010452f, -0.013960f, 0.008919f, -0.007446f, 0.014448f, 0.006897f, 0.000867f, 0.008987f, 
0.019180f, 0.000166f, 0.017394f, -0.004807f, 0.012637f, 0.008111f, -0.010409f, 0.003800f, 
0.012364f, 0.001123f, -0.010613f, 0.000596f, -0.020563f, -0.000164f, -0.013034f, 0.011624f, 
-0.007206f, -0.015884f, 0.000983f, -0.014661f, -0.022533f, -0.016648f, 0.004941f, -0.003634f, 
0.003894f, -0.007312f, 0.006066f, 0.000731f, 0.001380f, 0.013181f, -0.014091f, -0.005039f, 
0.015982f, 0.010847f, -0.011557f, -0.012255f, 0.008061f, -0.011064f, -0.006957f, -0.012673f, 
0.008914f, 0.009108f, -0.004406f, 0.008007f, 0.008601f, -0.007871f, 0.005690f, -0.000787f, 
-0.020161f, -0.022634f, -0.006260f, -0.011294f, -0.013857f, 0.003307f, -0.015882f, 0.000893f, 
-0.017253f, 0.000379f, -0.013847f, -0.006725f, 0.017255f, -0.016097f, 0.004180f, 0.004839f, 
0.013044f, -0.016965f, 0.013498f, 0.012294f, 0.002493f, 0.003268f, 0.000356f, -0.013493f, 
0.009780f, 0.005024f, -0.013721f, 0.008644f, -0.017872f, -0.021686f, -0.005523f, -0.000215f, 
0.003264f, -0.011129f, 0.011878f, 0.000320f, -0.015034f, 0.000795f, -0.005106f, 0.001626f, 
-0.009199f, 0.005798f, 0.008821f, -0.012212f, -0.005248f, 0.004916f, -0.000819f, 0.013977f, 
-0.000124f, -0.001541f, 0.010443f, -0.019548f, -0.015939f, -0.013721f, 0.004461f, -0.006050f, 
0.007086f, -0.016886f, -0.017612f, -0.001865f, -0.009964f, 0.002235f, 0.010694f, -0.020180f, 
0.006457f, -0.006476f, -0.006314f, 0.006659f, 0.012775f, 0.000764f, -0.001349f, -0.007586f, 
-0.009641f, -0.001801f, -0.005945f, -0.008614f, -0.016620f, -0.003681f, 0.008958f, -0.017244f, 
-0.010065f, -0.001383f, 0.012897f, -0.014567f, 0.012227f, 0.000934f, -0.003369f, -0.004813f, 
-0.020234f, -0.009529f, -0.007311f, -0.022348f, -0.000661f, -0.015576f, -0.014354f, 0.010899f, 
-0.009277f, 0.003635f, 0.006627f, -0.001971f, 0.005582f, 0.014631f, -0.010155f, -0.005271f, 
0.008424f, 0.009671f, 0.012007f, -0.006852f, 0.001953f, -0.006648f, 0.009508f, 0.005141f, 
0.000773f, 0.000948f, 0.009646f, -0.013680f, -0.005311f, 0.007547f, -0.019230f, -0.008611f, 
-0.010698f, 0.007138f, -0.013846f, 0.000348f, -0.001357f, 0.004140f, -0.006118f, -0.013768f, 
-0.007065f, -0.010854f, -0.015666f, 0.013718f, -0.014105f, -0.015086f, -0.017326f, -0.015432f, 
0.001135f, -0.015906f, -0.004876f, -0.006345f, -0.009210f, -0.005457f, -0.018632f, -0.009971f, 
0.011961f, -0.009065f, 0.013936f, -0.000611f, -0.002469f, 0.014803f, -0.011677f, 0.013504f, 
-0.007346f, 0.011175f, 0.000060f, -0.001917f, 0.017250f, -0.011981f, 0.001246f, 0.007245f, 
0.009236f, -0.003660f, 0.011151f, -0.005353f, 0.003544f, 0.004492f, 0.009168f, -0.016251f, 
-0.006186f, 0.003318f, 0.001270f, -0.009980f, -0.013142f, 0.008120f, 0.002042f, -0.009466f, 
-0.002486f, 0.002598f, -0.005171f, 0.009762f, -0.011680f, 0.011840f, 0.015678f, -0.014889f, 
-0.015477f, -0.006422f, 0.001238f, 0.004584f, 0.005117f, 0.011318f, 0.007636f, 0.014015f, 
0.009844f, -0.011380f, -0.013067f, -0.003456f, 0.006843f, 0.011574f, 0.003783f, 0.006652f, 
-0.016471f, -0.011882f, -0.006977f, 0.015243f, -0.011034f, 0.009700f, 0.002000f, -0.000642f, 
-0.001892f, -0.000391f, -0.006555f, -0.011299f, -0.011399f, 0.010919f, -0.002597f, 0.014906f, 
0.013197f, -0.005490f, -0.010409f, 0.008998f, 0.002905f, -0.012723f, -0.008609f, -0.017068f, 
-0.004108f, -0.000628f, -0.010872f, -0.010770f, 0.012289f, -0.009655f, 0.005284f, 0.000231f, 
-0.003674f, 0.001236f, -0.006818f, -0.005653f, -0.003781f, 0.002932f, 0.006188f, 0.002060f, 
-0.014566f, 0.001053f, -0.011949f, 0.014546f, 0.013355f, -0.006847f, -0.011130f, -0.007475f, 
0.018069f, -0.008295f, 0.000845f, 0.003482f, 0.008639f, 0.010272f, -0.003293f, 0.000986f, 
-0.001379f, -0.016698f, -0.011205f, 0.000546f, 0.012379f, -0.006779f, -0.009902f, -0.018309f, 
-0.006528f, 0.010910f, 0.018163f, -0.015812f, -0.011639f, -0.005733f, -0.012349f, -0.006166f, 
-0.002964f, -0.018303f, 0.014420f, 0.009660f, 0.017164f, 0.013425f, 0.010429f, 0.011683f, 
0.016880f, 0.011416f, -0.007897f, -0.000470f, -0.007970f, -0.000002f, -0.012935f, 0.004326f, 
0.009323f, -0.007609f, 0.013370f, -0.017732f, -0.008897f, 0.009730f, 0.016589f, 0.007434f, 
0.003882f, -0.015222f, 0.014926f, -0.015893f, -0.006869f, -0.014293f, -0.008065f, -0.007432f, 
0.018860f, -0.009743f, -0.001275f, -0.000303f, 0.018953f, -0.006822f, 0.015636f, 0.003980f, 
-0.000397f, -0.012594f, 0.012811f, 0.000623f, -0.011491f, -0.000417f, 0.006552f, 0.015626f, 
-0.007388f, -0.002522f, 0.003713f, 0.011199f, 0.013449f, -0.015776f, 0.015268f, 0.004776f, 
0.003437f, 0.001103f, 0.017359f, 0.020153f, 0.000251f, -0.014156f, 0.005806f, -0.015398f, 
0.011809f, -0.012488f, 0.009458f, -0.000515f, -0.009040f, 0.014463f, 0.012101f, 0.007293f, 
-0.017394f, -0.017067f, -0.003092f, -0.017934f, -0.001297f, -0.015291f, -0.000095f, -0.000891f, 
-0.008801f, 0.009051f, -0.002129f, 0.017359f, 0.020147f, 0.004453f, 0.010493f, -0.003027f, 
0.025831f, -0.003060f, 0.020529f, -0.006302f, 0.016819f, 0.001276f, -0.003606f, -0.012441f, 
0.017145f, 0.020001f, 0.005794f, -0.002127f, -0.017118f, -0.003862f, -0.019993f, -0.004369f, 
0.010553f, 0.014907f, -0.013817f, 0.015058f, 0.013297f, -0.008195f, 0.011816f, 0.003398f, 
0.013186f, -0.000592f, 0.001734f, 0.019308f, 0.002496f, 0.000221f, -0.002265f, 0.000911f, 
0.003862f, 0.006894f, -0.004558f, 0.005641f, -0.005132f, 0.007578f, -0.001414f, -0.003853f, 
-0.005234f, -0.008622f, -0.010183f, -0.002717f, -0.016575f, 0.000580f, -0.007042f, -0.009244f, 
0.003867f, -0.009507f, 0.003816f, 0.009076f, 0.025008f, 0.004685f, -0.010658f, 0.017666f, 
-0.005120f, 0.017533f, -0.002939f, 0.019632f, 0.018971f, -0.010004f, 0.011390f, 0.020805f, 
0.011889f, -0.007853f, -0.008945f, -0.002265f, -0.012736f, 0.002648f, -0.004974f, 0.005821f, 
0.001235f, -0.008523f, 0.005758f, 0.006125f, 0.013474f, -0.001071f, 0.018590f, 0.022970f, 
-0.004734f, 0.020936f, 0.013201f, -0.006445f, -0.015253f, -0.006267f, 0.014246f, 0.011567f, 
0.012686f, -0.006774f, -0.013644f, 0.003227f, 0.011489f, -0.008639f, -0.001446f, 0.002214f, 
0.017419f, -0.000143f, -0.001226f, -0.013038f, 0.000861f, -0.019491f, 0.013269f, -0.000488f, 
0.016037f, -0.006985f, 0.005768f, 0.001883f, 0.006072f, 0.006330f, 0.012604f, 0.002189f, 
0.011058f, 0.008038f, 0.009464f, 0.000528f, -0.017720f, -0.014898f, -0.000727f, 0.010148f, 
0.009010f, -0.014988f, 0.010177f, -0.006302f, 0.001259f, -0.013087f, -0.015137f, 0.016124f, 
-0.014440f, -0.012702f, -0.017790f, -0.019741f, -0.011737f, 0.015857f, 0.004372f, -0.005941f, 
-0.002846f, 0.022404f, 0.006483f, 0.011683f, 0.011021f, -0.010750f, 0.003585f, 0.010087f, 
-0.005895f, 0.004507f, -0.004529f, 0.008669f, 0.003685f, 0.005688f, -0.010991f, -0.008562f, 
0.005002f, 0.012105f, -0.006714f, -0.017691f, 0.015758f, 0.001561f, -0.014069f, 0.008469f, 
0.006432f, -0.002058f, 0.013441f, -0.010712f, 0.015650f, 0.004392f, -0.002789f, 0.011324f, 
-0.012870f, 0.013343f, 0.014524f, -0.012945f, -0.000959f, 0.011444f, 0.013288f, -0.011299f, 
-0.014940f, -0.013808f, 0.006500f, -0.009638f, -0.010442f, -0.010808f, -0.011532f, -0.020082f, 
-0.012029f, 0.019814f, -0.010141f, 0.001868f, 0.005194f, 0.003030f, 0.001074f, 0.020402f, 
0.006449f, 0.009137f, -0.007264f, 0.016886f, 0.016423f, 0.016859f, 0.012094f, 0.001799f, 
-0.001927f, 0.014220f, 0.003513f, -0.014316f, 0.008117f, 0.013610f, 0.001149f, 0.010320f, 
0.012542f, 0.002193f, 0.017434f, 0.007512f, 0.001861f, -0.005133f, 0.021152f, 0.001007f, 
-0.012511f, 0.011472f, 0.012928f, -0.018331f, 0.017318f, -0.006195f, -0.002311f, 0.004452f, 
0.007493f, 0.004435f, 0.000306f, 0.003885f, -0.009419f, -0.007436f, 0.007463f, 0.013148f, 
0.002991f, 0.001184f, -0.011503f, 0.002808f, -0.012393f, 0.005340f, 0.006168f, -0.000736f, 
0.005827f, -0.003689f, 0.002455f, 0.005425f, 0.010291f, 0.007178f, 0.010250f, 0.007503f, 
-0.020281f, 0.019133f, 0.001528f, -0.000612f, -0.003596f, -0.000947f, -0.007786f, 0.009430f, 
-0.012731f, -0.007614f, -0.012396f, -0.005297f, 0.005750f, 0.009900f, 0.012769f, -0.005247f, 
0.006841f, 0.009335f, -0.008216f, 0.002648f, -0.013966f, 0.002118f, 0.014714f, 0.013935f, 
-0.002435f, -0.009258f, -0.010168f, -0.001180f, -0.000539f, -0.006366f, 0.001613f, -0.000858f, 
0.003744f, 0.005671f, 0.006034f, 0.010333f, 0.007229f, 0.002649f, 0.001878f, -0.008702f, 
0.012419f, 0.000613f, -0.001098f, -0.020694f, 0.005653f, 0.002962f, -0.009113f, -0.010249f, 
0.006362f, 0.009545f, -0.002159f, 0.010330f, 0.021126f, 0.008899f, -0.006154f, 0.000223f, 
-0.010156f, -0.016858f, -0.015541f, -0.007801f, -0.008208f, -0.006818f, 0.002642f, 0.006735f, 
-0.007474f, -0.003621f, -0.011112f, 0.013751f, 0.014726f, 0.000085f, -0.010629f, -0.017739f, 
0.009000f, -0.007660f, -0.013334f, -0.007563f, -0.014340f, 0.000601f, 0.019733f, 0.001057f, 
0.003792f, -0.005617f, 0.003068f, -0.002003f, 0.003212f, -0.012647f, -0.010124f, -0.005803f, 
-0.008533f, -0.010889f, 0.011688f, 0.001682f, 0.003525f, 0.006970f, 0.008049f, -0.005275f, 
0.014488f, 0.003406f, -0.005393f, 0.012283f, -0.007843f, -0.012117f, 0.000526f, 0.023793f, 
0.005668f, 0.018555f, 0.004417f, 0.025148f, 0.018828f, 0.011314f, -0.003501f, -0.006916f, 
0.009178f, 0.004607f, -0.011636f, -0.006290f, 0.000180f, 0.009800f, -0.017019f, 0.006354f, 
-0.006982f, 0.006729f, 0.007711f, 0.012305f, 0.023358f, 0.024672f, -0.005201f, -0.004414f, 
0.007643f, -0.002649f, -0.003980f, 0.007234f, 0.020937f, 0.022589f, 0.023743f, 0.002601f, 
0.017950f, 0.006321f, -0.006523f, 0.003409f, -0.002605f, -0.005566f, -0.017898f, -0.020847f, 
-0.020140f, -0.011469f, -0.023683f, -0.007697f, -0.019118f, -0.008295f, 0.011421f, 0.021701f, 
0.022607f, 0.019583f, 0.027974f, 0.013720f, 0.030980f, 0.009297f, 0.031837f, 0.018518f, 
0.029154f, -0.000877f, 0.000355f, 0.000423f, 0.000299f, 0.004749f, 0.010062f, 0.009015f, 
-0.018973f, -0.012675f, 0.011338f, -0.005941f, 0.005597f, 0.011608f, 0.012424f, -0.023183f, 
-0.003575f, -0.000987f, 0.002865f, 0.004252f, 0.010205f, 0.014297f, 0.001824f, 0.019337f, 
0.014935f, 0.025381f, 0.004421f, 0.000442f, 0.013869f, 0.028310f, 0.005227f, 0.023052f, 
-0.011654f, -0.015543f, 0.008472f, -0.011314f, 0.011613f, 0.005514f, -0.020087f, -0.003688f, 
0.005267f, -0.013075f, -0.018810f, 0.012295f, -0.023199f, -0.013800f, 0.005422f, -0.016099f, 
0.013189f, -0.010739f, 0.018261f, 0.007649f, 0.017809f, 0.023263f, 0.014511f, 0.018913f, 
0.006016f, 0.003001f, -0.008071f, 0.004354f, 0.015890f, 0.010949f, 0.001105f, 0.009602f, 
-0.017581f, 0.007881f, -0.012695f, -0.000069f, -0.017425f, -0.012860f, -0.019783f, -0.002322f, 
-0.007124f, -0.005247f, -0.009428f, -0.008448f, -0.023579f, -0.015466f, 0.009011f, -0.015022f, 
-0.017786f, 0.016417f, -0.014207f, -0.014984f, -0.015029f, -0.014167f, 0.014273f, -0.007762f, 
0.007917f, 0.013789f, -0.017764f, 0.007458f, 0.011125f, 0.010933f, -0.001725f, -0.004659f, 
0.005941f, 0.010586f, -0.008457f, 0.004080f, 0.011272f, -0.003645f, -0.005478f, -0.014787f, 
-0.022895f, -0.020557f, 0.010811f, 0.011517f, 0.006002f, -0.018632f, -0.003764f, 0.009363f, 
0.004012f, -0.010294f, -0.007892f, -0.007154f, -0.003149f, 0.012998f, 0.008136f, -0.007773f, 
-0.002246f, -0.009575f, -0.007951f, -0.013427f, -0.003970f, -0.018934f, -0.004171f, 0.004943f, 
0.010005f, -0.019207f, 0.003433f, -0.013995f, -0.026150f, 0.003682f, -0.024404f, -0.022710f, 
0.005682f, -0.020709f, 0.007004f, -0.006696f, -0.010240f, -0.001655f, 0.009364f, -0.003059f, 
0.011580f, 0.007117f, -0.002943f, 0.010870f, -0.016840f, -0.021082f, -0.000336f, 0.004359f, 
0.000288f, 0.009321f, -0.012183f, -0.002801f, -0.016142f, -0.016924f, -0.014538f, -0.001368f, 
-0.021539f, -0.008590f, -0.018514f, -0.010720f, -0.000045f, -0.002366f, -0.002259f, -0.018649f, 
-0.008817f, 0.012042f, -0.005764f, 0.005540f, -0.012734f, 0.004980f, 0.001771f, 0.012771f, 
0.010115f, -0.000957f, -0.006677f, -0.013280f, -0.004850f, -0.018110f, -0.014244f, -0.013335f, 
-0.017908f, 0.006598f, -0.012893f, -0.010955f, 0.011246f, 0.004439f, -0.016375f, 0.009045f, 
-0.020288f, -0.011794f, 0.000327f, -0.011182f, -0.008626f, 0.012099f, 0.002259f, -0.006418f, 
0.007767f, -0.018843f, -0.002507f, -0.012996f, 0.013008f, 0.003182f, -0.004927f, 0.000886f, 
-0.010084f, 0.011640f, 0.002469f, 0.003100f, -0.016603f, -0.019934f, -0.016674f, 0.012000f, 
-0.000344f, 0.012159f, -0.013982f, -0.007938f, -0.018244f, 0.005729f, 0.010782f, 0.002850f, 
0.005576f, 0.018024f, 0.010484f, -0.013390f, 0.017389f, -0.017549f, -0.002401f, -0.010747f, 
-0.009909f, -0.006990f, -0.007388f, 0.000817f, -0.005997f, -0.009420f, -0.006057f, 0.005041f, 
-0.000283f, 0.010128f, -0.008299f, -0.010588f, -0.001288f, -0.018883f, 0.006211f, 0.007121f, 
0.009142f, -0.001887f, -0.013774f, -0.001429f, 0.015315f, -0.007909f, -0.010542f, 0.004678f, 
-0.015147f, 0.003283f, 0.007226f, -0.013227f, 0.005072f, 0.006701f, 0.010841f, -0.005550f, 
0.004252f, -0.004055f, -0.017412f, -0.002427f, -0.017191f, -0.002840f, -0.005203f, -0.002704f, 
-0.007541f, -0.011987f, -0.015039f, -0.011840f, 0.008468f, -0.016124f, 0.001899f, -0.014103f, 
-0.012893f, 0.016135f, 0.006046f, -0.010932f, 0.001445f, -0.004427f, 0.008404f, 0.001158f, 
0.009173f, -0.002303f, -0.009635f, -0.012756f, -0.001228f, -0.007155f, -0.013049f, -0.015161f, 
-0.000033f, -0.013420f, -0.016612f, -0.002422f, 0.002928f, -0.005488f, -0.015336f, -0.010924f, 
0.003262f, -0.015549f, -0.015560f, 0.000780f, 0.012454f, -0.005764f, 0.004751f, -0.013038f, 
0.000123f, 0.007154f, 0.013643f, -0.011656f, 0.016650f, -0.006030f, 0.001349f, 0.000508f, 
0.000457f, -0.018653f, -0.010762f, 0.003977f, 0.002050f, 0.010812f, 0.004705f, 0.006713f, 
-0.001433f, -0.015636f, 0.005544f, 0.000951f, 0.004012f, -0.021207f, -0.015678f, -0.014030f, 
-0.000286f, 0.003341f, 0.007672f, 0.000899f, -0.012824f, 0.012482f, 0.013336f, 0.015345f, 
0.017304f, 0.017372f, 0.017863f, 0.027607f, 0.005926f, 0.016086f, -0.005620f, 0.017939f, 
-0.007478f, 0.010962f, 0.019092f, -0.012452f, 0.006721f, -0.012690f, -0.013742f, -0.010029f, 
-0.020390f, 0.008957f, -0.012776f, -0.008338f, -0.013872f, 0.006308f, 0.002363f, -0.015457f, 
-0.003823f, -0.004030f, 0.018806f, -0.004340f, 0.027885f, 0.029070f, 0.012081f, -0.002895f, 
0.025460f, -0.012272f, 0.013127f, -0.002883f, -0.015300f, 0.007077f, -0.005539f, 0.002832f, 
0.000635f, -0.014991f, 0.003017f, 0.011643f, -0.008734f, 0.000586f, -0.005673f, -0.013391f, 
0.011610f, -0.008041f, 0.016724f, 0.006889f, 0.024827f, 0.009618f, 0.016088f, 0.014813f, 
0.013962f, 0.026265f, 0.003428f, 0.023846f, -0.007834f, -0.005443f, 0.010395f, -0.009092f, 
0.012720f, -0.005386f, 0.022195f, -0.006102f, 0.012936f, 0.001509f, -0.018387f, 0.009141f, 
-0.002161f, -0.012032f, -0.016598f, -0.010569f, -0.009188f, -0.008538f, 0.016538f, -0.007968f, 
-0.007983f, -0.002093f, 0.015341f, 0.024300f, 0.022285f, 0.016234f, 0.017970f, -0.006452f, 
-0.019485f, -0.019121f, 0.012955f, 0.013464f, 0.004625f, -0.002468f, -0.005864f, -0.007256f, 
0.021718f, 0.018765f, 0.009328f, 0.006791f, -0.025165f, 0.023785f, 0.013178f, -0.015078f, 
-0.008080f, -0.005682f, -0.010856f, 0.013942f, -0.003047f, 0.012205f, 0.027294f, 0.020781f, 
0.026462f, -0.007795f, 0.013563f, -0.011712f, 0.016275f, -0.007692f, 0.016793f, 0.014536f, 
0.007017f, -0.010591f, 0.005369f, -0.014348f, -0.004563f, 0.002103f, 0.016563f, 0.026705f, 
0.005100f, -0.021234f, -0.005614f, -0.006156f, -0.020424f, 0.009954f, 0.003970f, -0.003850f, 
0.001798f, 0.028447f, 0.018192f, 0.003140f, 0.006946f, 0.019900f, 0.007485f, -0.011685f, 
0.009861f, 0.011879f, 0.009660f, -0.000157f, -0.008423f, 0.014586f, 0.005968f, 0.004039f, 
-0.007377f, -0.020784f, -0.013379f, -0.007654f, 0.021497f, 0.028021f, 0.006234f, -0.014808f, 
-0.008129f, 0.010752f, -0.016366f, -0.007187f, 0.002359f, 0.013031f, 0.023033f, 0.021915f, 
0.022341f, 0.014283f, -0.007007f, 0.008743f, 0.006062f, -0.016617f, 0.007383f, 0.014277f, 
0.016299f, 0.004200f, 0.006313f, 0.002008f, -0.011951f, 0.007487f, 0.024583f, -0.013163f, 
-0.004435f, -0.002249f, 0.024148f, 0.002834f, -0.023943f, -0.009629f, -0.004557f, -0.009174f, 
-0.015581f, 0.002057f, -0.000996f, 0.025722f, 0.016582f, 0.003859f, 0.003685f, 0.000599f, 
0.010112f, 0.008864f, -0.006592f, 0.003950f, 0.004849f, -0.012694f, -0.006715f, -0.007692f, 
0.016783f, 0.021520f, 0.002242f, -0.007912f, 0.012637f, -0.027223f, 0.014597f, -0.001654f, 
0.004084f, -0.016087f, -0.011846f, -0.017016f, 0.006184f, -0.009435f, 0.015123f, -0.008867f, 
0.011201f, 0.037025f, -0.012705f, -0.008282f, 0.007153f, 0.005109f, 0.003246f, 0.012863f, 
-0.006756f, -0.011371f, -0.020491f, -0.003066f, -0.005047f, -0.011160f, 0.016512f, 0.015345f, 
-0.006814f, -0.002796f, -0.010505f, 0.000626f, -0.003513f, -0.010132f, 0.005557f, -0.002809f, 
-0.008565f, 0.004729f, -0.020374f, -0.007078f, -0.001843f, 0.006739f, 0.018072f, 0.011475f, 
-0.005360f, 0.000230f, 0.016942f, -0.010029f, -0.001253f, 0.013007f, 0.004984f, -0.003406f, 
-0.016804f, -0.019168f, 0.002005f, 0.019988f, 0.022041f, -0.007967f, 0.015212f, -0.012832f, 
-0.015803f, 0.021723f, -0.011075f, -0.011008f, 0.003619f, -0.000470f, -0.014368f, 0.000416f, 
-0.013757f, 0.001265f, 0.024846f, 0.009532f, -0.008910f, 0.009813f, -0.006898f, 0.005352f, 
-0.006741f, -0.002553f, 0.013776f, 0.014032f, 0.005058f, 0.005256f, 0.004483f, -0.012041f, 
0.002485f, 0.016365f, -0.014369f, -0.006549f, 0.011962f, 0.004140f, -0.011268f, 0.004849f, 
-0.001147f, -0.010457f, -0.004735f, -0.011994f, -0.018258f, -0.000824f, 0.001586f, -0.000444f, 
0.024583f, 0.007225f, -0.002509f, -0.008103f, 0.008227f, 0.005178f, 0.016090f, 0.013467f, 
-0.008044f, 0.013443f, 0.002787f, -0.004574f, 0.017376f, 0.020922f, 0.024765f, 0.014215f, 
-0.012302f, 0.000740f, 0.014512f, -0.005758f, -0.018716f, 0.003323f, -0.005515f, 0.006563f, 
-0.014127f, -0.006374f, 0.005501f, 0.000426f, 0.026193f, 0.016929f, -0.007692f, 0.002192f, 
-0.005210f, -0.001921f, -0.002239f, -0.008116f, 0.021102f, 0.021729f, -0.001705f, -0.008091f, 
0.019725f, 0.026247f, 0.018421f, -0.003476f, 0.004106f, 0.007272f, 0.024152f, 0.007970f, 
-0.000363f, -0.019811f, -0.010341f, -0.019873f, -0.007675f, 0.007333f, -0.008433f, -0.019364f, 
0.006051f, 0.027166f, 0.028442f, 0.019999f, -0.006080f, -0.003770f, 0.022941f, 0.019337f, 
0.025748f, -0.005550f, -0.003592f, 0.017850f, 0.016469f, 0.005775f, 0.032033f, 0.013195f, 
0.019097f, 0.027488f, 0.004195f, 0.008327f, 0.014360f, -0.017002f, -0.028509f, -0.005070f, 
-0.021928f, -0.010641f, -0.002822f, 0.007608f, 0.003907f, -0.005509f, 0.016370f, 0.017642f, 
0.028195f, 0.014729f, -0.013182f, -0.000645f, 0.011932f, 0.029950f, 0.030335f, 0.020374f, 
0.006268f, 0.030337f, 0.014689f, 0.016399f, 0.028377f, 0.010805f, 0.022978f, -0.002580f, 
0.014761f, 0.005033f, -0.000533f, -0.026559f, -0.009739f, -0.009181f, -0.013052f, -0.018716f, 
-0.011778f, -0.017172f, -0.008108f, 0.011063f, 0.030439f, 0.023244f, 0.013204f, -0.003324f, 
-0.012322f, -0.006322f, 0.032816f, 0.016226f, 0.014202f, 0.038728f, 0.034995f, 0.044916f, 
0.030679f, 0.013875f, -0.011794f, 0.005096f, 0.021196f, -0.009904f, -0.000700f, -0.018459f, 
-0.013869f, -0.011793f, 0.003006f, -0.017332f, 0.000373f, -0.024087f, -0.018039f, 0.000454f, 
-0.000395f, 0.010310f, 0.009595f, 0.014756f, -0.003393f, 0.015660f, -0.005700f, -0.002684f, 
-0.002445f, 0.012301f, 0.021062f, -0.008731f, 0.007411f, 0.003626f, -0.001021f, 0.005067f, 
-0.018771f, -0.026594f, -0.016650f, -0.018061f, -0.001434f, 0.008314f, 0.007484f, 0.003668f, 
-0.018273f, 0.004633f, 0.004761f, -0.008912f, -0.002805f, -0.018729f, 0.013357f, 0.004184f, 
0.004550f, 0.029259f, 0.000737f, 0.024814f, -0.003529f, 0.006879f, 0.010632f, -0.017762f, 
-0.008461f, 0.000554f, -0.013338f, -0.004675f, 0.001355f, -0.009783f, -0.025702f, -0.014345f, 
-0.020178f, 0.007628f, -0.019483f, -0.013368f, -0.005566f, -0.011278f, -0.000508f, -0.018904f, 
0.000825f, -0.005601f, -0.001737f, 0.003784f, -0.013175f, 0.013281f, -0.006962f, 0.025838f, 
0.004184f, 0.014387f, 0.014326f, 0.010813f, 0.000250f, -0.008819f, -0.015732f, -0.000128f, 
-0.002907f, -0.022549f, -0.016494f, -0.004144f, -0.017617f, 0.008313f, 0.005760f, 0.007224f, 
0.002367f, -0.018805f, 0.001450f, -0.016203f, -0.017626f, -0.009409f, 0.001865f, -0.007691f, 
-0.005912f, -0.004601f, -0.018759f, -0.013818f, -0.006350f, 0.014673f, -0.015133f, -0.005209f, 
0.009213f, -0.018618f, 0.010369f, -0.002660f, -0.018476f, 0.005700f, -0.020689f, 0.005003f, 
-0.020761f, 0.002734f, 0.008981f, 0.000256f, -0.020923f, -0.004199f, 0.013111f, 0.001405f, 
-0.018838f, -0.002751f, -0.004156f, 0.006039f, -0.017653f, -0.012581f, -0.012482f, 0.002753f, 
0.014510f, -0.001029f, 0.013642f, 0.020158f, 0.020714f, -0.005998f, -0.005512f, -0.007740f, 
-0.000108f, 0.006910f, 0.007449f, -0.003992f, -0.007361f, -0.020294f, -0.006412f, -0.012169f, 
-0.015267f, 0.006390f, -0.017967f, 0.007532f, -0.003908f, 0.008666f, -0.000772f, -0.021522f, 
-0.009398f, -0.016765f, -0.005485f, -0.005645f, -0.017120f, -0.015658f, -0.010303f, -0.005352f, 
-0.010433f, -0.009250f, 0.012895f, 0.011211f, -0.012631f, 0.011678f, -0.015199f, -0.012035f, 
0.009277f, 0.011130f, 0.003442f, -0.019309f, -0.001453f, 0.006776f, -0.004261f, -0.018217f, 
0.012029f, -0.020388f, -0.016266f, -0.010370f, -0.024995f, 0.001849f, -0.014855f, 0.007297f, 
-0.008866f, -0.014007f, -0.010738f, 0.006779f, -0.002652f, 0.003381f, -0.003422f, -0.001461f, 
0.004081f, -0.017012f, 0.008721f, 0.005396f, 0.013052f, -0.010304f, 0.013059f, 0.002400f, 
0.011925f, -0.001180f, 0.001331f, -0.002917f, 0.006866f, -0.007331f, -0.010746f, -0.005076f, 
-0.003840f, -0.016074f, -0.002699f, -0.019387f, -0.016455f, -0.007616f, 0.019038f, -0.010220f, 
-0.008336f, 0.015940f, 0.007214f, -0.012600f, 0.015715f, -0.001361f, 0.003692f, -0.016674f, 
0.004036f, -0.011852f, -0.020283f, -0.011589f, 0.001596f, -0.007256f, -0.021076f, -0.008306f, 
-0.000525f, 0.000016f, 0.002795f, -0.023321f, -0.004220f, 0.009986f, -0.010265f, 0.012084f, 
-0.012899f, -0.011297f, -0.009309f, 0.004353f, 0.007309f, -0.000948f, -0.004068f, -0.004877f, 
-0.006049f, 0.006367f, -0.014265f, -0.015762f, 0.008405f, -0.008950f, -0.017458f, 0.005703f, 
-0.007410f, -0.012140f, -0.016350f, 0.001641f, 0.007083f, -0.002978f, -0.017761f, -0.017026f, 
-0.011193f, 0.004542f, -0.016811f, -0.000454f, -0.003341f, 0.004546f, -0.008652f, 0.017325f, 
0.005669f, 0.002832f, 0.004326f, -0.000386f, 0.005203f, -0.001297f, 0.005356f, 0.006581f, 
0.014256f, -0.015103f, -0.009396f, -0.014164f, -0.015315f, 0.014992f, -0.008296f, 0.004219f, 
0.013047f, 0.013974f, -0.005521f, 0.010944f, -0.001270f, 0.003771f, -0.010672f, 0.004594f, 
-0.005322f, 0.013336f, 0.000127f, -0.012652f, 0.007167f, -0.005733f, 0.012366f, -0.003657f, 
0.010960f, 0.013843f, -0.015411f, -0.011510f, -0.007655f, -0.003770f, 0.006035f, -0.011583f, 
0.002769f, -0.007819f, -0.016772f, 0.000946f, -0.016629f, -0.013167f, -0.009176f, 0.002353f, 
0.008368f, -0.006432f, -0.011700f, -0.008436f, 0.009847f, 0.012562f, -0.016575f, -0.013551f, 
0.008730f, 0.009777f, 0.005877f, -0.001763f, 0.010812f, -0.014198f, 0.003436f, -0.002144f, 
-0.013187f, -0.004036f, -0.008349f, 0.010897f, 0.013012f, -0.001421f, 0.015141f, -0.011669f, 
-0.000564f, -0.007479f, 0.008376f, -0.006272f, -0.013647f, -0.013854f, -0.012409f, 0.001942f, 
-0.014389f, -0.003879f, 0.013054f, 0.012610f, -0.013552f, -0.006655f, -0.014486f, 0.005663f, 
0.008867f, 0.011306f, 0.015137f, -0.006828f, 0.016026f, 0.010533f, -0.005639f, -0.008856f, 
-0.001498f, -0.006348f, 0.005867f, -0.000663f, -0.016989f, 0.009574f, 0.014199f, 0.014471f, 
0.011709f, 0.011050f, 0.009430f, 0.007905f, 0.010038f, 0.007538f, -0.000886f, 0.013162f, 
-0.003968f, -0.013073f, 0.014087f, 0.001954f, -0.005811f, 0.012002f, 0.003623f, -0.010909f, 
0.002148f, -0.005519f, -0.003078f, -0.001656f, -0.014955f, -0.012896f, 0.011556f, -0.007056f, 
-0.000973f, -0.004353f, -0.014492f, -0.017158f, -0.005320f, -0.003544f, 0.013081f, -0.011631f, 
0.017476f, 0.017627f, -0.002891f, 0.001655f, -0.002795f, -0.015392f, -0.006447f, -0.005039f, 
0.003144f, -0.011844f, 0.006718f, 0.013912f, 0.007691f, -0.000756f, -0.018824f, -0.011001f, 
-0.005940f, -0.000444f, -0.015442f, 0.000156f, 0.005576f, -0.007175f, -0.005434f, 0.007273f, 
-0.003429f, -0.006419f, -0.016458f, -0.005589f, 0.005262f, -0.004068f, -0.014029f, -0.011089f, 
-0.008013f, 0.007294f, -0.006743f, -0.007753f, -0.002342f, 0.002270f, 0.002256f, -0.002950f, 
-0.009646f, 0.009719f, -0.014593f, -0.002072f, -0.010053f, -0.018989f, 0.008107f, -0.005761f, 
-0.018484f, -0.010414f, 0.007414f, -0.000448f, 0.015153f, 0.014100f, -0.018351f, -0.010049f, 
0.004235f, 0.010043f, 0.006405f, 0.018981f, 0.006801f, 0.003529f, -0.008024f, -0.012125f, 
-0.010364f, -0.014955f, 0.007197f, 0.005368f, 0.003808f, 0.010071f, -0.001914f, -0.013331f, 
0.005060f, 0.014441f, -0.006745f, -0.012354f, 0.010430f, -0.012295f, -0.018118f, -0.005121f, 
-0.002720f, 0.004200f, 0.002534f, 0.015089f, -0.010493f, -0.015621f, 0.011969f, -0.000195f, 
-0.001935f, 0.012272f, -0.009219f, 0.010186f, 0.005658f, 0.008172f, -0.003908f, -0.000774f, 
-0.009471f, -0.021306f, -0.019212f, 0.014168f, -0.004504f, -0.000280f, 0.011367f, -0.012382f, 
-0.015503f, -0.009746f, -0.017379f, 0.001911f, -0.007641f, -0.012142f, 0.009619f, -0.008809f, 
-0.001713f, -0.016344f, -0.001913f, 0.002128f, -0.013656f, -0.013662f, -0.013694f, 0.001361f, 
-0.004804f, 0.015023f, -0.017588f, -0.011342f, 0.002141f, -0.005115f, 0.012480f, -0.014505f, 
-0.004288f, 0.015801f, 0.013715f, 0.003068f, 0.005126f, 0.005877f, 0.012903f, 0.009134f, 
-0.012974f, 0.004422f, 0.011356f, -0.013051f, 0.001182f, 0.017710f, 0.014655f, -0.008375f, 
-0.001909f, -0.010532f, 0.006724f, 0.013015f, -0.007890f, -0.006606f, 0.003770f, 0.007803f, 
0.003864f, -0.015522f, -0.008742f, 0.001203f, 0.012462f, 0.016463f, 0.013854f, 0.001781f, 
-0.002794f, -0.015517f, 0.016252f, 0.011467f, 0.002363f, 0.000791f, 0.003855f, -0.005704f, 
0.008646f, -0.011095f, 0.015495f, 0.011514f, 0.014131f, -0.011638f, -0.014535f, 0.001630f, 
-0.007615f, 0.005808f, -0.013147f, -0.017413f, -0.018269f, 0.004185f, -0.010783f, -0.023707f, 
0.014147f, -0.014600f, -0.012499f, -0.004467f, 0.015039f, -0.006181f, 0.003098f, -0.011791f, 
-0.013145f, 0.002260f, -0.002476f, -0.004224f, -0.005433f, -0.006225f, -0.010387f, 0.012211f, 
-0.009150f, -0.000089f, 0.011222f, -0.006766f, 0.012734f, -0.009160f, 0.009357f, 0.014720f, 
0.014310f, -0.001773f, -0.012774f, -0.002344f, -0.019095f, -0.018658f, -0.003168f, 0.010271f, 
-0.003258f, 0.003198f, -0.000496f, -0.013653f, -0.000188f, 0.017671f, 0.001064f, -0.006741f, 
0.010530f, -0.014372f, 0.011123f, 0.009604f, 0.003420f, 0.012964f, 0.006817f, -0.015126f, 
-0.006322f, -0.007552f, 0.018350f, 0.018939f, 0.007113f, 0.010707f, -0.008605f, 0.007501f, 
0.007515f, -0.007362f, 0.004089f, -0.014561f, 0.013329f, 0.008927f, 0.015761f, -0.002639f, 
0.017548f, 0.014798f, 0.011039f, -0.005498f, -0.005553f, -0.011928f, 0.011818f, 0.010638f, 
-0.009918f, 0.009110f, -0.017964f, 0.001937f, -0.000175f, -0.000433f, -0.002464f, 0.015287f, 
0.008787f, 0.016207f, -0.008338f, -0.012145f, 0.007000f, 0.006680f, -0.006184f, -0.019843f, 
-0.017352f, -0.014309f, 0.015820f, 0.016968f, 0.008215f, -0.007855f, 0.007940f, -0.009909f, 
0.008156f, -0.005948f, 0.000738f, 0.001494f, -0.010182f, 0.010321f, 0.005467f, -0.009594f, 
0.008272f, -0.001371f, 0.012599f, -0.003238f, -0.013673f, 0.005186f, -0.001467f, 0.003482f, 
-0.000934f, 0.000303f, 0.008579f, -0.003666f, -0.007706f, 0.005269f, 0.014466f, 0.002292f, 
0.016147f, 0.011607f, 0.014098f, -0.001709f, 0.007785f, -0.005285f, 0.000516f, 0.007572f, 
-0.017271f, -0.016629f, 0.013875f, -0.017243f, 0.001485f, 0.003856f, 0.008028f, 0.017409f, 
0.008750f, 0.001545f, -0.006575f, -0.011270f, -0.008305f, -0.003214f, 0.005515f, -0.000171f, 
0.009651f, 0.006589f, -0.021458f, -0.000058f, -0.015657f, -0.011058f, -0.016564f, -0.002996f, 
0.017907f, -0.006247f, 0.015658f, 0.009808f, 0.001229f, -0.018807f, 0.003552f, 0.008636f, 
0.005622f, 0.001027f, 0.013782f, 0.015930f, 0.017470f, 0.001775f, 0.000651f, 0.012983f, 
0.004995f, -0.012912f, -0.003814f, -0.014065f, -0.020127f, -0.004112f, -0.012129f, -0.010062f, 
-0.021981f, -0.003069f, -0.002094f, 0.011340f, 0.004250f, -0.009343f, -0.013695f, 0.005997f, 
0.001636f, -0.008039f, -0.012134f, -0.002615f, -0.002851f, 0.007242f, 0.003132f, -0.010130f, 
0.001218f, 0.020719f, -0.013644f, 0.004112f, -0.000162f, -0.004701f, 0.003398f, 0.014145f, 
-0.006269f, -0.012341f, 0.010308f, -0.002406f, -0.021738f, 0.008989f, -0.010351f, -0.023232f, 
-0.016602f, -0.008210f, -0.013913f, -0.009782f, -0.007588f, -0.000227f, 0.009830f, -0.015703f, 
-0.010093f, 0.005320f, 0.015874f, -0.001058f, 0.012776f, 0.002380f, 0.003730f, 0.007109f, 
-0.009524f, -0.004621f, -0.010626f, -0.009704f, 0.005601f, -0.012649f, -0.002139f, -0.015778f, 
-0.009780f, -0.023386f, -0.016859f, -0.008044f, -0.002742f, -0.017458f, -0.016756f, -0.006566f, 
0.004477f, -0.002055f, -0.008897f, -0.007315f, -0.000034f, -0.006276f, -0.006545f, 0.006486f, 
-0.004656f, -0.006770f, 0.012751f, -0.002126f, 0.019691f, 0.000726f, 0.017882f, 0.009133f, 
0.015112f, -0.003074f, 0.015254f, -0.005414f, -0.005643f, -0.007671f, -0.022520f, -0.011921f, 
-0.020968f, -0.007811f, 0.003902f, -0.003919f, -0.017118f, -0.025988f, -0.016914f, -0.011092f, 
0.007153f, 0.007045f, -0.012505f, 0.005384f, -0.010738f, 0.004436f, 0.017375f, 0.004884f, 
0.009222f, 0.019480f, -0.006981f, 0.001316f, 0.005491f, -0.004137f, 0.021887f, -0.003273f, 
-0.013879f, 0.000673f, 0.005807f, -0.004071f, -0.011109f, -0.011960f, -0.019277f, -0.000883f, 
-0.008593f, 0.009691f, -0.000875f, -0.007827f, -0.013896f, 0.008202f, 0.003160f, 0.018151f, 
0.008897f, 0.013773f, 0.018187f, 0.002322f, 0.004210f, 0.013487f, 0.000277f, 0.014097f, 
0.016784f, -0.008219f, 0.022247f, -0.010080f, 0.008756f, -0.004892f, -0.003176f, 0.008803f, 
0.005557f, 0.006395f, -0.012837f, -0.009673f, -0.006349f, -0.016145f, -0.008104f, 0.010337f, 
0.007651f, 0.013663f, -0.009942f, -0.009630f, -0.006528f, -0.012378f, 0.006360f, -0.000682f, 
0.001645f, -0.000087f, 0.008294f, -0.000904f, 0.006937f, 0.002611f, 0.024981f, 0.004182f, 
0.009833f, -0.003358f, 0.016258f, 0.005648f, 0.013207f, 0.003094f, 0.004476f, 0.002572f, 
-0.009510f, -0.001241f, -0.016157f, 0.017451f, -0.011937f, 0.001866f, 0.012945f, 0.013133f, 
-0.002304f, 0.016897f, -0.010787f, -0.010922f, -0.011327f, -0.008675f, -0.012747f, 0.005550f, 
-0.002561f, 0.000923f, -0.012864f, 0.004925f, 0.002930f, 0.001738f, 0.003601f, 0.004758f, 
0.015294f, 0.017550f, 0.002120f, 0.005969f, 0.013233f, 0.008803f, 0.003484f, -0.012838f, 
0.002950f, -0.007945f, -0.009096f, -0.003653f, 0.001598f, 0.001694f, -0.001639f, 0.012690f, 
0.020545f, -0.000180f, -0.009994f, 0.018654f, -0.001295f, 0.015247f, 0.008050f, 0.017483f, 
0.002369f, 0.008531f, -0.006914f, 0.012693f, -0.006174f, -0.010586f, 0.000861f, 0.000577f, 
0.001021f, -0.008517f, 0.012449f, 0.009441f, -0.009825f, -0.010007f, 0.010112f, -0.013286f, 
0.018962f, 0.017338f, -0.003129f, -0.000092f, 0.009176f, -0.002362f, 0.015773f, -0.000058f, 
-0.005821f, 0.011174f, -0.004444f, 0.002226f, 0.011364f, 0.021439f, 0.021663f, 0.009923f, 
0.019805f, 0.016478f, -0.009873f, 0.003196f, -0.006002f, 0.000569f, -0.006608f, 0.018368f, 
0.016023f, -0.004446f, 0.012135f, 0.002962f, 0.002083f, 0.010357f, -0.009042f, 0.012362f, 
0.016831f, 0.019304f, -0.012346f, -0.007535f, 0.007884f, 0.008446f, -0.008545f, -0.010370f, 
0.015690f, -0.000849f, 0.005523f, 0.007185f, -0.006889f, 0.015557f, 0.006990f, 0.007543f, 
0.000841f, 0.016055f, -0.000011f, 0.013964f, -0.005171f, 0.004571f, 0.011178f, 0.002501f, 
-0.012972f, -0.013021f, -0.010154f, -0.005168f, 0.006084f, -0.010424f, -0.008592f, 0.011469f, 
0.001492f, -0.013471f, 0.006837f, -0.010654f, 0.004375f, 0.013485f, 0.017226f, -0.002083f, 
0.021073f, -0.010619f, 0.016212f, 0.002565f, 0.008999f, -0.010549f, 0.003264f, 0.017797f, 
-0.012716f, -0.007104f, 0.013373f, -0.006492f, 0.012480f, 0.012731f, 0.011047f, -0.013512f, 
-0.007530f, -0.004951f, 0.017558f, -0.008227f, 0.009351f, 0.005571f, -0.008045f, 0.015993f, 
-0.010741f, -0.005223f, -0.003258f, 0.005226f, 0.026849f, -0.009726f, -0.007228f, 0.002040f, 
-0.009833f, -0.017407f, -0.004453f, -0.006435f, -0.014072f, 0.009020f, -0.002771f, -0.024025f, 
0.005062f, 0.005909f, 0.005444f, 0.015926f, -0.001695f, -0.006067f, -0.005684f, -0.005749f, 
0.024938f, 0.022891f, -0.007058f, 0.009559f, -0.003897f, 0.008813f, -0.002735f, 0.008975f, 
0.013384f, 0.007429f, -0.009364f, 0.007819f, 0.010163f, -0.021114f, -0.032591f, -0.006728f, 
0.020967f, -0.012516f, -0.026406f, -0.016213f, -0.003450f, -0.021706f, -0.021376f, -0.006584f, 
-0.018959f, -0.005414f, 0.009025f, -0.003373f, -0.003816f, 0.001509f, 0.020875f, -0.004472f, 
0.001443f, 0.008483f, 0.017072f, 0.011522f, 0.018443f, 0.020889f, 0.017693f, 0.016328f, 
-0.007011f, -0.003426f, -0.016663f, 0.005620f, 0.012889f, -0.024295f, -0.024291f, -0.017961f, 
-0.013243f, 0.002495f, 0.012011f, -0.010265f, -0.013110f, -0.014834f, -0.000505f, -0.016099f, 
-0.006501f, 0.001929f, 0.008489f, 0.004800f, 0.017897f, 0.007770f, -0.005166f, 0.018473f, 
-0.001050f, 0.013964f, 0.017058f, 0.024079f, 0.002963f, -0.021282f, -0.012079f, -0.010947f, 
-0.011459f, -0.030384f, -0.011620f, -0.014958f, -0.006399f, -0.003076f, -0.016054f, -0.017284f, 
-0.010485f, -0.001769f, -0.001815f, -0.028029f, 0.009725f, 0.006827f, 0.000638f, -0.025995f, 
-0.017025f, 0.006420f, 0.005698f, 0.008271f, 0.025256f, -0.003000f, 0.015883f, -0.009687f, 
0.019109f, -0.014467f, -0.008249f, -0.013840f, -0.035540f, -0.005454f, -0.004867f, -0.026102f, 
-0.012010f, -0.004832f, -0.011206f, -0.019583f, -0.005980f, -0.008611f, -0.014372f, -0.000928f, 
-0.010896f, -0.014835f, -0.001328f, -0.017108f, -0.008991f, -0.031892f, 0.010991f, 0.008014f, 
-0.008188f, 0.022380f, 0.020951f, -0.004462f, -0.013042f, 0.015359f, 0.001573f, -0.017734f, 
-0.006918f, -0.018478f, -0.003644f, -0.009030f, -0.031628f, -0.024832f, -0.016303f, -0.026366f, 
-0.021543f, -0.035714f, -0.032795f, -0.026770f, -0.023536f, 0.001837f, 0.011779f, 0.011856f, 
-0.007915f, -0.003285f, -0.024807f, -0.024627f, 0.004821f, -0.005375f, 0.003700f, 0.014288f, 
0.002468f, -0.007144f, 0.012516f, -0.015953f, -0.007466f, -0.023331f, -0.027804f, -0.006081f, 
-0.014144f, -0.019139f, -0.009097f, -0.017368f, -0.010746f, -0.034658f, -0.026196f, -0.019736f, 
-0.004138f, -0.022320f, -0.033622f, -0.025499f, -0.001096f, 0.016936f, 0.003657f, -0.007008f, 
-0.020075f, 0.002722f, 0.035003f, -0.008453f, -0.009165f, 0.017823f, -0.001669f, -0.010292f, 
-0.026135f, -0.034270f, -0.018905f, -0.010115f, -0.025678f, -0.022377f, -0.028782f, -0.027540f, 
-0.003388f, 0.007904f, 0.014281f, 0.003038f, 0.008628f, 0.000922f, -0.002828f, -0.011990f, 
-0.015861f, -0.028692f, 0.004942f, -0.007693f, 0.006570f, -0.000688f, -0.004702f, -0.003301f, 
-0.004912f, -0.006749f, 0.019203f, -0.003130f, -0.005729f, -0.016301f, -0.029769f, -0.022772f, 
-0.030461f, -0.018790f, -0.028399f, 0.002295f, 0.005814f, 0.002366f, 0.006768f, 0.023758f, 
0.002857f, 0.019824f, -0.013689f, 0.018160f, -0.003228f, 0.002482f, -0.019998f, -0.024440f, 
-0.006426f, -0.005700f, -0.001618f, 0.007132f, 0.001769f, 0.019552f, 0.004868f, -0.005987f, 
0.006904f, -0.008790f, -0.013493f, -0.021502f, -0.013029f, -0.032728f, -0.032250f, -0.033456f, 
0.008124f, 0.010184f, 0.018819f, -0.021413f, -0.014126f, -0.013830f, 0.002753f, 0.004407f, 
-0.016466f, 0.005695f, 0.005833f, 0.021683f, -0.009764f, 0.005523f, -0.005593f, -0.005078f, 
0.015635f, -0.016089f, 0.004810f, -0.001885f, 0.024288f, -0.017925f, -0.034529f, -0.013854f, 
-0.002113f, -0.031442f, -0.022415f, -0.008880f, -0.014293f, 0.012098f, 0.008877f, 0.000767f, 
0.015837f, -0.002256f, 0.009906f, -0.013625f, -0.014834f, 0.009506f, 0.012742f, -0.019044f, 
-0.034657f, 0.007783f, -0.015350f, 0.004847f, -0.029755f, -0.012859f, -0.002521f, 0.009416f, 
0.027942f, -0.000513f, -0.011447f, -0.022700f, 0.001235f, -0.015736f, -0.018426f, -0.012314f, 
-0.009049f, 0.014719f, 0.015559f, 0.019938f, 0.013455f, -0.000051f, 0.011274f, 0.024148f, 
0.021725f, 0.014062f, 0.007798f, -0.016068f, -0.010983f, -0.013995f, 0.030282f, -0.010237f, 
-0.004934f, -0.029103f, -0.027516f, 0.028000f, 0.018535f, 0.012112f, 0.006024f, 0.012125f, 
-0.012500f, -0.019038f, -0.026801f, -0.036460f, -0.036990f, -0.036874f, -0.003678f, 0.014871f, 
0.010889f, -0.000188f, -0.008447f, 0.002618f, 0.004288f, 0.024084f, 0.012798f, 0.015476f, 
-0.018947f, -0.028973f, 0.002868f, -0.001751f, 0.017583f, -0.024350f, -0.027461f, -0.024833f, 
0.006726f, 0.023778f, -0.005723f, 0.018261f, -0.022251f, -0.008346f, -0.029709f, -0.035730f, 
-0.009804f, -0.020877f, -0.014190f, -0.005993f, 0.006960f, -0.003758f, 0.017004f, 0.003503f, 
-0.005775f, -0.000904f, 0.005418f, -0.001091f, -0.013109f, -0.006920f, -0.018739f, -0.006395f, 
-0.008487f, -0.002123f, -0.004640f, -0.013583f, -0.017969f, 0.019118f, 0.020379f, 0.002302f, 
0.001651f, -0.021232f, -0.025615f, 0.007948f, -0.028722f, -0.016237f, -0.004831f, -0.014916f, 
0.024024f, -0.017422f, 0.006759f, 0.002828f, -0.010550f, -0.003160f, 0.010881f, 0.015662f, 
0.026719f, 0.005977f, -0.012244f, -0.021124f, -0.024406f, 0.004831f, -0.024911f, -0.032497f, 
-0.023427f, -0.025372f, 0.013286f, 0.028831f, -0.001098f, 0.025972f, -0.025344f, -0.024545f, 
0.003980f, -0.026858f, -0.014740f, -0.013303f, -0.025234f, -0.010798f, 0.008055f, -0.007315f, 
-0.010783f, 0.020018f, 0.021973f, 0.004082f, -0.003470f, -0.002971f, -0.035994f, -0.023731f, 
-0.015554f, -0.014910f, -0.023106f, -0.023179f, -0.033516f, -0.029410f, -0.000379f, 0.029875f, 
0.023424f, -0.000456f, 0.018665f, -0.015556f, -0.023293f, -0.015532f, -0.005419f, -0.027077f, 
-0.029836f, -0.021075f, -0.012283f, -0.020265f, -0.028659f, -0.026843f, -0.019804f, -0.019964f, 
0.002648f, 0.007066f, -0.028097f, -0.036687f, -0.017347f, -0.025171f, -0.011238f, -0.020713f, 
-0.017347f, -0.011246f, -0.008221f, 0.032942f, 0.031838f, 0.016348f, 0.001725f, 0.019564f, 
-0.024551f, -0.013454f, -0.003623f, -0.020778f, -0.028875f, -0.018362f, -0.034573f, -0.013247f, 
-0.024823f, -0.004837f, -0.022871f, -0.010353f, -0.028583f, -0.036871f, -0.024333f, -0.041857f, 
-0.018227f, -0.026936f, -0.008313f, -0.032266f, -0.033236f, -0.027573f, -0.028647f, 0.019329f, 
0.027453f, 0.002872f, 0.009390f, -0.004410f, 0.001435f, 0.000849f, -0.004526f, -0.004779f, 
-0.023333f, 0.002953f, -0.030633f, -0.028590f, -0.019431f, -0.005222f, -0.012995f, -0.030083f, 
-0.039607f, -0.009343f, -0.018261f, -0.013768f, -0.012356f, -0.028368f, -0.017254f, -0.032891f, 
-0.022378f, -0.039881f, -0.004435f, 0.028250f, 0.036955f, 0.022023f, 0.015810f, -0.004093f, 
-0.007710f, 0.008273f, -0.019628f, 0.020695f, -0.006441f, -0.019057f, -0.016750f, -0.007461f, 
-0.018252f, -0.011029f, -0.032682f, -0.021613f, -0.026034f, -0.018230f, -0.046329f, -0.016603f, 
-0.017961f, -0.037883f, -0.034362f, -0.033395f, -0.035763f, -0.041371f, 0.008441f, 0.013253f, 
0.023791f, 0.009317f, 0.008551f, 0.003119f, -0.013333f, 0.004900f, -0.011853f, -0.021209f, 
0.026787f, 0.011351f, -0.008619f, -0.025330f, -0.007926f, -0.006580f, -0.017611f, -0.021254f, 
-0.034435f, -0.024035f, -0.020642f, -0.010157f, -0.027169f, -0.008007f, -0.012112f, -0.029462f, 
-0.003208f, 0.008411f, 0.022046f, 0.036041f, 0.035053f, 0.009644f, 0.000250f, 0.004562f, 
-0.011175f, -0.013247f, -0.004792f, -0.021615f, -0.021727f, -0.026652f, 0.003691f, -0.009232f, 
0.003686f, -0.027138f, -0.032410f, -0.020946f, -0.030886f, -0.019342f, 0.012443f, 0.005098f, 
-0.011788f, 0.022688f, 0.006929f, 0.023018f, 0.005393f, -0.001254f, 0.026342f, 0.005767f, 
0.033931f, 0.005838f, -0.004021f, -0.003760f, -0.000137f, -0.007254f, -0.010237f, -0.013213f, 
0.003833f, -0.003428f, -0.019432f, -0.018232f, -0.026360f, 0.012760f, -0.018764f, -0.028606f, 
0.002520f, -0.001263f, -0.011879f, -0.002133f, 0.003740f, -0.001557f, -0.001605f, 0.026285f, 
-0.000880f, 0.017961f, 0.005279f, -0.002381f, -0.006048f, -0.009422f, -0.004981f, 0.009246f, 
-0.004439f, -0.027927f, -0.005451f, -0.002689f, -0.001614f, 0.003912f, -0.015543f, 0.014284f, 
-0.022063f, -0.009285f, -0.021271f, -0.000818f, -0.004569f, -0.004730f, -0.001477f, -0.005273f, 
0.014817f, 0.006593f, 0.009773f, -0.009048f, 0.012042f, 0.023308f, 0.021824f, 0.002606f, 
-0.000347f, 0.007134f, -0.002150f, -0.012353f, 0.000333f, -0.019285f, 0.004207f, -0.012721f, 
-0.020485f, -0.009667f, -0.018135f, -0.007280f, 0.010341f, -0.011430f, 0.000384f, -0.027013f, 
-0.017208f, -0.017764f, -0.021448f, -0.031890f, -0.016799f, 0.000531f, -0.006501f, 0.000680f, 
-0.015349f, 0.015539f, 0.016977f, 0.013651f, 0.000978f, -0.004271f, 0.010889f, 0.002043f, 
-0.000207f, -0.010780f, -0.007107f, 0.004032f, -0.009981f, -0.011080f, -0.010477f, -0.006424f, 
-0.000682f, -0.016584f, -0.017835f, -0.029526f, -0.032214f, -0.005097f, 0.000066f, -0.019731f, 
-0.021388f, -0.002231f, -0.018576f, -0.027678f, -0.029458f, -0.029850f, -0.007263f, -0.013428f, 
-0.014205f, -0.010283f, -0.004255f, 0.004305f, 0.000533f, -0.014857f, 0.007154f, 0.006316f, 
0.004920f, 0.002015f, -0.006013f, -0.001851f, -0.007414f, 0.004487f, 0.004746f, -0.015750f, 
-0.011286f, -0.017070f, -0.008477f, -0.012788f, -0.012381f, -0.003014f, -0.022188f, -0.007243f, 
-0.007383f, -0.014557f, 0.007972f, -0.000025f, 0.004210f, -0.011568f, 0.000876f, -0.000923f, 
-0.002491f, 0.001446f, -0.002267f, -0.001874f, -0.018417f, -0.013384f, -0.014871f, 0.007371f, 
-0.008437f, -0.009249f, -0.001134f, -0.020237f, -0.015723f, -0.008041f, -0.026486f, -0.009393f, 
-0.006061f, -0.006942f, 0.000380f, 0.002276f, -0.024917f, -0.002015f, -0.021637f, -0.008689f, 
-0.012200f, 0.002147f, -0.001935f, -0.015556f, 0.002904f, 0.014681f, 0.010381f, -0.009475f, 
-0.019649f, -0.024384f, -0.021059f, 0.003186f, 0.006022f, 0.007655f, 0.004360f, -0.020743f, 
-0.015574f, -0.000672f, -0.030556f, -0.010680f, -0.028241f, -0.035827f, -0.029674f, -0.022586f, 
-0.014970f, -0.031313f, -0.009774f, -0.021395f, -0.013460f, -0.013475f, -0.016997f, -0.030202f, 
0.001859f, 0.006835f, -0.014663f, -0.003411f, -0.012735f, 0.003829f, -0.020771f, -0.021565f, 
-0.013814f, -0.019734f, -0.006648f, 0.009317f, -0.021289f, -0.005436f, -0.004748f, 0.010834f, 
-0.021430f, -0.006145f, -0.002330f, -0.022726f, -0.015745f, -0.000916f, 0.004577f, -0.024071f, 
-0.025223f, -0.005724f, -0.013447f, -0.003665f, 0.017859f, -0.004659f, 0.019202f, 0.022100f, 
0.023486f, 0.016776f, 0.002453f, 0.005109f, 0.004305f, -0.023618f, -0.006815f, -0.022873f, 
-0.013360f, -0.016217f, 0.009721f, -0.013968f, -0.012521f, -0.017803f, -0.021322f, -0.031288f, 
-0.010212f, -0.022668f, -0.016047f, -0.002675f, -0.022026f, -0.004899f, -0.018150f, 0.001668f, 
0.002699f, -0.009089f, 0.006357f, 0.008857f, 0.029167f, 0.011435f, 0.007753f, 0.014408f, 
-0.009823f, -0.012828f, -0.013534f, -0.023548f, -0.008007f, -0.000947f, -0.029475f, -0.008136f, 
-0.007350f, 0.002753f, -0.007057f, -0.023062f, -0.026557f, 0.004167f, 0.000424f, -0.017491f, 
-0.025662f, -0.001350f, 0.005449f, -0.019023f, -0.000015f, -0.000450f, -0.018448f, -0.002787f, 
-0.022882f, -0.013731f, 0.025360f, 0.001064f, -0.003529f, 0.016320f, 0.015735f, -0.004155f, 
-0.016328f, -0.008527f, -0.004321f, -0.016790f, 0.013909f, -0.025164f, -0.003891f, -0.000728f, 
-0.005163f, -0.028179f, -0.017615f, -0.027539f, 0.003067f, 0.013740f, -0.010967f, -0.027487f, 
-0.021152f, -0.029096f, -0.011142f, -0.023443f, 0.001016f, -0.019473f, 0.002767f, -0.016571f, 
-0.001989f, 0.026195f, 0.017199f, 0.009772f, 0.004716f, -0.016016f, -0.011544f, -0.008550f, 
-0.006966f, -0.023445f, -0.013695f, -0.034429f, -0.004883f, -0.011478f, -0.027974f, 0.003134f, 
-0.020615f, 0.000251f, -0.032501f, -0.023214f, -0.014716f, -0.021761f, -0.019195f, 0.012554f, 
-0.014436f, -0.022864f, -0.027719f, -0.032798f, -0.023257f, 0.001385f, 0.004142f, 0.013765f, 
0.006398f, 0.019265f, -0.003776f, -0.020007f, 0.004350f, -0.007953f, -0.002374f, -0.034914f, 
-0.032338f, -0.035519f, -0.024249f, -0.002753f, -0.034206f, -0.037452f, -0.018384f, -0.020916f, 
-0.028248f, -0.014191f, 0.013786f, 0.005561f, -0.001941f, 0.003084f, 0.010227f, 0.010699f, 
-0.017797f, -0.003358f, -0.012242f, -0.019813f, 0.015094f, 0.013773f, 0.015893f, -0.000072f, 
-0.019144f, -0.007533f, -0.023020f, -0.027342f, -0.027104f, -0.021298f, -0.034180f, 0.006346f, 
-0.003292f, -0.023489f, -0.018589f, -0.019728f, -0.018768f, 0.023095f, 0.014145f, -0.027932f, 
-0.022499f, 0.001788f, -0.012145f, -0.012039f, 0.004302f, -0.015833f, -0.033796f, -0.018398f, 
-0.026290f, 0.002042f, 0.012234f, 0.023278f, 0.015362f, -0.022128f, -0.001928f, -0.015069f, 
-0.006247f, -0.032615f, -0.015426f, -0.015236f, -0.035000f, -0.009829f, -0.014488f, -0.015234f, 
-0.005354f, -0.013213f, -0.014007f, 0.018970f, -0.000330f, -0.003107f, -0.011961f, 0.008416f, 
0.026099f, 0.010904f, 0.007066f, -0.020494f, -0.026827f, -0.035774f, -0.019571f, 0.005939f, 
0.036395f, 0.021050f, -0.027771f, -0.002072f, -0.025350f, -0.011693f, -0.025407f, -0.035703f, 
-0.024805f, -0.037411f, -0.020833f, -0.025143f, -0.001783f, 0.030237f, -0.010821f, -0.020656f, 
-0.003362f, -0.015740f, -0.012827f, -0.012052f, -0.011114f, 0.003045f, 0.032009f, 0.043182f, 
0.025524f, -0.008992f, -0.019936f, -0.029588f, -0.007551f, 0.007473f, 0.027175f, -0.015989f, 
-0.001182f, -0.031007f, -0.030971f, -0.009445f, -0.025659f, -0.007234f, -0.017994f, -0.027728f, 
-0.010226f, 0.041765f, 0.033634f, 0.032935f, 0.004213f, -0.007415f, 0.010940f, -0.001764f, 
-0.031172f, -0.016065f, -0.005566f, -0.011283f, 0.005589f, 0.037638f, 0.007470f, -0.014660f, 
-0.005880f, -0.023166f, 0.014376f, 0.027372f, -0.007647f, -0.008017f, -0.012609f, -0.008170f, 
-0.010464f, -0.026912f, -0.021791f, -0.014712f, -0.012895f, 0.002515f, 0.019920f, 0.032088f, 
0.011740f, 0.001863f, 0.006010f, 0.010766f, 0.005554f, -0.025460f, -0.018994f, -0.016975f, 
-0.018604f, -0.017360f, 0.032042f, 0.028632f, -0.020485f, -0.015623f, -0.017947f, 0.031295f, 
0.033802f, -0.002266f, -0.011169f, -0.010021f, -0.029978f, -0.036591f, -0.013396f, -0.027590f, 
-0.025439f, -0.012965f, 0.042179f, 0.012008f, 0.024257f, 0.003698f, 0.005305f, -0.001408f, 
0.006132f, 0.004675f, -0.018725f, -0.021729f, -0.039009f, -0.019226f, -0.024519f, -0.000112f, 
0.011458f, 0.004115f, -0.031054f, -0.021577f, 0.016423f, 0.029657f, 0.009568f, -0.008044f, 
-0.026895f, -0.014951f, -0.016448f, -0.018209f, -0.033987f, -0.024178f, 0.002444f, 0.030942f, 
0.023892f, 0.022403f, 0.009854f, 0.015644f, 0.024923f, 0.023203f, 0.014492f, 0.001770f, 
-0.031333f, -0.005933f, -0.024322f, -0.028717f, -0.012174f, 0.002346f, -0.022594f, -0.035518f, 
-0.035906f, -0.011368f, 0.039805f, 0.012882f, 0.000915f, -0.026430f, -0.017489f, -0.036105f, 
-0.024259f, -0.012089f, -0.015783f, -0.015732f, 0.034897f, 0.028373f, 0.030434f, 0.026652f, 
-0.009507f, 0.026826f, 0.017122f, 0.025992f, 0.022692f, -0.012387f, -0.011585f, -0.022428f, 
-0.016782f, -0.014218f, -0.025909f, -0.008579f, -0.003466f, -0.029909f, 0.019902f, 0.040986f, 
-0.000566f, 0.010529f, -0.006803f, -0.027629f, -0.011617f, -0.020120f, -0.027885f, -0.028282f, 
-0.005938f, 0.038367f, 0.026941f, 0.015176f, 0.030159f, 0.004399f, 0.010062f, 0.031211f, 
0.008860f, 0.021976f, -0.028090f, -0.015100f, -0.004922f, -0.025023f, -0.013367f, -0.009533f, 
-0.004079f, -0.022204f, -0.007002f, 0.025584f, 0.009276f, 0.007490f, -0.020597f, -0.008206f, 
-0.034811f, -0.040671f, -0.029225f, -0.029416f, -0.021763f, -0.019464f, 0.004591f, 0.019279f, 
0.016148f, 0.015732f, 0.019200f, 0.011433f, 0.020387f, 0.030897f, 0.000059f, -0.022682f, 
-0.006136f, -0.027224f, -0.012458f, -0.026446f, -0.021936f, -0.031093f, -0.013779f, 0.021318f, 
0.018910f, 0.016464f, -0.002411f, -0.022291f, -0.002795f, -0.019781f, -0.039299f, -0.030773f, 
-0.031810f, -0.026131f, -0.028279f, -0.007404f, 0.009020f, 0.017619f, 0.023377f, 0.030060f, 
0.021702f, 0.007102f, 0.012680f, -0.032522f, -0.017524f, -0.013249f, -0.009613f, -0.024069f, 
-0.017271f, -0.027308f, -0.009171f, 0.010433f, 0.033015f, 0.025910f, 0.013770f, -0.000168f, 
0.004613f, -0.034969f, -0.019347f, -0.031524f, -0.017562f, -0.028628f, -0.016805f, -0.008130f, 
-0.022888f, 0.008440f, 0.016209f, 0.028731f, 0.031839f, 0.008371f, 0.014275f, -0.025868f, 
-0.010661f, -0.012112f, -0.020075f, -0.013575f, -0.013537f, -0.013737f, -0.003445f, 0.004991f, 
0.028433f, 0.011101f, 0.007172f, 0.012201f, 0.003981f, -0.006789f, -0.009970f, -0.017839f, 
-0.024560f, -0.023939f, -0.023350f, -0.043302f, -0.030853f, -0.032337f, -0.014270f, -0.006794f, 
-0.011236f, 0.001156f, -0.007773f, -0.010000f, -0.010653f, -0.005143f, -0.029105f, -0.028273f, 
-0.025213f, -0.010440f, -0.029213f, 0.013636f, 0.029221f, 0.017197f, 0.022084f, 0.007653f, 
-0.005287f, 0.000704f, -0.013064f, -0.005794f, -0.032806f, -0.018762f, -0.033262f, -0.040143f, 
-0.045452f, -0.012437f, -0.006536f, -0.026211f, -0.029521f, -0.002882f, -0.031108f, -0.011411f, 
-0.007808f, -0.001841f, 0.011556f, -0.004511f, -0.000503f, 0.006615f, 0.011822f, 0.012404f, 
0.041288f, 0.012573f, 0.031262f, 0.035532f, 0.006782f, -0.018809f, -0.021705f, -0.022750f, 
-0.027241f, -0.023396f, -0.015942f, -0.008368f, -0.038249f, -0.021480f, -0.013981f, -0.036265f, 
-0.029848f, -0.028998f, -0.005423f, -0.031800f, -0.014923f, 0.005974f, 0.013254f, 0.015304f, 
0.022986f, 0.021499f, 0.014930f, 0.004841f, -0.001633f, 0.021313f, 0.008277f, 0.035060f, 
0.006970f, -0.017232f, -0.032608f, -0.006667f, -0.019546f, -0.024196f, -0.023523f, -0.008593f, 
-0.011155f, -0.037929f, -0.015116f, -0.016381f, -0.023464f, -0.039732f, -0.030935f, -0.004879f, 
-0.030796f, -0.020353f, -0.007405f, -0.012036f, 0.002363f, -0.005873f, 0.000212f, -0.004010f, 
0.024944f, -0.001920f, 0.015509f, 0.029413f, 0.003067f, 0.011868f, -0.010978f, -0.008907f, 
-0.013309f, -0.010547f, -0.024584f, -0.024306f, -0.020922f, -0.022753f, -0.016702f, -0.020517f, 
-0.038634f, -0.020228f, -0.017629f, -0.011810f, -0.033313f, -0.029944f, -0.023715f, -0.011547f, 
0.015686f, 0.000266f, 0.005266f, -0.004018f, 0.005618f, 0.017220f, 0.003063f, 0.022633f, 
0.010094f, 0.017739f, 0.004239f, 0.001848f, -0.003906f, 0.000582f, 0.007818f, -0.023450f, 
-0.029343f, -0.035742f, -0.039427f, -0.023153f, -0.009282f, -0.006850f, -0.011545f, -0.023541f, 
-0.042459f, -0.009237f, -0.008650f, -0.025933f, -0.013423f, -0.022558f, -0.012337f, -0.006873f, 
0.022579f, 0.030971f, 0.026471f, 0.015720f, 0.017306f, 0.008887f, -0.005271f, 0.005646f, 
-0.016756f, -0.018215f, -0.002852f, -0.009392f, -0.006551f, -0.007954f, -0.013575f, -0.037795f, 
-0.013169f, -0.033290f, -0.032191f, -0.021838f, -0.008463f, -0.032497f, -0.013946f, -0.003886f, 
-0.009436f, 0.005892f, 0.001999f, 0.012748f, 0.020727f, 0.017008f, 0.012427f, 0.014265f, 
0.005741f, 0.015360f, 0.008050f, -0.016283f, -0.012701f, 0.002122f, -0.005877f, -0.015148f, 
-0.009000f, -0.000954f, -0.022206f, -0.008365f, -0.028853f, -0.030418f, -0.019510f, -0.033783f, 
-0.010507f, -0.011584f, -0.023832f, -0.032582f, -0.031189f, -0.000936f, -0.011525f, -0.007169f, 
0.002415f, 0.021185f, 0.002908f, 0.010022f, 0.006431f, 0.013450f, -0.003405f, 0.000761f, 
-0.016676f, -0.008825f, -0.013512f, 0.002794f, -0.024845f, -0.007918f, -0.018594f, -0.040327f, 
-0.019720f, -0.027063f, -0.031112f, -0.008487f, -0.035566f, -0.022962f, -0.022659f, -0.032219f, 
-0.013815f, -0.011915f, -0.003527f, -0.003744f, 0.015251f, 0.015035f, 0.005659f, -0.001838f, 
0.022947f, 0.010099f, 0.004638f, 0.004185f, -0.004036f, 0.002813f, -0.024894f, -0.017513f, 
-0.004224f, -0.020010f, -0.006085f, -0.031228f, -0.024319f, -0.016836f, -0.015709f, -0.042941f, 
-0.017775f, -0.021572f, -0.028488f, -0.021726f, -0.015416f, -0.004966f, -0.021227f, -0.013321f, 
-0.006973f, 0.000429f, -0.006765f, -0.013891f, 0.015125f, 0.015228f, 0.013508f, -0.012708f, 
-0.012584f, -0.003272f, 0.006076f, -0.001035f, 0.005072f, 0.004396f, 0.001559f, -0.006210f, 
-0.006022f, -0.028518f, -0.014910f, -0.019224f, -0.030519f, -0.030562f, -0.028903f, -0.021536f, 
-0.000550f, -0.012808f, -0.018678f, 0.005879f, 0.001335f, 0.000033f, 0.024657f, 0.012259f, 
-0.001267f, -0.006115f, 0.004856f, 0.025346f, -0.005110f, 0.014151f, 0.004296f, -0.005990f, 
-0.000169f, -0.010585f, -0.019157f, -0.002568f, -0.006194f, -0.002881f, 0.021701f, 0.017060f, 
0.008257f, 0.018589f, 0.014751f, 0.002821f, 0.018938f, 0.017462f, -0.016229f, -0.006715f, 
-0.022102f, -0.006080f, -0.014866f, -0.017142f, -0.018663f, -0.022856f, -0.000201f, 0.020184f, 
0.027679f, 0.029463f, 0.021093f, 0.014732f, 0.008030f, 0.019157f, 0.012757f, 0.008646f, 
0.011057f, 0.004993f, 0.015225f, 0.031011f, 0.013644f, 0.030248f, 0.017819f, 0.016538f, 
0.006081f, -0.011275f, -0.017754f, -0.000680f, -0.001890f, -0.009532f, -0.005787f, -0.003007f, 
0.011560f, -0.015763f, -0.006806f, -0.014628f, -0.015651f, -0.012582f, 0.027734f, 0.028362f, 
0.010858f, 0.023838f, 0.001758f, 0.012164f, 0.021976f, 0.027690f, -0.002623f, 0.003703f, 
0.007185f, 0.013159f, 0.020744f, 0.028454f, -0.003952f, -0.026992f, 0.001132f, -0.010674f, 
0.018993f, 0.012864f, 0.002321f, -0.018523f, -0.029826f, -0.016747f, -0.003189f, -0.004911f, 
-0.032740f, -0.027650f, -0.027072f, -0.005933f, 0.030671f, 0.035117f, 0.019443f, 0.022340f, 
0.015378f, 0.005772f, 0.019968f, 0.008091f, 0.027708f, 0.026452f, 0.001928f, 0.009673f, 
0.019653f, -0.032108f, -0.008517f, -0.013543f, 0.017146f, -0.002608f, -0.004870f, -0.008649f, 
-0.023500f, -0.017231f, -0.014041f, 0.003522f, -0.014103f, 0.015303f, 0.002214f, -0.023418f, 
-0.023610f, -0.015025f, 0.012999f, 0.019945f, 0.021493f, 0.012292f, 0.009456f, 0.018270f, 
0.003642f, 0.006118f, 0.031769f, 0.002904f, 0.020090f, 0.004135f, -0.023516f, 0.005965f, 
0.003920f, -0.022396f, -0.022111f, -0.025411f, 0.014955f, 0.006331f, 0.015556f, 0.002963f, 
-0.008145f, 0.000309f, -0.003531f, -0.033259f, -0.024958f, -0.029519f, -0.015181f, 0.011867f, 
0.024501f, 0.018078f, 0.006220f, 0.013169f, 0.002967f, 0.000282f, 0.007645f, 0.018804f, 
0.002324f, 0.009584f, -0.031378f, -0.029059f, -0.009434f, -0.016603f, -0.014905f, -0.016719f, 
-0.015834f, -0.023383f, -0.008085f, -0.008416f, -0.029633f, -0.038250f, 0.004958f, -0.004280f, 
0.002989f, 0.011120f, -0.038938f, -0.024052f, -0.022352f, 0.025900f, 0.012160f, 0.003875f, 
0.014176f, 0.010212f, 0.010972f, -0.004830f, 0.008617f, 0.007776f, -0.004131f, 0.000254f, 
-0.025478f, 0.002045f, -0.001586f, -0.012448f, -0.013786f, -0.021560f, -0.018729f, -0.011660f, 
-0.018798f, -0.025160f, -0.027568f, -0.006078f, 0.008219f, 0.010781f, -0.019392f, -0.011721f, 
-0.019128f, -0.003780f, -0.008161f, 0.011314f, 0.023434f, 0.000377f, 0.022883f, 0.003680f, 
0.023695f, 0.008809f, 0.008169f, -0.025560f, -0.006445f, -0.034515f, -0.014257f, -0.023070f, 
-0.028448f, -0.012516f, -0.035686f, -0.039883f, -0.036245f, -0.025945f, -0.014017f, -0.030773f, 
-0.024984f, -0.029859f, -0.025305f, 0.005841f, 0.013069f, 0.002098f, -0.021056f, -0.013657f, 
0.037299f, 0.029199f, 0.028446f, 0.002375f, 0.000172f, 0.018947f, 0.011588f, 0.011626f, 
-0.023111f, -0.030379f, -0.003121f, -0.021607f, -0.039486f, -0.030040f, -0.035318f, -0.033461f, 
-0.020979f, -0.021656f, -0.014728f, -0.028780f, -0.007928f, -0.012397f, -0.023508f, -0.030377f, 
-0.002053f, 0.002758f, 0.025506f, -0.033897f, -0.009824f, -0.025911f, 0.011863f, 0.015271f, 
0.005750f, 0.004883f, 0.010768f, 0.004327f, -0.020610f, -0.006040f, -0.013913f, -0.023041f, 
-0.022970f, -0.022237f, -0.005946f, 0.006539f, 0.000303f, 0.008494f, 0.012875f, -0.002461f, 
-0.011974f, -0.024218f, -0.014326f, -0.020193f, -0.030557f, -0.040162f, -0.016171f, 0.016284f, 
0.004582f, -0.016141f, -0.025826f, 0.012878f, 0.017951f, -0.002907f, 0.005198f, 0.001684f, 
0.024818f, -0.012062f, -0.030907f, -0.028506f, -0.018391f, -0.031306f, -0.011226f, -0.008465f, 
0.028707f, 0.009388f, -0.008603f, -0.017149f, -0.004613f, -0.004100f, 0.000178f, -0.026335f, 
-0.033912f, -0.005772f, -0.018125f, -0.022334f, 0.025783f, 0.013845f, -0.019851f, -0.026914f, 
-0.003298f, 0.018362f, 0.032645f, -0.005190f, -0.003755f, -0.021046f, -0.026621f, -0.023569f, 
-0.038002f, -0.014633f, -0.038793f, -0.018008f, 0.002263f, 0.017056f, 0.000799f, -0.004663f, 
-0.005662f, -0.010441f, 0.012304f, -0.013920f, 0.001276f, -0.017171f, -0.022657f, -0.016116f, 
-0.026388f, 0.001009f, 0.032211f, -0.030836f, -0.026032f, -0.013242f, 0.008095f, 0.013778f, 
0.004054f, 0.000224f, -0.019883f, -0.007420f, -0.036090f, -0.037352f, -0.016460f, -0.027836f, 
-0.008309f, 0.024717f, 0.004204f, 0.013331f, -0.012634f, -0.014534f, -0.005959f, 0.017909f, 
-0.000926f, 0.006373f, -0.011794f, -0.040515f, -0.035281f, -0.008699f, -0.026123f, -0.009668f, 
-0.000612f, -0.019831f, -0.012780f, 0.001005f, 0.016712f, -0.010611f, 0.008770f, -0.004833f, 
-0.000367f, -0.010593f, -0.045352f, -0.016097f, -0.024253f, 0.006922f, 0.004853f, 0.008645f, 
-0.003952f, 0.013538f, 0.020461f, -0.000686f, 0.004065f, 0.001113f, 0.012685f, -0.027641f, 
-0.035095f, -0.037984f, -0.024553f, -0.007658f, 0.006607f, -0.032409f, -0.021396f, -0.021841f, 
0.005026f, 0.012082f, -0.012493f, 0.005380f, -0.007631f, -0.020427f, -0.027933f, -0.022790f, 
-0.021902f, -0.011545f, 0.000452f, 0.003372f, 0.004360f, 0.022088f, 0.003164f, 0.001177f, 
-0.004315f, 0.018998f, 0.030141f, -0.000200f, -0.034075f, -0.013154f, -0.016886f, -0.015287f, 
-0.019062f, -0.019692f, -0.006816f, -0.017489f, -0.021081f, 0.019354f, 0.013767f, -0.018663f, 
-0.018966f, -0.023984f, -0.029114f, -0.030091f, -0.040979f, -0.043423f, -0.025927f, -0.020334f, 
0.005741f, 0.008599f, 0.016018f, 0.020962f, 0.012367f, 0.017931f, 0.020406f, 0.022899f, 
0.007014f, -0.023894f, -0.033328f, -0.005923f, -0.001413f, 0.002328f, -0.006439f, -0.008490f, 
-0.011231f, -0.008232f, 0.030104f, 0.021988f, -0.017649f, -0.005868f, -0.011966f, -0.005351f, 
-0.035004f, -0.033462f, -0.017112f, -0.013547f, -0.036194f, -0.022260f, 0.021288f, 0.002757f, 
-0.003438f, -0.008998f, 0.017949f, 0.004576f, 0.010251f, 0.012775f, -0.005673f, -0.013870f, 
-0.009804f, -0.007370f, -0.010849f, -0.022275f, -0.037564f, -0.004211f, 0.017109f, -0.002739f, 
0.005921f, -0.005417f, 0.019862f, -0.032799f, -0.010028f, -0.013760f, -0.031069f, -0.035332f, 
-0.040091f, -0.031501f, -0.023580f, -0.007662f, 0.009141f, 0.015654f, 0.025498f, 0.007108f, 
0.023025f, 0.034125f, 0.009249f, -0.018904f, -0.003687f, 0.001487f, -0.007909f, -0.038623f, 
-0.021896f, -0.015184f, 0.016488f, -0.001173f, -0.004234f, 0.021270f, 0.002131f, -0.006485f, 
-0.026132f, -0.006700f, 0.011011f, -0.036398f, -0.037979f, -0.037962f, -0.028452f, -0.030844f, 
-0.027009f, -0.003888f, 0.005832f, 0.009426f, 0.010700f, 0.004273f, 0.010098f, -0.035692f, 
-0.009840f, -0.023424f, -0.011474f, -0.019700f, -0.026519f, -0.034991f, -0.016297f, 0.011646f, 
0.006025f, 0.002814f, -0.000949f, 0.002178f, 0.008576f, -0.002126f, -0.033016f, -0.008228f, 
-0.025577f, -0.031892f, -0.043791f, -0.021115f, -0.018501f, -0.027257f, -0.028921f, -0.016421f, 
0.000833f, -0.008086f, -0.024521f, -0.040075f, -0.009537f, -0.026955f, -0.000181f, -0.008761f, 
-0.018430f, -0.031269f, -0.016702f, 0.027633f, 0.001735f, -0.007081f, -0.007973f, -0.017163f, 
0.012496f, 0.003071f, -0.003999f, -0.009806f, -0.012789f, -0.005221f, -0.036060f, -0.018191f, 
-0.030501f, -0.042905f, -0.023076f, -0.036851f, -0.041275f, -0.027333f, -0.042120f, -0.037451f, 
-0.023625f, -0.016218f, -0.014421f, -0.011630f, -0.026472f, -0.039393f, 0.008328f, 0.017810f, 
0.015047f, -0.001453f, -0.010871f, -0.017648f, 0.019166f, 0.026305f, -0.000712f, 0.016632f, 
-0.023851f, -0.011611f, -0.028858f, -0.028311f, -0.037365f, -0.038129f, -0.011508f, -0.011812f, 
-0.023451f, -0.011719f, -0.027751f, -0.013166f, -0.034837f, -0.037862f, -0.031406f, -0.013919f, 
-0.019082f, -0.018998f, 0.005273f, 0.024296f, 0.004694f, 0.032077f, -0.003841f, -0.005031f, 
0.003776f, 0.008909f, 0.015426f, 0.007599f, 0.006957f, 0.015259f, 0.000092f, -0.017808f, 
-0.019251f, -0.016992f, -0.020712f, -0.024228f, -0.031566f, -0.012050f, -0.021444f, -0.007533f, 
-0.009596f, -0.010930f, -0.018714f, -0.024995f, -0.026704f, -0.018495f, 0.012592f, 0.007293f, 
0.010797f, 0.018067f, 0.028793f, 0.022429f, 0.022402f, 0.023968f, -0.002355f, 0.005422f, 
0.014125f, 0.016752f, 0.007538f, 0.015162f, -0.021900f, -0.025445f, -0.018369f, -0.021985f, 
-0.031366f, -0.033409f, -0.014443f, -0.031585f, -0.007891f, -0.017083f, 0.000510f, 0.000924f, 
-0.013129f, -0.027012f, 0.018355f, 0.016407f, 0.018773f, 0.010009f, 0.005512f, 0.025991f, 
0.030508f, 0.012754f, 0.017708f, -0.004991f, 0.031174f, 0.014659f, -0.008004f, 0.007187f, 
0.006031f, 0.006928f, 0.006462f, 0.016478f, 0.014914f, 0.006298f, 0.007125f, 0.010062f, 
-0.004214f, -0.008380f, 0.011798f, 0.030453f, 0.028072f, 0.012570f, 0.002414f, 0.023451f, 
0.018714f, 0.033784f, 0.015025f, 0.028149f, 0.009669f, 0.004626f, 0.001678f, 0.020050f, 
0.021822f, 0.007260f, 0.026282f, 0.004107f, 0.001257f, -0.000178f, 0.000889f, 0.006277f, 
0.000480f, 0.012551f, -0.004567f, 0.002783f, 0.026141f, 0.012427f, 0.005995f, 0.003982f, 
0.030487f, 0.030969f, 0.009073f, 0.022962f, 0.029774f, 0.016274f, 0.025185f, 0.012529f, 
0.012619f, 0.031186f, 0.032434f, 0.015945f, 0.005040f, 0.017977f, 0.014890f, 0.015231f, 
0.016187f, -0.002083f, -0.002091f, 0.025431f, -0.007145f, 0.015809f, 0.001171f, -0.012801f, 
-0.005428f, 0.013849f, -0.004904f, 0.022386f, 0.017015f, 0.004038f, 0.025614f, 0.012544f, 
0.002818f, 0.013923f, 0.000228f, 0.026087f, 0.006343f, 0.018926f, 0.030167f, 0.018521f, 
0.031443f, 0.023607f, 0.013515f, 0.017603f, 0.007897f, 0.001851f, -0.003875f, 0.007410f, 
0.008102f, 0.005159f, 0.017998f, -0.004179f, -0.002764f, -0.008679f, 0.022429f, 0.014208f, 
-0.005055f, 0.012475f, 0.026829f, 0.002449f, 0.033110f, 0.025575f, 0.016155f, 0.010860f, 
0.037400f, 0.024498f, 0.034208f, 0.016730f, 0.014109f, 0.014335f, 0.036517f, 0.014972f, 
0.028893f, 0.023158f, 0.021275f, 0.023699f, -0.005416f, 0.022306f, 0.012620f, 0.002398f, 
-0.013231f, 0.008969f, 0.011267f, 0.020314f, -0.002344f, 0.013306f, 0.003119f, 0.012506f, 
0.009308f, 0.029714f, 0.004520f, 0.002694f, 0.029333f, 0.006427f, 0.037032f, 0.029700f, 
0.033401f, 0.002316f, 0.012205f, 0.006572f, 0.036454f, 0.012425f, 0.011616f, 0.006217f, 
-0.007153f, -0.007335f, 0.015022f, -0.013351f, -0.001194f, 0.005308f, -0.006963f, -0.017196f, 
-0.015778f, -0.003889f, 0.015419f, -0.013480f, 0.015363f, -0.008900f, 0.012013f, 0.003534f, 
-0.001666f, 0.010342f, 0.003082f, -0.014462f, 0.002600f, 0.008905f, -0.013252f, -0.014918f, 
0.003061f, -0.014472f, -0.000730f, -0.006280f, -0.003139f, -0.010116f, 0.004680f, -0.010643f, 
0.008204f, 0.005032f, 0.005969f, -0.011980f, -0.008735f, 0.001426f, 0.015953f, 0.000278f, 
0.005394f, -0.001396f, 0.010376f, 0.003493f, 0.007966f, 0.006079f, 0.006045f, -0.009756f, 
-0.007445f, 0.002911f, -0.000523f, 0.012965f, 0.008841f, 0.002650f, -0.014206f, 0.015937f, 
0.011808f, -0.013840f, 0.014029f, 0.012562f, -0.010009f, -0.005354f, -0.007008f, 0.009097f, 
-0.015476f, -0.016822f, 0.004259f, -0.017083f, 0.009314f, -0.007770f, -0.017523f, -0.014770f, 
0.001427f, -0.003378f, 0.014010f, 0.009605f, -0.004744f, 0.009340f, -0.006382f, 0.011091f, 
-0.007854f, -0.014845f, 0.018198f, 0.010060f, 0.000854f, -0.012318f, -0.012704f, -0.001459f, 
-0.005618f, 0.010649f, -0.017739f, 0.009582f, -0.006471f, 0.015476f, 0.009513f, -0.003240f, 
-0.017525f, -0.014292f, -0.009597f, -0.000348f, 0.002652f, 0.014625f, -0.004999f, -0.014640f, 
0.002138f, 0.000259f, 0.001545f, -0.007317f, -0.002762f, 0.014679f, -0.004233f, -0.010261f, 
0.007119f, 0.016739f, -0.002508f, 0.012028f, 0.001645f, 0.016508f, -0.004861f, 0.004865f, 
0.006820f, -0.017832f, 0.008058f, -0.011988f, -0.011141f, 0.011529f, -0.004489f, -0.001766f, 
0.010499f, 0.007968f, 0.008869f, -0.009686f, 0.005749f, -0.000358f, 0.000455f, -0.017197f, 
0.006825f, 0.003132f, 0.010314f, -0.010621f, 0.001916f, -0.014329f, 0.016295f, -0.003833f, 
0.003980f, -0.000444f, -0.003512f, 0.013120f, -0.008732f, -0.017677f, 0.015423f, -0.008479f, 
0.002810f, -0.015090f, 0.011651f, -0.001037f, 0.003533f, 0.010673f, -0.010304f, 0.007586f, 
-0.010859f, -0.016330f, -0.017111f, 0.000821f, -0.004198f, -0.003343f, -0.004444f, -0.013054f, 
-0.007598f, 0.001341f, 0.016220f, 0.008313f, 0.015077f, -0.006939f, 0.003562f, 0.009345f, 
-0.011416f, 0.011414f, -0.010204f, -0.005899f, -0.010581f, -0.006606f, -0.007366f, -0.006998f, 
0.003724f, -0.004446f, 0.000061f, -0.008384f, -0.016152f, 0.005865f, -0.009754f, -0.014199f, 
-0.003380f, 0.004369f, 0.004116f, 0.008917f, 0.005972f, 0.015772f, 0.010884f, -0.001991f, 
-0.003933f, -0.010096f, 0.005850f, 0.001205f, 0.012423f, -0.011038f, -0.001138f, -0.008416f, 
0.002959f, -0.008141f, 0.004908f, -0.018915f, -0.002379f, 0.000365f, -0.016495f, -0.007425f, 
0.011934f, -0.022309f, -0.011875f, -0.011666f, 0.000365f, 0.005179f, 0.017107f, 0.015961f, 
-0.004150f, -0.009459f, 0.011550f, 0.008239f, -0.013430f, 0.016143f, -0.008868f, -0.000369f, 
-0.008697f, -0.005419f, 0.011022f, 0.005977f, -0.004307f, -0.019587f, -0.000227f, -0.020072f, 
-0.006127f, -0.001689f, 0.017413f, -0.004375f, 0.004723f, 0.005544f, -0.017109f, 0.013980f, 
-0.003542f, 0.001789f, -0.018668f, -0.005673f, -0.008017f, -0.016160f, -0.009646f, -0.005465f, 
0.014282f, -0.013294f, -0.002416f, 0.011297f, -0.010713f, -0.001881f, 0.013296f, 0.010215f, 
0.009646f, -0.002460f, 0.004358f, -0.000138f, -0.013025f, 0.001640f, 0.005711f, -0.002041f, 
-0.005335f, 0.016179f, 0.006979f, -0.002777f, 0.001079f, 0.006838f, 0.007222f, 0.004372f, 
0.000684f, 0.016354f, -0.011028f, -0.012096f, -0.013808f, -0.006163f, -0.003905f, 0.006990f, 
0.000373f, 0.014656f, 0.010286f, -0.017993f, -0.016128f, 0.005163f, -0.026500f, -0.000486f, 
-0.015296f, -0.001289f, -0.010314f, -0.006420f, -0.005474f, -0.009346f, 0.000969f, 0.015540f, 
0.008250f, -0.001027f, 0.005845f, -0.007518f, 0.008927f, -0.004798f, 0.012278f, 0.007188f, 
0.003113f, 0.009673f, -0.000847f, 0.016297f, 0.000986f, -0.010332f, 0.003072f, 0.005251f, 
0.002199f, 0.002742f, -0.021932f, 0.007011f, 0.003680f, 0.004883f, -0.004478f, 0.014537f, 
0.001390f, -0.005614f, 0.006830f, 0.006543f, 0.006328f, 0.013280f, 0.018066f, -0.009572f, 
0.009071f, -0.002207f, 0.002381f, -0.012467f, -0.008212f, 0.014334f, -0.018774f, 0.009875f, 
-0.000408f, -0.011841f, 0.012704f, 0.000345f, -0.014156f, 0.009317f, -0.013946f, 0.006631f, 
-0.007887f, 0.002305f, -0.009154f, -0.008818f, 0.016758f, 0.018334f, -0.002549f, 0.017154f, 
-0.003795f, -0.009888f, -0.008524f, 0.020160f, 0.016924f, -0.004051f, -0.016959f, 0.012682f, 
-0.012978f, 0.005055f, -0.000711f, 0.001148f, -0.000423f, -0.013467f, 0.005192f, 0.002317f, 
0.001979f, 0.002788f, 0.008420f, 0.002204f, -0.000777f, -0.000696f, -0.016361f, -0.009698f, 
-0.000095f, -0.002179f, -0.013621f, 0.014604f, 0.001506f, -0.009722f, -0.000560f, -0.004000f, 
0.005294f, 0.007261f, -0.010853f, 0.001212f, -0.015018f, 0.006584f, 0.005509f, -0.009056f, 
-0.005845f, 0.014266f, 0.003132f, 0.002009f, 0.000493f, 0.009882f, -0.000709f, -0.000373f, 
-0.007626f, -0.013014f, 0.000309f, -0.009881f, -0.011695f, -0.015758f, -0.008593f, -0.000621f, 
-0.005169f, -0.012277f, -0.007278f, 0.000789f, 0.004596f, -0.008175f, -0.013092f, 0.012588f, 
-0.000969f, 0.012457f, 0.014862f, -0.015220f, 0.009011f, -0.003923f, -0.013040f, -0.003345f, 
0.006212f, 0.009704f, 0.007955f, 0.011188f, -0.002200f, -0.001746f, -0.010083f, -0.021999f, 
-0.005900f, -0.014816f, -0.006786f, -0.002519f, -0.004957f, -0.010207f, 0.003755f, 0.011914f, 
0.013693f, 0.002276f, 0.000930f, 0.015524f, 0.004994f, 0.005269f, -0.008648f, -0.018576f, 
-0.010043f, -0.010908f, 0.003117f, -0.009933f, -0.013648f, 0.001958f, -0.008416f, -0.005650f, 
-0.000231f, 0.014900f, -0.013497f, -0.000869f, 0.006207f, -0.014356f, 0.007468f, -0.020897f, 
0.002124f, -0.008692f, 0.014064f, 0.011027f, 0.009976f, -0.000486f, -0.013989f, -0.013576f, 
-0.008630f, -0.000543f, 0.008834f, 0.008315f, -0.013347f, 0.002075f, -0.005204f, 0.002582f, 
0.010328f, -0.001593f, -0.004492f, 0.001531f, -0.000273f, 0.010921f, 0.013203f, -0.015226f, 
0.000072f, -0.000193f, -0.019772f, -0.010211f, -0.010001f, -0.012824f, 0.006027f, -0.004910f, 
-0.010225f, -0.014037f, -0.003863f, 0.003379f, -0.009210f, -0.018651f, 0.004337f, -0.014531f, 
-0.015202f, -0.001488f, -0.004142f, 0.015841f, 0.004295f, -0.002268f, 0.003768f, 0.012972f, 
-0.005872f, 0.009382f, 0.019345f, -0.001805f, -0.001277f, -0.014795f, -0.016606f, -0.004809f, 
-0.016921f, -0.025040f, -0.020981f, 0.001946f, -0.007320f, -0.020195f, 0.009111f, -0.016980f, 
0.007119f, -0.024538f, -0.011728f, 0.008634f, -0.009913f, 0.006407f, -0.016498f, -0.002266f, 
0.007277f, 0.020872f, -0.010733f, 0.018793f, -0.003331f, 0.009200f, -0.001471f, -0.000194f, 
0.006117f, -0.000193f, 0.004596f, 0.003136f, -0.013269f, -0.001276f, -0.027442f, 0.005813f, 
-0.026564f, -0.018927f, -0.013350f, -0.020542f, -0.017120f, -0.024754f, -0.013800f, 0.000269f, 
-0.017333f, -0.012012f, 0.007838f, -0.004305f, 0.012648f, -0.002689f, 0.011634f, 0.001028f, 
-0.000690f, 0.000932f, -0.009749f, 0.024336f, 0.002577f, 0.021352f, 0.020253f, 0.009623f, 
-0.011071f, 0.013743f, -0.022377f, -0.018203f, -0.019055f, -0.018552f, -0.006947f, -0.024500f, 
-0.028111f, -0.001875f, -0.006629f, -0.023073f, -0.008372f, 0.010557f, -0.012735f, -0.003912f, 
-0.003109f, 0.006321f, 0.020061f, -0.012010f, -0.007359f, 0.020640f, 0.009779f, 0.018702f, 
0.011523f, 0.005407f, 0.020621f, 0.014059f, 0.003798f, 0.001600f, 0.009119f, -0.001214f, 
0.012680f, -0.000903f, -0.020448f, -0.003942f, -0.009148f, -0.024863f, -0.008373f, -0.007387f, 
0.006334f, 0.012463f, 0.014424f, 0.017924f, -0.007237f, 0.007714f, -0.003329f, 0.010648f, 
-0.002780f, 0.015579f, -0.000250f, 0.010348f, -0.010059f, 0.009512f, 0.023141f, 0.002484f, 
-0.007378f, 0.018109f, 0.009959f, -0.000865f, -0.011844f, -0.016558f, 0.003109f, 0.012369f, 
-0.011190f, -0.009742f, -0.001550f, 0.009806f, -0.016838f, 0.008519f, 0.010396f, 0.003385f, 
-0.003772f, 0.017034f, 0.008369f, 0.006150f, -0.010772f, -0.001392f, 0.002762f, 0.019628f, 
-0.002678f, 0.009987f, -0.005803f, -0.004923f, 0.011672f, 0.016281f, 0.020069f, 0.019150f, 
0.001536f, 0.017921f, -0.013079f, -0.004368f, 0.013974f, 0.016652f, -0.008552f, -0.014554f, 
-0.006583f, -0.009642f, 0.005088f, -0.015058f, -0.006426f, 0.007314f, -0.008322f, -0.010242f, 
-0.000102f, 0.009402f, -0.010696f, -0.002097f, 0.009684f, 0.008504f, 0.017368f, -0.001621f, 
0.024563f, 0.017735f, -0.002416f, 0.014287f, -0.008408f, 0.001642f, -0.007822f, -0.003601f, 
0.019380f, 0.014669f, -0.008141f, 0.010316f, -0.010172f, -0.013393f, 0.007580f, 0.008393f, 
-0.012551f, -0.009958f, 0.009570f, -0.012376f, -0.005100f, 0.018166f, 0.015242f, -0.000007f, 
0.001175f, 0.009729f, 0.006052f, 0.012856f, 0.011321f, -0.007544f, 0.024612f, 0.000558f, 
0.013560f, 0.005814f, -0.011977f, 0.011883f, -0.004653f, -0.004992f, -0.014403f, -0.002978f, 
0.013218f, 0.010815f, 0.003751f, -0.015331f, -0.004740f, 0.019108f, 0.004928f, -0.014463f, 
-0.012073f, -0.003782f, 0.003652f, 0.012891f, -0.003938f, -0.001906f, -0.005653f, 0.008413f, 
-0.002435f, 0.009417f, 0.023649f, 0.008058f, 0.022879f, -0.001397f, 0.019664f, 0.016097f, 
0.015268f, -0.003290f, 0.013279f, -0.007388f, 0.010504f, 0.012506f, 0.014107f, 0.006367f, 
-0.013788f, 0.008570f, -0.004701f, 0.003880f, -0.001905f, -0.002245f, 0.006650f, 0.008196f, 
-0.007879f, -0.000600f, 0.013547f, -0.008644f, 0.010962f, 0.017817f, -0.007107f, 0.009070f, 
0.023255f, 0.002786f, 0.015795f, 0.001904f, 0.011635f, 0.016380f, -0.006911f, 0.014959f, 
0.007181f, -0.001517f, -0.002196f, -0.013610f, -0.011446f, -0.015988f, 0.001172f, 0.001787f, 
0.010265f, -0.003575f, 0.010594f, 0.008981f, -0.012289f, 0.003467f, 0.004950f, 0.013000f, 
-0.006591f, 0.017353f, 0.008712f, 0.003933f, 0.000005f, 0.018628f, 0.017558f, -0.000812f, 
-0.003956f, 0.018660f, 0.007864f, -0.011807f, -0.010139f, 0.011150f, 0.012763f, 0.013915f, 
0.009933f, -0.002226f, -0.013197f, 0.000928f, -0.005240f, 0.000030f, 0.002972f, 0.000114f, 
-0.001666f, -0.015022f, 0.002290f, 0.018005f, -0.013960f, 0.000325f, 0.019674f, 0.016957f, 
-0.001392f, -0.004886f, 0.015194f, 0.017545f, -0.003897f, 0.008206f, 0.011010f, 0.016430f, 
-0.008731f, 0.010618f, 0.012479f, 0.002267f, -0.005893f, -0.002895f, -0.013280f, -0.010323f, 
-0.007577f, 0.010043f, -0.012653f, 0.004319f, 0.001888f, 0.014356f, -0.011816f, 0.018415f, 
-0.003126f, -0.011739f, -0.013468f, 0.007950f, -0.012410f, -0.015018f, -0.014307f, -0.009268f, 
-0.013854f, -0.000787f, -0.003846f, 0.002516f, -0.006712f, -0.009783f, -0.007205f, 0.003861f, 
-0.012963f, 0.006959f, 0.004621f, 0.008792f, -0.014594f, 0.014437f, -0.009107f, -0.013105f, 
-0.012313f, -0.012844f, 0.013122f, -0.006830f, -0.005776f, -0.000081f, -0.005606f, 0.014275f, 
-0.012863f, 0.008774f, 0.013549f, 0.010417f, 0.007661f, 0.010427f, -0.012103f, 0.009138f, 
-0.015307f, -0.007347f, -0.006175f, 0.007372f, 0.003881f, 0.013963f, -0.006980f, -0.011711f, 
0.010791f, -0.012127f, -0.016426f, -0.000580f, -0.012089f, -0.013201f, -0.002364f, 0.014841f, 
0.012077f, -0.004873f, 0.004951f, 0.017473f, 0.004660f, -0.009004f, -0.008644f, 0.011620f, 
-0.003868f, 0.014828f, 0.011334f, 0.010945f, 0.014312f, 0.012785f, -0.009597f, -0.001779f, 
0.010521f, 0.009382f, 0.013391f, -0.001159f, 0.012466f, 0.009706f, 0.007342f, -0.008213f, 
-0.005926f, 0.003504f, -0.017971f, 0.000589f, 0.010156f, -0.008278f, 0.006535f, -0.000175f, 
-0.002256f, 0.001345f, -0.009036f, 0.008163f, -0.002936f, 0.012653f, 0.001505f, -0.005137f, 
-0.011545f, -0.017089f, -0.010506f, -0.017378f, -0.016632f, -0.017458f, 0.001033f, 0.000926f, 
0.007438f, 0.001220f, 0.006058f, -0.008515f, 0.012906f, 0.005710f, -0.016409f, -0.015054f, 
-0.006286f, 0.015458f, 0.006693f, -0.002697f, -0.013933f, 0.010094f, 0.006116f, -0.013983f, 
-0.005673f, 0.006628f, 0.005636f, -0.009048f, 0.004779f, -0.005701f, -0.012179f, 0.011533f, 
-0.014257f, -0.004354f, -0.003235f, -0.019746f, -0.016169f, 0.007796f, 0.009276f, 0.013585f, 
-0.016735f, -0.008356f, 0.000087f, 0.006768f, 0.012104f, 0.005872f, -0.005385f, -0.007447f, 
-0.002186f, 0.007156f, -0.004161f, -0.009673f, 0.003323f, 0.015659f, -0.003953f, -0.006170f, 
-0.016966f, -0.010106f, 0.005361f, -0.018294f, 0.004814f, 0.002148f, -0.013808f, -0.018308f, 
-0.007003f, 0.005198f, -0.015074f, -0.011701f, -0.019577f, -0.012101f, -0.019977f, -0.015382f, 
0.014296f, 0.003581f, 0.007116f, -0.009184f, 0.005562f, 0.006435f, 0.002784f, -0.001772f, 
0.008374f, 0.000789f, 0.018996f, -0.014392f, -0.006009f, -0.003024f, -0.012269f, 0.011447f, 
-0.013009f, -0.003375f, -0.003144f, 0.005380f, -0.012167f, -0.011616f, -0.000987f, 0.004097f, 
0.008757f, -0.001680f, -0.009443f, 0.005875f, 0.001760f, 0.010934f, 0.014967f, 0.004822f, 
-0.000384f, -0.013719f, 0.009163f, -0.010043f, 0.005137f, -0.008911f, 0.004750f, 0.005913f, 
-0.013442f, 0.002778f, 0.004641f, 0.006579f, 0.006495f, -0.016575f, 0.001749f, -0.009199f, 
-0.007165f, 0.008457f, -0.017205f, 0.007867f, -0.020537f, 0.012229f, -0.005351f, -0.014203f, 
-0.013599f, -0.017787f, -0.013281f, 0.003545f, 0.001638f, -0.003660f, -0.010170f, 0.012575f, 
-0.011022f, -0.011929f, -0.013833f, -0.009746f, -0.006721f, 0.011010f, -0.011356f, -0.017415f, 
0.004960f, -0.018707f, -0.013337f, -0.000166f, -0.015948f, -0.016833f, 0.000053f, -0.007173f, 
0.004316f, -0.012856f, -0.016629f, 0.008798f, -0.009397f, -0.014169f, -0.018862f, -0.018278f, 
0.011011f, -0.017239f, -0.007898f, 0.016505f, 0.002709f, 0.006547f, 0.003778f, 0.010468f, 
-0.010535f, 0.013589f, -0.001489f, -0.001574f, -0.006618f, -0.020312f, -0.021959f, -0.011100f, 
-0.021282f, -0.017849f, 0.005912f, -0.015743f, -0.010563f, 0.003954f, 0.002668f, -0.005972f, 
0.007420f, -0.003338f, 0.010633f, -0.012922f, 0.000335f, 0.003925f, -0.002808f, -0.013688f, 
0.014199f, 0.011984f, -0.015747f, 0.005764f, 0.016231f, 0.012637f, -0.005702f, 0.012418f, 
-0.010114f, 0.006195f, 0.001436f, -0.022048f, -0.016606f, -0.013166f, -0.019802f, -0.014592f, 
-0.012039f, -0.009420f, -0.003922f, 0.003689f, -0.002923f, 0.017105f, -0.014352f, -0.002624f, 
-0.012389f, 0.010737f, -0.012638f, -0.014644f, -0.009895f, 0.013915f, 0.006336f, 0.002311f, 
-0.008876f, 0.009951f, 0.007267f, 0.014044f, -0.015296f, -0.014261f, 0.011199f, 0.002106f, 
0.003333f, -0.000960f, -0.003999f, -0.003160f, -0.005705f, 0.002693f, 0.013986f, -0.000690f, 
0.003059f, 0.014787f, -0.006184f, 0.018100f, 0.014608f, 0.000870f, 0.004042f, 0.011394f, 
0.015538f, -0.002159f, 0.014072f, 0.005693f, -0.017594f, -0.015045f, 0.015127f, -0.005264f, 
0.006479f, -0.011106f, -0.006737f, 0.000692f, 0.000364f, 0.008302f, -0.012393f, -0.003350f, 
-0.001808f, -0.002353f, -0.003774f, -0.001197f, -0.015890f, 0.018098f, 0.004357f, 0.000323f, 
0.013258f, 0.007667f, 0.002072f, 0.015057f, 0.009832f, 0.014500f, 0.000830f, -0.007871f, 
0.014294f, -0.015260f, 0.005074f, 0.004678f, -0.007777f, 0.013916f, 0.011034f, 0.001146f, 
-0.008913f, -0.004293f, 0.008853f, -0.022440f, 0.007958f, -0.021427f, -0.012592f, 0.017130f, 
-0.011183f, 0.011910f, -0.013499f, 0.001222f, 0.017670f, 0.018121f, 0.000347f, -0.000136f, 
-0.007051f, -0.012561f, 0.009841f, 0.003660f, 0.004839f, -0.002169f, -0.006014f, 0.013048f, 
0.013427f, 0.010843f, 0.016469f, -0.002860f, -0.005483f, -0.010908f, -0.015453f, 0.004330f, 
0.005088f, -0.021525f, -0.015688f, 0.010059f, -0.014957f, 0.010403f, 0.009589f, -0.005307f, 
-0.014853f, 0.009853f, -0.014068f, 0.008751f, -0.009249f, 0.001559f, -0.011583f, -0.011063f, 
-0.004473f, 0.007810f, -0.000973f, 0.013532f, 0.015136f, 0.005272f, -0.012936f, 0.016040f, 
0.003316f, -0.013652f, -0.000132f, -0.008708f, -0.022290f, 0.005292f, 0.001832f, 0.006925f, 
0.011219f, 0.003675f, -0.009943f, 0.015829f, -0.007186f, -0.003436f, 0.012741f, -0.011346f, 
0.004743f, -0.013611f, 0.009137f, 0.012003f, -0.017049f, 0.009605f, -0.017395f, 0.001507f, 
0.012633f, -0.011932f, 0.002299f, -0.004548f, -0.009856f, -0.009228f, -0.009986f, -0.013859f, 
-0.011785f, 0.007360f, -0.006463f, -0.015532f, -0.016940f, -0.013934f, -0.015140f, -0.020327f, 
-0.008204f, -0.007716f, -0.013595f, 0.004912f, -0.001147f, -0.011458f, -0.013678f, -0.003120f, 
-0.006848f, -0.000737f, -0.009912f, -0.004074f, 0.002315f, -0.004604f, 0.018074f, 0.009999f, 
0.003951f, -0.004672f, 0.013071f, 0.014904f, 0.013270f, -0.012896f, 0.003810f, -0.016866f, 
0.006587f, -0.009957f, -0.012763f, 0.004213f, 0.007368f, 0.001112f, -0.001129f, 0.009759f, 
0.002352f, -0.003096f, -0.005019f, -0.005718f, -0.011611f, 0.008896f, -0.018132f, 0.010554f, 
-0.016802f, -0.009101f, -0.012818f, 0.020906f, -0.003518f, 0.006339f, 0.014921f, 0.022371f, 
-0.007436f, 0.003020f, -0.005874f, 0.013266f, -0.015913f, -0.021205f, -0.017801f, 0.005188f, 
-0.019005f, -0.004590f, -0.016296f, -0.005640f, -0.010963f, -0.009505f, 0.000847f, -0.008592f, 
-0.023201f, -0.009248f, -0.001152f, -0.011893f, 0.006176f, -0.015027f, 0.020512f, 0.011746f, 
0.005948f, 0.006942f, 0.008640f, 0.004544f, 0.015523f, 0.003150f, 0.014190f, 0.006815f, 
0.000413f, 0.008909f, 0.005044f, -0.006746f, 0.002405f, -0.018858f, -0.019935f, -0.025157f, 
-0.019517f, -0.025705f, -0.017505f, -0.018780f, -0.016654f, 0.009926f, -0.018860f, 0.006006f, 
-0.011695f, -0.007754f, 0.013937f, 0.002403f, -0.002096f, 0.011830f, 0.021548f, 0.016333f, 
-0.009858f, 0.007054f, 0.008513f, 0.013781f, -0.009415f, -0.010628f, 0.017383f, -0.003746f, 
-0.013653f, -0.000987f, 0.006357f, 0.007515f, -0.023030f, -0.001888f, -0.015259f, -0.006475f, 
-0.003285f, 0.009388f, 0.011894f, -0.012384f, 0.006766f, 0.007228f, 0.002700f, 0.011296f, 
0.012510f, -0.012700f, -0.004947f, -0.002000f, -0.009279f, 0.008940f, 0.006735f, 0.008144f, 
-0.009373f, -0.009828f, 0.021850f, 0.016051f, 0.013055f, -0.015578f, 0.004867f, -0.008467f, 
-0.021473f, -0.014567f, 0.008427f, -0.005771f, -0.012415f, 0.009928f, 0.010925f, 0.005500f, 
-0.001835f, 0.000426f, -0.002255f, -0.003107f, 0.018620f, 0.000671f, 0.012354f, 0.005487f, 
0.017705f, -0.002740f, 0.019417f, -0.000233f, 0.001027f, 0.015786f, -0.001762f, -0.006464f, 
-0.005605f, 0.014353f, -0.003964f, -0.007999f, -0.016423f, -0.015807f, 0.005547f, 0.007317f, 
-0.003146f, 0.007807f, 0.014601f, -0.002989f, 0.008423f, 0.001565f, -0.010511f, -0.012565f, 
0.009725f, -0.003531f, 0.006485f, -0.001185f, 0.017672f, 0.018820f, 0.007286f, 0.019875f, 
0.000733f, -0.006595f, 0.010338f, -0.009767f, -0.001244f, 0.006084f, 0.002030f, -0.010316f, 
-0.006486f, 0.010324f, -0.015500f, -0.015009f, 0.016961f, 0.016951f, -0.013486f, -0.016245f, 
0.001095f, 0.003563f, 0.015728f, 0.018191f, 0.004422f, 0.005116f, -0.001786f, 0.004996f, 
-0.007909f, -0.004794f, 0.019283f, 0.010065f, -0.004384f, -0.001693f, 0.012006f, 0.011250f, 
0.008966f, 0.017779f, -0.007009f, -0.010919f, 0.008969f, 0.017028f, -0.002098f, -0.008594f, 
-0.002912f, -0.000634f, 0.010624f, 0.009849f, -0.009140f, -0.005617f, -0.001729f, -0.007923f, 
-0.001773f, -0.007012f, 0.004633f, 0.017081f, 0.012043f, -0.005793f, 0.007805f, 0.007316f, 
-0.007702f, -0.010407f, 0.010531f, 0.013654f, 0.015535f, 0.001846f, 0.004060f, -0.011680f, 
0.009114f, 0.005333f, -0.007070f, -0.009164f, -0.012701f, -0.011154f, 0.018543f, 0.014207f, 
0.017870f, 0.013463f, -0.010355f, 0.010641f, 0.015863f, 0.002015f, 0.000353f, -0.009796f, 
0.009776f, 0.019987f, 0.003200f, 0.010212f, -0.003134f, -0.003461f, -0.007439f, -0.003702f, 
-0.000885f, 0.005362f, 0.022977f, -0.010823f, -0.012402f, 0.007707f, -0.003649f, -0.010299f, 
0.008598f, -0.008806f, 0.003072f, -0.000199f, -0.007845f, -0.014280f, -0.005995f, -0.004015f, 
0.005477f, -0.012011f, -0.006142f, 0.004243f, 0.017849f, 0.012922f, 0.013973f, 0.018038f, 
0.020719f, 0.014473f, 0.010606f, -0.011427f, 0.019165f, 0.010513f, -0.004613f, 0.007181f, 
0.011699f, 0.020700f, -0.012957f, 0.015199f, -0.005860f, 0.014175f, 0.011491f, 0.010234f, 
-0.006407f, -0.013105f, -0.014342f, -0.007119f, -0.003445f, -0.011481f, -0.000705f, 0.000817f, 
0.013648f, 0.011530f, -0.009908f, -0.001475f, 0.015610f, -0.004940f, 0.011984f, 0.009479f, 
0.007906f, 0.006480f, -0.012128f, 0.016891f, -0.013110f, -0.005291f, 0.009322f, -0.009294f, 
-0.008724f, 0.010688f, -0.009626f, -0.008726f, -0.013465f, 0.003159f, 0.012204f, -0.002465f, 
-0.005138f, 0.005309f, 0.019717f, -0.011321f, -0.008163f, -0.008912f, 0.018295f, 0.018407f, 
0.006237f, 0.019851f, -0.004045f, 0.008643f, -0.001484f, 0.006830f, -0.001715f, 0.003327f, 
-0.005008f, -0.005792f, 0.011473f, 0.005013f, 0.001395f, -0.012109f, -0.007055f, -0.018575f, 
-0.015547f, -0.016389f, 0.001905f, 0.009937f, 0.014815f, -0.005157f, 0.003998f, 0.016484f, 
0.000819f, -0.004912f, -0.006955f, 0.016963f, -0.006263f, -0.012971f, 0.006496f, -0.007654f, 
-0.008664f, 0.002264f, 0.008776f, 0.015882f, 0.009731f, 0.006720f, 0.006170f, -0.003005f, 
0.004688f, -0.017064f, -0.015389f, -0.005902f, 0.006108f, 0.006555f, -0.004882f, -0.005813f, 
-0.006200f, -0.016748f, 0.004540f, 0.001175f, -0.014577f, -0.008678f, 0.001199f, 0.016941f, 
0.001379f, -0.004716f, 0.001650f, 0.005400f, 0.007143f, 0.012206f, 0.009891f, 0.001590f, 
-0.004609f, 0.011447f, 0.013700f, 0.009861f, -0.017239f, -0.007413f, 0.001014f, -0.001307f, 
0.008708f, 0.004791f, -0.017035f, 0.005332f, -0.015948f, -0.007689f, -0.001316f, 0.010243f, 
0.003935f, 0.013214f, -0.010911f, -0.003002f, 0.018450f, -0.005932f, 0.009988f, -0.000300f, 
-0.012514f, 0.002680f, -0.006248f, 0.014560f, 0.000528f, -0.004977f, 0.003175f, 0.001357f, 
0.004475f, -0.006506f, 0.010741f, 0.013921f, -0.016914f, -0.009745f, -0.002306f, 0.015751f, 
0.007683f, -0.014326f, 0.005377f, -0.008012f, -0.006898f, -0.000942f, 0.008483f, -0.006535f, 
0.003590f, -0.010735f, -0.001614f, 0.017876f, -0.015669f, -0.000364f, 0.004301f, 0.019108f, 
0.013127f, 0.007152f, 0.007520f, 0.011465f, -0.008948f, 0.002456f, -0.000145f, 0.010839f, 
0.010298f, -0.013567f, -0.010485f, -0.011597f, 0.019577f, 0.004025f, -0.009520f, -0.014697f, 
0.011726f, -0.014891f, -0.018113f, -0.002685f, 0.002136f, 0.004906f, 0.006867f, -0.011371f, 
0.010319f, -0.001963f, 0.002626f, 0.010922f, -0.007085f, 0.014925f, 0.003719f, 0.000997f, 
-0.005433f, 0.002699f, -0.020279f, -0.020225f, 0.017567f, -0.003543f, -0.017432f, -0.007503f, 
0.003476f, -0.021405f, -0.000428f, 0.002688f, -0.014021f, 0.013662f, 0.004535f, -0.016317f, 
0.013963f, 0.004782f, 0.002569f, -0.018016f, -0.002885f, 0.002839f, -0.006231f, -0.009233f, 
0.020045f, 0.016364f, -0.000485f, 0.002662f, -0.011992f, 0.006137f, 0.002173f, -0.014950f, 
-0.012321f, -0.003427f, 0.000324f, -0.001519f, -0.009652f, -0.028337f, -0.028422f, -0.024349f, 
0.003209f, -0.016292f, -0.005364f, -0.002607f, -0.008158f, -0.008200f, -0.003372f, -0.015163f, 
0.010087f, -0.013739f, 0.013159f, -0.006971f, 0.015544f, 0.010330f, -0.007612f, 0.018306f, 
0.016557f, -0.016778f, -0.006154f, 0.011602f, -0.009462f, 0.000912f, 0.006324f, -0.011788f, 
-0.025161f, -0.003800f, -0.022485f, -0.023461f, -0.019373f, 0.004277f, 0.003594f, -0.016511f, 
-0.022294f, 0.008833f, 0.000526f, 0.008068f, 0.019853f, -0.011613f, -0.006489f, -0.013180f, 
-0.016573f, 0.010747f, -0.004874f, 0.008287f, 0.000928f, -0.003140f, -0.008431f, -0.017225f, 
0.008973f, -0.017054f, -0.007325f, 0.000918f, -0.006828f, -0.001487f, 0.008528f, -0.016803f, 
-0.004581f, -0.008993f, 0.008022f, 0.004935f, -0.018071f, 0.002315f, -0.021807f, -0.014354f, 
-0.003297f, -0.008290f, -0.002972f, -0.000312f, 0.007035f, 0.007345f, 0.016051f, 0.009468f, 
0.011047f, 0.002657f, 0.006931f, 0.010393f, 0.003293f, -0.004593f, 0.003705f, 0.002610f, 
0.000768f, -0.025192f, -0.018203f, 0.000811f, -0.015676f, -0.010674f, -0.003980f, -0.006285f, 
-0.004958f, -0.008166f, 0.012322f, -0.020437f, -0.013442f, -0.016581f, 0.003434f, -0.001052f, 
-0.010646f, 0.014139f, 0.005666f, 0.004088f, -0.000127f, 0.016529f, 0.010946f, 0.009702f, 
0.013162f, -0.020692f, 0.005780f, 0.008093f, 0.007057f, -0.003585f, -0.007598f, -0.007499f, 
-0.009441f, 0.011153f, -0.010514f, 0.013226f, 0.016358f, 0.002774f, -0.005348f, 0.014569f, 
0.012972f, -0.002926f, -0.007271f, 0.013799f, -0.007734f, 0.010383f, 0.014891f, -0.001550f, 
-0.009996f, 0.012308f, -0.004846f, -0.012732f, 0.019307f, -0.000030f, 0.001774f, 0.007354f, 
-0.001701f, -0.006791f, -0.002842f, -0.002463f, 0.000992f, -0.007273f, 0.000301f, -0.015704f, 
-0.006870f, -0.012697f, -0.004935f, 0.002157f, 0.007106f, 0.011428f, -0.012478f, 0.011874f, 
0.006325f, 0.002501f, -0.003700f, 0.006135f, -0.013459f, -0.015075f, -0.011752f, -0.009550f, 
0.017825f, -0.001497f, -0.009252f, 0.001155f, -0.004083f, -0.007718f, -0.008417f, 0.007308f, 
0.002063f, -0.012169f, -0.013427f, -0.011067f, -0.015914f, -0.001229f, -0.007520f, -0.013531f, 
-0.014119f, 0.001881f, -0.013030f, 0.004989f, 0.007453f, 0.001444f, 0.008148f, 0.001774f, 
0.006215f, -0.000486f, -0.014855f, -0.006725f, -0.005340f, 0.010245f, -0.011137f, 0.008695f, 
-0.012922f, -0.004917f, -0.018069f, -0.007225f, -0.002455f, -0.009366f, 0.013725f, 0.012613f, 
-0.007801f, 0.001950f, -0.012045f, -0.001313f, 0.001233f, -0.007476f, 0.005241f, -0.015034f, 
-0.001427f, -0.008075f, -0.011124f, -0.000628f, 0.016306f, -0.007801f, -0.018651f, -0.016080f, 
0.017179f, -0.012645f, 0.019002f, 0.019635f, -0.011626f, 0.007755f, 0.002009f, -0.014480f, 
0.007342f, 0.001440f, -0.001320f, -0.013278f, 0.014328f, 0.016108f, 0.015487f, 0.012935f, 
