#ifndef MY_MODEL_H
#define MY_MODEL_H
const float myModel_conv1_w[] = { 0.108660f, 0.008038f, 0.062200f, 0.036041f, -0.058827f, -0.117411f, -0.153261f, 0.076245f, 
-0.072007f, 0.194911f, -0.226794f, -0.033982f, 0.217284f, -0.086749f, 0.280351f, -0.219283f, 
0.229958f, -0.200827f, 0.240424f, 0.015674f, 0.221505f, -0.079984f, 0.116840f, 0.050625f, 
-0.066907f, -0.244503f, 0.213120f, -0.177674f, 0.249890f, 0.020133f, 0.007970f, 0.108211f, 
0.287105f, 0.131029f, -0.010660f, 0.017288f, 0.133111f, 0.289737f, 0.304532f, -0.052386f, 
0.112681f, 0.218334f, -0.040109f, 0.222447f, 0.300091f, -0.185395f, 0.252893f, 0.321721f, 
0.264611f, 0.086441f, 0.263470f, 0.025054f, 0.220973f, 0.264431f, 0.191579f, -0.164178f, 
-0.228780f, 0.087722f, -0.141623f, -0.027901f, -0.257468f, 0.075526f, -0.051239f, 0.266595f, 
-0.146382f, 0.258274f, -0.113587f, 0.202439f, 0.042560f, 0.125620f, -0.112533f, -0.105355f, 
0.098516f, 0.207876f, 0.095256f, -0.014073f, -0.232985f, 0.150066f, 0.063549f, -0.213281f, 
-0.115986f, 0.264793f, 0.095514f, 0.233769f, 0.225324f, 0.113138f, -0.079776f, 0.077501f, 
0.198409f, -0.213355f, -0.018818f, -0.124881f, -0.189619f, 0.016923f, 0.035837f, 0.074900f, 
0.080892f, -0.241580f, 0.008448f, 0.045616f, 0.014255f, -0.237784f, 0.065693f, -0.126610f, 
-0.106980f, 0.141505f, 0.247379f, -0.123523f };
const float myModel_conv1_b[] = { -0.015986f, -0.041247f, 0.025093f, -0.019132f };
const float myModel_conv2_w[] = { -0.039894f, 0.049868f, 0.008435f, 0.242883f, 0.085247f, -0.046942f, -0.042948f, -0.053896f, 
-0.218309f, 0.116509f, 0.049541f, 0.051967f, 0.185845f, -0.082409f, -0.223219f, 0.243065f, 
0.024790f, 0.161523f, 0.265260f, -0.166439f, 0.046398f, 0.175648f, -0.019564f, 0.277649f, 
-0.121267f, -0.008953f, -0.110157f, 0.212726f, 0.195406f, 0.199632f, -0.096103f, 0.032146f, 
0.229841f, -0.099769f, -0.026509f, 0.232359f, 0.194168f, 0.106366f, -0.177570f, 0.084511f, 
0.171187f, -0.115962f, -0.118906f, 0.214283f, -0.198585f, -0.034126f, 0.193600f, 0.209966f, 
-0.187110f, 0.194498f, -0.055226f, 0.129175f, -0.200512f, -0.088963f, -0.239145f, 0.245803f, 
0.125186f, -0.122916f, -0.135220f, -0.048664f, -0.149962f, 0.056443f, 0.080302f, -0.130225f, 
0.064617f, 0.236978f, 0.017398f, -0.156883f, 0.155007f, 0.145413f, -0.098580f, 0.006273f, 
-0.235589f, -0.076151f, -0.090607f, -0.231176f, 0.109038f, 0.199606f, 0.188334f, -0.113978f, 
-0.003680f, -0.202676f, -0.114894f, 0.129519f, 0.154399f, -0.167153f, 0.024470f, 0.150492f, 
-0.171238f, 0.202639f, -0.070027f, 0.068021f, 0.054807f, 0.198704f, -0.168784f, 0.276509f, 
-0.152060f, -0.118964f, 0.190593f, -0.063801f, 0.124558f, 0.255977f, -0.069513f, -0.143761f, 
0.249423f, 0.080459f, -0.153321f, 0.053667f, -0.161289f, -0.218351f, 0.022287f, 0.188806f, 
-0.059650f, -0.182786f, -0.045490f, -0.001920f, 0.003224f, 0.215055f, -0.022042f, -0.197897f, 
-0.098938f, 0.015593f, -0.197880f, -0.210977f, -0.067525f, -0.242942f, -0.182780f, -0.054371f, 
-0.159968f, 0.146649f, -0.177696f, -0.210901f, -0.030249f, -0.190101f, 0.103336f, -0.239385f, 
-0.061382f, -0.088182f, 0.016089f, -0.112687f, -0.039324f, -0.013451f, -0.145611f, 0.217133f, 
0.023447f, -0.192062f, 0.017007f, 0.028986f, -0.208536f, -0.116618f, 0.231393f, -0.080063f, 
-0.056524f, 0.086538f, 0.195657f, -0.040911f, -0.065366f, -0.042200f, 0.002097f, 0.083487f, 
-0.084232f, -0.121511f, 0.128888f, 0.082796f, 0.104393f, 0.131906f, 0.118872f, 0.293522f, 
-0.091024f, 0.084918f, -0.177586f, -0.018324f, -0.100573f, -0.133834f, -0.175118f, 0.236369f, 
0.022076f, 0.218609f, 0.080766f, 0.016182f, 0.190114f, 0.092041f, 0.233364f, -0.187075f, 
-0.091958f, -0.097924f, 0.008430f, -0.215978f, 0.112778f, 0.068421f, -0.079806f, -0.154413f, 
0.099356f, 0.174180f, -0.113678f, 0.169722f, -0.127660f, -0.087644f, 0.049579f, 0.209590f, 
0.105728f, -0.102219f, 0.100952f, 0.160131f, 0.123726f, 0.166555f, 0.286616f, 0.194582f, 
0.100911f, 0.034355f, 0.077589f, -0.133293f, 0.086872f, -0.179333f, -0.038079f, 0.107293f, 
0.219685f, -0.176182f, -0.142698f, 0.205052f, -0.136151f, -0.129518f, 0.192948f, 0.266631f, 
-0.155506f, 0.218662f, -0.198419f, -0.115660f, 0.030749f, -0.029149f, -0.037795f, 0.034379f, 
0.115458f, 0.099032f, -0.062581f, 0.165217f, -0.094783f, -0.094388f, 0.282015f, -0.127904f, 
0.316395f, 0.156465f, 0.231853f, -0.108694f, 0.125282f, 0.028087f, 0.004559f, 0.086660f, 
-0.134201f, -0.138468f, -0.164069f, -0.039100f, -0.239095f, 0.058725f, 0.008941f, 0.191756f, 
-0.248368f, -0.184411f, 0.189174f, -0.010720f, 0.080174f, 0.139188f, -0.209291f, 0.145769f, 
-0.146227f, 0.010719f, -0.225083f, -0.161468f, -0.002235f, 0.068463f, -0.150359f, -0.023292f, 
-0.005193f, 0.089367f, 0.107572f, -0.166395f, -0.191763f, -0.213063f, 0.083060f, -0.160584f, 
0.098871f, -0.043445f, -0.011045f, -0.117840f, 0.176524f, -0.222755f, 0.181346f, 0.074983f
 };
const float myModel_conv2_b[] = { -0.037097f, -0.030731f, 0.014240f, 0.034177f, 0.023180f, 0.009203f, 0.002811f, 0.037803f
 };
const float myModel_output_w[] = { 0.018124f, -0.010777f, 0.015693f, 0.007473f, -0.010383f, -0.000280f, 0.006248f, 0.001944f, 
0.001112f, 0.008745f, 0.003063f, 0.007715f, -0.010524f, -0.006502f, 0.003859f, 0.004123f, 
0.011170f, -0.016361f, 0.016738f, 0.014677f, -0.002903f, 0.018590f, 0.017172f, 0.007351f, 
-0.001300f, -0.014554f, 0.005082f, 0.005366f, -0.008759f, -0.014102f, -0.017268f, -0.012751f, 
0.005471f, -0.010462f, 0.008922f, 0.001214f, 0.020060f, 0.015438f, 0.001431f, 0.017091f, 
0.012752f, 0.015561f, -0.009271f, 0.004076f, -0.000683f, 0.008108f, 0.008371f, 0.004790f, 
0.012809f, -0.012255f, 0.001489f, 0.011178f, -0.002073f, -0.006169f, 0.000131f, -0.000148f, 
-0.000040f, -0.001043f, -0.012300f, 0.010856f, -0.002199f, 0.007418f, -0.007748f, 0.011660f, 
-0.003480f, 0.012018f, 0.007819f, -0.004954f, -0.003087f, 0.014845f, -0.015156f, -0.009753f, 
-0.002479f, 0.001097f, -0.011199f, -0.001644f, 0.010284f, -0.006945f, 0.007606f, 0.011208f, 
0.003336f, -0.005026f, 0.015563f, 0.016108f, -0.011109f, -0.012415f, 0.006499f, -0.003681f, 
0.015485f, 0.017186f, 0.004948f, -0.010606f, -0.001523f, 0.011188f, -0.000861f, -0.008714f, 
0.000146f, 0.015435f, 0.000703f, -0.012377f, 0.015286f, 0.008073f, -0.006053f, 0.013303f, 
0.000213f, -0.007938f, 0.000731f, -0.006165f, 0.000555f, 0.009841f, -0.009456f, 0.013795f, 
0.004849f, 0.005969f, 0.000731f, -0.007200f, -0.013541f, 0.020317f, 0.000429f, -0.006829f, 
0.013484f, 0.012922f, 0.003494f, 0.008355f, -0.011043f, 0.006757f, -0.007658f, -0.011960f, 
0.008963f, 0.007964f, 0.011990f, 0.001124f, 0.005048f, 0.001565f, -0.010089f, 0.006908f, 
0.007104f, -0.012334f, 0.000506f, -0.008165f, 0.015660f, 0.016316f, 0.011865f, 0.000770f, 
-0.001602f, 0.017556f, 0.019391f, 0.007827f, 0.013512f, 0.011938f, -0.006481f, -0.011605f, 
0.001545f, 0.002944f, 0.017337f, 0.018678f, -0.009551f, -0.016853f, 0.007184f, -0.009158f, 
-0.010831f, 0.012418f, 0.011574f, 0.003567f, 0.002396f, -0.000123f, -0.003389f, 0.007162f, 
0.003005f, 0.008461f, 0.001344f, -0.000067f, 0.015851f, -0.005649f, 0.001029f, -0.008013f, 
0.016770f, 0.020640f, 0.018567f, 0.006397f, 0.019104f, -0.001400f, -0.011525f, -0.013664f, 
-0.015888f, 0.009786f, -0.016304f, 0.010220f, -0.002679f, -0.011564f, 0.014311f, 0.001706f, 
-0.007598f, -0.016318f, 0.012948f, 0.011053f, -0.006962f, -0.003595f, 0.004243f, 0.006924f, 
-0.001330f, 0.015770f, 0.019713f, 0.000673f, 0.005360f, -0.010272f, -0.010411f, 0.003934f, 
-0.004967f, 0.015729f, -0.000096f, 0.000276f, 0.018138f, -0.010618f, -0.001622f, 0.001975f, 
-0.019030f, -0.013376f, -0.017403f, -0.000015f, -0.006478f, -0.002437f, -0.010689f, 0.004622f, 
-0.010086f, -0.002235f, -0.007816f, -0.005167f, 0.017459f, 0.012806f, 0.005543f, -0.000678f, 
0.005522f, -0.002453f, -0.004900f, -0.004014f, 0.019828f, -0.012796f, 0.008333f, 0.013294f, 
-0.001284f, -0.004254f, 0.018265f, 0.002254f, -0.014813f, 0.009518f, -0.009068f, 0.013228f, 
-0.016591f, -0.014197f, -0.017570f, -0.011891f, -0.000029f, -0.017570f, 0.011247f, 0.011160f, 
-0.016387f, 0.009127f, -0.008922f, -0.003714f, 0.005905f, 0.000966f, 0.000761f, -0.012644f, 
-0.008391f, -0.006238f, -0.007312f, 0.003097f, 0.007319f, -0.012690f, -0.004612f, -0.003701f, 
0.001135f, 0.006823f, -0.006562f, 0.000741f, -0.013654f, -0.003236f, -0.011477f, 0.008579f, 
0.003863f, 0.012289f, -0.009153f, -0.016229f, 0.008682f, -0.007400f, 0.002476f, 0.000188f, 
0.005481f, -0.011769f, -0.013627f, -0.002583f, -0.006679f, 0.006510f, 0.017480f, 0.014203f, 
0.001926f, 0.008026f, 0.006697f, 0.002853f, 0.015420f, -0.018070f, 0.004398f, -0.015636f, 
0.006893f, -0.003815f, 0.003790f, -0.020077f, 0.000788f, 0.001206f, -0.010081f, -0.013931f, 
0.013373f, -0.000607f, 0.007296f, -0.016151f, 0.016169f, 0.007033f, -0.001653f, 0.005970f, 
0.003998f, 0.011967f, -0.008429f, 0.001641f, 0.000913f, -0.007193f, 0.011500f, -0.011549f, 
0.000635f, 0.014475f, -0.000814f, 0.003442f, -0.000233f, -0.004188f, -0.000875f, 0.000167f, 
-0.001688f, -0.007186f, -0.003297f, 0.004152f, 0.002501f, -0.002736f, -0.002185f, -0.017073f, 
0.016954f, -0.004629f, 0.013792f, 0.003737f, -0.016343f, -0.002438f, 0.010019f, 0.005829f, 
-0.009486f, 0.011977f, -0.009581f, 0.006221f, 0.007640f, 0.011895f, -0.011842f, -0.002962f, 
0.004997f, -0.007970f, -0.013624f, -0.021022f, -0.025706f, -0.023138f, -0.011375f, -0.012491f, 
-0.003625f, -0.013496f, -0.012232f, 0.014080f, -0.008609f, 0.006876f, -0.000082f, 0.000104f, 
-0.016627f, 0.002720f, -0.007219f, -0.006186f, 0.004818f, 0.008314f, -0.003474f, -0.008684f, 
-0.014795f, 0.001765f, -0.014860f, 0.014601f, 0.010807f, -0.016149f, 0.002539f, -0.007719f, 
-0.012429f, -0.020462f, -0.029764f, -0.015066f, -0.010654f, -0.022391f, 0.010083f, 0.002075f, 
-0.001636f, 0.011960f, 0.007268f, 0.005564f, 0.002707f, -0.005483f, -0.008546f, -0.004191f, 
0.014757f, -0.010615f, -0.011128f, -0.000719f, 0.003393f, 0.008409f, -0.000501f, 0.010428f, 
0.004551f, 0.011186f, -0.002934f, -0.011750f, -0.023470f, -0.030373f, -0.029239f, -0.024226f, 
-0.004915f, -0.021299f, -0.003237f, -0.005665f, 0.009104f, -0.009305f, 0.005657f, -0.008016f, 
-0.014430f, 0.010951f, -0.001405f, -0.011946f, 0.012578f, -0.006065f, -0.000101f, -0.010611f, 
0.007222f, -0.000191f, -0.015703f, -0.010200f, 0.013047f, 0.009181f, -0.017892f, 0.008940f, 
0.001189f, -0.000896f, -0.020115f, -0.029064f, -0.012986f, -0.026064f, -0.024165f, -0.010845f, 
-0.012446f, -0.010963f, -0.009336f, -0.002992f, 0.019139f, -0.009106f, 0.002296f, 0.000143f, 
0.014830f, -0.002341f, -0.004446f, -0.004971f, -0.010132f, 0.000268f, 0.014118f, 0.013819f, 
0.007955f, -0.012789f, -0.009077f, -0.003393f, -0.008396f, -0.000197f, 0.005189f, -0.003980f, 
0.000548f, -0.028281f, -0.015443f, -0.016593f, -0.018533f, -0.015079f, -0.022460f, -0.002178f, 
-0.001594f, 0.016893f, 0.015471f, 0.000689f, 0.006092f, 0.010562f, 0.004251f, 0.006258f, 
-0.011073f, 0.017268f, 0.016794f, 0.003515f, 0.006544f, 0.006099f, -0.018287f, 0.005136f, 
-0.008672f, 0.005034f, 0.006430f, -0.005658f, -0.013856f, -0.030643f, -0.012926f, -0.001240f, 
-0.016688f, 0.002747f, 0.007730f, -0.010419f, 0.012752f, -0.011060f, 0.008578f, 0.011131f, 
-0.003496f, 0.018337f, -0.015181f, 0.015038f, -0.010260f, 0.016650f, 0.002022f, -0.009131f, 
-0.007730f, 0.005592f, -0.014843f, 0.016674f, -0.006971f, -0.001555f, -0.013422f, -0.010103f, 
-0.021002f, 0.006014f, -0.009701f, -0.009496f, 0.005821f, 0.002171f, -0.008201f, -0.008262f, 
-0.017236f, 0.012564f, 0.011042f, 0.007982f, 0.001520f, -0.009007f, 0.015741f, 0.003251f, 
0.005280f, 0.008837f, -0.000022f, -0.001232f, 0.011943f, -0.012069f, -0.006525f, 0.004724f, 
0.019314f, -0.004763f, 0.014075f, 0.005996f, 0.005161f, -0.009752f, 0.002014f, 0.003128f, 
0.001877f, 0.005473f, -0.014674f, 0.006792f, 0.007778f, -0.003331f, -0.002525f, 0.000345f, 
0.001031f, 0.008678f, -0.000999f, -0.003422f, -0.013095f, 0.003569f, 0.005505f, -0.002601f, 
-0.012539f, 0.003765f, 0.002736f, 0.001294f, 0.014648f, -0.009592f, 0.006231f, 0.002270f, 
-0.017802f, 0.010822f, -0.001510f, -0.009797f, -0.016732f, 0.001216f, -0.000955f, 0.002206f, 
0.001976f, -0.017412f, 0.001154f, -0.003946f, 0.011642f, -0.011860f, -0.012372f, 0.006495f, 
-0.001751f, -0.012196f, 0.011978f, -0.006967f, 0.011748f, 0.018337f, 0.008161f, 0.008170f, 
0.020682f, -0.004949f, -0.002606f, 0.014360f, -0.014657f, -0.004230f, 0.010697f, -0.014754f, 
0.011116f, -0.000287f, 0.016529f, -0.005359f, 0.001174f, 0.012459f, -0.013378f, -0.000408f, 
-0.000559f, 0.012378f, 0.014193f, 0.004897f, 0.006653f, -0.011022f, -0.003472f, -0.004144f, 
0.001933f, -0.001900f, 0.020392f, 0.001408f, 0.020326f, 0.009749f, 0.001254f, 0.007769f, 
0.017220f, -0.004708f, 0.011262f, -0.012292f, 0.004930f, 0.001102f, -0.014740f, 0.003014f, 
0.012385f, 0.002352f, -0.006161f, 0.006410f, -0.013866f, 0.006315f, -0.006368f, 0.019077f, 
0.001106f, -0.007530f, 0.010174f, -0.002048f, -0.009159f, -0.003281f, 0.017983f, 0.008805f, 
0.015236f, 0.001898f, 0.013467f, 0.006994f, 0.006587f, 0.017277f, -0.012513f, -0.004653f, 
0.015317f, 0.008861f, -0.013606f, -0.012790f, 0.010271f, -0.008068f, -0.003280f, -0.006503f, 
0.016005f, 0.015853f, 0.003276f, 0.015518f, 0.017290f, 0.000543f, 0.014421f, 0.008652f, 
-0.007070f, -0.009039f, 0.007470f, 0.001815f, -0.001532f, 0.015306f, -0.004774f, 0.010334f, 
-0.008469f, 0.007692f, -0.008178f, -0.002354f, 0.021081f, -0.013401f, 0.004823f, 0.005257f, 
0.015069f, -0.012969f, 0.017551f, 0.016734f, 0.009625f, 0.011328f, 0.008530f, -0.005837f, 
0.017865f, 0.013710f, -0.004598f, 0.017974f, -0.007753f, -0.007973f, 0.008743f, 0.014124f, 
0.016828f, 0.002342f, 0.024311f, 0.011993f, -0.005287f, 0.011600f, 0.004256f, 0.010054f, 
-0.001844f, 0.012860f, 0.014064f, -0.008664f, -0.002167f, 0.009300f, 0.004399f, 0.019532f, 
0.005709f, 0.006287f, 0.019382f, -0.010786f, -0.007306f, -0.004717f, 0.013001f, 0.002588f, 
0.016539f, -0.006713f, -0.003292f, 0.012648f, 0.004816f, 0.016706f, 0.024433f, -0.007660f, 
0.017787f, 0.004568f, 0.004612f, 0.016489f, 0.021672f, 0.009866f, 0.007393f, -0.000093f, 
-0.002880f, 0.004067f, 0.000053f, -0.002478f, -0.010021f, 0.003570f, 0.018363f, -0.007357f, 
-0.000156f, 0.008925f, 0.023303f, -0.004375f, 0.022501f, 0.011913f, 0.007786f, 0.010112f, 
-0.005159f, 0.006049f, 0.007986f, -0.007966f, 0.011614f, -0.003957f, -0.002806f, 0.021934f, 
0.001072f, 0.013435f, 0.017005f, 0.008075f, 0.014653f, 0.023496f, -0.001883f, 0.003124f, 
0.016421f, 0.017822f, 0.021346f, 0.003583f, 0.012468f, 0.004060f, 0.021297f, 0.016891f, 
0.012205f, 0.012466f, 0.021479f, -0.001267f, 0.010041f, 0.023576f, -0.002920f, 0.007274f, 
0.004192f, 0.020102f, -0.001295f, 0.012542f, 0.009709f, 0.015082f, 0.004664f, -0.002416f, 
0.003888f, 0.000122f, -0.005110f, 0.023926f, -0.004216f, -0.005142f, -0.006997f, -0.004000f, 
0.012547f, -0.004422f, 0.006878f, 0.006321f, 0.003516f, 0.007503f, -0.006042f, 0.002569f, 
0.024597f, -0.008221f, 0.014322f, 0.002527f, 0.007018f, 0.023411f, -0.004053f, 0.021315f, 
0.000396f, 0.013868f, 0.000640f, -0.002780f, 0.016225f, -0.009536f, 0.007636f, 0.011583f, 
0.014268f, 0.002797f, 0.018730f, 0.003722f, 0.008109f, 0.006976f, 0.014342f, -0.010180f, 
-0.003549f, 0.006457f, 0.002995f, -0.007981f, -0.011652f, -0.002361f, 0.000323f, -0.005382f, 
0.008420f, 0.010167f, 0.002066f, 0.018224f, -0.003422f, 0.014616f, 0.018887f, -0.010982f, 
-0.012242f, -0.005218f, 0.004654f, 0.009125f, 0.005711f, 0.010665f, 0.007994f, 0.018730f, 
0.017441f, -0.005013f, -0.008545f, 0.000783f, 0.010721f, 0.015304f, 0.007847f, 0.009104f, 
-0.014050f, -0.011263f, -0.006808f, 0.016287f, -0.002446f, 0.019063f, 0.007690f, 0.008478f, 
0.004953f, 0.004247f, -0.003084f, -0.004421f, -0.006264f, 0.015552f, 0.000394f, 0.015887f, 
0.011715f, -0.007072f, -0.010105f, 0.010064f, 0.002546f, -0.009419f, -0.005640f, -0.010626f, 
0.002538f, 0.003634f, -0.007282f, -0.005764f, 0.015852f, -0.005784f, 0.008813f, 0.000293f, 
0.003088f, 0.009742f, -0.000344f, 0.003594f, 0.004825f, 0.006988f, 0.013167f, 0.007798f, 
-0.008629f, 0.004409f, -0.007263f, 0.015764f, 0.010855f, -0.012235f, -0.015213f, -0.010923f, 
0.016118f, -0.007855f, -0.001291f, 0.005578f, 0.016794f, 0.015830f, 0.002333f, 0.005889f, 
0.004841f, -0.012861f, -0.006361f, 0.004847f, 0.016435f, -0.000529f, -0.004739f, -0.010767f, 
0.003564f, 0.017271f, 0.023586f, -0.010312f, -0.008042f, 0.000458f, -0.008906f, 0.000864f, 
0.000901f, -0.018266f, 0.012991f, 0.006527f, 0.012523f, 0.007669f, 0.009725f, 0.013487f, 
0.019990f, 0.012837f, -0.002422f, 0.004973f, -0.001150f, 0.008478f, -0.007849f, 0.010657f, 
0.014176f, -0.002952f, 0.017476f, -0.013741f, 0.000258f, 0.018024f, 0.021374f, 0.010497f, 
0.009068f, -0.009785f, 0.020615f, -0.011932f, -0.004172f, -0.015636f, -0.012483f, -0.012505f, 
0.013626f, -0.013969f, -0.007941f, -0.002789f, 0.021544f, -0.004381f, 0.019233f, 0.011658f, 
0.007072f, -0.006408f, 0.021449f, 0.007758f, -0.005596f, 0.007288f, 0.011711f, 0.020623f, 
-0.001333f, 0.005100f, 0.008922f, 0.013136f, 0.019174f, -0.009579f, 0.017277f, 0.006416f, 
-0.003269f, -0.008940f, 0.007448f, 0.007689f, -0.008433f, -0.018731f, 0.006894f, -0.016003f, 
0.012603f, -0.014863f, 0.008870f, 0.001862f, -0.004516f, 0.025073f, 0.019929f, 0.013635f, 
-0.010623f, -0.009645f, 0.005531f, -0.013358f, 0.003525f, -0.007720f, 0.005189f, -0.000044f, 
-0.004103f, 0.015784f, -0.002580f, 0.014381f, 0.011718f, -0.010235f, -0.003254f, -0.016258f, 
0.011408f, -0.014391f, 0.015402f, -0.008066f, 0.017541f, 0.005903f, -0.002169f, -0.015406f, 
0.013659f, 0.017897f, 0.008209f, 0.006694f, -0.010464f, 0.004196f, -0.011480f, 0.003677f, 
0.014012f, 0.019704f, -0.008842f, 0.015919f, 0.017374f, -0.003383f, 0.010849f, -0.002171f, 
0.005220f, -0.011618f, -0.005158f, 0.013094f, -0.009500f, -0.014922f, -0.015595f, -0.008408f, 
-0.003154f, -0.001126f, -0.005383f, 0.010745f, -0.003348f, 0.006087f, -0.003985f, -0.008751f, 
-0.000784f, -0.000824f, -0.001608f, 0.004222f, -0.009283f, 0.006833f, -0.000372f, -0.007010f, 
0.002738f, -0.003509f, 0.004061f, 0.003062f, 0.020371f, -0.004849f, -0.012269f, 0.017834f, 
-0.008270f, 0.012249f, -0.011342f, 0.012398f, 0.009595f, -0.019773f, -0.003128f, 0.013837f, 
0.014373f, -0.004219f, -0.005819f, -0.004209f, -0.016876f, 0.004639f, -0.002813f, 0.014032f, 
0.008056f, -0.002118f, 0.015416f, 0.011181f, 0.013345f, -0.001139f, 0.019766f, 0.018565f, 
-0.012130f, 0.015114f, 0.009207f, -0.002133f, -0.013131f, -0.008867f, 0.013486f, 0.011610f, 
0.012571f, -0.010988f, -0.020942f, -0.008915f, 0.004516f, -0.008658f, -0.002657f, 0.003851f, 
0.018708f, -0.000455f, -0.004732f, -0.014481f, 0.007780f, -0.010427f, 0.022160f, 0.011320f, 
0.017224f, -0.007846f, 0.003521f, -0.002296f, 0.000066f, 0.000614f, 0.007534f, -0.000004f, 
0.013723f, 0.011971f, 0.008044f, 0.000508f, -0.015865f, -0.014495f, -0.000942f, 0.007170f, 
0.000404f, -0.017537f, 0.006929f, -0.014438f, 0.004758f, -0.009438f, -0.010756f, 0.016910f, 
-0.014575f, -0.009760f, -0.012439f, -0.011591f, -0.003893f, 0.015604f, 0.002693f, -0.010995f, 
-0.007499f, 0.016102f, 0.004671f, 0.009721f, 0.009027f, -0.010680f, 0.004936f, 0.010775f, 
-0.005847f, 0.003512f, -0.009310f, 0.005451f, -0.000372f, 0.000731f, -0.012056f, -0.013775f, 
-0.000634f, 0.013766f, 0.001882f, -0.009597f, 0.018968f, 0.004404f, -0.012879f, 0.008456f, 
0.006732f, 0.002952f, 0.009449f, -0.015038f, 0.008420f, -0.002383f, -0.011038f, 0.006834f, 
-0.013896f, 0.012948f, 0.011708f, -0.014899f, -0.003285f, 0.006644f, 0.010218f, -0.014729f, 
-0.021852f, -0.021773f, -0.002761f, -0.016069f, -0.016899f, -0.017131f, -0.003028f, -0.007378f, 
-0.004918f, 0.015245f, -0.014247f, 0.002703f, 0.007379f, 0.005985f, 0.004301f, 0.015132f, 
-0.000751f, -0.000535f, -0.014659f, 0.007805f, 0.007344f, 0.015415f, 0.015112f, 0.002409f, 
-0.004632f, 0.008541f, -0.005651f, -0.018230f, 0.004625f, 0.006604f, -0.008675f, -0.003356f, 
0.000512f, -0.009807f, 0.017134f, 0.017237f, 0.010102f, -0.004187f, 0.014846f, -0.001959f, 
-0.005799f, 0.018016f, 0.020340f, -0.014623f, 0.013387f, -0.012496f, -0.010717f, -0.003317f, 
-0.001883f, -0.004768f, -0.004824f, 0.007676f, -0.005512f, -0.006010f, 0.004257f, 0.005802f, 
0.000269f, -0.005453f, -0.021265f, -0.008263f, -0.026100f, -0.010554f, -0.005637f, -0.005245f, 
0.002931f, -0.007687f, -0.005481f, -0.001436f, 0.018025f, 0.014112f, 0.015830f, 0.012509f, 
-0.016773f, 0.016568f, -0.004140f, -0.011185f, -0.013373f, -0.010580f, -0.016213f, 0.001176f, 
-0.014955f, -0.007446f, -0.011056f, -0.008883f, 0.002236f, 0.003665f, 0.002036f, -0.020831f, 
-0.011999f, -0.011038f, -0.033868f, -0.011366f, -0.021920f, -0.010221f, -0.000474f, -0.001528f, 
-0.005831f, -0.000255f, -0.003742f, 0.003320f, 0.004397f, -0.000859f, 0.000153f, -0.005949f, 
-0.007905f, -0.007433f, -0.005505f, 0.002475f, -0.000755f, -0.004436f, -0.002728f, -0.014058f, 
0.008186f, -0.005401f, -0.008890f, -0.035262f, -0.012071f, -0.018571f, -0.034493f, -0.035096f, 
-0.007680f, 0.000103f, -0.011891f, -0.002527f, 0.009791f, 0.014575f, 0.002776f, 0.007221f, 
-0.003341f, -0.010467f, -0.009166f, -0.007665f, -0.009067f, -0.012429f, -0.007845f, -0.005221f, 
-0.015510f, -0.011986f, -0.018197f, 0.005432f, 0.010917f, -0.002486f, -0.009504f, -0.022641f, 
-0.000217f, -0.023172f, -0.029612f, -0.030504f, -0.028416f, -0.004728f, 0.007966f, -0.016764f, 
-0.011981f, -0.010960f, 0.009971f, 0.008171f, 0.009437f, -0.007071f, -0.002956f, -0.000366f, 
-0.009035f, -0.010762f, 0.011798f, -0.003727f, -0.007790f, -0.003472f, -0.001961f, -0.012250f, 
0.009842f, -0.002005f, -0.011452f, 0.009195f, -0.015925f, -0.021903f, -0.015058f, 0.001040f, 
-0.020289f, 0.011030f, -0.003480f, 0.004792f, 0.002552f, 0.001272f, -0.000330f, 0.004183f, 
0.017976f, 0.013661f, -0.002498f, 0.002809f, 0.008173f, 0.012100f, -0.016279f, 0.007234f, 
-0.006320f, 0.001185f, -0.002405f, -0.000686f, 0.015110f, 0.013897f, -0.018423f, -0.023510f, 
-0.007103f, -0.020886f, -0.014104f, -0.006501f, 0.001283f, 0.004707f, 0.015167f, -0.012805f, 
0.000441f, -0.003837f, -0.007464f, 0.012357f, 0.004093f, -0.000095f, -0.009857f, -0.013973f, 
-0.011276f, -0.003458f, -0.015798f, -0.001508f, -0.016171f, -0.005678f, 0.009846f, 0.013045f, 
0.008753f, 0.002340f, 0.006542f, -0.006861f, 0.007738f, -0.013951f, 0.009036f, 0.002870f, 
0.015302f, -0.012762f, -0.009084f, -0.006245f, -0.011399f, -0.001808f, 0.010996f, 0.015888f, 
-0.011976f, -0.005030f, 0.017472f, 0.001946f, 0.013597f, 0.021177f, 0.023271f, -0.011129f, 
0.007954f, 0.006881f, 0.008494f, 0.005910f, 0.008510f, 0.006448f, -0.008170f, 0.006829f, 
0.006291f, 0.012083f, -0.012014f, -0.016115f, 0.004188f, 0.020568f, 0.002710f, 0.025120f, 
-0.007204f, -0.013553f, 0.014835f, -0.005051f, 0.016811f, 0.013447f, -0.009773f, 0.007458f, 
0.017259f, -0.001953f, -0.009175f, 0.025233f, -0.009097f, -0.000092f, 0.016638f, -0.006992f, 
0.019145f, -0.006786f, 0.019300f, 0.008444f, 0.017898f, 0.022684f, 0.006161f, 0.006873f, 
-0.000120f, 0.000680f, -0.010588f, 0.007131f, 0.021106f, 0.020027f, 0.008658f, 0.021852f, 
-0.007900f, 0.016441f, -0.004311f, 0.011735f, -0.005956f, 0.002213f, -0.008573f, 0.009396f, 
0.007298f, 0.009613f, 0.005121f, 0.005584f, -0.011241f, -0.004668f, 0.019389f, -0.008303f, 
-0.010723f, 0.022824f, -0.009720f, -0.016510f, -0.017253f, -0.015792f, 0.011272f, -0.008931f, 
0.011435f, 0.019125f, -0.009885f, 0.015205f, 0.022830f, 0.021328f, 0.009958f, 0.003181f, 
0.014371f, 0.019457f, 0.002109f, 0.012924f, 0.021441f, 0.009572f, 0.009682f, 0.000398f, 
-0.008550f, -0.004824f, 0.025371f, 0.025204f, 0.015937f, -0.009408f, 0.005575f, 0.016524f, 
0.010915f, -0.006379f, -0.006627f, -0.008114f, -0.001766f, 0.018359f, 0.012701f, -0.003521f, 
0.004490f, 0.000312f, 0.003542f, -0.001267f, 0.004152f, -0.009129f, 0.003451f, 0.014497f, 
0.018952f, -0.006412f, 0.014967f, 0.000685f, -0.011669f, 0.018593f, -0.007951f, -0.009053f, 
0.017522f, -0.012578f, 0.018157f, 0.003174f, -0.002195f, 0.005403f, 0.015989f, -0.001283f, 
0.013116f, 0.009705f, 0.004186f, 0.016006f, -0.013504f, -0.015425f, 0.010243f, 0.016261f, 
0.009928f, 0.019078f, -0.001256f, 0.006097f, -0.006355f, -0.006816f, 0.001377f, 0.010333f, 
-0.006420f, 0.006733f, -0.004372f, 0.004268f, 0.012190f, 0.007271f, 0.009569f, -0.007233f, 
-0.000434f, 0.018182f, 0.003055f, 0.014468f, -0.008908f, 0.008080f, 0.006346f, 0.019670f, 
0.018415f, 0.006181f, 0.004722f, -0.001266f, 0.005703f, -0.007498f, -0.003176f, -0.002413f, 
-0.009559f, 0.016864f, -0.002535f, 0.002867f, 0.025190f, 0.019662f, 0.000099f, 0.022440f, 
-0.007576f, -0.001276f, 0.012393f, 0.002700f, 0.002766f, 0.019893f, 0.011020f, 0.005297f, 
0.017653f, -0.011305f, 0.005004f, -0.005788f, 0.020351f, 0.011868f, 0.005054f, 0.012716f, 
0.001118f, 0.022917f, 0.015042f, 0.015780f, -0.004631f, -0.008116f, -0.003561f, 0.024020f, 
0.013610f, 0.026780f, -0.035697f, -0.001909f, -0.009233f, 0.010967f, 0.016502f, 0.003625f, 
0.004381f, 0.010984f, 0.001005f, -0.026043f, 0.002413f, -0.022050f, -0.015076f, -0.014637f, 
-0.014518f, -0.010984f, -0.010053f, -0.006032f, -0.011159f, -0.014481f, -0.015243f, 0.002625f, 
0.006683f, -0.002899f, -0.025179f, -0.022302f, -0.012220f, -0.026479f, -0.028524f, 0.018727f, 
0.034326f, 0.010008f, -0.010933f, -0.004974f, 0.019324f, -0.007830f, -0.013572f, -0.013322f, 
-0.015246f, -0.017919f, -0.015260f, -0.028179f, -0.001546f, -0.002573f, 0.004076f, 0.003247f, 
0.005861f, 0.004462f, -0.014636f, -0.007211f, -0.027479f, 0.007474f, -0.002457f, -0.006495f, 
-0.017572f, -0.016465f, -0.015231f, -0.022234f, 0.025241f, 0.001388f, 0.013777f, -0.011726f, 
-0.014538f, 0.016576f, -0.005063f, -0.016190f, -0.007005f, -0.001307f, -0.009175f, -0.025453f, 
-0.014990f, -0.013756f, -0.018162f, -0.017380f, 0.003320f, -0.009083f, -0.009043f, 0.002374f, 
0.010237f, -0.018394f, -0.012403f, -0.000672f, -0.000333f, -0.011795f, -0.020477f, -0.008192f, 
-0.009035f, -0.007000f, -0.007089f, 0.011308f, 0.013031f, -0.010238f, -0.006853f, -0.020824f, 
-0.001484f, -0.009910f, 0.004128f, -0.029277f, -0.002191f, -0.033760f, -0.017056f, -0.003330f, 
0.008655f, -0.005530f, 0.002633f, 0.008951f, 0.003752f, 0.016959f, 0.006055f, 0.008599f, 
0.003306f, -0.023430f, -0.000900f, -0.000328f, 0.007628f, -0.029715f, -0.011214f, 0.001903f, 
0.009300f, 0.005241f, -0.008474f, -0.012580f, -0.014534f, 0.003970f, -0.011060f, 0.002285f, 
-0.008812f, -0.011208f, -0.015053f, 0.012256f, -0.007809f, -0.000907f, -0.001919f, 0.022494f, 
0.004731f, 0.021436f, 0.023315f, -0.013175f, 0.011848f, -0.010100f, -0.018624f, -0.022133f, 
-0.031559f, 0.006744f, -0.011434f, -0.001856f, -0.002868f, 0.013463f, 0.002563f, -0.027579f, 
-0.027086f, -0.018023f, 0.012430f, -0.030575f, 0.005643f, 0.000998f, -0.013741f, -0.022710f, 
0.019407f, -0.004306f, 0.010487f, 0.002259f, -0.015091f, 0.022750f, 0.000626f, -0.003525f, 
-0.015834f, -0.019295f, -0.002531f, 0.001559f, -0.011345f, -0.010213f, -0.004376f, -0.015305f, 
0.021851f, -0.010999f, 0.015919f, 0.007579f, 0.012154f, -0.016793f, 0.003078f, 0.001409f, 
-0.012033f, 0.007879f, -0.023958f, 0.015556f, -0.003421f, -0.002429f, 0.009008f, -0.010686f, 
0.012899f, -0.015825f, 0.013700f, -0.003486f, 0.016432f, -0.007708f, -0.027866f, -0.002088f, 
-0.028571f, -0.017560f, -0.015933f, -0.014562f, -0.007328f, 0.008404f, 0.004838f, -0.013554f, 
-0.019090f, -0.023752f, 0.001909f, -0.001167f, 0.004700f, 0.006708f, 0.005705f, -0.026359f, 
-0.025386f, -0.019565f, 0.015866f, 0.009059f, -0.002432f, -0.004045f, 0.000162f, -0.018583f, 
0.009353f, 0.020122f, 0.021603f, 0.019209f, -0.013486f, 0.004524f, -0.000678f, -0.009503f, 
-0.024131f, -0.005292f, -0.002806f, 0.008706f, -0.014518f, 0.003761f, 0.005381f, -0.005250f, 
-0.008031f, -0.011499f, 0.018839f, -0.017423f, -0.008734f, -0.033645f, -0.000507f, 0.004885f, 
-0.008692f, -0.031323f, 0.002042f, 0.006617f, 0.010331f, 0.023137f, 0.001113f, 0.023445f, 
0.010768f, -0.005679f, 0.001008f, -0.027789f, -0.023876f, 0.000401f, -0.004555f, -0.003511f, 
-0.007572f, -0.000147f, -0.000782f, -0.014081f, -0.015747f, 0.002351f, 0.004380f, -0.013731f, 
0.017063f, -0.008016f, -0.009474f, -0.020143f, -0.031458f, -0.019337f, -0.028421f, -0.005554f, 
0.002852f, -0.013823f, 0.026302f, -0.002941f, 0.020035f, 0.022032f, 0.012803f, 0.001357f, 
-0.023418f, 0.014214f, -0.027744f, -0.024667f, 0.007545f, 0.014706f, -0.003547f, -0.009025f, 
0.011120f, -0.000411f, -0.010681f, 0.007633f, 0.011924f, -0.015530f, -0.008739f, -0.007780f, 
-0.006898f, -0.019161f, -0.038281f, -0.036838f, -0.025098f, 0.002454f, 0.003427f, 0.015565f, 
0.015232f, -0.007379f, 0.015542f, 0.006921f, -0.018572f, -0.021633f, 0.010325f, -0.023279f, 
-0.028270f, 0.005079f, -0.000589f, 0.000840f, -0.016788f, 0.001309f, -0.004561f, 0.005890f, 
0.002587f, 0.011390f, -0.011244f, -0.008442f, -0.025730f, -0.040090f, -0.031988f, -0.049499f, 
-0.026557f, -0.004371f, -0.024092f, -0.022249f, 0.001329f, -0.008040f, 0.016968f, -0.013745f, 
-0.014528f, -0.029733f, -0.030855f, -0.009120f, 0.005209f, -0.027722f, 0.017072f, -0.011296f, 
-0.015957f, 0.011448f, -0.011834f, -0.010068f, 0.015268f, -0.016986f, -0.007737f, 0.004363f, 
-0.026152f, -0.043117f, -0.056242f, -0.030806f, -0.050396f, -0.052087f, -0.018054f, -0.030268f, 
-0.023110f, 0.001108f, 0.006201f, 0.002855f, -0.027444f, -0.033110f, -0.005550f, -0.038577f, 
-0.029132f, -0.001715f, -0.031157f, -0.008896f, -0.004441f, -0.006835f, 0.002219f, 0.013067f, 
0.005772f, 0.014928f, 0.015086f, -0.026769f, -0.015469f, -0.006243f, -0.017220f, -0.047070f, 
-0.051574f, -0.064997f, -0.046348f, -0.010718f, -0.025310f, -0.026314f, -0.000777f, -0.015476f, 
-0.023586f, -0.021438f, -0.038035f, -0.014498f, -0.009185f, -0.005910f, -0.035202f, -0.015471f, 
-0.016453f, 0.000140f, 0.012858f, -0.000493f, -0.000024f, 0.020008f, 0.008215f, 0.009750f, 
-0.019371f, -0.027274f, -0.015416f, -0.016164f, -0.032967f, -0.034327f, -0.031985f, -0.061999f, 
-0.038100f, -0.018415f, -0.032458f, -0.028169f, 0.009097f, -0.028395f, -0.041961f, -0.015577f, 
-0.017644f, -0.024546f, -0.009179f, -0.029089f, -0.039433f, 0.006445f, -0.008557f, -0.016062f, 
0.011369f, 0.008464f, -0.003903f, 0.007378f, 0.012083f, -0.004231f, -0.018631f, -0.025221f, 
-0.055432f, -0.028960f, -0.046821f, -0.041583f, -0.032301f, -0.023970f, 0.001644f, -0.008816f, 
-0.045433f, -0.015408f, 0.000118f, -0.007089f, -0.021769f, -0.003281f, -0.009993f, -0.003704f, 
-0.023279f, -0.019176f, 0.023208f, 0.002349f, 0.019369f, 0.005043f, 0.007723f, 0.017051f, 
0.002977f, 0.002265f, -0.014176f, -0.027387f, -0.018561f, -0.032368f, -0.052335f, -0.063738f, 
-0.025519f, -0.019125f, -0.008941f, -0.022912f, -0.004593f, -0.014645f, 0.023766f, 0.018350f, 
0.014159f, -0.014947f, -0.015597f, -0.029124f, -0.012083f, 0.009073f, -0.016678f, 0.004071f, 
0.021868f, 0.033614f, 0.019747f, 0.022496f, 0.007869f, 0.005580f, 0.020559f, -0.004197f, 
-0.000826f, -0.036040f, -0.056295f, -0.030686f, -0.029992f, -0.045170f, -0.020262f, -0.004495f, 
0.007945f, 0.009340f, -0.015746f, -0.003587f, 0.033541f, -0.008822f, -0.027819f, -0.012166f, 
-0.030391f, -0.025454f, -0.001124f, 0.000180f, 0.031210f, 0.018814f, 0.028549f, 0.012031f, 
0.023240f, 0.023536f, 0.000087f, 0.002732f, -0.011985f, 0.000560f, -0.017120f, -0.043803f, 
-0.050893f, -0.023220f, -0.046442f, -0.046727f, -0.007541f, -0.037752f, -0.016122f, -0.024753f, 
0.014245f, 0.030992f, 0.024240f, -0.026293f, -0.007156f, -0.014461f, -0.020906f, -0.021072f, 
-0.015642f, 0.021808f, 0.029549f, 0.042268f, 0.036364f, 0.009803f, 0.005273f, 0.011628f, 
-0.009001f, -0.010887f, 0.010586f, -0.026048f, -0.055744f, -0.017219f, -0.017264f, -0.013665f, 
-0.028283f, -0.024360f, -0.036263f, -0.015931f, -0.010066f, -0.026224f, 0.015243f, -0.015374f, 
-0.021082f, -0.021705f, -0.006169f, -0.013822f, -0.007020f, -0.028174f, 0.014188f, 0.027207f, 
0.036113f, 0.032631f, 0.013621f, 0.004438f, -0.003980f, 0.005066f, -0.009228f, -0.024787f, 
-0.035647f, -0.036139f, -0.009627f, -0.034806f, -0.034371f, -0.040110f, -0.034994f, -0.030481f, 
-0.046369f, -0.043407f, -0.021219f, -0.022695f, 0.013017f, 0.016202f, 0.005419f, 0.007071f, 
-0.011121f, 0.016018f, 0.003325f, 0.027311f, 0.015774f, 0.011788f, 0.039715f, 0.024930f, 
-0.005052f, 0.019834f, -0.003042f, 0.032889f, -0.015156f, -0.013802f, -0.030038f, -0.041291f, 
-0.025274f, -0.018254f, -0.039772f, -0.037232f, -0.032546f, -0.039552f, -0.042062f, -0.016374f, 
-0.029854f, 0.008841f, -0.026242f, -0.012397f, -0.001780f, -0.006417f, 0.020525f, -0.008450f, 
0.042668f, 0.017302f, 0.020299f, 0.023548f, 0.002695f, 0.016701f, -0.016497f, 0.014766f, 
-0.001944f, -0.000279f, -0.020800f, -0.032269f, -0.036374f, -0.028396f, -0.029225f, -0.029662f, 
-0.037111f, -0.054647f, -0.045119f, -0.033193f, -0.034870f, -0.005069f, -0.016078f, 0.004968f, 
-0.004862f, -0.027673f, -0.008996f, -0.012366f, -0.017741f, 0.026517f, 0.031316f, 0.017939f, 
0.015572f, 0.008909f, -0.000435f, -0.001247f, -0.002285f, 0.019530f, -0.026701f, -0.033403f, 
-0.023077f, -0.049227f, -0.002645f, -0.017215f, -0.041066f, -0.026444f, -0.048950f, -0.010920f, 
-0.040603f, -0.024343f, -0.024896f, -0.024110f, -0.041261f, -0.017268f, 0.005259f, -0.001177f, 
-0.016867f, -0.012125f, 0.027047f, 0.031517f, 0.012699f, 0.002887f, -0.005800f, 0.005544f, 
0.034562f, 0.000659f, 0.011382f, 0.012104f, -0.001651f, -0.037025f, -0.036475f, -0.020939f, 
-0.008164f, -0.010773f, -0.020757f, -0.020165f, -0.017156f, -0.029531f, -0.021748f, -0.030021f, 
-0.025322f, -0.024228f, -0.034205f, 0.008137f, 0.013517f, 0.018675f, -0.001985f, 0.009901f, 
0.008399f, 0.012783f, 0.004053f, 0.002745f, -0.022664f, -0.002910f, -0.018061f, -0.008005f, 
0.000108f, -0.010811f, -0.011806f, -0.013827f, -0.029070f, 0.012146f, -0.029222f, -0.028340f, 
-0.007430f, 0.009750f, 0.004042f, -0.031944f, -0.005981f, -0.004990f, -0.019431f, -0.033466f, 
0.004213f, -0.011447f, -0.016470f, -0.012161f, 0.014671f, 0.021390f, 0.010810f, 0.027822f, 
0.001884f, -0.008216f, 0.004433f, 0.007314f, -0.016487f, 0.018225f, 0.011748f, -0.008314f, 
-0.005879f, -0.028461f, 0.017575f, 0.001039f, -0.004014f, -0.021075f, 0.015154f, 0.000661f, 
0.016288f, -0.003742f, -0.005014f, -0.004642f, 0.000774f, -0.011626f, -0.002234f, 0.005588f, 
-0.008433f, 0.023603f, 0.022459f, -0.000226f, 0.000087f, 0.017256f, 0.028599f, 0.002091f, 
0.000089f, 0.008128f, 0.020811f, 0.003549f, 0.025391f, -0.008052f, -0.007443f, -0.016302f, 
0.011485f, -0.014125f, -0.027522f, -0.020745f, 0.005354f, -0.016640f, -0.023212f, -0.007016f, 
0.010348f, 0.002246f, 0.005953f, -0.017188f, 0.003591f, 0.015109f, 0.028910f, 0.046042f, 
0.004624f, 0.005497f, 0.018505f, 0.023055f, 0.019059f, 0.007408f, -0.002522f, 0.009531f, 
0.011368f, 0.020388f, -0.015494f, -0.016898f, 0.002934f, -0.011901f, -0.009550f, 0.019703f, 
-0.006878f, -0.011305f, -0.017893f, 0.005129f, 0.003574f, 0.003972f, -0.015149f, -0.005879f, 
-0.018549f, -0.005123f, -0.021336f, 0.000363f, -0.005954f, -0.000992f, -0.015230f, 0.010957f, 
-0.000365f, -0.002469f, 0.000105f, -0.003455f, 0.002506f, -0.003022f, 0.004822f, 0.007328f, 
0.015505f, -0.013411f, -0.007860f, -0.013593f, -0.016127f, 0.012812f, -0.011590f, 0.000294f, 
0.007887f, 0.007867f, -0.011136f, 0.005669f, -0.005763f, -0.000235f, -0.014012f, 0.002909f, 
-0.006024f, 0.008087f, -0.006121f, -0.019053f, 0.001240f, -0.011313f, 0.007933f, -0.007614f, 
0.007524f, 0.010581f, -0.016562f, -0.010864f, -0.005465f, 0.000063f, 0.010530f, -0.008043f, 
0.004906f, -0.007580f, -0.017873f, -0.001904f, -0.020508f, -0.018142f, -0.014942f, -0.004110f, 
0.002091f, -0.011965f, -0.016958f, -0.013063f, 0.006167f, 0.008996f, -0.021986f, -0.019454f, 
0.002595f, 0.003909f, 0.001313f, -0.005671f, 0.007070f, -0.017524f, 0.001234f, -0.002872f, 
-0.012386f, -0.001483f, -0.004545f, 0.014502f, 0.016157f, 0.000988f, 0.016709f, -0.011636f, 
-0.002953f, -0.011157f, 0.003677f, -0.012020f, -0.020382f, -0.020687f, -0.018926f, -0.004109f, 
-0.020381f, -0.008678f, 0.008701f, 0.007767f, -0.019288f, -0.012463f, -0.019342f, 0.002221f, 
0.005534f, 0.008146f, 0.012940f, -0.008035f, 0.016237f, 0.012497f, -0.001942f, -0.004168f, 
0.003175f, -0.002146f, 0.008522f, 0.000806f, -0.017332f, 0.008473f, 0.011429f, 0.010624f, 
0.006218f, 0.004307f, 0.002155f, 0.000966f, 0.003412f, 0.001319f, -0.006606f, 0.009809f, 
-0.009007f, -0.018662f, 0.009298f, -0.001586f, -0.008575f, 0.009325f, 0.001517f, -0.011384f, 
0.002917f, -0.002851f, 0.001827f, 0.004738f, -0.008502f, -0.006865f, 0.017061f, -0.003458f, 
0.000733f, -0.004452f, -0.016150f, -0.018855f, -0.008140f, -0.008390f, 0.006611f, -0.018801f, 
0.010613f, 0.010884f, -0.009577f, -0.004872f, -0.006338f, -0.019863f, -0.011217f, -0.008457f, 
0.000253f, -0.013876f, 0.005277f, 0.013349f, 0.009476f, 0.003183f, -0.012449f, -0.003165f, 
0.001930f, 0.006824f, -0.009370f, 0.005080f, 0.008879f, -0.005837f, -0.005699f, 0.006819f, 
-0.003069f, -0.008165f, -0.019216f, -0.010325f, -0.001014f, -0.010973f, -0.020951f, -0.017851f, 
-0.014472f, 0.003567f, -0.010025f, -0.010268f, -0.004788f, 0.000103f, 0.001251f, -0.002257f, 
-0.007436f, 0.013830f, -0.009767f, 0.003627f, -0.003675f, -0.012193f, 0.014757f, 0.000998f, 
-0.012304f, -0.005061f, 0.011001f, 0.001106f, 0.015004f, 0.013436f, -0.018438f, -0.011041f, 
0.001113f, 0.004902f, -0.000366f, 0.011703f, -0.000101f, -0.003282f, -0.011766f, -0.014661f, 
-0.011424f, -0.015473f, 0.006642f, 0.006073f, 0.007146f, 0.013897f, 0.001120f, -0.010650f, 
0.007226f, 0.017407f, -0.002878f, -0.007973f, 0.016326f, -0.005114f, -0.010631f, 0.000454f, 
0.001406f, 0.005644f, 0.002391f, 0.015244f, -0.011498f, -0.018749f, 0.007751f, -0.005829f, 
-0.008421f, 0.005641f, -0.016223f, 0.007633f, 0.004239f, 0.007794f, -0.003448f, 0.000671f, 
-0.006023f, -0.016486f, -0.016703f, 0.015155f, -0.004915f, -0.000206f, 0.012821f, -0.010076f, 
-0.012523f, -0.004889f, -0.010076f, 0.010751f, 0.000056f, -0.007186f, 0.011449f, -0.008500f, 
-0.002059f, -0.016581f, -0.004217f, -0.002411f, -0.018086f, -0.019635f, -0.020342f, -0.005391f, 
-0.006023f, 0.014828f, -0.016385f, -0.008932f, 0.006912f, -0.000269f, 0.016083f, -0.013073f, 
-0.004633f, 0.014474f, 0.013379f, 0.003026f, 0.005863f, 0.008106f, 0.018201f, 0.017403f, 
-0.003915f, 0.013486f, 0.018439f, -0.009316f, 0.001991f, 0.016253f, 0.014088f, -0.009958f, 
-0.006467f, -0.014372f, 0.001295f, 0.007139f, -0.014206f, -0.006992f, 0.003843f, 0.009963f, 
0.008411f, -0.008912f, -0.003769f, 0.003207f, 0.012961f, 0.015016f, 0.013058f, 0.001292f, 
-0.003121f, -0.014523f, 0.019661f, 0.017808f, 0.011506f, 0.010516f, 0.013404f, 0.003913f, 
0.015223f, -0.009515f, 0.014090f, 0.009372f, 0.012003f, -0.016289f, -0.019198f, -0.003273f, 
-0.012495f, 0.000976f, -0.012565f, -0.016527f, -0.015210f, 0.010650f, -0.003746f, -0.017940f, 
0.015954f, -0.014465f, -0.013171f, -0.004855f, 0.014878f, -0.005189f, 0.006681f, -0.006496f, 
-0.005572f, 0.012544f, 0.008841f, 0.006814f, 0.005242f, 0.002531f, -0.007737f, 0.010974f, 
-0.010878f, -0.000670f, 0.007329f, -0.010087f, 0.008581f, -0.013388f, 0.004882f, 0.015795f, 
0.016086f, 0.002333f, -0.005333f, 0.005378f, -0.012348f, -0.016792f, -0.003131f, 0.009580f, 
-0.003511f, 0.004151f, 0.001722f, -0.008521f, 0.007126f, 0.027413f, 0.013475f, 0.006893f, 
0.025126f, -0.000946f, 0.020839f, 0.013210f, 0.004191f, 0.013218f, 0.007523f, -0.017541f, 
-0.009513f, -0.012074f, 0.013887f, 0.014146f, 0.008316f, 0.012532f, -0.005046f, 0.014567f, 
0.015847f, -0.000339f, 0.007070f, -0.014686f, 0.012422f, 0.008997f, 0.016721f, 0.000068f, 
0.022880f, 0.023267f, 0.022579f, 0.008948f, 0.009885f, 0.004584f, 0.026777f, 0.021440f, 
-0.004264f, 0.012973f, -0.013999f, 0.004520f, -0.003235f, -0.006038f, -0.008425f, 0.010162f, 
0.004605f, 0.016525f, -0.007238f, -0.009322f, 0.013063f, 0.014746f, 0.000877f, -0.016207f, 
-0.016103f, -0.013935f, 0.015994f, 0.018397f, 0.010641f, -0.002268f, 0.017604f, 0.002742f, 
0.023841f, 0.011230f, 0.018690f, 0.017335f, 0.002170f, 0.019892f, 0.014546f, -0.002189f, 
0.010302f, -0.005839f, 0.005979f, -0.009524f, -0.019420f, 0.000306f, -0.002226f, 0.003864f, 
0.001427f, 0.005629f, 0.016090f, 0.003932f, -0.002880f, 0.007715f, 0.016272f, 0.004211f, 
0.017914f, 0.015292f, 0.020526f, 0.008878f, 0.021089f, 0.010691f, 0.018390f, 0.025042f, 
-0.003132f, -0.004181f, 0.025915f, -0.006255f, 0.007156f, 0.001380f, 0.001179f, 0.009760f, 
0.001710f, -0.004921f, -0.012609f, -0.013271f, -0.009560f, -0.002883f, 0.008818f, 0.005093f, 
0.015975f, 0.012154f, -0.017913f, 0.002990f, -0.013103f, -0.008328f, -0.012392f, 0.002855f, 
0.027751f, 0.005119f, 0.030456f, 0.026462f, 0.015659f, -0.006835f, 0.015590f, 0.021272f, 
0.016028f, 0.004070f, 0.009733f, 0.008377f, 0.009865f, -0.005550f, -0.006605f, 0.006256f, 
0.001820f, -0.016075f, -0.005955f, -0.013387f, -0.016650f, 0.001175f, -0.006205f, -0.004610f, 
-0.017470f, 0.001178f, 0.001809f, 0.016413f, 0.011404f, 0.000379f, -0.001644f, 0.021717f, 
0.016063f, 0.005220f, -0.001963f, 0.008277f, 0.008683f, 0.014048f, 0.001642f, -0.017350f, 
-0.007559f, 0.012688f, -0.021333f, -0.003874f, -0.007760f, -0.009906f, -0.001884f, 0.009232f, 
-0.008963f, -0.011695f, 0.013289f, 0.002357f, -0.016553f, 0.013842f, -0.004819f, -0.016968f, 
-0.007915f, 0.001486f, -0.003033f, 0.002021f, 0.005938f, 0.012421f, 0.020389f, -0.006805f, 
0.000419f, 0.013493f, 0.017002f, -0.007237f, 0.003045f, -0.005959f, -0.004359f, -0.001247f, 
-0.018031f, -0.012997f, -0.018546f, -0.017429f, -0.001977f, -0.018215f, -0.004694f, -0.015057f, 
-0.007119f, -0.019012f, -0.010619f, -0.000914f, 0.006676f, -0.005215f, -0.003560f, 0.006125f, 
0.017247f, 0.009685f, 0.000455f, -0.002941f, 0.005108f, -0.001347f, -0.005835f, 0.001060f, 
-0.013744f, -0.015975f, 0.004332f, -0.010333f, 0.010986f, -0.008496f, 0.008788f, -0.000954f, 
0.005172f, -0.012786f, 0.006546f, -0.011482f, -0.008151f, -0.008031f, -0.020931f, -0.008170f, 
-0.015962f, -0.000799f, 0.012857f, 0.006251f, -0.007690f, -0.016862f, -0.010700f, -0.009056f, 
0.006972f, 0.007510f, -0.016133f, -0.001321f, -0.018916f, -0.004797f, 0.008885f, -0.003871f, 
0.000384f, 0.009996f, -0.016703f, -0.008765f, -0.006572f, -0.016016f, 0.010379f, -0.013612f, 
-0.022743f, -0.005511f, 0.002310f, -0.005551f, -0.011137f, -0.011268f, -0.016971f, 0.004508f, 
-0.001953f, 0.014536f, 0.001828f, -0.008060f, -0.016758f, 0.004336f, -0.002041f, 0.010998f, 
0.000329f, 0.004979f, 0.009583f, -0.006312f, -0.005278f, 0.003870f, -0.009431f, 0.003731f, 
0.005992f, -0.021431f, 0.009051f, -0.022977f, -0.003164f, -0.015991f, -0.012908f, 0.000679f, 
-0.000775f, 0.000986f, -0.017141f, -0.011881f, -0.005983f, -0.014454f, -0.006602f, 0.010092f, 
0.004727f, 0.009087f, -0.015337f, -0.016266f, -0.014652f, -0.021398f, -0.002774f, -0.010127f, 
-0.007968f, -0.009441f, -0.000781f, -0.010479f, -0.003350f, -0.008315f, 0.011145f, -0.009871f, 
-0.004241f, -0.016931f, 0.003575f, -0.006123f, 0.002403f, -0.006582f, -0.004368f, -0.005223f, 
-0.015673f, -0.005845f, -0.018990f, 0.015559f, -0.014974f, -0.003267f, 0.007657f, 0.007156f, 
-0.009588f, 0.008205f, -0.020075f, -0.020303f, -0.020870f, -0.018061f, -0.021980f, -0.003618f, 
-0.012090f, -0.009491f, -0.024218f, -0.009363f, -0.011260f, -0.012503f, -0.010414f, -0.008519f, 
0.003181f, 0.006054f, -0.008539f, -0.003896f, 0.004157f, 0.000939f, -0.003162f, -0.017378f, 
-0.000549f, -0.012731f, -0.015484f, -0.009909f, -0.005119f, -0.006023f, -0.010637f, 0.002776f, 
0.010524f, -0.010081f, -0.019897f, 0.009242f, -0.010836f, 0.005068f, -0.003470f, 0.005928f, 
-0.012215f, -0.005902f, -0.021407f, -0.001152f, -0.019398f, -0.022463f, -0.010675f, -0.010531f, 
-0.009653f, -0.018633f, 0.003027f, 0.000881f, -0.016238f, -0.015619f, 0.003460f, -0.021087f, 
0.011204f, 0.009603f, -0.012398f, -0.010680f, -0.001551f, -0.012949f, 0.005359f, -0.010716f, 
-0.016448f, 0.001070f, -0.015272f, -0.009417f, -0.000290f, 0.006370f, 0.006771f, -0.004774f, 
0.005873f, 0.003684f, -0.021767f, -0.009000f, -0.017807f, -0.010123f, -0.016498f, 0.007931f, 
0.006049f, -0.013342f, 0.004273f, -0.005600f, -0.007151f, 0.001538f, -0.018492f, 0.001885f, 
0.005740f, 0.007966f, -0.024026f, -0.019323f, -0.003846f, -0.003235f, -0.020105f, -0.022437f, 
0.003557f, -0.012631f, -0.010117f, -0.008575f, -0.022103f, 0.001653f, -0.006125f, -0.005326f, 
-0.011863f, 0.003910f, -0.011037f, 0.002757f, -0.016895f, -0.006704f, 0.000672f, -0.007380f, 
-0.023021f, -0.023120f, -0.020751f, -0.016445f, -0.005852f, -0.022305f, -0.020586f, -0.000932f, 
-0.011466f, -0.026268f, -0.006185f, -0.023938f, -0.008847f, 0.000593f, 0.004662f, -0.018093f, 
0.004753f, -0.026389f, 0.001507f, -0.011511f, -0.004803f, -0.023710f, -0.008967f, 0.006029f, 
-0.025014f, -0.019343f, 0.001302f, -0.018228f, 0.000933f, 0.001569f, 0.000014f, -0.025165f, 
-0.019720f, -0.017772f, 0.004842f, -0.021293f, -0.004218f, -0.008047f, -0.021639f, 0.001974f, 
-0.025071f, -0.019188f, -0.016291f, -0.006935f, -0.019808f, -0.063626f, -0.052173f, -0.028822f, 
-0.038754f, -0.027393f, 0.010861f, -0.000208f, -0.026935f, -0.002504f, -0.011039f, -0.026881f, 
0.001047f, 0.019541f, 0.019764f, 0.023378f, 0.006532f, 0.001914f, 0.008892f, -0.000689f, 
-0.003619f, -0.001756f, -0.010345f, 0.005608f, -0.023507f, 0.004066f, -0.027833f, -0.012139f, 
0.011190f, -0.054978f, -0.063579f, -0.022706f, 0.010731f, -0.031448f, -0.023494f, 0.003595f, 
0.008031f, -0.011993f, -0.001538f, 0.009908f, 0.013324f, -0.000850f, 0.014843f, 0.030689f, 
-0.009172f, -0.012441f, -0.007624f, -0.002129f, 0.003124f, 0.000603f, 0.000379f, -0.025307f, 
-0.013505f, -0.001800f, 0.008926f, 0.001384f, -0.008809f, -0.008901f, -0.044786f, -0.023515f, 
-0.017563f, -0.013209f, -0.020885f, 0.027908f, 0.027779f, -0.008146f, 0.001845f, -0.008938f, 
0.002115f, 0.026210f, 0.037279f, -0.005241f, -0.001233f, 0.015036f, 0.007121f, -0.030349f, 
-0.019055f, -0.022446f, 0.001581f, 0.012014f, 0.007139f, -0.016003f, -0.019899f, 0.005855f, 
-0.015094f, -0.006666f, -0.002668f, -0.026913f, -0.005415f, -0.027168f, -0.011671f, 0.021157f, 
0.016237f, 0.007285f, 0.002778f, -0.003514f, 0.015363f, 0.010439f, 0.005538f, 0.016875f, 
0.023941f, 0.012665f, 0.004422f, -0.019228f, 0.008102f, -0.027710f, 0.009481f, -0.017112f, 
-0.008654f, 0.008197f, 0.002769f, -0.014660f, 0.017164f, -0.020326f, 0.002891f, -0.018045f, 
-0.027428f, -0.032945f, -0.001366f, 0.012397f, -0.007535f, 0.039588f, 0.014002f, -0.004457f, 
0.011001f, 0.021514f, 0.023680f, 0.029021f, 0.021599f, 0.020074f, 0.004973f, 0.021242f, 
-0.003422f, -0.019940f, 0.014323f, -0.024001f, -0.008731f, -0.023620f, -0.003451f, -0.003334f, 
-0.006658f, 0.018164f, 0.005420f, -0.016528f, -0.016878f, -0.016347f, -0.006121f, -0.004186f, 
0.025760f, 0.020169f, 0.026795f, 0.017269f, 0.001368f, -0.001189f, 0.015542f, -0.005418f, 
0.016811f, -0.006390f, -0.038161f, -0.014542f, -0.009017f, 0.027091f, -0.013265f, 0.011908f, 
0.006071f, 0.003412f, -0.007637f, -0.016190f, -0.022076f, -0.014154f, 0.009496f, -0.007879f, 
0.000719f, -0.000942f, -0.000693f, -0.010462f, 0.026304f, 0.005798f, 0.011628f, 0.039214f, 
0.018922f, 0.017062f, 0.010572f, -0.001067f, 0.003668f, -0.008463f, 0.007605f, 0.002468f, 
0.002656f, 0.001681f, -0.024383f, -0.025012f, -0.024967f, -0.003225f, -0.005509f, 0.004784f, 
0.009498f, 0.002483f, -0.001545f, -0.020060f, -0.023624f, 0.008640f, -0.002890f, -0.009972f, 
0.005219f, 0.013579f, 0.010745f, 0.027591f, 0.015458f, 0.009662f, -0.002869f, -0.020660f, 
-0.025214f, 0.017626f, 0.022313f, 0.002109f, -0.002723f, -0.001310f, 0.014674f, -0.007964f, 
-0.026381f, -0.039684f, -0.022895f, -0.022729f, -0.020345f, -0.001105f, 0.015168f, -0.026149f, 
-0.032910f, -0.009818f, 0.004209f, -0.005387f, 0.013341f, 0.009701f, 0.004158f, 0.016869f, 
0.014177f, 0.015845f, -0.003968f, 0.015667f, 0.004667f, -0.005662f, 0.026222f, 0.024448f, 
-0.019668f, -0.005225f, -0.013000f, -0.000324f, -0.024334f, -0.047207f, -0.016154f, -0.029978f, 
-0.028290f, -0.016148f, -0.030962f, -0.013117f, 0.018723f, -0.003527f, 0.002776f, -0.018529f, 
0.014502f, 0.032170f, 0.026343f, 0.000611f, 0.022486f, 0.015644f, -0.006270f, -0.006388f, 
-0.001527f, 0.002104f, 0.006114f, -0.012322f, 0.008463f, -0.014895f, -0.006251f, 0.002227f, 
-0.008033f, -0.020353f, -0.033744f, -0.011518f, -0.007931f, -0.035783f, -0.023948f, -0.008034f, 
-0.009247f, -0.013594f, -0.011540f, -0.013807f, -0.007895f, -0.020619f, -0.018715f, 0.024997f, 
0.032749f, 0.010404f, 0.023709f, 0.019507f, 0.005530f, 0.001085f, -0.002289f, 0.007471f, 
-0.003941f, -0.033064f, 0.009939f, -0.016005f, 0.000705f, 0.005105f, -0.005778f, -0.051941f, 
-0.043651f, -0.035878f, -0.057276f, -0.041347f, -0.033967f, -0.021484f, -0.029042f, -0.021486f, 
0.018218f, -0.009047f, -0.015130f, 0.003465f, 0.033268f, 0.018969f, 0.024037f, 0.033545f, 
0.018866f, 0.009435f, 0.008355f, 0.008703f, 0.024045f, 0.006618f, -0.029183f, 0.012051f, 
-0.004912f, -0.000236f, -0.002889f, -0.044137f, -0.042102f, -0.034004f, -0.025599f, -0.057718f, 
-0.048316f, -0.025925f, -0.015150f, -0.003703f, -0.004396f, -0.023614f, -0.008696f, -0.009287f, 
0.028199f, 0.019431f, 0.015524f, 0.007687f, 0.012610f, -0.003794f, -0.002558f, 0.003534f, 
-0.006369f, -0.025314f, -0.003068f, -0.015564f, -0.027166f, -0.002789f, -0.018246f, -0.005387f, 
-0.037362f, -0.046300f, -0.017883f, -0.055039f, -0.047149f, -0.042850f, -0.030347f, -0.014445f, 
-0.003079f, 0.003464f, -0.043023f, -0.028654f, -0.045646f, 0.023483f, -0.000115f, -0.008085f, 
0.031734f, 0.020575f, 0.012619f, -0.001166f, -0.009131f, -0.018707f, 0.005431f, -0.014415f, 
-0.020262f, -0.026523f, -0.012243f, -0.019496f, -0.034188f, -0.020821f, -0.038072f, -0.036718f, 
-0.060982f, -0.038351f, -0.003325f, -0.024124f, -0.038905f, -0.042637f, -0.017977f, -0.019652f, 
-0.002151f, -0.026009f, 0.000392f, 0.013442f, -0.002889f, 0.019687f, 0.028574f, 0.010252f, 
0.012429f, -0.006271f, 0.011098f, 0.000607f, -0.017279f, -0.030567f, -0.022811f, -0.002156f, 
0.017518f, -0.012499f, -0.018021f, -0.049838f, -0.060066f, -0.034191f, -0.037761f, -0.047398f, 
-0.046872f, -0.054402f, -0.038316f, 0.006835f, -0.016467f, 0.023794f, -0.011745f, 0.002311f, 
0.020840f, 0.002280f, 0.024477f, 0.021713f, -0.008866f, -0.014579f, 0.009341f, 0.004955f, 
-0.003507f, 0.006747f, 0.002532f, -0.023993f, -0.022075f, -0.016952f, -0.039950f, -0.049315f, 
-0.051502f, -0.068123f, -0.043901f, -0.051306f, -0.066401f, -0.064357f, -0.047994f, -0.018201f, 
0.001831f, -0.020029f, -0.001457f, -0.023379f, -0.004329f, -0.008825f, 0.003945f, -0.008696f, 
-0.007979f, -0.016555f, 0.009391f, -0.013764f, -0.014747f, -0.031059f, -0.022588f, -0.042437f, 
-0.025044f, -0.021044f, -0.060111f, -0.075083f, -0.061427f, -0.080964f, -0.064787f, -0.056829f, 
-0.043218f, -0.051526f, -0.057787f, -0.033759f, -0.022260f, -0.015084f, -0.022823f, -0.006321f, 
-0.032572f, -0.002334f, -0.011083f, -0.027364f, -0.042047f, -0.013224f, -0.025752f, -0.008491f, 
-0.025570f, -0.005219f, -0.023145f, -0.025953f, -0.034701f, -0.059925f, -0.053168f, -0.080183f, 
-0.053983f, -0.075272f, -0.060829f, -0.075461f, -0.062963f, -0.051854f, -0.058758f, -0.051360f, 
-0.026204f, -0.028172f, -0.000919f, -0.013966f, -0.011257f, -0.000795f, -0.012030f, 0.000703f, 
-0.026113f, -0.002997f, -0.013782f, -0.010410f, -0.003670f, -0.011288f, -0.003179f, -0.014240f, 
-0.029481f, -0.000783f, -0.029144f, -0.045878f, -0.055638f, -0.055483f, -0.054229f, -0.070069f, 
-0.049128f, -0.060346f, -0.056005f, -0.028937f, -0.028107f, -0.042800f, -0.024272f, -0.019574f, 
-0.022459f, -0.009373f, -0.023696f, -0.030653f, -0.033765f, -0.017757f, -0.008199f, 0.001329f, 
0.002996f, -0.006779f, -0.033584f, -0.019945f, -0.029818f, -0.026952f, -0.059075f, -0.042001f, 
-0.065238f, -0.078295f, -0.076005f, -0.081872f, -0.079897f, -0.067696f, -0.026626f, -0.059528f, 
-0.043440f, -0.048057f, -0.048049f, -0.030256f, -0.023302f, -0.010970f, -0.034871f, -0.030254f, 
-0.013790f, -0.029854f, -0.031287f, -0.020413f, 0.020324f, 0.005401f, 0.003293f, -0.029196f, 
-0.037174f, -0.038094f, -0.034929f, -0.037409f, -0.042555f, -0.046867f, -0.036587f, -0.061705f, 
-0.033842f, -0.044830f, -0.040508f, -0.027705f, -0.025303f, -0.046065f, -0.049942f, -0.017235f, 
-0.036816f, -0.039338f, -0.010450f, -0.032443f, -0.029971f, -0.042582f, -0.004072f, -0.028446f, 
-0.001855f, -0.004936f, -0.026391f, -0.032448f, -0.055267f, -0.050634f, -0.023587f, 0.010651f, 
-0.037375f, -0.023929f, -0.047831f, -0.020397f, -0.041993f, -0.045046f, -0.013488f, -0.033850f, 
-0.020307f, -0.036951f, -0.032348f, -0.021941f, -0.019035f, -0.023899f, -0.021164f, -0.016871f, 
-0.002151f, -0.003261f, -0.036524f, -0.012880f, -0.021028f, -0.000345f, -0.012557f, -0.020801f, 
0.006059f, -0.000059f, -0.003982f, -0.001090f, 0.021148f, -0.024958f, -0.030168f, -0.005836f, 
-0.017964f, -0.017879f, -0.013399f, -0.018218f, -0.017136f, -0.036334f, -0.035601f, -0.013564f, 
-0.023720f, -0.024968f, 0.002687f, 0.003913f, 0.005818f, -0.006708f, -0.029738f, -0.010410f, 
-0.017778f, -0.012907f, -0.018496f, -0.010465f, -0.002679f, 0.001736f, -0.002504f, -0.003647f, 
0.020929f, 0.002251f, -0.007929f, -0.027429f, -0.006983f, -0.000712f, -0.010283f, -0.017974f, 
-0.012817f, 0.003838f, -0.022934f, -0.019167f, -0.002975f, -0.035474f, 0.000097f, -0.007111f, 
-0.004311f, -0.004652f, -0.033097f, -0.019338f, -0.010265f, -0.000277f, 0.003347f, -0.025735f, 
-0.004347f, -0.007730f, -0.007476f, -0.030942f, 0.006756f, 0.007307f, -0.012436f, -0.008834f, 
-0.028651f, 0.005190f, -0.013331f, -0.019932f, -0.022927f, -0.015945f, 0.004274f, -0.026352f, 
-0.014745f, -0.010812f, 0.002390f, -0.000048f, -0.010803f, -0.023672f, -0.020098f, -0.030564f, 
-0.010642f, -0.022208f, -0.008709f, -0.011944f, -0.020700f, 0.015497f, 0.021926f, -0.000570f, 
-0.032443f, -0.005113f, -0.011859f, -0.028279f, -0.025812f, -0.018552f, -0.007300f, -0.031838f, 
-0.041742f, -0.017952f, -0.022128f, -0.018032f, -0.026367f, -0.020045f, 0.016527f, 0.005613f, 
-0.003148f, 0.010755f, -0.007371f, -0.011119f, -0.018349f, -0.003728f, 0.002673f, -0.014888f, 
0.000617f, 0.000488f, 0.012514f, -0.002089f, -0.015956f, -0.001846f, -0.008813f, -0.006791f, 
-0.024560f, -0.018376f, 0.010513f, -0.019757f, -0.023777f, -0.015237f, -0.003448f, -0.031949f, 
-0.023505f, -0.018693f, -0.006275f, -0.001697f, -0.013780f, -0.013193f, -0.003755f, 0.003263f, 
-0.013272f, -0.010463f, 0.013730f, -0.013743f, -0.012255f, 0.005337f, -0.004011f, 0.004817f, 
-0.000468f, -0.000231f, 0.018737f, 0.000491f, -0.036028f, -0.013913f, -0.015282f, -0.014342f, 
-0.020946f, -0.013245f, -0.016725f, -0.028050f, 0.002854f, 0.006212f, 0.017694f, -0.015005f, 
-0.020793f, -0.022498f, -0.014731f, 0.002506f, -0.004504f, 0.003907f, -0.019685f, -0.001078f, 
-0.015782f, 0.001729f, -0.014481f, 0.004764f, -0.010928f, -0.029979f, -0.009926f, 0.005789f, 
-0.005582f, -0.033333f, 0.007014f, -0.016387f, -0.004354f, -0.007014f, -0.012787f, -0.023141f, 
-0.002407f, -0.005241f, -0.014820f, 0.009033f, -0.002795f, 0.014643f, -0.012518f, -0.019051f, 
-0.008573f, -0.013807f, 0.003573f, 0.017056f, -0.010310f, -0.047430f, -0.058160f, -0.036804f, 
-0.043120f, -0.022429f, 0.010592f, -0.001019f, -0.003965f, -0.001585f, 0.015716f, -0.009350f, 
-0.008248f, 0.017695f, -0.007413f, 0.006681f, 0.008664f, -0.029102f, -0.007019f, -0.001547f, 
0.000032f, 0.003041f, -0.011543f, -0.002565f, 0.009253f, -0.012783f, -0.006161f, -0.026658f, 
-0.008849f, 0.015962f, -0.042933f, -0.065918f, -0.054619f, -0.041717f, -0.018726f, -0.005572f, 
0.005668f, -0.013326f, -0.009609f, 0.009897f, 0.005460f, 0.035676f, 0.016528f, 0.033591f, 
0.022085f, 0.011119f, -0.005042f, -0.025187f, -0.009425f, -0.022846f, -0.011801f, 0.012032f, 
-0.015697f, -0.021043f, -0.000582f, -0.005578f, -0.011794f, -0.006322f, -0.002978f, -0.066223f, 
-0.052645f, -0.032972f, -0.020494f, -0.002397f, -0.003340f, 0.027170f, 0.009987f, -0.000849f, 
-0.003253f, 0.010584f, 0.037544f, 0.018709f, 0.024092f, 0.010203f, -0.011536f, 0.003135f, 
-0.022446f, -0.031232f, -0.012712f, -0.027077f, -0.009514f, 0.009686f, 0.009550f, 0.005904f, 
0.009015f, -0.003580f, 0.008044f, 0.013500f, -0.037147f, -0.057826f, -0.027538f, -0.008819f, 
0.009158f, 0.007985f, 0.003894f, -0.012375f, 0.003648f, 0.028294f, 0.018240f, 0.019779f, 
0.025507f, 0.019048f, 0.019624f, -0.014464f, -0.009263f, -0.035318f, -0.000827f, -0.034239f, 
-0.021811f, 0.008036f, -0.005893f, -0.003675f, 0.014577f, 0.002034f, 0.003056f, -0.018187f, 
0.024675f, -0.060812f, -0.022147f, -0.047939f, -0.002835f, 0.003829f, 0.014759f, 0.024236f, 
-0.012654f, 0.022345f, -0.001920f, 0.012931f, 0.037037f, 0.018009f, -0.002559f, 0.024047f, 
-0.003159f, -0.040719f, -0.040522f, -0.041156f, -0.024622f, -0.005303f, -0.030932f, -0.017778f, 
-0.020654f, 0.019370f, 0.020168f, -0.003023f, 0.020402f, 0.026412f, -0.006430f, -0.035533f, 
-0.028737f, -0.023982f, 0.009849f, 0.030476f, 0.000575f, -0.009722f, 0.000743f, 0.004032f, 
0.007855f, 0.014229f, 0.029862f, 0.016521f, 0.010676f, 0.005317f, 0.003853f, -0.014806f, 
-0.040475f, -0.010225f, -0.006793f, -0.002871f, -0.023086f, -0.018324f, -0.007732f, 0.007435f, 
0.001523f, 0.007602f, 0.013636f, -0.025199f, -0.022648f, 0.005979f, -0.004298f, 0.030863f, 
0.046756f, 0.017045f, -0.004961f, -0.008070f, -0.009489f, 0.028613f, 0.034856f, -0.004072f, 
-0.002562f, 0.018326f, 0.005519f, -0.006882f, -0.010625f, -0.021254f, -0.047299f, -0.018182f, 
-0.028429f, -0.030873f, -0.011806f, -0.009878f, 0.008560f, 0.001287f, 0.023044f, 0.020277f, 
-0.006785f, -0.012816f, 0.022351f, 0.013384f, 0.009457f, 0.040489f, 0.018518f, 0.001222f, 
-0.013425f, -0.012459f, 0.018626f, 0.044717f, 0.008792f, -0.008487f, 0.009782f, 0.016700f, 
0.002487f, -0.024532f, -0.014976f, -0.019962f, -0.035682f, -0.040221f, -0.026891f, -0.033312f, 
0.008049f, 0.004284f, -0.004303f, 0.028139f, -0.009495f, 0.001881f, -0.003901f, -0.007898f, 
0.015250f, 0.014914f, 0.029678f, 0.000433f, -0.003244f, -0.007599f, -0.004579f, 0.009360f, 
0.021064f, 0.001052f, 0.005363f, 0.024598f, 0.018660f, -0.000702f, -0.019871f, -0.001280f, 
-0.007140f, -0.018330f, -0.015092f, -0.020758f, -0.018065f, -0.025282f, 0.005385f, 0.000221f, 
0.008776f, -0.019849f, -0.024415f, 0.000189f, 0.010998f, 0.032263f, 0.034928f, 0.014762f, 
0.006331f, 0.009307f, -0.005220f, 0.015440f, 0.007095f, -0.006719f, 0.016052f, 0.019995f, 
-0.000651f, 0.010737f, -0.016066f, -0.034810f, -0.053264f, -0.018215f, -0.020183f, -0.021914f, 
0.002927f, -0.005679f, -0.022960f, 0.000410f, 0.008856f, 0.002569f, 0.000334f, 0.008664f, 
0.004596f, 0.005940f, 0.013773f, 0.029133f, 0.023492f, -0.006855f, -0.003114f, 0.005161f, 
-0.003652f, 0.006075f, -0.011968f, 0.004632f, 0.023771f, 0.002567f, -0.007737f, -0.034426f, 
-0.036513f, -0.035007f, -0.038707f, -0.021124f, -0.033539f, -0.004949f, -0.006105f, -0.000637f, 
0.015727f, -0.002367f, 0.006310f, -0.001616f, 0.001676f, -0.013648f, 0.007630f, 0.009161f, 
0.015429f, 0.012219f, 0.012348f, -0.018650f, -0.000816f, -0.013828f, 0.000665f, -0.018081f, 
-0.020615f, -0.001042f, -0.005916f, -0.015148f, -0.055350f, -0.037460f, -0.037731f, -0.041118f, 
-0.047146f, -0.019363f, -0.024933f, -0.011025f, 0.018891f, 0.012020f, -0.007802f, -0.007298f, 
-0.014081f, 0.022397f, 0.015399f, -0.000250f, 0.000815f, 0.009718f, 0.021263f, 0.003257f, 
-0.006958f, 0.004197f, -0.000697f, -0.002982f, 0.008535f, -0.006643f, -0.003250f, -0.000528f, 
-0.039890f, -0.034834f, -0.053811f, -0.055419f, -0.051389f, -0.042299f, -0.040619f, -0.036552f, 
-0.029114f, -0.024737f, 0.021339f, 0.005764f, 0.005587f, -0.017854f, 0.015783f, -0.007383f, 
-0.001135f, 0.017920f, 0.018159f, 0.001449f, 0.011595f, 0.005444f, 0.026517f, 0.026799f, 
-0.022403f, -0.005521f, -0.016680f, -0.003687f, 0.017118f, -0.027923f, -0.042992f, -0.057691f, 
-0.054842f, -0.053187f, -0.049481f, -0.026255f, -0.005103f, -0.037544f, -0.018347f, 0.020902f, 
-0.009743f, 0.015487f, 0.004119f, 0.015718f, 0.017409f, 0.014080f, 0.008949f, -0.002465f, 
0.010506f, 0.017843f, 0.010669f, -0.000833f, 0.021188f, -0.015092f, -0.021926f, -0.010834f, 
-0.024621f, 0.004000f, -0.045361f, -0.040391f, -0.041847f, -0.067570f, -0.048965f, -0.037585f, 
-0.031996f, -0.041904f, -0.026534f, -0.015381f, -0.006352f, 0.002581f, -0.022254f, -0.000730f, 
0.002390f, -0.012004f, 0.011365f, 0.000266f, -0.003517f, 0.000666f, 0.015353f, 0.000559f, 
-0.001532f, -0.007720f, 0.007285f, -0.025824f, -0.021284f, -0.009088f, -0.032202f, -0.039224f, 
-0.039944f, -0.070525f, -0.047351f, -0.057133f, -0.043254f, -0.056175f, -0.041655f, -0.037064f, 
-0.027029f, -0.005045f, 0.017043f, -0.006568f, 0.014541f, 0.014675f, -0.006425f, 0.008404f, 
-0.006745f, -0.006210f, -0.017200f, 0.008438f, -0.005245f, -0.022065f, -0.007242f, -0.007257f, 
-0.017771f, -0.028268f, -0.013849f, -0.056699f, -0.055197f, -0.047358f, -0.051215f, -0.065148f, 
-0.043855f, -0.051963f, -0.047156f, -0.041682f, -0.039413f, -0.022635f, 0.006725f, 0.018756f, 
0.015271f, -0.020224f, 0.010862f, -0.000124f, 0.011271f, -0.001236f, 0.006600f, 0.008626f, 
0.006408f, 0.017876f, -0.002748f, -0.018108f, -0.009938f, -0.041050f, -0.028376f, -0.054826f, 
-0.047198f, -0.041713f, -0.049766f, -0.061302f, -0.053568f, -0.034301f, -0.030231f, -0.035547f, 
-0.039871f, -0.054639f, -0.031145f, 0.009617f, 0.012376f, 0.004716f, 0.007196f, -0.002032f, 
0.000132f, 0.007950f, 0.003527f, -0.009767f, -0.011501f, -0.013369f, -0.000907f, -0.005936f, 
-0.029575f, -0.024431f, -0.047603f, -0.056614f, -0.059163f, -0.049192f, -0.063270f, -0.079906f, 
-0.076988f, -0.043781f, -0.053832f, -0.044370f, -0.041570f, -0.047970f, -0.035438f, -0.021852f, 
-0.007844f, 0.008160f, -0.006831f, 0.004843f, -0.018603f, -0.014955f, -0.016586f, -0.007023f, 
-0.003435f, 0.017321f, 0.025994f, -0.013491f, -0.012605f, -0.008737f, -0.038491f, -0.031545f, 
-0.050900f, -0.052566f, -0.035765f, -0.055659f, -0.049640f, -0.039147f, -0.039739f, -0.028151f, 
-0.005117f, -0.036555f, -0.025695f, 0.000127f, -0.007400f, -0.019032f, -0.013956f, -0.017766f, 
-0.021376f, -0.008490f, -0.004796f, 0.021769f, -0.004262f, 0.019353f, 0.022447f, -0.010936f, 
-0.014252f, -0.007786f, 0.001172f, -0.025978f, -0.032134f, -0.048737f, -0.067553f, -0.051711f, 
-0.038257f, -0.034407f, -0.037746f, -0.034103f, -0.031871f, -0.008039f, -0.032727f, -0.008649f, 
-0.022541f, -0.025043f, -0.031386f, 0.004350f, -0.017875f, -0.016813f, -0.006224f, 0.010582f, 
0.022463f, -0.005549f, 0.027547f, 0.020024f, 0.001310f, -0.028409f, -0.019078f, -0.009482f, 
-0.033406f, -0.032038f, -0.045186f, -0.068600f, -0.051520f, -0.063099f, -0.042690f, -0.046188f, 
-0.017618f, -0.055243f, -0.038661f, -0.011108f, -0.035460f, -0.010088f, -0.030660f, -0.004337f, 
-0.012806f, -0.020662f, -0.037315f, -0.018309f, -0.000608f, 0.004650f, 0.015034f, 0.017737f, 
-0.000377f, 0.008446f, -0.011049f, 0.007979f, -0.021054f, -0.021597f, -0.033892f, -0.040463f, 
-0.027622f, -0.049840f, -0.050402f, -0.051308f, -0.047423f, -0.044205f, -0.056716f, -0.026785f, 
-0.020816f, -0.003990f, -0.014373f, -0.005376f, -0.000158f, 0.006841f, 0.000476f, -0.033828f, 
-0.023065f, -0.018867f, -0.005355f, 0.009104f, 0.030617f, 0.020529f, 0.014767f, -0.013604f, 
-0.023207f, 0.003120f, 0.016707f, -0.019182f, -0.021969f, -0.043843f, -0.046162f, -0.057781f, 
-0.030155f, -0.027947f, -0.039672f, -0.052558f, -0.026087f, -0.016380f, -0.011532f, -0.011230f, 
-0.030392f, -0.022130f, -0.002833f, -0.018417f, -0.004470f, 0.012616f, 0.001017f, -0.012308f, 
0.017523f, 0.004702f, 0.008314f, 0.008951f, 0.002065f, -0.014760f, 0.014655f, 0.017594f, 
0.000445f, -0.005852f, -0.024807f, -0.029913f, -0.033182f, -0.028106f, -0.044171f, -0.050957f, 
-0.049492f, -0.028050f, -0.017786f, -0.029399f, -0.021102f, -0.003415f, -0.006666f, -0.030366f, 
-0.018961f, 0.001843f, -0.012673f, 0.008180f, -0.009631f, -0.006857f, 0.011936f, 0.002989f, 
0.005745f, 0.014249f, 0.013577f, -0.015611f, -0.030142f, 0.009405f, -0.003563f, -0.022906f, 
-0.026514f, -0.016361f, -0.034532f, -0.041204f, -0.045490f, -0.039910f, -0.038044f, -0.023769f, 
-0.031586f, -0.007900f, -0.008539f, -0.001728f, -0.032083f, -0.017262f, -0.011506f, -0.029140f, 
0.001124f, -0.007006f, -0.002322f, 0.028264f, -0.015616f, -0.007810f, -0.001912f, -0.008749f, 
-0.018098f, -0.007598f, 0.010260f, -0.003448f, 0.005452f, -0.008518f, -0.026885f, -0.029601f, 
-0.011902f, -0.045361f, -0.039690f, -0.026560f, -0.024859f, -0.010569f, -0.019240f, -0.021860f, 
-0.017204f, -0.029787f, -0.023908f, -0.024387f, -0.020469f, 0.004885f, 0.011850f, -0.010088f, 
0.015077f, -0.004712f, -0.018465f, -0.007226f, -0.009780f, -0.004936f, -0.024376f, -0.013923f, 
-0.002001f, 0.001729f, -0.015114f, -0.032188f, -0.000525f, -0.016526f, -0.026214f, -0.044911f, 
-0.028360f, -0.021838f, -0.007387f, 0.001120f, 0.009841f, 0.005064f, 0.004360f, -0.001640f, 
0.004263f, -0.023868f, 0.008058f, 0.020146f, 0.016007f, 0.002713f, -0.014111f, -0.008933f, 
0.016242f, 0.000957f, -0.021993f, 0.003905f, 0.010939f, 0.000336f, 0.028165f, 0.003170f, 
-0.016581f, -0.021468f, -0.025955f, -0.003642f, -0.021273f, 0.000339f, -0.015680f, -0.028372f, 
-0.007787f, -0.012411f, -0.009923f, 0.010548f, 0.014589f, 0.013692f, 0.015147f, -0.002289f, 
-0.021306f, -0.010598f, -0.000529f, -0.006623f, 0.004517f, 0.003482f, 0.009841f, 0.012357f, 
-0.010648f, 0.010142f, 0.009162f, -0.013673f, -0.023625f, -0.026715f, -0.005799f, -0.009745f, 
-0.011539f, -0.004844f, -0.001373f, -0.000361f, -0.009440f, 0.008647f, 0.012596f, 0.009571f, 
0.010887f, 0.002097f, 0.021228f, 0.014189f, -0.025474f, -0.007044f, 0.001145f, 0.008645f, 
-0.004766f, -0.003302f, 0.005028f, 0.023295f, 0.003767f, 0.000404f, 0.001111f, -0.007058f, 
0.011162f, -0.014629f, -0.006758f, -0.028007f, -0.029472f, -0.024971f, 0.000868f, 0.002523f, 
-0.000115f, 0.020335f, -0.009841f, 0.008499f, 0.027927f, 0.034378f, -0.008091f, 0.001484f, 
-0.029232f, -0.020578f, -0.000160f, 0.022559f, -0.014552f, -0.013754f, 0.022749f, 0.008874f, 
0.008267f, 0.011210f, 0.000056f, -0.001450f, -0.009027f, 0.016947f, 0.020104f, -0.008115f, 
-0.040113f, -0.037835f, -0.026208f, -0.003989f, -0.004161f, 0.012199f, 0.005998f, 0.008531f, 
0.007245f, 0.016102f, 0.033723f, 0.006370f, 0.017105f, -0.014348f, -0.020124f, -0.001558f, 
0.006883f, -0.019618f, 0.014000f, 0.002676f, 0.011288f, 0.004272f, 0.012368f, 0.002087f, 
-0.006544f, 0.007299f, -0.001738f, 0.007000f, -0.020252f, -0.003960f, -0.013969f, -0.023609f, 
-0.033377f, -0.026763f, -0.005497f, 0.012658f, 0.006782f, 0.007515f, 0.020204f, 0.027727f, 
-0.000706f, -0.002813f, 0.003821f, -0.005598f, 0.003521f, 0.004417f, -0.005340f, 0.025455f, 
0.018535f, -0.004740f, 0.001778f, -0.012359f, -0.005356f, -0.004366f, 0.006313f, -0.015791f, 
-0.013672f, 0.015421f, 0.001342f, -0.039535f, -0.037682f, -0.032692f, -0.022045f, 0.006580f, 
0.009331f, 0.001264f, -0.002486f, 0.015187f, 0.011058f, 0.008654f, -0.006927f, 0.003661f, 
-0.004770f, 0.000020f, -0.021801f, -0.011625f, 0.012411f, 0.015390f, -0.004025f, -0.017529f, 
0.002684f, 0.004708f, 0.035067f, 0.030251f, 0.001953f, -0.020722f, 0.016621f, -0.017176f, 
-0.037084f, -0.017862f, -0.047901f, -0.033604f, -0.033794f, -0.012198f, -0.024581f, -0.017856f, 
0.009968f, 0.014395f, 0.014389f, -0.003564f, -0.009339f, 0.002856f, 0.003108f, 0.013535f, 
-0.004321f, 0.028658f, 0.007811f, -0.002797f, 0.003397f, 0.016691f, 0.029669f, 0.040565f, 
0.010991f, -0.003657f, -0.009394f, 0.004336f, -0.015564f, -0.038495f, -0.041173f, -0.031746f, 
-0.027446f, -0.011067f, -0.021295f, -0.025001f, 0.006146f, -0.010904f, 0.016435f, 0.010966f, 
0.029161f, -0.008029f, -0.000599f, -0.011440f, 0.016046f, -0.012643f, 0.000004f, 0.007604f, 
0.000025f, 0.008896f, -0.008587f, -0.018839f, -0.000614f, 0.017181f, 0.014845f, -0.008777f, 
-0.006924f, -0.024975f, -0.043378f, -0.032711f, -0.034073f, -0.013095f, -0.017153f, -0.015728f, 
-0.001794f, 0.004183f, 0.001686f, -0.020665f, -0.000640f, 0.027545f, -0.000664f, 0.000517f, 
-0.003445f, -0.006045f, 0.012446f, 0.003127f, -0.004217f, -0.002071f, -0.020017f, -0.032179f, 
-0.009618f, 0.015420f, 0.023371f, 0.002324f, 0.013711f, 0.028444f, -0.012893f, -0.034102f, 
-0.013910f, -0.052547f, -0.021257f, -0.033938f, -0.002280f, -0.025072f, -0.025404f, -0.004249f, 
-0.009946f, 0.014572f, 0.016305f, -0.024288f, -0.025384f, 0.010243f, 0.009859f, -0.001576f, 
0.001124f, 0.002153f, 0.016959f, 0.000013f, -0.025836f, 0.002406f, 0.025244f, 0.001737f, 
-0.008395f, 0.006619f, 0.031272f, 0.000893f, -0.037393f, -0.044632f, -0.051666f, -0.038520f, 
-0.019262f, -0.013894f, -0.005814f, -0.005511f, -0.004343f, -0.013558f, -0.004155f, -0.012509f, 
0.008462f, -0.009546f, -0.026460f, -0.004898f, 0.007935f, -0.005249f, 0.013803f, -0.008411f, 
0.009329f, -0.008604f, -0.012285f, -0.011783f, -0.019090f, -0.028096f, -0.015036f, -0.008675f, 
-0.035324f, -0.029648f, -0.019676f, -0.031591f, -0.032886f, -0.029489f, -0.017409f, -0.002413f, 
0.025902f, 0.001831f, 0.015556f, -0.022455f, -0.018208f, -0.018764f, -0.022303f, -0.017638f, 
-0.015979f, 0.008236f, -0.024981f, -0.007781f, -0.021034f, 0.008391f, -0.007598f, -0.009213f, 
-0.003573f, -0.002747f, 0.003870f, -0.017786f, -0.001842f, -0.019286f, -0.041949f, -0.021864f, 
-0.038791f, -0.032969f, -0.020405f, -0.042562f, -0.008850f, -0.001985f, -0.012486f, 0.007468f, 
0.002555f, 0.009452f, -0.013263f, -0.008308f, -0.029732f, -0.014915f, 0.006941f, -0.018643f, 
-0.000987f, 0.014371f, 0.005655f, 0.022178f, -0.013529f, -0.019654f, 0.002156f, 0.020823f, 
0.001356f, -0.006555f, -0.029336f, -0.061474f, -0.050878f, -0.032604f, -0.063905f, -0.055235f, 
-0.012253f, -0.016303f, -0.003877f, 0.003657f, 0.039698f, 0.018304f, 0.021313f, 0.017715f, 
0.009244f, 0.000734f, -0.014721f, 0.007571f, -0.009440f, 0.014844f, -0.004030f, -0.002684f, 
-0.002703f, 0.025132f, 0.016241f, 0.008736f, 0.009736f, -0.003625f, -0.000828f, -0.042949f, 
-0.047897f, -0.046039f, -0.052152f, -0.043343f, -0.036411f, -0.053822f, -0.022271f, -0.013624f, 
-0.000227f, 0.014892f, -0.009071f, 0.014221f, 0.015816f, -0.007112f, -0.017020f, 0.000517f, 
-0.002489f, -0.000621f, 0.003455f, -0.010934f, -0.006926f, 0.008060f, 0.013971f, 0.010180f, 
0.003404f, 0.017782f, 0.018849f, -0.012476f, -0.055069f, -0.033753f, -0.046053f, -0.060492f, 
-0.065983f, -0.060134f, -0.034727f, -0.023051f, -0.026051f, -0.003514f, 0.006496f, -0.010776f, 
0.003689f, -0.014222f, -0.019580f, -0.017929f, -0.020574f, -0.023706f, -0.015481f, -0.006856f, 
-0.011731f, -0.006971f, -0.003648f, 0.009027f, -0.009320f, -0.005828f, 0.007443f, 0.005487f, 
-0.025942f, -0.025101f, -0.047179f, -0.026881f, -0.027477f, 0.002172f, -0.008099f, -0.016310f, 
-0.020431f, -0.018073f, 0.028007f, 0.042428f, 0.018723f, 0.026468f, 0.007154f, -0.007984f, 
-0.007057f, 0.003436f, 0.011194f, 0.002687f, -0.016830f, -0.006472f, 0.012483f, -0.009692f, 
-0.008608f, -0.006549f, 0.021880f, 0.019388f, 0.023714f, 0.018890f, 0.015127f, -0.020532f, 
-0.039091f, -0.024467f, -0.016205f, -0.033536f, -0.052660f, -0.017422f, -0.017051f, -0.010797f, 
0.007760f, 0.001444f, 0.034447f, -0.017064f, -0.015532f, 0.002144f, -0.000857f, -0.005211f, 
-0.020366f, -0.019881f, -0.010183f, 0.006289f, -0.003487f, -0.000294f, 0.010603f, 0.002969f, 
0.011191f, 0.041453f, 0.013721f, -0.023769f, -0.020035f, -0.024947f, 0.002222f, -0.027050f, 
-0.020569f, -0.015918f, -0.014283f, -0.013765f, 0.001611f, 0.041166f, 0.026414f, 0.017318f, 
-0.005329f, 0.004149f, 0.004201f, -0.007298f, -0.004603f, -0.011184f, -0.009990f, -0.002499f, 
0.001166f, 0.009702f, -0.009141f, -0.007734f, -0.014282f, -0.017498f, 0.021266f, -0.030745f, 
0.005496f, -0.035244f, -0.025546f, -0.004636f, -0.000998f, -0.012086f, -0.011281f, -0.021076f, 
0.004964f, 0.024720f, 0.013335f, 0.028387f, 0.035941f, 0.019495f, -0.011431f, 0.005291f, 
-0.011053f, -0.003296f, -0.009483f, -0.000875f, -0.004244f, -0.003063f, -0.016033f, -0.003495f, 
0.030175f, 0.012146f, -0.030416f, -0.038209f, 0.013026f, 0.002355f, -0.026529f, 0.002696f, 
0.005567f, 0.008937f, 0.026865f, 0.008699f, -0.022048f, 0.012675f, 0.032136f, 0.007182f, 
0.039645f, 0.030984f, 0.017453f, 0.019227f, 0.013083f, 0.016328f, -0.000743f, 0.023025f, 
0.005537f, -0.009117f, 0.021857f, 0.017080f, -0.001561f, 0.019115f, -0.015693f, -0.051829f, 
-0.032499f, 0.004569f, -0.009358f, -0.003120f, 0.034866f, 0.023599f, 0.029800f, 0.021604f, 
0.005140f, 0.010687f, 0.018111f, 0.025111f, 0.044496f, 0.044854f, 0.022260f, 0.006329f, 
-0.005165f, 0.012823f, 0.000480f, 0.004310f, 0.000123f, 0.002909f, 0.027497f, 0.027246f, 
0.012326f, 0.007847f, -0.002557f, 0.014481f, -0.036307f, -0.041781f, -0.026472f, -0.007053f, 
0.002441f, 0.012807f, 0.014750f, 0.020690f, 0.007384f, 0.039264f, 0.015628f, 0.008778f, 
0.025526f, 0.035503f, 0.026897f, 0.016448f, -0.005020f, 0.005038f, 0.017279f, 0.001622f, 
0.015093f, 0.014696f, 0.007127f, -0.001269f, -0.017876f, 0.000731f, -0.003968f, 0.026819f, 
0.035453f, -0.002007f, -0.026110f, -0.034267f, -0.032862f, -0.011697f, 0.006580f, -0.016451f, 
0.001131f, 0.009606f, 0.042313f, 0.035126f, 0.021578f, 0.009067f, -0.000636f, -0.001264f, 
0.014755f, 0.014247f, 0.003010f, 0.016575f, -0.010465f, 0.007833f, 0.011657f, 0.003673f, 
-0.008209f, -0.023632f, 0.010585f, 0.017633f, 0.044540f, 0.003172f, 0.015658f, 0.004183f, 
-0.024264f, -0.030921f, -0.000010f, -0.010990f, -0.014869f, -0.001259f, -0.001216f, 0.035051f, 
0.040713f, 0.018987f, 0.026618f, 0.005986f, 0.028187f, 0.012721f, -0.019887f, -0.002276f, 
-0.006765f, -0.002390f, 0.002033f, 0.020551f, 0.012827f, -0.001578f, 0.010483f, 0.017388f, 
0.017108f, -0.007384f, 0.020597f, 0.035177f, 0.018723f, -0.018999f, -0.019904f, 0.008255f, 
-0.008478f, -0.001887f, 0.000482f, 0.025481f, 0.007912f, 0.024457f, 0.028081f, 0.041645f, 
0.032944f, 0.004598f, 0.023541f, -0.017269f, 0.000023f, -0.004959f, -0.012423f, -0.003078f, 
0.006354f, 0.022674f, 0.002080f, 0.019039f, 0.022469f, -0.000194f, 0.008845f, 0.018746f, 
0.044749f, 0.019255f, -0.016535f, 0.003424f, 0.020882f, 0.012938f, -0.005530f, 0.003934f, 
0.014129f, 0.038299f, 0.037821f, 0.016363f, 0.014897f, 0.033044f, 0.002769f, 0.009629f, 
-0.011061f, -0.004342f, -0.003987f, 0.013936f, -0.010373f, 0.022720f, 0.016432f, -0.018171f, 
0.003247f, 0.027693f, -0.009172f, 0.028870f, 0.033575f, 0.025697f, 0.027820f, -0.005290f, 
-0.011003f, -0.000485f, -0.015230f, -0.005119f, -0.007977f, 0.031012f, 0.035666f, 0.016652f, 
0.035345f, 0.028967f, 0.017077f, 0.020762f, 0.011362f, -0.023353f, -0.011106f, 0.008966f, 
0.011542f, 0.011383f, 0.021856f, -0.006782f, -0.015902f, -0.002339f, 0.035508f, 0.009166f, 
0.007365f, 0.031891f, 0.038851f, 0.012749f, 0.022278f, 0.010167f, 0.000381f, -0.000081f, 
0.023120f, 0.025902f, 0.043360f, 0.012948f, 0.017761f, 0.024871f, 0.033183f, 0.009801f, 
0.032532f, 0.023654f, -0.012042f, 0.002757f, -0.006898f, 0.027205f, 0.025153f, -0.005176f, 
-0.023261f, 0.011293f, 0.015393f, 0.011070f, -0.014520f, 0.018165f, 0.006084f, 0.007378f, 
0.013671f, 0.030528f, 0.000343f, -0.006527f, 0.021409f, -0.004041f, 0.024510f, 0.020829f, 
0.027742f, 0.002458f, 0.016306f, -0.000025f, 0.028275f, 0.000511f, 0.015895f, 0.007506f, 
-0.007092f, -0.011930f, 0.009692f, -0.020832f, -0.008551f, -0.001251f, -0.012600f, -0.021424f, 
-0.019171f, -0.006126f, 0.013572f, -0.013672f, 0.016780f, -0.005624f, 0.014935f, 0.006083f, 
-0.000735f, 0.008938f, 0.000148f, -0.018630f, -0.002111f, 0.002620f, -0.020027f, -0.021903f, 
-0.003853f, -0.020221f, -0.003955f, -0.014909f, -0.001028f, -0.012417f, 0.000688f, -0.017499f, 
0.000966f, -0.001539f, 0.000579f, -0.016277f, -0.012484f, -0.003511f, 0.011566f, -0.001982f, 
0.004802f, 0.000591f, 0.013727f, 0.008065f, 0.012230f, 0.008817f, 0.007390f, -0.010214f, 
-0.011002f, -0.002380f, -0.006397f, 0.006588f, 0.000915f, -0.004302f, -0.020849f, 0.009110f, 
0.008098f, -0.015027f, 0.010945f, 0.006904f, -0.016701f, -0.012035f, -0.013568f, 0.004137f, 
-0.019915f, -0.021482f, 0.001534f, -0.018201f, 0.009605f, -0.005168f, -0.012198f, -0.008115f, 
0.006593f, 0.000451f, 0.018260f, 0.011238f, -0.004244f, 0.006821f, -0.011729f, 0.005743f, 
-0.014970f, -0.023078f, 0.010150f, 0.001837f, -0.005163f, -0.020660f, -0.014193f, -0.005454f, 
-0.011323f, 0.004668f, -0.024830f, 0.005004f, -0.011186f, 0.013353f, 0.006736f, -0.006160f, 
-0.019248f, -0.014734f, -0.009765f, 0.002259f, 0.006576f, 0.019778f, -0.000271f, -0.011735f, 
0.005325f, 0.001456f, -0.000756f, -0.009647f, -0.007037f, 0.008204f, -0.012930f, -0.019444f, 
-0.000362f, 0.009359f, -0.009501f, 0.009701f, -0.002098f, 0.010932f, -0.010948f, -0.000197f, 
0.003335f, -0.019752f, 0.005255f, -0.015057f, -0.012558f, 0.010567f, -0.002973f, 0.004452f, 
0.017929f, 0.016377f, 0.017133f, -0.003106f, 0.010198f, 0.001962f, 0.000806f, -0.018352f, 
0.004211f, 0.000204f, 0.004492f, -0.019433f, -0.005823f, -0.022822f, 0.008115f, -0.012029f, 
0.001868f, -0.004578f, -0.008929f, 0.007682f, -0.010944f, -0.020597f, 0.011255f, -0.010318f, 
0.002619f, -0.013124f, 0.017741f, 0.007399f, 0.012260f, 0.019373f, -0.001682f, 0.014240f, 
-0.004840f, -0.011186f, -0.014861f, 0.000265f, -0.003107f, -0.006189f, -0.005557f, -0.016338f, 
-0.014150f, -0.007009f, 0.008627f, 0.000470f, 0.007068f, -0.009834f, -0.000182f, 0.004783f, 
-0.012903f, 0.008370f, -0.014018f, -0.006799f, -0.009670f, -0.001887f, -0.000797f, -0.000740f, 
0.009841f, 0.004009f, 0.008721f, 0.000535f, -0.008827f, 0.013311f, -0.004859f, -0.009881f, 
-0.001090f, 0.005666f, 0.005851f, 0.008720f, 0.006106f, 0.011777f, 0.002915f, -0.010056f, 
-0.012770f, -0.017198f, 0.002917f, -0.002190f, 0.009315f, -0.013066f, -0.000724f, -0.010505f, 
0.005206f, -0.002690f, 0.008954f, -0.016101f, -0.000218f, 0.003531f, -0.011633f, -0.002377f, 
0.018841f, -0.013919f, -0.000343f, -0.001632f, 0.007069f, 0.010157f, 0.016449f, 0.017905f, 
-0.003318f, -0.010559f, 0.010034f, 0.002175f, -0.021966f, 0.008676f, -0.016577f, -0.002266f, 
-0.011407f, -0.008474f, 0.010207f, 0.006538f, -0.003225f, -0.014067f, 0.004492f, -0.017487f, 
-0.004514f, -0.003699f, 0.016341f, -0.003956f, 0.006256f, 0.006901f, -0.011335f, 0.023801f, 
0.008834f, 0.011592f, -0.011977f, -0.002364f, -0.010660f, -0.014831f, -0.009226f, -0.006825f, 
0.010398f, -0.019636f, -0.009880f, 0.003356f, -0.012139f, -0.003756f, 0.012436f, 0.010604f, 
0.011947f, 0.004433f, 0.009796f, 0.002883f, -0.010951f, 0.001032f, 0.003898f, -0.004683f, 
-0.006437f, 0.014807f, 0.008138f, 0.001469f, 0.008626f, 0.016670f, 0.018553f, 0.012323f, 
0.007195f, 0.016957f, -0.013322f, -0.011753f, -0.015210f, -0.009246f, -0.010138f, 0.000928f, 
-0.007081f, 0.013756f, 0.010016f, -0.016773f, -0.016475f, 0.012078f, -0.016396f, 0.003712f, 
-0.010261f, -0.001884f, -0.012084f, -0.007727f, -0.009102f, -0.011198f, -0.001483f, 0.016071f, 
0.013208f, 0.006971f, 0.014550f, 0.002227f, 0.021661f, 0.002782f, 0.013548f, 0.004057f, 
0.001480f, 0.007601f, -0.004274f, 0.009547f, -0.003878f, -0.016486f, 0.002149f, 0.006280f, 
0.002507f, 0.004620f, -0.013341f, 0.016439f, 0.009355f, 0.009039f, -0.005121f, 0.013660f, 
-0.000911f, -0.007263f, 0.005362f, 0.008673f, 0.009698f, 0.019046f, 0.028332f, 0.001095f, 
0.019517f, 0.012459f, 0.011563f, -0.009701f, -0.012455f, 0.010305f, -0.020894f, 0.005954f, 
-0.004378f, -0.016021f, 0.007098f, 0.000154f, -0.012574f, 0.010767f, -0.009189f, 0.016221f, 
0.002782f, 0.010495f, -0.006342f, -0.009836f, 0.016090f, 0.016334f, -0.004794f, 0.017414f, 
-0.000651f, -0.003765f, -0.000511f, 0.030934f, 0.028472f, 0.011962f, -0.001201f, 0.022137f, 
-0.008525f, 0.004444f, -0.000200f, 0.003003f, -0.003328f, -0.018891f, 0.000355f, -0.003320f, 
0.002749f, 0.005467f, 0.009718f, 0.006263f, 0.010001f, 0.010217f, -0.007321f, -0.005977f, 
-0.000909f, -0.004206f, -0.014763f, 0.013346f, 0.000870f, -0.006062f, 0.007322f, 0.007761f, 
0.019186f, 0.022825f, 0.007774f, 0.016452f, -0.004447f, 0.012117f, 0.008945f, -0.003946f, 
-0.003672f, 0.009802f, -0.004295f, -0.006285f, -0.005548f, 0.009810f, 0.000204f, -0.000618f, 
-0.004637f, -0.003156f, 0.011119f, -0.000974f, -0.006908f, -0.014397f, -0.009885f, -0.003792f, 
-0.007968f, -0.012933f, -0.002290f, 0.009585f, 0.014766f, 0.005758f, 0.004417f, 0.030474f, 
0.016326f, 0.024781f, 0.026567f, -0.004956f, 0.016537f, -0.001964f, -0.019480f, -0.010629f, 
-0.000696f, 0.003159f, 0.007190f, 0.010723f, -0.002083f, 0.000012f, -0.002984f, -0.011049f, 
0.004050f, -0.009668f, -0.003310f, -0.002836f, -0.007333f, -0.012878f, 0.004385f, 0.018386f, 
0.021769f, 0.015622f, 0.018557f, 0.034199f, 0.026177f, 0.022500f, 0.009329f, -0.003091f, 
0.003774f, -0.004531f, 0.003132f, -0.018176f, -0.021901f, -0.006196f, -0.015262f, -0.006745f, 
-0.000510f, 0.014723f, -0.013274f, 0.004348f, 0.016131f, -0.004763f, 0.015395f, -0.016001f, 
0.007063f, -0.006532f, 0.015201f, 0.012106f, 0.014840f, 0.008000f, -0.002784f, -0.001050f, 
0.009500f, 0.013838f, 0.022352f, 0.020811f, 0.000863f, 0.014046f, -0.000575f, -0.003948f, 
0.000521f, -0.010750f, -0.013229f, -0.006509f, -0.003202f, 0.008251f, 0.009417f, -0.017733f, 
0.000593f, 0.004891f, -0.011173f, -0.002328f, -0.003223f, -0.009956f, 0.008221f, -0.006118f, 
-0.008081f, -0.009086f, 0.000847f, 0.010523f, 0.004307f, -0.001938f, 0.018411f, -0.004901f, 
-0.001877f, 0.014716f, 0.006365f, 0.014915f, -0.003490f, -0.011409f, -0.004732f, 0.004211f, 
-0.014565f, 0.004938f, 0.015102f, -0.006624f, -0.006139f, -0.016437f, -0.013934f, 0.001702f, 
-0.007434f, -0.017931f, -0.014645f, 0.005049f, -0.004491f, -0.013364f, 0.016042f, -0.008611f, 
0.017355f, -0.010779f, -0.000774f, 0.016451f, 0.001575f, 0.019281f, -0.005817f, 0.000144f, 
-0.000890f, 0.010303f, -0.020271f, 0.008342f, -0.013331f, -0.000482f, -0.008235f, -0.006912f, 
-0.001750f, -0.008129f, -0.000787f, -0.001053f, -0.012381f, 0.001967f, -0.020790f, 0.012912f, 
-0.018046f, -0.011331f, -0.002575f, -0.010173f, -0.005732f, -0.017047f, -0.001773f, 0.008281f, 
-0.009762f, -0.006480f, 0.013037f, -0.002754f, 0.006880f, -0.011917f, 0.001364f, -0.008704f, 
-0.010447f, -0.009476f, -0.019602f, 0.014714f, -0.006979f, 0.011351f, 0.010612f, -0.000146f, 
-0.015749f, 0.011728f, -0.019684f, -0.011471f, -0.010326f, -0.009313f, 0.001671f, -0.012124f, 
-0.014662f, 0.010103f, 0.003801f, -0.016656f, -0.009024f, 0.010537f, -0.015487f, -0.009781f, 
-0.009773f, -0.002593f, 0.010409f, -0.021558f, -0.017161f, 0.010154f, -0.001067f, 0.007435f, 
-0.000334f, -0.007273f, 0.008517f, 0.002270f, -0.007226f, -0.008992f, 0.002120f, -0.006147f, 
0.009967f, -0.002723f, -0.022079f, -0.002708f, -0.003663f, -0.018961f, -0.002789f, -0.006386f, 
0.001934f, 0.004983f, 0.008738f, 0.009994f, -0.016553f, -0.002770f, -0.014112f, 0.001168f, 
-0.013639f, 0.003498f, -0.011389f, -0.000394f, -0.021276f, -0.002805f, 0.009579f, -0.012128f, 
-0.020505f, 0.005139f, -0.001797f, -0.011037f, -0.020315f, -0.024816f, -0.002142f, 0.007134f, 
-0.014924f, -0.011724f, 0.001628f, 0.010396f, -0.018237f, 0.002717f, 0.003912f, -0.004541f, 
-0.014189f, 0.005712f, -0.004176f, -0.004966f, -0.023281f, -0.012587f, -0.008337f, 0.008340f, 
-0.014246f, -0.002300f, -0.019004f, -0.019115f, -0.002877f, 0.000425f, 0.005742f, 0.005006f, 
-0.011773f, 0.004991f, -0.023584f, -0.014981f, 0.004668f, 0.007761f, -0.014798f, -0.017520f, 
-0.008052f, -0.012847f, -0.001478f, -0.023054f, -0.013101f, -0.001537f, -0.020515f, -0.022510f, 
-0.012806f, -0.001801f, -0.021323f, -0.012775f, 0.000120f, -0.002421f, 0.005410f, -0.015919f, 
0.009594f, 0.002300f, -0.017752f, -0.002227f, -0.023988f, -0.011249f, -0.019718f, -0.016563f, 
0.007347f, 0.004000f, -0.018726f, 0.001464f, -0.015973f, -0.017129f, 0.001304f, 0.000846f, 
-0.020781f, -0.017387f, 0.000553f, -0.023639f, -0.017001f, 0.006752f, 0.002135f, -0.011445f, 
-0.009971f, -0.000150f, -0.005702f, 0.000582f, -0.003073f, -0.022200f, 0.009520f, -0.014721f, 
-0.001759f, -0.007875f, -0.025109f, -0.001498f, -0.017866f, -0.015373f, -0.025307f, -0.014244f, 
0.003046f, 0.003488f, -0.003491f, -0.021779f, -0.013448f, 0.010669f, -0.003802f, -0.025428f, 
-0.024665f, -0.016453f, -0.008369f, 0.000039f, -0.017023f, -0.013765f, -0.017755f, -0.004256f, 
-0.014140f, -0.005003f, 0.008188f, -0.007388f, 0.007126f, -0.015856f, 0.006502f, 0.002958f, 
0.001932f, -0.016099f, 0.002320f, -0.018573f, -0.001121f, 0.000787f, 0.004420f, -0.002218f, 
-0.023297f, -0.002661f, -0.015608f, -0.008336f, -0.013201f, -0.015677f, -0.005859f, -0.005050f, 
-0.020849f, -0.014253f, 0.000574f, -0.020556f, -0.002095f, 0.003858f, -0.021956f, -0.006831f, 
0.007175f, -0.012885f, 0.001891f, -0.012297f, -0.001510f, 0.002368f, -0.020006f, 0.002101f, 
-0.004230f, -0.014623f, -0.014746f, -0.026159f, -0.022101f, -0.026010f, -0.009373f, -0.010303f, 
-0.001931f, -0.017930f, -0.003344f, -0.004563f, -0.026542f, -0.011150f, -0.008990f, -0.001867f, 
-0.021612f, 0.002404f, -0.004874f, -0.011420f, -0.016249f, 0.001934f, 0.000695f, -0.016493f, 
-0.017851f, 0.003872f, -0.006437f, -0.025094f, -0.023159f, -0.002610f, -0.000784f, 0.000145f, 
-0.003458f, -0.014551f, -0.025008f, -0.011689f, -0.017093f, -0.013953f, -0.010649f, -0.013969f, 
-0.016556f, -0.030289f, -0.012551f, 0.003199f, -0.029756f, -0.016327f, 0.003650f, 0.002708f, 
-0.007289f, -0.004557f, 0.014121f, 0.012169f, -0.011933f, -0.003016f, -0.000741f, 0.005330f, 
-0.018850f, 0.001633f, 0.004155f, -0.004739f, -0.012502f, -0.010804f, -0.022410f, -0.020930f, 
-0.017779f, -0.000074f, -0.022042f, -0.003861f, -0.006044f, 0.006379f, -0.020115f, 0.010889f, 
-0.009805f, -0.018168f, -0.019643f, 0.001244f, -0.020340f, -0.014065f, -0.012932f, -0.012148f, 
-0.021186f, -0.010678f, -0.015045f, -0.008603f, -0.016704f, -0.019203f, -0.016005f, -0.004485f, 
-0.020832f, -0.000474f, -0.003033f, 0.000750f, -0.023138f, 0.005308f, -0.018477f, -0.022598f, 
-0.020645f, -0.020517f, 0.005700f, -0.014774f, -0.013514f, -0.007429f, -0.012609f, 0.007316f, 
-0.019684f, 0.001111f, 0.018028f, 0.010323f, 0.002634f, 0.002017f, -0.021463f, -0.001045f, 
-0.023863f, -0.015088f, -0.013882f, -0.001211f, -0.004834f, 0.005275f, -0.015989f, -0.021333f, 
0.001016f, -0.022710f, -0.026001f, -0.009207f, -0.020591f, -0.020737f, -0.009317f, 0.008185f, 
0.005377f, -0.011670f, -0.002047f, 0.010353f, -0.002346f, -0.016349f, -0.015518f, 0.013272f, 
-0.007362f, 0.008212f, 0.003726f, 0.002380f, 0.006753f, 0.006375f, -0.016201f, -0.008957f, 
0.002912f, 0.002048f, 0.006066f, -0.008561f, 0.004746f, 0.001979f, -0.000765f, -0.016937f, 
-0.014995f, -0.005107f, -0.024658f, -0.005586f, 0.005648f, -0.013892f, 0.000391f, -0.006875f, 
-0.009177f, -0.005939f, -0.016274f, 0.000861f, -0.003998f, 0.007639f, -0.004564f, -0.012046f, 
-0.018132f, -0.023302f, -0.016639f, -0.023171f, -0.021489f, -0.022096f, -0.002994f, -0.003493f, 
0.002447f, -0.004170f, 0.000338f, -0.015373f, 0.005761f, -0.001177f, -0.022672f, -0.021180f, 
-0.011375f, 0.011698f, 0.003096f, -0.007528f, -0.020102f, 0.002801f, -0.001327f, -0.021398f, 
-0.012830f, 0.003259f, 0.000750f, -0.014206f, -0.000769f, -0.010740f, -0.016928f, 0.006608f, 
-0.018868f, -0.007468f, -0.005792f, -0.021602f, -0.018258f, 0.005774f, 0.006350f, 0.009399f, 
-0.022098f, -0.014328f, -0.006670f, 0.000337f, 0.007029f, 0.002235f, -0.007386f, -0.008210f, 
-0.003587f, 0.002749f, -0.011164f, -0.017478f, -0.005259f, 0.007258f, -0.007130f, -0.009754f, 
-0.021110f, -0.014639f, 0.002666f, -0.021279f, 0.000788f, -0.000604f, -0.015261f, -0.019790f, 
-0.006813f, 0.006144f, -0.013598f, -0.011280f, -0.020278f, -0.013638f, -0.021710f, -0.017784f, 
0.012557f, 0.001970f, 0.003669f, -0.011648f, 0.005095f, 0.008110f, 0.002065f, -0.007721f, 
-0.000111f, -0.008829f, 0.009068f, -0.016922f, -0.008875f, -0.006785f, -0.014820f, 0.010292f, 
-0.016282f, -0.005667f, -0.004165f, 0.004984f, -0.011074f, -0.009331f, 0.000857f, 0.005325f, 
0.008870f, -0.002620f, -0.010819f, 0.005356f, 0.001585f, 0.012844f, 0.017896f, 0.006503f, 
-0.000910f, -0.015027f, 0.009857f, -0.008469f, 0.000904f, -0.018205f, -0.005290f, -0.004248f, 
-0.015015f, 0.000481f, 0.002499f, 0.005981f, 0.005784f, -0.017999f, 0.001824f, -0.008666f, 
-0.005430f, 0.009748f, -0.014641f, 0.010593f, -0.017304f, 0.014749f, -0.003420f, -0.011019f, 
-0.009216f, -0.013280f, -0.008211f, 0.007267f, 0.005325f, -0.001820f, -0.010529f, 0.012480f, 
-0.010426f, -0.014716f, -0.023601f, -0.020187f, -0.017152f, 0.009997f, -0.012440f, -0.016510f, 
0.005957f, -0.018375f, -0.011585f, 0.001192f, -0.013520f, -0.015091f, -0.000249f, -0.006413f, 
0.006277f, -0.009058f, -0.012846f, 0.013506f, -0.001419f, -0.003416f, -0.007994f, -0.006397f, 
0.018940f, -0.011021f, -0.004840f, 0.016679f, 0.001502f, 0.005073f, 0.000624f, 0.000219f, 
-0.021934f, 0.001681f, -0.002487f, -0.001470f, -0.003786f, -0.018309f, -0.020189f, -0.008111f, 
-0.019156f, -0.015596f, 0.005703f, -0.017282f, -0.009857f, 0.006881f, 0.008665f, 0.000949f, 
0.016643f, 0.009618f, 0.023817f, 0.002298f, 0.015720f, 0.016609f, 0.005369f, -0.009595f, 
0.013828f, 0.010452f, -0.018301f, 0.001094f, 0.005198f, 0.000604f, -0.018456f, 0.012553f, 
-0.008063f, 0.010674f, 0.004423f, -0.018703f, -0.012144f, -0.009550f, -0.017980f, -0.015321f, 
-0.013392f, -0.008370f, 0.001055f, 0.012329f, 0.007424f, 0.031113f, 0.003160f, 0.015674f, 
0.006322f, 0.029663f, 0.004813f, -0.003444f, -0.004082f, 0.013809f, 0.005048f, -0.001273f, 
-0.014658f, -0.001901f, -0.005294f, 0.000579f, -0.014507f, -0.010687f, 0.016728f, 0.006884f, 
0.007742f, 0.004444f, -0.000414f, -0.000781f, -0.006702f, 0.001439f, 0.015947f, 0.007075f, 
0.015378f, 0.029330f, 0.013106f, 0.040577f, 0.039232f, 0.025879f, 0.028098f, 0.032769f, 
0.030795f, 0.006923f, 0.016481f, 0.004290f, -0.022023f, -0.022224f, 0.003344f, -0.017937f, 
-0.007564f, -0.010214f, -0.003317f, 0.006343f, 0.006364f, 0.013494f, -0.006716f, 0.001261f, 
0.000808f, -0.002301f, -0.004881f, 0.002375f, -0.005757f, 0.032580f, 0.021466f, 0.021506f, 
0.037322f, 0.034036f, 0.029194f, 0.041215f, 0.033876f, 0.032954f, 0.011373f, -0.004760f, 
0.012439f, -0.020835f, -0.003646f, -0.007767f, -0.020751f, 0.000543f, 0.011465f, 0.004597f, 
-0.003800f, 0.002300f, 0.014191f, -0.016374f, 0.013084f, -0.017864f, -0.011452f, 0.018263f, 
-0.006217f, 0.022656f, 0.000273f, 0.017068f, 0.036551f, 0.040902f, 0.025028f, 0.026317f, 
0.018708f, 0.011955f, 0.028470f, 0.015381f, 0.009302f, -0.002291f, -0.010763f, 0.002613f, 
0.000669f, -0.002010f, 0.004078f, -0.003390f, -0.002849f, -0.006174f, -0.009204f, 0.010660f, 
0.011628f, -0.015866f, -0.011691f, 0.012501f, -0.012133f, 0.015727f, 0.018576f, 0.006506f, 
-0.001115f, 0.026361f, 0.005331f, 0.029811f, 0.014505f, 0.025809f, 0.010226f, 0.004751f, 
0.005329f, 0.013855f, 0.001547f, 0.009126f, 0.003062f, -0.007328f, -0.024834f, 0.004832f, 
0.001180f, -0.013056f, 0.003292f, -0.003577f, -0.016458f, 0.011940f, 0.007373f, 0.012517f, 
0.015640f, 0.007403f, -0.003737f, 0.024325f, 0.002594f, 0.007936f, 0.024645f, 0.003620f, 
0.021780f, 0.006299f, 0.028673f, 0.029381f, -0.006511f, 0.017228f, -0.010115f, 0.005049f, 
0.005889f, -0.025678f, -0.011301f, -0.017211f, -0.021339f, -0.012696f, -0.010985f, -0.012340f, 
-0.007500f, 0.012428f, 0.000264f, -0.009486f, -0.011619f, -0.009071f, -0.010234f, -0.013650f, 
0.001291f, 0.001613f, -0.003641f, 0.013339f, 0.009204f, 0.000876f, 0.000584f, 0.010218f, 
0.004672f, 0.006524f, -0.001752f, 0.004507f, 0.004026f, -0.014003f, 0.004926f, -0.002239f, 
-0.007559f, -0.015186f, 0.008037f, 0.011720f, 0.012202f, -0.011585f, 0.007194f, -0.011168f, 
0.013474f, -0.004891f, -0.007801f, 0.010589f, 0.017026f, 0.012818f, 0.009075f, 0.019508f, 
0.010205f, 0.004487f, 0.003453f, 0.004334f, -0.003430f, 0.016485f, -0.012278f, 0.018418f, 
-0.011782f, -0.012268f, -0.024115f, 0.008901f, -0.014330f, -0.004327f, 0.005104f, 0.015829f, 
-0.013302f, -0.001501f, -0.007589f, 0.014162f, -0.012509f, -0.016198f, -0.012550f, 0.010324f, 
-0.012038f, 0.006570f, -0.002941f, 0.008239f, 0.003071f, 0.001442f, 0.007315f, -0.004442f, 
-0.021447f, -0.010866f, -0.002152f, -0.011461f, 0.006268f, -0.018844f, 0.011485f, -0.000400f, 
-0.005044f, -0.003118f, -0.000383f, -0.004324f, 0.008177f, -0.004195f, 0.007627f, 0.002002f, 
-0.001405f, 0.009457f, 0.007524f, -0.002602f, 0.005545f, -0.015386f, -0.012893f, -0.014221f, 
-0.007186f, -0.011388f, -0.005245f, -0.012782f, -0.014941f, 0.008710f, -0.020345f, 0.005033f, 
-0.014228f, -0.013092f, 0.005835f, -0.008713f, -0.012759f, 0.002235f, 0.012530f, 0.009063f, 
-0.016997f, -0.001672f, -0.000210f, 0.005131f, -0.017242f, -0.017100f, 0.014394f, -0.003586f, 
-0.011263f, 0.002366f, 0.011240f, 0.015721f, -0.011530f, 0.010600f, 0.000060f, 0.007204f, 
0.002717f, 0.008592f, 0.007799f, -0.019263f, -0.000570f, -0.001858f, -0.008405f, -0.001496f, 
0.000876f, -0.022381f, -0.013312f, -0.009646f, -0.015129f, 0.003082f, -0.003671f, -0.001967f, 
-0.019067f, -0.019063f, 0.013053f, 0.009932f, 0.008584f, -0.018791f, 0.003277f, -0.007577f, 
-0.016884f, -0.005780f, 0.018714f, 0.008016f, -0.000735f, 0.015432f, 0.010248f, 0.001998f, 
-0.009216f, -0.010865f, -0.014299f, -0.015476f, 0.007604f, -0.008755f, 0.004145f, -0.001052f, 
0.012519f, -0.006700f, 0.015010f, -0.011535f, -0.010095f, 0.004993f, -0.012023f, -0.015921f, 
-0.013744f, 0.007378f, -0.009547f, -0.012193f, -0.019220f, -0.016976f, 0.006741f, 0.010841f, 
0.003723f, 0.013749f, 0.015602f, -0.005489f, 0.003161f, -0.007733f, -0.023169f, -0.023806f, 
-0.000646f, -0.011952f, -0.000733f, -0.007505f, 0.012908f, 0.014995f, 0.003942f, 0.016308f, 
-0.011109f, -0.018386f, -0.001350f, -0.020677f, -0.011675f, -0.003144f, -0.006534f, -0.017705f, 
-0.012918f, 0.005509f, -0.019540f, -0.016993f, 0.017367f, 0.021211f, -0.009369f, -0.015321f, 
-0.000656f, -0.001334f, 0.007717f, 0.007271f, -0.004384f, -0.002422f, -0.007587f, -0.000371f, 
-0.012465f, -0.008082f, 0.016066f, 0.006999f, -0.007286f, -0.014151f, -0.000362f, -0.001117f, 
-0.002395f, 0.007292f, -0.017040f, -0.020079f, 0.000294f, 0.009840f, -0.009242f, -0.015082f, 
-0.007750f, -0.002626f, 0.011519f, 0.011985f, -0.008106f, -0.006828f, -0.006466f, -0.014827f, 
-0.009840f, -0.014061f, -0.000420f, 0.012950f, 0.008232f, -0.008992f, 0.005156f, 0.004257f, 
-0.011054f, -0.013497f, -0.002545f, 0.000995f, 0.002634f, -0.009870f, -0.006971f, -0.021912f, 
-0.000269f, -0.002661f, -0.014633f, -0.016619f, -0.020066f, -0.016860f, 0.015531f, 0.013370f, 
0.018358f, 0.014194f, -0.011757f, 0.006982f, 0.010662f, -0.003839f, -0.005301f, -0.014244f, 
0.005651f, 0.016515f, 0.000053f, 0.006994f, -0.006805f, -0.007254f, -0.011420f, -0.017023f, 
-0.013970f, -0.007914f, 0.010102f, -0.022429f, -0.022560f, -0.001352f, -0.011458f, -0.017765f, 
0.000972f, -0.015688f, -0.002877f, -0.004031f, -0.009759f, -0.015181f, -0.006551f, -0.005470f, 
0.002830f, -0.015945f, -0.011025f, -0.000131f, 0.013683f, 0.009014f, 0.010349f, 0.014279f, 
0.016627f, 0.010510f, 0.006115f, -0.016277f, 0.005848f, -0.002968f, -0.018372f, -0.006082f, 
-0.000318f, 0.010653f, -0.021552f, 0.007917f, -0.012853f, 0.007551f, 0.004976f, 0.004961f, 
-0.010802f, -0.016608f, -0.017132f, -0.009475f, -0.005648f, -0.014404f, -0.004100f, -0.003761f, 
0.008993f, 0.006900f, -0.014147f, -0.005893f, 0.010915f, -0.009266f, 0.007384f, 0.003973f, 
0.002373f, -0.000939f, -0.013529f, 0.020250f, -0.027151f, -0.024979f, -0.009873f, -0.026835f, 
-0.023058f, 0.001591f, -0.014167f, -0.009163f, -0.011871f, -0.000589f, 0.003105f, -0.012667f, 
-0.015261f, -0.006274f, 0.005982f, -0.020677f, -0.013780f, -0.013401f, 0.009768f, 0.007431f, 
-0.002166f, 0.011281f, -0.013922f, -0.002015f, -0.015563f, 0.001490f, 0.002178f, 0.005428f, 
-0.020362f, -0.021284f, -0.005926f, -0.013520f, -0.015835f, -0.024036f, -0.018286f, -0.029586f, 
-0.027095f, -0.024586f, -0.007721f, 0.001346f, 0.007093f, -0.012335f, -0.004740f, 0.006559f, 
-0.009678f, -0.015975f, -0.015733f, 0.008551f, -0.014051f, -0.019138f, 0.000426f, -0.015540f, 
-0.020549f, -0.010344f, -0.005142f, 0.019513f, -0.002151f, -0.009147f, -0.007956f, -0.019108f, 
-0.007982f, -0.027290f, -0.025470f, -0.018618f, -0.005454f, -0.003272f, -0.014052f, -0.016277f, 
-0.017058f, -0.028577f, -0.005697f, -0.006792f, -0.024341f, -0.017151f, -0.007433f, 0.006819f, 
-0.007571f, -0.011844f, -0.004465f, -0.000046f, 0.003245f, 0.004911f, -0.002177f, -0.010396f, 
-0.015483f, -0.002195f, -0.000289f, -0.004873f, -0.029761f, -0.013727f, -0.009237f, -0.012874f, 
-0.002183f, -0.004185f, -0.026149f, -0.003461f, -0.026316f, -0.019951f, -0.014902f, -0.000874f, 
-0.006561f, 0.004431f, -0.016138f, -0.011427f, 0.008735f, -0.014222f, 0.000654f, -0.006657f, 
-0.019750f, -0.001790f, -0.010401f, 0.009495f, -0.010936f, -0.015515f, -0.006556f, -0.008804f, 
-0.005539f, -0.012824f, 0.004370f, 0.005597f, -0.025564f, -0.019796f, -0.011470f, 0.003008f, 
-0.007000f, -0.028522f, -0.007034f, -0.021170f, -0.019194f, -0.013129f, -0.001505f, -0.012914f, 
-0.004281f, -0.014862f, -0.010332f, 0.009422f, -0.020964f, -0.009073f, -0.002187f, 0.013584f, 
0.010171f, 0.004058f, -0.001330f, 0.005963f, -0.016751f, -0.003228f, -0.004534f, 0.005433f, 
0.002690f, -0.022537f, -0.020965f, -0.023819f, 0.005213f, -0.007140f, -0.017448f, -0.022778f, 
0.001309f, -0.026443f, -0.030781f, -0.014279f, -0.006243f, -0.002809f, 0.000699f, -0.021830f, 
-0.000275f, -0.005450f, -0.003965f, 0.004837f, -0.013313f, 0.008209f, -0.001267f, -0.004065f, 
-0.008983f, -0.003519f, -0.025760f, -0.024611f, 0.009069f, -0.012131f, -0.023510f, -0.015493f, 
-0.001341f, -0.023254f, 0.000703f, 0.002070f, -0.018684f, 0.003428f, -0.009534f, -0.033765f, 
-0.000584f, -0.005575f, -0.004476f, -0.019352f, -0.005280f, -0.007323f, -0.014136f, -0.013885f, 
0.014403f, 0.008364f, -0.009737f, -0.004982f, -0.014982f, 0.001088f, -0.003183f, -0.018359f, 
-0.019903f, -0.012534f, -0.002632f, -0.002971f, -0.008421f, -0.020178f, -0.021004f, -0.018758f, 
0.004808f, -0.018502f, -0.013689f, -0.012588f, -0.023732f, -0.024275f, -0.015847f, -0.021335f, 
0.009543f, -0.010860f, 0.014636f, -0.013642f, 0.010311f, 0.000753f, -0.017975f, 0.010253f, 
0.008977f, -0.021905f, -0.011945f, 0.008439f, -0.013915f, -0.004361f, 0.006023f, -0.007688f, 
-0.018198f, 0.005289f, -0.015693f, -0.017662f, -0.016125f, 0.007769f, 0.004604f, -0.020086f, 
-0.025491f, 0.002684f, -0.000767f, -0.000489f, 0.016555f, -0.010936f, -0.003119f, -0.006292f, 
-0.014023f, 0.004573f, -0.016068f, -0.001823f, -0.007367f, -0.011384f, -0.016341f, -0.021126f, 
0.008021f, -0.023384f, -0.007856f, 0.005444f, -0.001143f, 0.010430f, 0.013104f, -0.015820f, 
-0.004306f, -0.010612f, 0.006005f, 0.000609f, -0.019569f, 0.006602f, -0.019916f, -0.006804f, 
-0.001681f, -0.009277f, 0.000128f, 0.002030f, 0.010176f, 0.008235f, 0.013481f, -0.001061f, 
0.003723f, -0.006636f, -0.001812f, 0.005130f, 0.004177f, -0.004324f, 0.001505f, 0.004189f, 
0.005273f, -0.020380f, -0.013264f, 0.001450f, -0.015865f, -0.012630f, -0.011011f, -0.014139f, 
-0.018455f, -0.012671f, 0.018034f, -0.018872f, -0.004062f, -0.009389f, 0.007723f, 0.001239f, 
-0.011019f, 0.015584f, 0.006427f, 0.003929f, -0.009952f, 0.009921f, 0.002147f, 0.002648f, 
0.011750f, -0.017988f, 0.008181f, 0.009535f, 0.009952f, -0.000920f, -0.003240f, -0.008528f, 
-0.012124f, 0.009369f, -0.011560f, 0.007013f, 0.007140f, -0.004193f, -0.007401f, 0.017226f, 
0.016575f, 0.004081f, 0.000976f, 0.019753f, -0.010134f, 0.010392f, 0.018013f, 0.001745f, 
-0.013425f, 0.001121f, -0.015827f, -0.023968f, 0.007673f, -0.000079f, 0.002721f, 0.009390f, 
0.001425f, -0.002266f, -0.000544f, -0.002063f, -0.001848f, -0.013827f, -0.003152f, -0.012622f, 
-0.001527f, -0.008158f, 0.003901f, 0.011692f, 0.015827f, 0.017195f, -0.004983f, 0.013723f, 
0.009810f, 0.000652f, -0.006981f, 0.006428f, -0.013896f, -0.021554f, -0.025455f, -0.024478f, 
0.000498f, -0.018863f, -0.005387f, 0.003148f, 0.001079f, -0.002258f, -0.000393f, 0.011597f, 
0.001426f, -0.014430f, -0.015464f, -0.012440f, -0.005927f, 0.015003f, 0.009038f, 0.003427f, 
0.003685f, 0.020246f, 0.006807f, 0.022267f, 0.015955f, 0.009690f, 0.004966f, -0.004298f, 
0.000704f, -0.005241f, -0.020666f, -0.018951f, -0.019208f, -0.006200f, -0.028999f, 0.014916f, 
-0.007373f, 0.003499f, -0.011441f, 0.000885f, 0.006662f, -0.007930f, 0.011004f, 0.013165f, 
-0.001719f, 0.014879f, 0.006831f, 0.018415f, 0.025411f, 0.018198f, 0.032159f, 0.014498f, 
0.029266f, 0.019734f, 0.007076f, 0.000242f, 0.011345f, -0.016271f, -0.021139f, -0.022017f, 
0.006051f, -0.024365f, 0.004990f, 0.007283f, -0.005741f, 0.015178f, 0.011016f, -0.007202f, 
0.015276f, 0.011508f, 0.004292f, -0.016137f, 0.017914f, 0.025429f, 0.031511f, 0.032738f, 
0.021983f, 0.019896f, 0.040073f, 0.044019f, 0.020945f, 0.032825f, 0.015900f, 0.007500f, 
-0.007650f, 0.006790f, -0.022136f, -0.025995f, -0.012820f, -0.005871f, -0.019753f, -0.004407f, 
