#ifndef MY_MODEL_H
#define MY_MODEL_H
// ======================================================
// IMPORTANT: After copying this file to your sketch folder,
// update BOTH of the following lines in your main sketch
// to match the number of classes and labels used during training:
//
//   #define NUM_CLASSES 3
//   String myClassLabels[NUM_CLASSES] = {"0Blank", "1Cup", "2Pen"};
//
// Then uncomment:  #define USE_BAKED_WEIGHTS
// ======================================================
const float myModel_conv1_w[] = { 0.110365f, 0.010876f, 0.070761f, 0.037773f, -0.055385f, -0.107867f, -0.152628f, 0.078873f, 
-0.063356f, 0.197961f, -0.222032f, -0.023171f, 0.222218f, -0.079355f, 0.294356f, -0.218581f, 
0.233355f, -0.190833f, 0.246560f, 0.024612f, 0.237018f, -0.075134f, 0.125270f, 0.066190f, 
-0.066211f, -0.240041f, 0.224526f, -0.179623f, 0.270198f, 0.063530f, 0.014322f, 0.137842f, 
0.342672f, 0.134628f, 0.016475f, 0.069075f, 0.144994f, 0.330143f, 0.375414f, -0.036314f, 
0.159211f, 0.295324f, -0.028365f, 0.265129f, 0.373069f, -0.172688f, 0.297535f, 0.397829f, 
0.280351f, 0.136421f, 0.344490f, 0.030740f, 0.258974f, 0.332227f, 0.191320f, -0.166358f, 
-0.235444f, 0.087386f, -0.144001f, -0.034072f, -0.256863f, 0.074390f, -0.057713f, 0.272628f, 
-0.141356f, 0.260010f, -0.108165f, 0.206771f, 0.043150f, 0.128990f, -0.110477f, -0.108230f, 
0.104204f, 0.213393f, 0.097538f, -0.011261f, -0.230630f, 0.148970f, 0.063209f, -0.215122f, 
-0.122550f, 0.273257f, 0.101962f, 0.232956f, 0.231023f, 0.116880f, -0.084307f, 0.081325f, 
0.200029f, -0.220298f, -0.017676f, -0.126688f, -0.201236f, 0.016925f, 0.032429f, 0.061556f, 
0.081237f, -0.244879f, -0.004508f, 0.045088f, 0.009663f, -0.252991f, 0.065804f, -0.130813f, 
-0.121806f, 0.144470f, 0.246485f, -0.134573f };
const float myModel_conv1_b[] = { -0.024213f, -0.064325f, 0.031191f, -0.018271f };
const float myModel_conv2_w[] = { -0.026063f, 0.065521f, 0.020424f, 0.258571f, 0.101335f, -0.034943f, -0.028723f, -0.039290f, 
-0.208715f, 0.127016f, 0.060468f, 0.060681f, 0.198258f, -0.070728f, -0.213118f, 0.254394f, 
0.036280f, 0.171736f, 0.309985f, -0.115869f, 0.089393f, 0.231606f, 0.032205f, 0.328475f, 
-0.079231f, 0.039322f, -0.074438f, 0.212556f, 0.195680f, 0.198621f, -0.095600f, 0.032137f, 
0.227588f, -0.099458f, -0.028416f, 0.229201f, 0.210424f, 0.130348f, -0.151988f, 0.096128f, 
0.184914f, -0.103114f, -0.114322f, 0.219120f, -0.198510f, -0.020237f, 0.212971f, 0.229909f, 
-0.177600f, 0.206911f, -0.043824f, 0.133305f, -0.196948f, -0.086087f, -0.241050f, 0.292807f, 
0.199748f, -0.104800f, -0.104492f, -0.018490f, -0.134100f, 0.075286f, 0.064393f, -0.127713f, 
0.070361f, 0.246311f, 0.021649f, -0.148797f, 0.163750f, 0.148362f, -0.096554f, 0.007610f, 
-0.246132f, -0.081620f, -0.085315f, -0.230162f, 0.114950f, 0.213563f, 0.196089f, -0.103787f, 
0.011955f, -0.212770f, -0.119651f, 0.132004f, 0.151583f, -0.165915f, 0.031287f, 0.153730f, 
-0.164837f, 0.212829f, -0.046325f, 0.090361f, 0.104478f, 0.254092f, -0.115083f, 0.341639f, 
-0.086562f, -0.061128f, 0.256549f, -0.053770f, 0.140512f, 0.276943f, -0.058503f, -0.126993f, 
0.273126f, 0.101485f, -0.128618f, 0.082160f, -0.172334f, -0.232556f, 0.007002f, 0.175421f, 
-0.075413f, -0.198869f, -0.057102f, -0.015325f, -0.011807f, 0.206355f, -0.032660f, -0.209223f, 
-0.109733f, 0.002264f, -0.211650f, -0.222085f, -0.080344f, -0.256170f, -0.207498f, -0.086593f, 
-0.210216f, 0.116183f, -0.227587f, -0.259303f, -0.070128f, -0.235711f, 0.051367f, -0.232311f, 
-0.054233f, -0.080406f, 0.021419f, -0.108143f, -0.035730f, -0.008053f, -0.141937f, 0.221572f, 
0.026858f, -0.189298f, 0.020370f, 0.031053f, -0.207667f, -0.117051f, 0.232140f, -0.083454f, 
-0.060844f, 0.089848f, 0.198871f, -0.039022f, -0.063181f, -0.041056f, 0.001912f, 0.083926f, 
-0.085605f, -0.123693f, 0.181219f, 0.136242f, 0.156448f, 0.188639f, 0.163567f, 0.326526f, 
-0.039649f, 0.118791f, -0.164424f, -0.013927f, -0.093790f, -0.126824f, -0.167920f, 0.245212f, 
0.031356f, 0.225889f, 0.087656f, 0.022704f, 0.200619f, 0.098846f, 0.236786f, -0.180536f, 
-0.086474f, -0.095355f, 0.012958f, -0.212550f, 0.113274f, 0.073168f, -0.077800f, -0.155307f, 
0.104712f, 0.177295f, -0.113843f, 0.173796f, -0.126084f, -0.088468f, 0.128610f, 0.285321f, 
0.176211f, -0.036804f, 0.173771f, 0.228256f, 0.189669f, 0.232372f, 0.345993f, 0.207785f, 
0.113736f, 0.046379f, 0.092037f, -0.119461f, 0.100158f, -0.167569f, -0.025284f, 0.119329f, 
0.275632f, -0.169259f, -0.193067f, 0.261798f, -0.113243f, -0.138502f, 0.263017f, 0.325951f, 
-0.120735f, 0.246665f, -0.213196f, -0.158711f, 0.067353f, -0.026320f, -0.056706f, 0.089077f, 
0.154211f, 0.115676f, 0.028207f, 0.242372f, -0.124447f, -0.011919f, 0.359048f, -0.090907f, 
0.406864f, 0.259458f, 0.336212f, -0.166380f, 0.065978f, -0.039916f, -0.040781f, 0.019728f, 
-0.213731f, -0.188087f, -0.231140f, -0.106034f, -0.243834f, 0.053064f, 0.004915f, 0.185061f, 
-0.256289f, -0.190386f, 0.182422f, -0.016506f, 0.076457f, 0.134408f, -0.214229f, 0.141977f, 
-0.153146f, 0.003825f, -0.231088f, -0.168132f, -0.008789f, 0.063180f, -0.152934f, -0.040616f, 
-0.015047f, 0.074769f, 0.078915f, -0.193401f, -0.211896f, -0.229705f, 0.072020f, -0.152755f, 
0.107048f, -0.035341f, -0.002537f, -0.110298f, 0.185729f, -0.215475f, 0.189179f, 0.082582f
 };
const float myModel_conv2_b[] = { -0.048747f, -0.041178f, 0.018508f, 0.039912f, 0.028660f, 0.014540f, -0.008116f, 0.044378f
 };
const float myModel_output_w[] = { 0.016604f, -0.012746f, 0.015308f, 0.008506f, -0.009291f, 0.000892f, 0.007103f, 0.003541f, 
0.003165f, 0.009984f, 0.004251f, 0.009390f, -0.009885f, -0.004827f, 0.005205f, 0.005708f, 
0.012524f, -0.014506f, 0.021223f, 0.019863f, 0.003613f, 0.025189f, 0.022314f, 0.010704f, 
0.001325f, -0.013743f, 0.004709f, 0.004965f, -0.011506f, -0.016430f, -0.018319f, -0.012417f, 
0.006398f, -0.009984f, 0.010322f, 0.003179f, 0.022377f, 0.017755f, 0.003563f, 0.018306f, 
0.013953f, 0.016630f, -0.007974f, 0.004406f, -0.001543f, 0.008312f, 0.010533f, 0.009197f, 
0.017850f, -0.006752f, 0.007673f, 0.016538f, 0.002050f, -0.002814f, 0.002113f, 0.001149f, 
0.000713f, -0.001460f, -0.014039f, 0.010557f, -0.001950f, 0.007571f, -0.006399f, 0.013967f, 
-0.001096f, 0.014240f, 0.010401f, -0.002878f, -0.001887f, 0.016229f, -0.014087f, -0.009284f, 
-0.002641f, -0.000811f, -0.011875f, -0.001374f, 0.013701f, -0.002526f, 0.011832f, 0.017006f, 
0.008779f, -0.000909f, 0.019501f, 0.019292f, -0.009218f, -0.011125f, 0.007384f, -0.004731f, 
0.015064f, 0.016991f, 0.005425f, -0.008003f, 0.001620f, 0.013829f, 0.001733f, -0.006253f, 
0.002123f, 0.016727f, 0.002131f, -0.012173f, 0.014382f, 0.006987f, -0.007105f, 0.012015f, 
-0.000190f, -0.006244f, 0.003876f, -0.001976f, 0.005550f, 0.014366f, -0.005588f, 0.017923f, 
0.008989f, 0.009144f, 0.003072f, -0.005393f, -0.013889f, 0.020149f, 0.000703f, -0.005200f, 
0.016572f, 0.016932f, 0.006660f, 0.010546f, -0.008456f, 0.009591f, -0.005979f, -0.011069f, 
0.007750f, 0.006931f, 0.011019f, 0.000656f, 0.004688f, 0.001427f, -0.009308f, 0.008834f, 
0.009700f, -0.007760f, 0.005031f, -0.004144f, 0.019782f, 0.019860f, 0.014569f, 0.003553f, 
0.001056f, 0.017179f, 0.020491f, 0.009992f, 0.016341f, 0.015507f, -0.002908f, -0.008788f, 
0.003875f, 0.006049f, 0.020468f, 0.020309f, -0.008868f, -0.018199f, 0.006122f, -0.009448f, 
-0.011054f, 0.012412f, 0.011454f, 0.004480f, 0.004354f, 0.002096f, -0.000397f, 0.010251f, 
0.006948f, 0.012281f, 0.004742f, 0.002491f, 0.019015f, -0.002919f, 0.001209f, -0.006917f, 
0.019870f, 0.023904f, 0.022029f, 0.009531f, 0.022640f, 0.002082f, -0.008256f, -0.010891f, 
-0.013777f, 0.011552f, -0.016280f, 0.009377f, -0.003551f, -0.011125f, 0.014283f, 0.001578f, 
-0.006224f, -0.013970f, 0.015753f, 0.013107f, -0.005186f, -0.001260f, 0.006705f, 0.009881f, 
0.001298f, 0.019100f, 0.022762f, 0.001927f, 0.007080f, -0.007156f, -0.006855f, 0.007509f, 
-0.002244f, 0.019365f, 0.003162f, 0.002081f, 0.019720f, -0.008407f, 0.000818f, 0.002595f, 
-0.019659f, -0.014453f, -0.016927f, 0.000110f, -0.006717f, -0.000726f, -0.008218f, 0.007172f, 
-0.007853f, 0.000057f, -0.006478f, -0.003983f, 0.019154f, 0.014618f, 0.007481f, 0.001078f, 
0.006522f, -0.000916f, -0.001991f, -0.000458f, 0.023148f, -0.010274f, 0.011763f, 0.016221f, 
0.000626f, -0.001987f, 0.020935f, 0.004548f, -0.014324f, 0.008994f, -0.009674f, 0.012888f, 
-0.016876f, -0.014980f, -0.015995f, -0.010322f, 0.001576f, -0.014711f, 0.012782f, 0.012517f, 
-0.015415f, 0.009404f, -0.008134f, -0.002946f, 0.006836f, 0.001227f, 0.001769f, -0.010142f, 
-0.005024f, -0.003496f, -0.004533f, 0.005580f, 0.009691f, -0.010124f, -0.001527f, -0.000858f, 
0.002996f, 0.006667f, -0.006674f, 0.001048f, -0.013615f, -0.003485f, -0.011978f, 0.009453f, 
0.005345f, 0.014025f, -0.006643f, -0.013807f, 0.011069f, -0.005531f, 0.001656f, -0.000799f, 
0.004998f, -0.011252f, -0.014434f, -0.001919f, -0.004518f, 0.009208f, 0.019674f, 0.016269f, 
0.003890f, 0.010542f, 0.009146f, 0.005403f, 0.017575f, -0.016702f, 0.005498f, -0.014325f, 
0.009102f, -0.001769f, 0.004331f, -0.020263f, 0.001620f, 0.003404f, -0.010129f, -0.011853f, 
0.017242f, 0.002032f, 0.009408f, -0.016476f, 0.015934f, 0.005955f, -0.002291f, 0.005052f, 
0.004424f, 0.013416f, -0.007156f, 0.002421f, 0.001926f, -0.005013f, 0.013880f, -0.009381f, 
0.001857f, 0.015540f, -0.000283f, 0.005102f, 0.001138f, -0.002206f, 0.001792f, 0.001262f, 
-0.001471f, -0.004394f, -0.002608f, 0.003423f, 0.003309f, 0.001022f, 0.000443f, -0.015804f, 
0.017174f, -0.005049f, 0.012620f, 0.001527f, -0.017078f, -0.002518f, 0.010603f, 0.006077f, 
-0.009378f, 0.013827f, -0.006816f, 0.008610f, 0.009305f, 0.012354f, -0.010877f, -0.002938f, 
0.006503f, -0.005614f, -0.010630f, -0.017752f, -0.026147f, -0.024085f, -0.011260f, -0.013003f, 
-0.004089f, -0.011774f, -0.008383f, 0.016407f, -0.007758f, 0.007107f, -0.000484f, -0.000804f, 
-0.018469f, 0.001653f, -0.007768f, -0.006703f, 0.003627f, 0.008113f, -0.001423f, -0.006572f, 
-0.012417f, 0.003140f, -0.013959f, 0.016559f, 0.012217f, -0.014666f, 0.005737f, -0.005088f, 
-0.010431f, -0.021408f, -0.032405f, -0.017743f, -0.013794f, -0.022703f, 0.010422f, 0.003563f, 
-0.001602f, 0.012562f, 0.009081f, 0.006180f, 0.002655f, -0.006448f, -0.010004f, -0.005295f, 
0.013752f, -0.011537f, -0.011078f, 0.001039f, 0.004751f, 0.009600f, 0.000206f, 0.010834f, 
0.005762f, 0.013153f, -0.001043f, -0.008918f, -0.022124f, -0.031107f, -0.033080f, -0.030153f, 
-0.011915f, -0.025781f, -0.005529f, -0.007534f, 0.006438f, -0.011278f, 0.004960f, -0.006181f, 
-0.012209f, 0.012712f, -0.001527f, -0.014174f, 0.010625f, -0.007436f, -0.001267f, -0.011233f, 
0.008039f, 0.000266f, -0.015568f, -0.009972f, 0.013063f, 0.009922f, -0.017649f, 0.010608f, 
0.001698f, -0.000700f, -0.023152f, -0.035767f, -0.021656f, -0.033562f, -0.028670f, -0.015171f, 
-0.017142f, -0.013699f, -0.010565f, -0.002035f, 0.022445f, -0.004765f, 0.005211f, 0.001181f, 
0.012045f, -0.004347f, -0.005579f, -0.005726f, -0.009485f, 0.000628f, 0.014257f, 0.012676f, 
0.006903f, -0.013834f, -0.009940f, -0.004092f, -0.009506f, -0.001974f, 0.002902f, -0.009982f, 
-0.006637f, -0.035935f, -0.021729f, -0.021727f, -0.023850f, -0.020379f, -0.025096f, -0.003175f, 
-0.000999f, 0.019827f, 0.018946f, 0.003414f, 0.006976f, 0.007478f, 0.002018f, 0.005167f, 
-0.011358f, 0.018340f, 0.017516f, 0.004491f, 0.006080f, 0.005288f, -0.020339f, 0.003047f, 
-0.010205f, 0.003497f, 0.003710f, -0.009796f, -0.022232f, -0.039773f, -0.022319f, -0.009604f, 
-0.022051f, -0.001413f, 0.005031f, -0.011789f, 0.012555f, -0.010192f, 0.010575f, 0.014201f, 
0.000189f, 0.020647f, -0.018375f, 0.012236f, -0.011780f, 0.016237f, 0.003184f, -0.007774f, 
-0.006469f, 0.005989f, -0.015290f, 0.015593f, -0.008610f, -0.003045f, -0.016326f, -0.012751f, 
-0.022980f, 0.004610f, -0.012437f, -0.013692f, 0.004113f, 0.003133f, -0.007476f, -0.007173f, 
-0.016547f, 0.013721f, 0.013285f, 0.010062f, 0.004229f, -0.005531f, 0.018415f, 0.000559f, 
0.003075f, 0.007491f, -0.000751f, -0.001082f, 0.012236f, -0.013565f, -0.008751f, 0.002796f, 
0.018062f, -0.006306f, 0.012943f, 0.003018f, 0.001486f, -0.010917f, 0.001679f, 0.000299f, 
-0.001003f, 0.004258f, -0.014987f, 0.006466f, 0.007394f, -0.003767f, -0.002243f, 0.001279f, 
0.002764f, 0.011292f, 0.001741f, -0.000751f, -0.016340f, 0.001157f, 0.005098f, -0.003053f, 
-0.012598f, 0.004611f, 0.001992f, -0.000355f, 0.013094f, -0.011718f, 0.003771f, 0.001993f, 
-0.019092f, 0.009709f, -0.001783f, -0.009380f, -0.016746f, 0.002061f, 0.002101f, 0.004119f, 
0.002562f, -0.018174f, -0.000138f, -0.004290f, 0.012004f, -0.010206f, -0.010622f, 0.009150f, 
0.000593f, -0.016243f, 0.008932f, -0.007555f, 0.011171f, 0.017581f, 0.007641f, 0.006508f, 
0.017595f, -0.007138f, -0.005280f, 0.013438f, -0.016124f, -0.005072f, 0.009094f, -0.014778f, 
0.010809f, -0.000053f, 0.016693f, -0.004335f, 0.001031f, 0.011705f, -0.014106f, -0.002393f, 
-0.002233f, 0.011463f, 0.015142f, 0.006591f, 0.008646f, -0.008796f, -0.007716f, -0.006834f, 
0.001148f, -0.002610f, 0.019426f, 0.000669f, 0.018244f, 0.005429f, -0.002735f, 0.005601f, 
0.016360f, -0.005188f, 0.010723f, -0.011909f, 0.004306f, -0.000406f, -0.016073f, 0.002287f, 
0.011620f, 0.000526f, -0.007773f, 0.005824f, -0.014680f, 0.004898f, -0.007416f, 0.019507f, 
0.002036f, -0.007055f, 0.011853f, -0.006919f, -0.012215f, -0.004459f, 0.017366f, 0.008026f, 
0.014520f, 0.000591f, 0.011138f, 0.004847f, 0.005676f, 0.016254f, -0.014842f, -0.006378f, 
0.014519f, 0.006295f, -0.017156f, -0.015593f, 0.008196f, -0.010668f, -0.006058f, -0.008228f, 
0.014721f, 0.014717f, 0.002371f, 0.014788f, 0.017568f, 0.000255f, 0.014154f, 0.009385f, 
-0.011935f, -0.012572f, 0.005586f, 0.000244f, -0.002865f, 0.014449f, -0.005412f, 0.008648f, 
-0.010521f, 0.005552f, -0.010657f, -0.004841f, 0.019104f, -0.014698f, 0.001681f, 0.001524f, 
0.011786f, -0.015745f, 0.013382f, 0.012905f, 0.007941f, 0.010460f, 0.007703f, -0.007631f, 
0.016461f, 0.012616f, -0.005801f, 0.017269f, -0.007512f, -0.012447f, 0.005740f, 0.011986f, 
0.014762f, 0.001514f, 0.022947f, 0.010598f, -0.007309f, 0.010219f, 0.001562f, 0.007284f, 
-0.004141f, 0.011166f, 0.012429f, -0.011565f, -0.005105f, 0.007157f, 0.001300f, 0.015650f, 
0.002021f, 0.004387f, 0.018777f, -0.011807f, -0.008978f, -0.006158f, 0.010872f, -0.000257f, 
0.014442f, -0.007869f, -0.007441f, 0.009664f, 0.002622f, 0.014841f, 0.023404f, -0.009377f, 
0.015657f, 0.003276f, 0.003023f, 0.013834f, 0.018096f, 0.007607f, 0.005926f, -0.001497f, 
-0.004170f, 0.003060f, -0.001768f, -0.005631f, -0.013864f, 0.000257f, 0.017245f, -0.007726f, 
-0.000549f, 0.007941f, 0.022272f, -0.006271f, 0.020715f, 0.010351f, 0.006229f, 0.006716f, 
-0.007580f, 0.004503f, 0.006714f, -0.008934f, 0.009834f, -0.006033f, -0.003835f, 0.020705f, 
-0.001134f, 0.010808f, 0.015444f, 0.007467f, 0.013924f, 0.023392f, -0.001653f, 0.003105f, 
0.014196f, 0.014844f, 0.019527f, 0.003057f, 0.011391f, 0.003211f, 0.021017f, 0.015898f, 
0.010584f, 0.011274f, 0.020363f, -0.002367f, 0.007196f, 0.022083f, -0.004029f, 0.006818f, 
0.003672f, 0.018755f, -0.002153f, 0.012564f, 0.008677f, 0.013764f, 0.003926f, -0.002506f, 
0.004041f, 0.000610f, -0.004389f, 0.024746f, -0.003594f, -0.006041f, -0.008298f, -0.004687f, 
0.012207f, -0.005049f, 0.005705f, 0.005995f, 0.002512f, 0.006582f, -0.007595f, 0.001048f, 
0.022684f, -0.011508f, 0.013684f, 0.003393f, 0.009008f, 0.023907f, -0.004968f, 0.021245f, 
0.003365f, 0.015425f, 0.001256f, -0.000832f, 0.018829f, -0.004589f, 0.016028f, 0.017389f, 
0.019149f, 0.007303f, 0.025402f, 0.014587f, 0.018261f, 0.016228f, 0.020777f, -0.006382f, 
-0.002686f, 0.004976f, 0.000754f, -0.009772f, -0.013162f, -0.014603f, -0.001297f, -0.004073f, 
0.011549f, 0.010491f, 0.001470f, 0.018937f, -0.000470f, 0.017097f, 0.021226f, -0.008819f, 
-0.011793f, -0.004641f, 0.008185f, 0.014520f, 0.009483f, 0.013094f, 0.009554f, 0.026592f, 
0.026151f, 0.003394f, -0.000731f, 0.007123f, 0.015412f, 0.018720f, 0.008092f, 0.007765f, 
-0.015225f, -0.015939f, -0.010814f, 0.015849f, -0.001168f, 0.020328f, 0.006643f, 0.010028f, 
0.007810f, 0.007745f, -0.000365f, -0.001274f, -0.005705f, 0.018536f, 0.003672f, 0.017672f, 
0.010838f, -0.007657f, -0.008238f, 0.014254f, 0.007051f, -0.002835f, -0.000486f, -0.002669f, 
0.009070f, 0.008474f, -0.003728f, -0.001634f, 0.018699f, -0.005340f, 0.008430f, -0.002350f, 
0.003492f, 0.011204f, -0.003174f, 0.005066f, 0.008570f, 0.010236f, 0.016917f, 0.010873f, 
-0.006457f, 0.007511f, -0.002390f, 0.020084f, 0.011422f, -0.015653f, -0.019353f, -0.012163f, 
0.018620f, -0.001093f, 0.004496f, 0.010249f, 0.024614f, 0.021867f, 0.006444f, 0.010580f, 
0.009747f, -0.010283f, -0.004429f, 0.006095f, 0.020172f, -0.000530f, -0.006558f, -0.010379f, 
0.007662f, 0.021008f, 0.026939f, -0.007816f, -0.005680f, 0.004219f, -0.005668f, 0.005582f, 
0.001919f, -0.019876f, 0.012024f, 0.004746f, 0.009955f, 0.005998f, 0.014516f, 0.020047f, 
0.027395f, 0.019016f, 0.002618f, 0.010428f, 0.006322f, 0.014682f, -0.005672f, 0.013633f, 
0.017112f, 0.002262f, 0.014727f, -0.014893f, 0.004602f, 0.023617f, 0.025966f, 0.012296f, 
0.011751f, -0.005831f, 0.025065f, -0.011513f, -0.004713f, -0.018045f, -0.014700f, -0.012220f, 
0.013944f, -0.014005f, -0.010000f, -0.003424f, 0.025498f, 0.002157f, 0.027587f, 0.020036f, 
0.012825f, 0.000825f, 0.027860f, 0.012677f, -0.001042f, 0.013907f, 0.016740f, 0.021893f, 
0.001861f, 0.008996f, 0.015434f, 0.017130f, 0.021971f, -0.005341f, 0.021488f, 0.008653f, 
-0.006253f, -0.011463f, 0.005245f, 0.006412f, -0.008211f, -0.018427f, 0.009879f, -0.014986f, 
0.013719f, -0.014970f, 0.010315f, 0.010089f, 0.003717f, 0.033864f, 0.025245f, 0.018470f, 
-0.005630f, -0.003697f, 0.011350f, -0.009615f, 0.006295f, -0.001954f, 0.009922f, 0.004986f, 
-0.000577f, 0.020588f, 0.002306f, 0.017591f, 0.012060f, -0.010364f, -0.001600f, -0.016348f, 
0.010467f, -0.015827f, 0.015570f, -0.006443f, 0.019976f, 0.008782f, 0.000351f, -0.014871f, 
0.012645f, 0.021236f, 0.014367f, 0.010908f, -0.005115f, 0.010065f, -0.006595f, 0.007630f, 
0.015112f, 0.021363f, -0.004089f, 0.021667f, 0.023111f, 0.001196f, 0.016754f, 0.002611f, 
0.007127f, -0.008444f, 0.001395f, 0.017773f, -0.007925f, -0.016219f, -0.016801f, -0.007840f, 
-0.002456f, -0.001254f, -0.001718f, 0.016968f, -0.003034f, 0.008066f, -0.004735f, -0.009706f, 
0.006249f, 0.005721f, 0.003065f, 0.006012f, -0.004892f, 0.009012f, 0.000961f, -0.003496f, 
0.008244f, 0.002344f, 0.008572f, 0.007896f, 0.023153f, -0.003311f, -0.007381f, 0.023783f, 
-0.005716f, 0.012700f, -0.013022f, 0.011239f, 0.008598f, -0.019042f, -0.004957f, 0.017872f, 
0.020296f, -0.000330f, 0.000210f, -0.003751f, -0.017214f, 0.005777f, -0.001446f, 0.015488f, 
0.009281f, 0.001430f, 0.019503f, 0.012694f, 0.018477f, 0.004530f, 0.023957f, 0.020800f, 
-0.011019f, 0.017148f, 0.013441f, 0.002617f, -0.007904f, -0.008041f, 0.012751f, 0.009093f, 
0.010732f, -0.012772f, -0.022831f, -0.013195f, 0.007028f, -0.004072f, 0.002282f, 0.004141f, 
0.021936f, 0.003024f, -0.006797f, -0.017195f, 0.008089f, -0.004335f, 0.026438f, 0.015657f, 
0.018879f, -0.001891f, 0.008193f, -0.000570f, 0.000462f, 0.002553f, 0.011054f, 0.003262f, 
0.017806f, 0.014910f, 0.008696f, -0.001000f, -0.017705f, -0.016527f, -0.001375f, 0.007016f, 
-0.003665f, -0.016946f, 0.010021f, -0.016272f, 0.004506f, -0.004493f, -0.003160f, 0.019427f, 
-0.015973f, -0.010666f, -0.013513f, -0.010377f, -0.005206f, 0.017207f, 0.006090f, -0.008408f, 
-0.008074f, 0.017445f, 0.010738f, 0.013924f, 0.012009f, -0.009362f, 0.003483f, 0.011062f, 
-0.004646f, 0.005247f, -0.007337f, 0.010868f, 0.002457f, 0.001329f, -0.007047f, -0.015563f, 
-0.002027f, 0.015813f, 0.012210f, -0.003827f, 0.021537f, 0.006856f, -0.015118f, 0.002966f, 
-0.000121f, -0.000449f, 0.009948f, -0.014456f, 0.008765f, -0.002877f, -0.006949f, 0.010095f, 
-0.010900f, 0.014845f, 0.010387f, -0.017434f, -0.004809f, 0.006327f, 0.015870f, -0.007177f, 
-0.014137f, -0.019114f, 0.001107f, -0.012536f, -0.016945f, -0.017575f, 0.005861f, 0.000832f, 
-0.001440f, 0.009833f, -0.015481f, -0.000220f, 0.005026f, 0.003827f, 0.000234f, 0.014695f, 
-0.002192f, -0.002360f, -0.013759f, 0.011422f, 0.010008f, 0.018159f, 0.016830f, 0.002838f, 
-0.004322f, 0.008372f, -0.005247f, -0.012467f, 0.011938f, 0.014329f, -0.004678f, -0.002761f, 
0.000245f, -0.010208f, 0.025651f, 0.023244f, 0.015140f, -0.006096f, 0.015168f, -0.001199f, 
-0.002840f, 0.023349f, 0.022198f, -0.017413f, 0.011115f, -0.014491f, -0.012451f, -0.002420f, 
0.000854f, -0.001295f, -0.004025f, 0.009997f, -0.002872f, -0.001127f, 0.009605f, 0.011526f, 
0.008829f, -0.002357f, -0.018543f, -0.011385f, -0.029489f, -0.017684f, -0.004727f, -0.004162f, 
-0.002055f, -0.011863f, -0.008449f, 0.000936f, 0.025175f, 0.018377f, 0.020809f, 0.011836f, 
-0.017155f, 0.013074f, -0.005616f, -0.013830f, -0.013123f, -0.008814f, -0.014547f, 0.001419f, 
-0.012898f, -0.005698f, -0.007772f, -0.004448f, 0.008719f, 0.006753f, 0.002880f, -0.029624f, 
-0.027589f, -0.025111f, -0.047695f, -0.018534f, -0.032287f, -0.020206f, -0.007470f, -0.004212f, 
-0.004135f, 0.003646f, -0.000364f, 0.006237f, 0.005411f, 0.000686f, -0.003677f, -0.007815f, 
-0.010485f, -0.008508f, -0.007351f, 0.002302f, -0.001650f, -0.004445f, -0.003790f, -0.017019f, 
0.007042f, -0.009471f, -0.015019f, -0.043054f, -0.025164f, -0.035261f, -0.046724f, -0.048562f, 
-0.019708f, -0.008211f, -0.014564f, -0.002300f, 0.012797f, 0.020107f, 0.008379f, 0.011526f, 
0.000427f, -0.009513f, -0.008738f, -0.010274f, -0.010109f, -0.012266f, -0.007386f, -0.005462f, 
-0.015476f, -0.013674f, -0.021251f, 0.000638f, 0.006127f, -0.005723f, -0.013226f, -0.030778f, 
-0.008711f, -0.036496f, -0.037409f, -0.041107f, -0.039293f, -0.010325f, 0.004803f, -0.018859f, 
-0.012319f, -0.009654f, 0.012747f, 0.014333f, 0.014766f, -0.003933f, -0.001472f, -0.000440f, 
-0.012696f, -0.011505f, 0.013163f, -0.001188f, -0.004381f, -0.002014f, -0.003725f, -0.013253f, 
0.008184f, -0.004841f, -0.015592f, 0.004699f, -0.022315f, -0.027743f, -0.023643f, -0.008454f, 
-0.032712f, 0.010122f, 0.000052f, 0.008349f, 0.007411f, 0.002302f, 0.000507f, 0.006072f, 
0.021291f, 0.019446f, 0.002882f, 0.007822f, 0.013662f, 0.007217f, -0.018934f, 0.007595f, 
-0.005131f, 0.003968f, -0.001265f, -0.001830f, 0.016041f, 0.013813f, -0.020574f, -0.026450f, 
-0.008689f, -0.022222f, -0.007111f, -0.004483f, 0.002609f, 0.006108f, 0.026330f, -0.006025f, 
0.006257f, 0.002219f, -0.005079f, 0.013314f, 0.004117f, 0.000893f, -0.007352f, -0.010322f, 
-0.005893f, 0.000588f, -0.019970f, -0.003047f, -0.016745f, -0.006649f, 0.008021f, 0.010207f, 
0.003472f, -0.005163f, -0.001285f, -0.010462f, 0.008282f, -0.015421f, 0.013050f, 0.009908f, 
0.024519f, -0.006448f, -0.002984f, -0.001233f, -0.010153f, -0.004816f, 0.007058f, 0.017292f, 
-0.013448f, -0.004636f, 0.018830f, 0.003977f, 0.015740f, 0.024303f, 0.027098f, -0.014038f, 
0.007688f, 0.006897f, 0.008243f, 0.005014f, 0.006649f, 0.002688f, -0.011532f, 0.005122f, 
0.011923f, 0.017471f, -0.009652f, -0.015134f, 0.010455f, 0.024367f, 0.006979f, 0.029468f, 
-0.002709f, -0.013255f, 0.011482f, -0.008678f, 0.013797f, 0.012733f, -0.007639f, 0.011834f, 
0.023526f, 0.001610f, -0.005967f, 0.029939f, -0.012172f, -0.001172f, 0.015468f, -0.007913f, 
0.017712f, -0.009454f, 0.016853f, 0.008526f, 0.021619f, 0.026825f, 0.006811f, 0.005782f, 
0.002489f, 0.000763f, -0.012312f, 0.007631f, 0.022105f, 0.021331f, 0.007769f, 0.022593f, 
-0.007975f, 0.016276f, -0.005496f, 0.013953f, -0.003385f, 0.007339f, -0.006188f, 0.014181f, 
0.012773f, 0.006464f, 0.004980f, 0.003405f, -0.012287f, -0.005241f, 0.017736f, -0.012637f, 
-0.012109f, 0.024110f, -0.009895f, -0.018068f, -0.016004f, -0.014551f, 0.007517f, -0.013461f, 
0.008242f, 0.018899f, -0.011689f, 0.011572f, 0.022874f, 0.022193f, 0.011972f, 0.002084f, 
0.014731f, 0.019767f, 0.002480f, 0.011660f, 0.022985f, 0.013748f, 0.005254f, 0.000174f, 
-0.010692f, -0.004475f, 0.026625f, 0.024939f, 0.012656f, -0.012312f, 0.004374f, 0.012939f, 
0.008318f, -0.008263f, -0.009700f, -0.013968f, -0.008697f, 0.015686f, 0.009280f, -0.010197f, 
0.000143f, -0.001711f, 0.003805f, -0.000640f, 0.003207f, -0.007333f, 0.003312f, 0.014138f, 
0.016464f, -0.003496f, 0.017865f, -0.004014f, -0.014050f, 0.016278f, -0.007263f, -0.009281f, 
0.016379f, -0.016388f, 0.015633f, -0.000854f, -0.007471f, -0.000599f, 0.012970f, -0.004812f, 
0.007600f, 0.004202f, 0.002194f, 0.011271f, -0.021593f, -0.021777f, 0.009765f, 0.017124f, 
0.009605f, 0.018183f, -0.000292f, 0.004490f, -0.008637f, -0.008268f, 0.006382f, 0.011922f, 
-0.010209f, 0.003266f, -0.007327f, 0.002623f, 0.009739f, 0.003258f, 0.007512f, -0.009652f, 
-0.005989f, 0.010640f, -0.000987f, 0.012603f, -0.010640f, 0.005088f, 0.003726f, 0.017884f, 
0.015498f, 0.000586f, 0.002225f, -0.000267f, 0.005136f, -0.008315f, -0.003958f, -0.004461f, 
-0.013848f, 0.013923f, -0.004304f, 0.002426f, 0.026389f, 0.016470f, -0.003086f, 0.018901f, 
-0.010159f, -0.005728f, 0.008895f, 0.002196f, 0.000770f, 0.015008f, 0.007804f, 0.004947f, 
0.017165f, -0.012125f, 0.006547f, -0.003776f, 0.020194f, 0.010011f, 0.002163f, 0.011749f, 
0.000852f, 0.023119f, 0.014751f, 0.014852f, -0.006429f, -0.009703f, -0.003797f, 0.023403f, 
0.012846f, 0.026148f, -0.048739f, -0.000826f, -0.005936f, 0.009580f, 0.014168f, 0.010859f, 
0.014779f, 0.017184f, 0.004398f, -0.022691f, 0.008828f, -0.008737f, -0.015891f, -0.011883f, 
-0.012646f, -0.014999f, -0.003263f, -0.006786f, -0.009145f, -0.019327f, -0.033453f, -0.006963f, 
0.001219f, -0.018299f, -0.032946f, -0.026662f, -0.020639f, -0.034306f, -0.045933f, 0.021478f, 
0.038673f, 0.006806f, -0.019230f, -0.005193f, 0.033368f, 0.004016f, -0.005883f, -0.015207f, 
-0.003617f, -0.015907f, -0.012308f, -0.023307f, 0.000363f, 0.002220f, -0.000381f, 0.016331f, 
0.007927f, 0.004453f, -0.013900f, -0.023325f, -0.035757f, 0.005345f, -0.010950f, -0.015067f, 
-0.028647f, -0.019138f, -0.017301f, -0.022767f, 0.031402f, -0.002283f, 0.011161f, -0.014290f, 
-0.006963f, 0.028397f, 0.002476f, -0.013574f, -0.004209f, 0.006166f, -0.007940f, -0.021738f, 
-0.015943f, -0.018427f, -0.007860f, -0.009104f, 0.014563f, -0.007986f, -0.013049f, 0.007917f, 
0.001286f, -0.029673f, -0.014023f, -0.006106f, -0.007682f, -0.017562f, -0.032754f, -0.012322f, 
-0.006375f, -0.007500f, -0.010709f, 0.014449f, 0.016058f, -0.001165f, 0.004156f, -0.010629f, 
0.004579f, -0.011805f, 0.007645f, -0.026392f, -0.001918f, -0.036964f, -0.021631f, 0.001019f, 
0.023548f, 0.013940f, 0.010378f, -0.001736f, 0.004694f, 0.006423f, -0.005091f, 0.004346f, 
-0.001443f, -0.027872f, -0.001048f, -0.004667f, 0.005723f, -0.030342f, -0.011146f, 0.010562f, 
0.017850f, 0.016701f, -0.005383f, -0.000831f, -0.002955f, 0.007931f, -0.010512f, 0.008594f, 
-0.009124f, -0.009879f, -0.017139f, 0.016574f, -0.006433f, 0.007313f, 0.013641f, 0.037881f, 
0.006501f, 0.015488f, 0.017614f, -0.022774f, 0.005768f, -0.017625f, -0.027140f, -0.031496f, 
-0.037511f, 0.005685f, -0.011902f, 0.002159f, 0.004273f, 0.029656f, 0.009800f, -0.026868f, 
-0.023927f, -0.010380f, 0.018829f, -0.026385f, 0.010255f, 0.000759f, -0.003970f, -0.011520f, 
0.026958f, 0.006750f, 0.016001f, 0.012239f, -0.008343f, 0.032735f, 0.010127f, -0.008527f, 
-0.022769f, -0.032327f, -0.012556f, -0.008496f, -0.014642f, -0.021343f, -0.011457f, -0.018436f, 
0.030336f, -0.007723f, 0.025712f, 0.010412f, 0.018327f, -0.016268f, 0.007552f, 0.007495f, 
-0.006989f, 0.015625f, -0.019746f, 0.034439f, 0.008302f, 0.006984f, 0.015693f, 0.001795f, 
0.020634f, -0.017059f, 0.011039f, -0.002345f, 0.021014f, -0.006017f, -0.039705f, -0.012946f, 
-0.040470f, -0.018511f, -0.021248f, -0.021765f, -0.012000f, 0.022177f, 0.004066f, -0.011900f, 
-0.020038f, -0.017613f, 0.005003f, -0.001361f, 0.006805f, 0.013269f, 0.010785f, -0.022333f, 
-0.014049f, -0.014555f, 0.028515f, 0.015254f, 0.012703f, 0.010399f, 0.002985f, -0.027147f, 
0.003513f, 0.017414f, 0.027300f, 0.023886f, -0.024217f, -0.007931f, -0.011732f, -0.016426f, 
-0.036457f, -0.008050f, 0.004035f, 0.020531f, -0.012571f, 0.005481f, 0.009455f, -0.008097f, 
-0.009072f, -0.006848f, 0.027503f, -0.014976f, -0.013916f, -0.039525f, -0.000303f, 0.013252f, 
-0.002539f, -0.026995f, 0.020314f, 0.009403f, 0.008006f, 0.018900f, -0.015682f, 0.020270f, 
0.014716f, -0.014903f, -0.002274f, -0.045083f, -0.035892f, -0.013152f, -0.008786f, 0.000236f, 
0.002935f, 0.001714f, 0.004775f, -0.008273f, -0.014813f, 0.003226f, 0.008313f, 0.001351f, 
0.026830f, -0.011959f, -0.008862f, -0.011721f, -0.025930f, -0.008926f, -0.023726f, 0.008011f, 
0.013812f, -0.009426f, 0.030340f, -0.012664f, 0.005684f, 0.016497f, -0.002890f, -0.000983f, 
-0.022738f, 0.005593f, -0.034335f, -0.027859f, 0.014389f, 0.022913f, -0.004925f, -0.007597f, 
0.020554f, 0.003594f, -0.007211f, 0.015206f, 0.019705f, -0.017142f, -0.001249f, -0.006203f, 
0.009096f, -0.004115f, -0.029726f, -0.024280f, -0.006850f, 0.011042f, 0.008039f, 0.021718f, 
0.013714f, -0.016801f, 0.014792f, -0.002697f, -0.027689f, -0.019349f, 0.009011f, -0.045090f, 
-0.043854f, 0.009308f, 0.001068f, -0.003977f, -0.016698f, 0.009566f, 0.002121f, 0.015287f, 
0.001299f, 0.012016f, -0.010705f, 0.008039f, -0.022788f, -0.023123f, -0.009817f, -0.050318f, 
-0.020579f, 0.019861f, -0.020026f, -0.016503f, 0.003163f, 0.007261f, 0.010401f, -0.007479f, 
-0.022852f, -0.046342f, -0.038233f, -0.013362f, -0.002942f, -0.042588f, 0.018641f, -0.009133f, 
-0.014079f, 0.021235f, -0.001928f, 0.004609f, 0.011676f, -0.028716f, -0.007213f, 0.002436f, 
-0.012815f, -0.025025f, -0.049465f, -0.015298f, -0.057063f, -0.053711f, -0.018246f, -0.036682f, 
-0.032645f, 0.008868f, 0.021371f, -0.001340f, -0.042678f, -0.040980f, -0.019811f, -0.047124f, 
-0.036021f, -0.007529f, -0.027608f, -0.009338f, -0.006185f, 0.001347f, 0.014659f, 0.014549f, 
0.020486f, 0.013703f, 0.015895f, -0.020414f, -0.006439f, 0.019596f, 0.007688f, -0.038236f, 
-0.041099f, -0.081273f, -0.062852f, -0.015272f, -0.033247f, -0.039823f, -0.010595f, -0.007841f, 
-0.038168f, -0.036733f, -0.040126f, -0.016441f, -0.003752f, -0.004852f, -0.043673f, -0.016593f, 
-0.012882f, -0.002676f, 0.021795f, 0.018846f, 0.006669f, 0.023888f, 0.013124f, 0.002228f, 
-0.015222f, -0.023023f, -0.000242f, 0.000847f, -0.024381f, -0.038918f, -0.053209f, -0.086939f, 
-0.060890f, -0.027303f, -0.057609f, -0.044741f, -0.001747f, -0.059468f, -0.058540f, -0.018174f, 
-0.021521f, -0.029308f, -0.011007f, -0.035471f, -0.051792f, 0.012468f, -0.008936f, -0.010231f, 
0.026238f, 0.012778f, -0.007769f, 0.016126f, 0.003072f, 0.002069f, -0.019096f, -0.029102f, 
-0.069262f, -0.043213f, -0.076211f, -0.067663f, -0.060687f, -0.042851f, -0.013969f, -0.024297f, 
-0.063986f, -0.039883f, -0.019254f, -0.005084f, -0.013643f, -0.000537f, -0.023461f, -0.010237f, 
-0.031454f, -0.028300f, 0.031379f, 0.008349f, 0.027709f, 0.016023f, 0.021636f, 0.008658f, 
0.009100f, 0.002245f, -0.018756f, -0.028288f, -0.031644f, -0.051196f, -0.069712f, -0.103644f, 
-0.057451f, -0.034504f, -0.018186f, -0.014232f, -0.002937f, -0.018427f, 0.022871f, 0.028062f, 
0.023012f, -0.010877f, -0.008752f, -0.035651f, -0.016469f, 0.010755f, -0.027660f, 0.014563f, 
0.036597f, 0.049213f, 0.026576f, 0.038350f, 0.008466f, 0.013161f, 0.025531f, -0.011876f, 
-0.010855f, -0.041949f, -0.065055f, -0.037131f, -0.046774f, -0.054091f, -0.047781f, -0.009960f, 
0.018762f, -0.000123f, -0.009175f, 0.000428f, 0.036870f, -0.011975f, -0.030033f, -0.010435f, 
-0.038469f, -0.031403f, 0.003841f, -0.003913f, 0.040401f, 0.031070f, 0.041278f, 0.016288f, 
0.028237f, 0.028130f, 0.006863f, 0.017076f, -0.007580f, 0.001674f, -0.024905f, -0.050290f, 
-0.056603f, -0.035306f, -0.046820f, -0.048754f, 0.004868f, -0.037985f, -0.008545f, -0.002226f, 
0.032241f, 0.041892f, 0.025533f, -0.025548f, -0.006231f, -0.021029f, -0.026167f, -0.017195f, 
-0.020162f, 0.034613f, 0.039466f, 0.057071f, 0.038410f, -0.002602f, 0.005040f, 0.001344f, 
-0.012069f, -0.004839f, 0.013177f, -0.040824f, -0.063156f, -0.009325f, -0.025927f, -0.022583f, 
-0.034664f, -0.017333f, -0.029040f, -0.010240f, -0.023498f, -0.033585f, 0.017421f, -0.022870f, 
-0.023174f, -0.020860f, -0.001338f, -0.020892f, -0.003051f, -0.052542f, 0.027321f, 0.035531f, 
0.052838f, 0.040441f, -0.000191f, 0.005020f, -0.010381f, -0.009340f, -0.013491f, -0.036350f, 
-0.057473f, -0.038913f, -0.006085f, -0.038368f, -0.056355f, -0.060051f, -0.044414f, -0.043574f, 
-0.065228f, -0.064284f, -0.028480f, -0.031212f, 0.001092f, 0.010871f, -0.005031f, 0.011921f, 
-0.015077f, 0.025688f, -0.008310f, 0.035919f, 0.018656f, 0.023989f, 0.052488f, 0.014437f, 
-0.010438f, 0.026837f, -0.010052f, 0.041675f, -0.001935f, -0.014440f, -0.035952f, -0.043790f, 
-0.036557f, -0.038384f, -0.058793f, -0.055565f, -0.053152f, -0.060238f, -0.048489f, -0.020122f, 
-0.015886f, 0.011563f, -0.028150f, -0.024330f, -0.009900f, -0.002410f, 0.024810f, -0.008287f, 
0.058423f, 0.020688f, 0.020154f, 0.029866f, -0.007649f, -0.000399f, -0.017595f, 0.009119f, 
-0.017488f, 0.004637f, -0.029096f, -0.038682f, -0.054617f, -0.038717f, -0.038232f, -0.044590f, 
-0.049464f, -0.070284f, -0.060195f, -0.042930f, -0.043348f, 0.004211f, -0.004694f, 0.007797f, 
-0.017598f, -0.040204f, -0.015691f, -0.016753f, -0.023967f, 0.039335f, 0.031683f, 0.017481f, 
0.022905f, 0.006327f, -0.014739f, 0.001603f, 0.010503f, 0.014353f, -0.038243f, -0.044496f, 
-0.031031f, -0.069839f, -0.012331f, -0.026686f, -0.041666f, -0.041086f, -0.056371f, -0.022815f, 
-0.045452f, -0.030653f, -0.041309f, -0.020265f, -0.043310f, -0.027284f, -0.009256f, -0.006418f, 
-0.014348f, -0.022321f, 0.040021f, 0.033696f, 0.013444f, 0.002343f, 0.001702f, -0.003421f, 
0.032739f, 0.006440f, 0.012334f, -0.001662f, -0.005959f, -0.039203f, -0.048997f, -0.035229f, 
-0.009464f, -0.011283f, -0.033983f, -0.024113f, -0.023523f, -0.035504f, -0.023822f, -0.039315f, 
-0.032675f, -0.033234f, -0.047789f, 0.000423f, 0.009211f, 0.022335f, -0.007157f, 0.026370f, 
0.016144f, 0.016866f, -0.003530f, 0.006001f, -0.036156f, -0.011791f, -0.023727f, -0.005204f, 
-0.005681f, -0.014705f, -0.006670f, -0.015103f, -0.033554f, 0.018343f, -0.022131f, -0.031011f, 
-0.015148f, 0.018521f, 0.003628f, -0.031805f, -0.007570f, -0.005074f, -0.025493f, -0.045996f, 
-0.009102f, -0.022953f, -0.026180f, -0.015302f, 0.025927f, 0.030392f, 0.021446f, 0.029519f, 
0.001981f, -0.009243f, -0.002761f, -0.003334f, -0.022486f, 0.019893f, 0.009904f, -0.000859f, 
0.005787f, -0.017335f, 0.026742f, 0.003262f, -0.008707f, -0.031467f, 0.024066f, 0.007805f, 
0.017733f, -0.007992f, -0.006531f, -0.008439f, -0.009069f, -0.016904f, -0.006440f, -0.002735f, 
-0.020581f, 0.039937f, 0.032445f, 0.007763f, 0.004535f, 0.023702f, 0.037932f, -0.001443f, 
-0.001894f, 0.002734f, 0.026264f, 0.006433f, 0.025321f, 0.002599f, 0.006514f, -0.012614f, 
0.011458f, -0.012359f, -0.030713f, -0.020047f, 0.006335f, -0.020140f, -0.026170f, -0.012889f, 
0.014290f, -0.001482f, 0.008556f, -0.015593f, 0.002713f, 0.005818f, 0.043005f, 0.060435f, 
0.009894f, 0.012937f, 0.029375f, 0.035672f, 0.020793f, 0.007128f, 0.000315f, 0.011258f, 
0.019188f, 0.020230f, -0.012047f, -0.005520f, 0.004039f, -0.023598f, -0.019163f, 0.021715f, 
-0.007864f, -0.014001f, -0.021098f, 0.006542f, -0.001597f, 0.002207f, -0.019641f, -0.004665f, 
-0.027473f, -0.016080f, -0.035858f, 0.001564f, -0.005716f, -0.001767f, -0.016242f, 0.010139f, 
-0.001838f, -0.004751f, -0.002028f, -0.004998f, 0.001137f, -0.004278f, 0.003577f, 0.006438f, 
0.014557f, -0.014346f, -0.009273f, -0.017090f, -0.021018f, 0.006481f, -0.018056f, -0.005877f, 
0.002337f, 0.002696f, -0.014617f, 0.003053f, -0.007173f, -0.000876f, -0.013250f, 0.003856f, 
-0.005584f, 0.007605f, -0.006902f, -0.020148f, -0.000052f, -0.013500f, 0.005296f, -0.009952f, 
0.005891f, 0.008546f, -0.017839f, -0.011922f, -0.005973f, 0.000708f, 0.011313f, -0.008593f, 
0.002106f, -0.012173f, -0.023232f, -0.007628f, -0.026870f, -0.023880f, -0.020196f, -0.008566f, 
-0.001541f, -0.014468f, -0.018880f, -0.013933f, 0.005036f, 0.009669f, -0.022287f, -0.020259f, 
0.001083f, 0.001327f, -0.001264f, -0.008169f, 0.004758f, -0.019485f, -0.000468f, -0.004222f, 
-0.013285f, -0.001221f, -0.002809f, 0.015523f, 0.015991f, -0.001100f, 0.012970f, -0.015887f, 
-0.008845f, -0.017375f, -0.001916f, -0.017320f, -0.025270f, -0.025222f, -0.022599f, -0.006652f, 
-0.022817f, -0.011393f, 0.009040f, 0.007688f, -0.020768f, -0.015196f, -0.022288f, -0.000327f, 
0.002795f, 0.005730f, 0.011023f, -0.009489f, 0.015641f, 0.013166f, -0.000640f, -0.002741f, 
0.004059f, -0.001979f, 0.007129f, -0.001327f, -0.020843f, 0.004029f, 0.005810f, 0.005279f, 
0.000991f, -0.000797f, -0.002616f, -0.003029f, -0.000042f, -0.002042f, -0.010084f, 0.009402f, 
-0.009977f, -0.021432f, 0.005641f, -0.004618f, -0.011268f, 0.006396f, -0.001179f, -0.013282f, 
0.001834f, -0.002201f, 0.003057f, 0.006006f, -0.008119f, -0.006684f, 0.017211f, -0.004365f, 
-0.001311f, -0.007165f, -0.019722f, -0.023721f, -0.012874f, -0.013643f, 0.001615f, -0.023185f, 
0.006773f, 0.007223f, -0.013572f, -0.008790f, -0.007853f, -0.022666f, -0.014609f, -0.011986f, 
-0.002973f, -0.016659f, 0.002223f, 0.010483f, 0.007838f, 0.002415f, -0.011872f, -0.002659f, 
0.002477f, 0.007163f, -0.009315f, 0.005008f, 0.007623f, -0.007788f, -0.007897f, 0.003175f, 
-0.006231f, -0.012007f, -0.023193f, -0.014420f, -0.004889f, -0.014858f, -0.024659f, -0.021182f, 
-0.017369f, 0.001105f, -0.012843f, -0.014005f, -0.007980f, -0.003288f, -0.001976f, -0.005298f, 
-0.010076f, 0.011815f, -0.011589f, 0.002244f, -0.004474f, -0.011973f, 0.015256f, 0.001698f, 
-0.012393f, -0.006293f, 0.008773f, -0.001335f, 0.012515f, 0.010989f, -0.021170f, -0.013642f, 
-0.001972f, 0.001711f, -0.004165f, 0.008123f, -0.002974f, -0.005887f, -0.014055f, -0.017245f, 
-0.014682f, -0.018949f, 0.003428f, 0.002891f, 0.004587f, 0.011852f, -0.001099f, -0.013229f, 
0.005021f, 0.016987f, -0.002213f, -0.007357f, 0.017490f, -0.004684f, -0.011336f, -0.001288f, 
-0.001398f, 0.002890f, -0.000099f, 0.012980f, -0.014324f, -0.021045f, 0.005279f, -0.008050f, 
-0.010444f, 0.003863f, -0.018404f, 0.006222f, 0.001547f, 0.004923f, -0.006593f, -0.002095f, 
-0.008462f, -0.018503f, -0.018615f, 0.012709f, -0.007672f, -0.001250f, 0.012870f, -0.009498f, 
-0.011877f, -0.004174f, -0.008775f, 0.010571f, -0.001268f, -0.009739f, 0.008656f, -0.011234f, 
-0.004953f, -0.018935f, -0.005844f, -0.004087f, -0.018917f, -0.020835f, -0.022342f, -0.007292f, 
-0.006896f, 0.012593f, -0.018782f, -0.011311f, 0.004623f, -0.002188f, 0.014194f, -0.015241f, 
-0.007104f, 0.012664f, 0.013237f, 0.003078f, 0.006026f, 0.008273f, 0.018293f, 0.018391f, 
-0.003749f, 0.012800f, 0.016925f, -0.011715f, -0.001220f, 0.013606f, 0.011556f, -0.012189f, 
-0.006834f, -0.014849f, 0.000891f, 0.006647f, -0.014637f, -0.007848f, 0.002154f, 0.008789f, 
0.007261f, -0.010518f, -0.005875f, 0.000761f, 0.010356f, 0.013509f, 0.012346f, 0.001130f, 
-0.003170f, -0.015651f, 0.017776f, 0.016579f, 0.011222f, 0.009946f, 0.012527f, 0.003196f, 
0.013217f, -0.012068f, 0.010379f, 0.004879f, 0.009297f, -0.017272f, -0.019947f, -0.003473f, 
-0.011336f, 0.002465f, -0.012712f, -0.016905f, -0.015055f, 0.010216f, -0.005473f, -0.020120f, 
0.013708f, -0.015900f, -0.013467f, -0.004444f, 0.015004f, -0.006260f, 0.004424f, -0.009455f, 
-0.007834f, 0.011744f, 0.007923f, 0.005861f, 0.004704f, 0.001144f, -0.010211f, 0.006347f, 
-0.014691f, -0.002066f, 0.006122f, -0.009562f, 0.009515f, -0.011272f, 0.006636f, 0.016404f, 
0.016859f, 0.003457f, -0.005520f, 0.003647f, -0.015020f, -0.018259f, -0.003762f, 0.009589f, 
-0.002705f, 0.003206f, 0.000248f, -0.011118f, 0.004117f, 0.025927f, 0.013647f, 0.007615f, 
0.025829f, -0.000270f, 0.020013f, 0.009693f, 0.000523f, 0.011221f, 0.006030f, -0.018445f, 
-0.009869f, -0.012233f, 0.014481f, 0.014986f, 0.009999f, 0.014360f, -0.003726f, 0.014368f, 
0.014739f, -0.002093f, 0.005862f, -0.015087f, 0.012057f, 0.007945f, 0.014740f, -0.002199f, 
0.020179f, 0.021012f, 0.022947f, 0.011537f, 0.012879f, 0.007225f, 0.028817f, 0.021614f, 
-0.005813f, 0.012665f, -0.013961f, 0.003776f, -0.005319f, -0.008561f, -0.010391f, 0.009637f, 
0.005343f, 0.018632f, -0.005084f, -0.007853f, 0.012714f, 0.014062f, 0.000276f, -0.016821f, 
-0.016395f, -0.014763f, 0.014795f, 0.016917f, 0.007967f, -0.004509f, 0.017716f, 0.006198f, 
0.029939f, 0.018413f, 0.025096f, 0.022477f, 0.005439f, 0.023364f, 0.018260f, -0.000195f, 
0.009909f, -0.008607f, 0.003034f, -0.011749f, -0.020459f, 0.000474f, 0.000352f, 0.006177f, 
0.002779f, 0.005995f, 0.016472f, 0.004308f, -0.002588f, 0.007961f, 0.016254f, 0.004276f, 
0.017691f, 0.015902f, 0.021580f, 0.012508f, 0.027708f, 0.019297f, 0.027535f, 0.032559f, 
0.002118f, 0.000692f, 0.030739f, -0.003644f, 0.007368f, -0.001576f, -0.002362f, 0.006316f, 
-0.001179f, -0.006803f, -0.013834f, -0.010589f, -0.007555f, -0.001878f, 0.009382f, 0.005303f, 
0.016849f, 0.013336f, -0.016729f, 0.004508f, -0.011328f, -0.006286f, -0.009868f, 0.005364f, 
0.033270f, 0.011885f, 0.038724f, 0.034134f, 0.021262f, -0.001417f, 0.020523f, 0.024418f, 
0.017120f, 0.003712f, 0.007854f, 0.005542f, 0.006786f, -0.008362f, -0.008841f, 0.004810f, 
0.004620f, -0.014353f, -0.005323f, -0.013248f, -0.016683f, 0.001759f, -0.005093f, -0.002909f, 
-0.014955f, 0.003892f, 0.004678f, 0.019590f, 0.014679f, 0.005068f, 0.003875f, 0.028751f, 
0.021176f, 0.010342f, 0.001824f, 0.009821f, 0.008855f, 0.013699f, 0.000410f, -0.019227f, 
-0.010217f, 0.009473f, -0.023848f, -0.006725f, -0.009977f, -0.007035f, -0.000093f, 0.009671f, 
-0.009200f, -0.011719f, 0.013453f, 0.003123f, -0.015910f, 0.014594f, -0.004011f, -0.015613f, 
-0.006003f, 0.002495f, -0.001595f, 0.003188f, 0.007711f, 0.014053f, 0.021455f, -0.007801f, 
-0.000387f, 0.012908f, 0.016143f, -0.008778f, 0.000770f, -0.008552f, -0.007136f, -0.004041f, 
-0.021320f, -0.015809f, -0.015760f, -0.015688f, -0.001345f, -0.017885f, -0.003785f, -0.013556f, 
-0.004998f, -0.016996f, -0.008778f, 0.000345f, 0.008098f, -0.003924f, -0.004222f, 0.004733f, 
0.016010f, 0.009114f, -0.000563f, -0.006189f, 0.002924f, -0.001967f, -0.005656f, 0.000569f, 
-0.014604f, -0.017556f, 0.001953f, -0.012881f, 0.008374f, -0.012009f, 0.006078f, 0.001842f, 
0.006813f, -0.012263f, 0.006519f, -0.010462f, -0.006253f, -0.006063f, -0.018985f, -0.006230f, 
-0.015379f, -0.000674f, 0.012110f, 0.005172f, -0.009581f, -0.017485f, -0.011790f, -0.011494f, 
0.004087f, 0.007309f, -0.015899f, -0.000256f, -0.017906f, -0.005015f, 0.007989f, -0.005238f, 
-0.001565f, 0.007915f, -0.019755f, -0.011559f, -0.004005f, -0.014302f, 0.011135f, -0.013062f, 
-0.021527f, -0.003463f, 0.004419f, -0.003409f, -0.009973f, -0.011852f, -0.017448f, 0.004890f, 
-0.001767f, 0.013937f, 0.002016f, -0.008202f, -0.017103f, 0.003956f, -0.001531f, 0.011463f, 
0.000936f, 0.005195f, 0.009775f, -0.007113f, -0.006780f, 0.002239f, -0.011059f, 0.001338f, 
0.003286f, -0.018979f, 0.010787f, -0.021799f, -0.002431f, -0.014839f, -0.011014f, 0.002804f, 
0.000963f, 0.001659f, -0.017195f, -0.011549f, -0.005170f, -0.013607f, -0.005312f, 0.011570f, 
0.005966f, 0.009683f, -0.014299f, -0.015212f, -0.014019f, -0.021189f, -0.003065f, -0.010558f, 
-0.009030f, -0.010072f, -0.001030f, -0.011028f, -0.004746f, -0.010467f, 0.014136f, -0.007876f, 
-0.002979f, -0.016375f, 0.004063f, -0.004572f, 0.004206f, -0.005249f, -0.003117f, -0.003431f, 
-0.014026f, -0.004640f, -0.017161f, 0.018318f, -0.012128f, -0.001302f, 0.009767f, 0.009207f, 
-0.007484f, 0.009157f, -0.020131f, -0.019966f, -0.020906f, -0.018280f, -0.021999f, -0.003108f, 
-0.011619f, -0.009951f, -0.025746f, -0.006165f, -0.009102f, -0.010842f, -0.009524f, -0.008065f, 
0.004551f, 0.007647f, -0.006771f, -0.001930f, 0.006681f, 0.003236f, -0.001612f, -0.014848f, 
0.002679f, -0.010155f, -0.013528f, -0.007093f, -0.002083f, -0.003381f, -0.009207f, 0.003016f, 
0.010791f, -0.009673f, -0.019627f, 0.010220f, -0.009671f, 0.006076f, -0.004042f, 0.005135f, 
-0.009135f, -0.003701f, -0.019809f, 0.000229f, -0.018608f, -0.021119f, -0.008946f, -0.008575f, 
-0.007634f, -0.015980f, 0.005352f, 0.002216f, -0.014533f, -0.013931f, 0.004829f, -0.020083f, 
0.013438f, 0.012711f, -0.010501f, -0.010531f, -0.001397f, -0.012372f, 0.006119f, -0.009921f, 
-0.015214f, 0.002950f, -0.013737f, -0.008995f, 0.000041f, 0.009120f, 0.008883f, -0.003304f, 
0.007484f, 0.005234f, -0.020274f, -0.007737f, -0.016361f, -0.007848f, -0.014155f, 0.009412f, 
0.006677f, -0.013027f, 0.004270f, -0.005734f, -0.007244f, 0.003038f, -0.016739f, 0.002731f, 
0.005921f, 0.008212f, -0.023590f, -0.018918f, -0.003000f, -0.001970f, -0.018841f, -0.021528f, 
0.004455f, -0.011298f, -0.007983f, -0.006981f, -0.021022f, 0.003054f, -0.004529f, -0.004724f, 
-0.011418f, 0.004716f, -0.009463f, 0.003435f, -0.017017f, -0.007382f, -0.000115f, -0.008391f, 
-0.024356f, -0.023739f, -0.020509f, -0.016175f, -0.005557f, -0.022225f, -0.020490f, -0.000489f, 
-0.011164f, -0.025915f, -0.005792f, -0.023670f, -0.008382f, 0.001733f, 0.006102f, -0.016435f, 
0.005438f, -0.026026f, 0.001937f, -0.011223f, -0.005368f, -0.024213f, -0.008958f, 0.006233f, 
-0.025489f, -0.020739f, -0.000024f, -0.019609f, -0.000886f, -0.000259f, -0.000701f, -0.025274f, 
-0.020000f, -0.018315f, 0.004642f, -0.021144f, -0.004495f, -0.008077f, -0.021514f, 0.002134f, 
-0.024974f, -0.018524f, -0.014433f, -0.004348f, -0.047560f, -0.103970f, -0.067315f, -0.039703f, 
-0.065478f, -0.052320f, -0.006976f, -0.020144f, -0.036152f, -0.012833f, -0.029632f, -0.038662f, 
-0.000850f, 0.033534f, 0.015653f, 0.012644f, 0.001757f, -0.019428f, 0.009808f, -0.000197f, 
0.007391f, 0.007779f, -0.005647f, 0.006170f, -0.035001f, -0.008883f, -0.045769f, -0.027981f, 
-0.009774f, -0.086519f, -0.083395f, -0.024385f, 0.008967f, -0.055218f, -0.040993f, -0.022324f, 
-0.007136f, -0.023890f, -0.008303f, -0.004848f, -0.010686f, -0.019838f, 0.016590f, 0.043500f, 
-0.021407f, -0.029552f, -0.030946f, -0.001627f, 0.004354f, -0.005150f, 0.005722f, -0.024207f, 
-0.012780f, -0.005676f, 0.001053f, -0.014853f, -0.030065f, -0.039930f, -0.071371f, -0.040235f, 
-0.017046f, -0.040835f, -0.040179f, 0.018150f, 0.012672f, -0.015313f, -0.001408f, -0.020363f, 
-0.010951f, 0.018729f, 0.038204f, -0.013151f, -0.001715f, 0.026135f, -0.001351f, -0.050130f, 
-0.034603f, -0.027566f, -0.001505f, 0.016296f, 0.002466f, -0.027228f, -0.022217f, 0.007942f, 
-0.018314f, -0.022754f, -0.032934f, -0.045957f, -0.010455f, -0.052924f, -0.047007f, 0.015248f, 
0.015744f, -0.000437f, -0.006780f, -0.007665f, 0.017280f, 0.007042f, 0.013585f, 0.026518f, 
0.028299f, -0.000551f, -0.005370f, -0.018886f, 0.013532f, -0.037513f, 0.006075f, -0.016394f, 
-0.002798f, 0.003679f, -0.004083f, -0.026156f, 0.017437f, -0.035303f, -0.014388f, -0.032196f, 
-0.055005f, -0.049469f, -0.030260f, 0.000070f, -0.018727f, 0.040240f, 0.004372f, -0.005486f, 
0.008822f, 0.018284f, 0.030076f, 0.049181f, 0.009085f, 0.022645f, -0.002075f, 0.010309f, 
-0.018080f, -0.027699f, 0.027465f, -0.020018f, -0.015702f, -0.029081f, -0.007023f, -0.000855f, 
0.000453f, 0.012449f, -0.009422f, -0.028133f, -0.028421f, -0.042682f, -0.033975f, -0.023648f, 
0.021226f, 0.026948f, 0.020542f, 0.012718f, 0.003234f, -0.012582f, 0.010273f, -0.005074f, 
0.031443f, -0.010998f, -0.054969f, -0.010283f, -0.007020f, 0.024274f, -0.032572f, 0.003596f, 
0.014507f, 0.012440f, -0.007640f, -0.024686f, -0.021234f, -0.008410f, 0.013405f, -0.015238f, 
0.003920f, 0.000961f, -0.001463f, -0.024056f, 0.017974f, 0.004462f, 0.022896f, 0.034388f, 
0.014193f, 0.023722f, -0.000156f, -0.015443f, -0.002053f, -0.009938f, 0.020791f, 0.005338f, 
0.001625f, 0.011735f, -0.029500f, -0.032015f, -0.031977f, -0.008405f, -0.000621f, 0.013338f, 
0.017754f, -0.000439f, -0.009696f, -0.025630f, -0.032003f, 0.002536f, 0.000358f, -0.000329f, 
0.016585f, 0.024407f, 0.019890f, 0.028555f, 0.005358f, 0.010375f, 0.008114f, -0.031147f, 
-0.034499f, 0.035317f, 0.037564f, 0.004522f, 0.017596f, -0.014421f, 0.008260f, -0.013983f, 
-0.042732f, -0.035432f, -0.031212f, -0.028014f, -0.026600f, 0.007695f, 0.022744f, -0.028143f, 
-0.039965f, -0.008966f, -0.003549f, -0.016496f, 0.018230f, 0.006849f, 0.013046f, 0.033422f, 
0.021670f, 0.016771f, 0.006915f, 0.027678f, 0.012169f, 0.020644f, 0.050288f, 0.056954f, 
0.003995f, -0.001557f, 0.003971f, -0.006173f, -0.036329f, -0.054439f, -0.004060f, -0.018584f, 
-0.029960f, -0.017141f, -0.043319f, -0.011918f, 0.033634f, -0.010465f, -0.004967f, -0.016945f, 
0.021365f, 0.041438f, 0.022120f, 0.013114f, 0.040426f, 0.019274f, -0.005623f, 0.004442f, 
0.004673f, 0.006047f, 0.022920f, 0.006312f, 0.034234f, 0.003484f, -0.013646f, 0.009278f, 
-0.006302f, -0.034391f, -0.046121f, -0.005769f, 0.011390f, -0.040405f, -0.021974f, -0.016345f, 
-0.011146f, 0.000667f, -0.003685f, -0.022957f, -0.020417f, -0.018009f, -0.022436f, 0.037744f, 
0.054875f, 0.024715f, 0.021173f, 0.022493f, 0.013395f, 0.006352f, 0.003834f, 0.026647f, 
0.018197f, -0.039871f, 0.017614f, -0.021550f, -0.008643f, -0.001642f, -0.009999f, -0.067254f, 
-0.036676f, -0.031694f, -0.080435f, -0.063385f, -0.032336f, -0.013992f, -0.040789f, -0.037355f, 
0.025468f, -0.003626f, -0.014450f, -0.000618f, 0.050865f, 0.039778f, 0.017931f, 0.021703f, 
0.019395f, 0.018213f, 0.013547f, 0.032124f, 0.046901f, 0.019321f, -0.031801f, 0.004467f, 
-0.020981f, 0.005987f, -0.000513f, -0.046288f, -0.057033f, -0.030130f, -0.030877f, -0.076289f, 
-0.075408f, -0.012659f, -0.004549f, -0.007948f, -0.013796f, -0.034518f, -0.012052f, -0.021777f, 
0.046022f, 0.039174f, 0.040725f, -0.010775f, 0.012861f, 0.014386f, 0.018499f, 0.013140f, 
0.009788f, -0.013605f, 0.003261f, -0.009797f, -0.022872f, 0.007785f, -0.011209f, 0.019933f, 
-0.033828f, -0.058842f, -0.016701f, -0.082004f, -0.070645f, -0.038691f, -0.017993f, -0.009545f, 
-0.007799f, 0.000630f, -0.061163f, -0.043961f, -0.059630f, 0.049425f, 0.019562f, 0.001286f, 
0.027397f, 0.017016f, 0.030612f, 0.006072f, 0.005863f, -0.016401f, 0.001801f, -0.014788f, 
-0.021332f, -0.028129f, 0.021276f, 0.014350f, -0.012352f, -0.016843f, -0.042647f, -0.059666f, 
-0.085961f, -0.050599f, 0.008311f, -0.023670f, -0.066774f, -0.074943f, -0.032052f, -0.021880f, 
0.000026f, -0.033055f, 0.020552f, 0.024774f, -0.000269f, 0.009040f, 0.029779f, 0.033458f, 
0.030803f, 0.002816f, 0.021380f, 0.005465f, -0.032196f, -0.019424f, -0.022216f, 0.023484f, 
0.060021f, 0.003118f, -0.016293f, -0.073633f, -0.085292f, -0.044584f, -0.032948f, -0.050895f, 
-0.061962f, -0.079121f, -0.060569f, 0.006409f, -0.010135f, 0.041374f, -0.003862f, 0.012703f, 
0.012420f, -0.000303f, 0.024831f, 0.033495f, 0.008253f, 0.002360f, 0.014036f, 0.006501f, 
0.010632f, 0.026362f, 0.017210f, 0.003488f, 0.002188f, -0.008108f, -0.032618f, -0.069928f, 
-0.088018f, -0.099142f, -0.053935f, -0.072092f, -0.094785f, -0.096970f, -0.066968f, -0.033762f, 
-0.006105f, -0.019205f, 0.001350f, -0.025758f, -0.002754f, -0.015267f, -0.005304f, -0.017315f, 
0.010468f, -0.000381f, 0.033213f, -0.004540f, 0.001992f, -0.031108f, -0.017829f, -0.033492f, 
-0.020475f, -0.009043f, -0.077843f, -0.117438f, -0.105540f, -0.121145f, -0.102366f, -0.095169f, 
-0.076692f, -0.097052f, -0.087556f, -0.064706f, -0.045652f, -0.030556f, -0.030546f, -0.006523f, 
-0.043685f, -0.003872f, -0.013905f, -0.026232f, -0.044696f, -0.007946f, -0.015671f, 0.015832f, 
-0.010482f, 0.000808f, -0.030729f, -0.035910f, -0.034886f, -0.084348f, -0.085470f, -0.113681f, 
-0.098653f, -0.128106f, -0.105234f, -0.132622f, -0.105886f, -0.078338f, -0.072898f, -0.064224f, 
-0.030185f, -0.034080f, 0.000352f, -0.016286f, -0.007191f, 0.002574f, -0.009391f, 0.003450f, 
-0.034005f, 0.003203f, -0.000028f, -0.000490f, 0.004111f, -0.020577f, -0.024734f, -0.027017f, 
-0.043598f, -0.016798f, -0.057231f, -0.093939f, -0.113926f, -0.108086f, -0.104489f, -0.118455f, 
-0.086347f, -0.087589f, -0.073951f, -0.037900f, -0.048519f, -0.062849f, -0.033639f, -0.027726f, 
-0.031993f, -0.024909f, -0.032273f, -0.034579f, -0.032442f, -0.008423f, 0.006064f, 0.022872f, 
0.026543f, -0.006220f, -0.045041f, -0.043575f, -0.060453f, -0.057506f, -0.088613f, -0.087137f, 
-0.118174f, -0.134499f, -0.134361f, -0.142241f, -0.121868f, -0.086517f, -0.027101f, -0.067286f, 
-0.060835f, -0.063126f, -0.070457f, -0.046416f, -0.035325f, -0.017957f, -0.041846f, -0.031748f, 
-0.021033f, -0.047910f, -0.020543f, -0.006964f, 0.038881f, 0.030221f, 0.022379f, -0.034891f, 
-0.045789f, -0.066972f, -0.064712f, -0.068258f, -0.066964f, -0.076253f, -0.057405f, -0.087013f, 
-0.056941f, -0.065181f, -0.036087f, -0.028409f, -0.018969f, -0.041360f, -0.065155f, -0.031708f, 
-0.055402f, -0.051383f, -0.018515f, -0.033888f, -0.033103f, -0.041670f, -0.020602f, -0.028653f, 
0.007960f, 0.005383f, -0.019316f, -0.035538f, -0.091238f, -0.092076f, -0.056565f, 0.000273f, 
-0.054196f, -0.036215f, -0.062560f, -0.020785f, -0.045722f, -0.047506f, -0.014034f, -0.027591f, 
-0.030723f, -0.053848f, -0.034707f, -0.026398f, -0.036612f, -0.034498f, -0.027130f, -0.022155f, 
-0.013497f, -0.003167f, -0.043546f, -0.016745f, -0.013191f, 0.010892f, -0.004027f, -0.010978f, 
0.014293f, -0.015006f, -0.017865f, -0.007334f, 0.038378f, -0.037359f, -0.048766f, -0.011666f, 
-0.002506f, -0.025061f, -0.004194f, -0.020959f, -0.016446f, -0.036963f, -0.058255f, -0.030868f, 
-0.032032f, -0.034258f, 0.000298f, 0.002895f, 0.014008f, -0.016170f, -0.033670f, -0.021915f, 
-0.030897f, -0.019016f, -0.011326f, -0.009951f, 0.004542f, 0.001529f, -0.007716f, -0.005895f, 
0.038052f, 0.009817f, -0.016009f, -0.028838f, -0.001250f, 0.001016f, -0.021098f, -0.020729f, 
-0.005493f, -0.000480f, -0.044838f, -0.016189f, -0.013619f, -0.044389f, -0.017411f, -0.011693f, 
-0.000923f, -0.005514f, -0.043852f, -0.027337f, -0.013687f, 0.001178f, 0.005632f, -0.038085f, 
0.001445f, -0.009785f, -0.008468f, -0.030241f, 0.021709f, 0.005434f, -0.011328f, -0.008516f, 
-0.018913f, 0.010727f, -0.026698f, -0.032817f, -0.015932f, -0.003219f, -0.003679f, -0.053798f, 
-0.028344f, -0.016798f, -0.002152f, -0.009274f, -0.013986f, -0.034135f, -0.037984f, -0.049045f, 
-0.016405f, -0.034635f, -0.010120f, -0.002910f, -0.025820f, 0.026594f, 0.034769f, 0.006073f, 
-0.041616f, -0.007153f, -0.014472f, -0.049735f, -0.042284f, -0.026459f, -0.021922f, -0.051385f, 
-0.058292f, -0.011417f, -0.036875f, -0.045232f, -0.056617f, -0.036638f, 0.011861f, 0.002594f, 
-0.008522f, 0.021179f, -0.010083f, -0.018965f, -0.030847f, -0.013774f, -0.009833f, -0.023539f, 
0.005142f, -0.000226f, 0.022666f, 0.004180f, -0.020510f, -0.007505f, -0.009873f, -0.018485f, 
-0.059211f, -0.041605f, -0.009271f, -0.040916f, -0.044608f, -0.019002f, -0.000802f, -0.051490f, 
-0.059162f, -0.042167f, -0.017160f, -0.012104f, -0.011729f, -0.012701f, -0.000604f, -0.009643f, 
-0.018622f, -0.012988f, 0.022482f, -0.010373f, -0.019871f, 0.003290f, 0.001006f, 0.006184f, 
-0.003763f, -0.003137f, 0.020895f, -0.012746f, -0.057384f, -0.038612f, -0.035691f, -0.022125f, 
-0.041607f, -0.026062f, -0.020709f, -0.023150f, -0.006335f, -0.016083f, 0.008046f, -0.014325f, 
-0.025585f, -0.030821f, -0.021711f, -0.005911f, -0.020252f, -0.005691f, -0.034116f, 0.000528f, 
-0.029382f, -0.007573f, -0.024935f, 0.008805f, -0.012803f, -0.046027f, -0.012688f, 0.010779f, 
-0.013400f, -0.055525f, -0.000464f, -0.026564f, -0.016053f, -0.014966f, -0.009564f, -0.018515f, 
-0.000186f, -0.009903f, -0.021279f, 0.004055f, -0.002462f, 0.013136f, -0.022893f, -0.022365f, 
-0.012784f, -0.019778f, -0.000669f, 0.015756f, -0.012995f, -0.077986f, -0.118564f, -0.086641f, 
-0.061771f, -0.057962f, -0.009807f, -0.041680f, -0.029956f, -0.007519f, 0.013510f, -0.023666f, 
-0.030983f, 0.008184f, -0.009284f, 0.013061f, -0.003362f, -0.049362f, -0.028302f, -0.014604f, 
-0.006810f, 0.010821f, 0.011157f, 0.012549f, 0.030824f, -0.008075f, -0.026509f, -0.047757f, 
-0.024026f, 0.006680f, -0.089827f, -0.115027f, -0.078961f, -0.079860f, -0.052710f, -0.024967f, 
-0.033402f, -0.029445f, -0.010976f, 0.008353f, -0.003711f, 0.033729f, 0.014813f, 0.037454f, 
0.017560f, 0.004068f, -0.036638f, -0.054586f, -0.024120f, -0.033386f, -0.007486f, 0.033372f, 
-0.000192f, -0.010232f, 0.009819f, -0.001282f, -0.027232f, -0.036232f, -0.026777f, -0.108497f, 
-0.090016f, -0.071175f, -0.076315f, -0.016262f, -0.017771f, -0.000308f, -0.004967f, 0.003552f, 
-0.002356f, 0.001561f, 0.046597f, 0.033590f, 0.033325f, 0.004064f, -0.024522f, -0.021033f, 
-0.032225f, -0.045373f, -0.022049f, -0.026468f, 0.010303f, 0.017675f, 0.012847f, 0.017691f, 
0.028361f, -0.008257f, -0.008597f, -0.003584f, -0.073902f, -0.085361f, -0.071331f, -0.058179f, 
-0.014166f, 0.005884f, -0.023231f, -0.017340f, 0.003584f, 0.035098f, 0.012522f, 0.025107f, 
0.033530f, 0.033941f, 0.028173f, -0.031536f, -0.043468f, -0.064778f, -0.004016f, -0.055310f, 
-0.029119f, 0.022619f, -0.004612f, -0.004898f, 0.024320f, 0.005938f, -0.003891f, -0.050937f, 
0.016280f, -0.109669f, -0.050440f, -0.090842f, -0.052022f, -0.008604f, 0.022756f, 0.011891f, 
-0.020641f, 0.024280f, 0.006784f, 0.022732f, 0.055001f, 0.017245f, 0.002507f, 0.039921f, 
0.002188f, -0.074062f, -0.067864f, -0.060852f, -0.030385f, -0.006567f, -0.033534f, -0.023355f, 
-0.017974f, 0.033304f, 0.030570f, -0.010824f, 0.010429f, 0.020947f, -0.047026f, -0.089968f, 
-0.074364f, -0.048429f, 0.025828f, 0.048034f, -0.004789f, -0.010844f, -0.004668f, 0.007628f, 
0.028426f, 0.027981f, 0.033301f, 0.021552f, 0.022021f, 0.012463f, -0.001351f, -0.034082f, 
-0.059827f, -0.019244f, -0.009351f, 0.011092f, -0.030585f, -0.016440f, -0.007046f, 0.006430f, 
-0.001412f, 0.004880f, 0.018403f, -0.061579f, -0.073829f, 0.009303f, -0.006018f, 0.035584f, 
0.060731f, 0.026209f, -0.001314f, -0.022502f, -0.010092f, 0.062351f, 0.066314f, -0.001049f, 
0.009058f, 0.014550f, 0.015470f, -0.011832f, -0.023669f, -0.022103f, -0.058180f, -0.020081f, 
-0.040757f, -0.032549f, -0.006597f, -0.015234f, 0.005553f, 0.006410f, 0.026725f, 0.023533f, 
-0.080662f, -0.039528f, 0.033618f, 0.026293f, 0.015995f, 0.046207f, 0.042731f, 0.011201f, 
-0.027481f, -0.016127f, 0.047563f, 0.079215f, 0.023901f, -0.017934f, 0.023021f, 0.011575f, 
-0.006751f, -0.039040f, -0.011274f, -0.009142f, -0.048451f, -0.050675f, -0.035944f, -0.041160f, 
0.009787f, -0.003047f, -0.000783f, 0.033610f, -0.014140f, -0.027569f, -0.038782f, 0.001330f, 
0.036858f, 0.022334f, 0.036389f, 0.021174f, 0.007555f, -0.018860f, -0.008888f, 0.025881f, 
0.056061f, 0.023190f, 0.005567f, 0.038900f, 0.020961f, -0.019318f, -0.038175f, -0.006214f, 
-0.006457f, -0.015911f, -0.010080f, -0.029525f, -0.022876f, -0.018902f, 0.004576f, -0.007922f, 
0.004621f, -0.022344f, -0.080663f, -0.023734f, 0.046534f, 0.059631f, 0.039956f, 0.020944f, 
0.025200f, 0.026492f, 0.007372f, 0.019250f, 0.024877f, 0.015486f, 0.029751f, 0.035289f, 
0.001203f, 0.010212f, -0.033686f, -0.054786f, -0.062714f, -0.024228f, -0.029537f, -0.033132f, 
0.006094f, 0.008298f, -0.030722f, -0.015542f, 0.006564f, -0.000536f, -0.009472f, -0.023137f, 
-0.009503f, 0.035524f, 0.025146f, 0.013792f, 0.027247f, 0.003538f, 0.016784f, 0.035616f, 
0.024860f, 0.031035f, -0.004585f, 0.011597f, 0.044570f, 0.016198f, -0.010299f, -0.048454f, 
-0.050976f, -0.030881f, -0.058932f, -0.045625f, -0.048161f, 0.009376f, 0.006589f, 0.005936f, 
0.006837f, -0.006943f, 0.009131f, -0.015936f, -0.021801f, -0.007862f, 0.025671f, 0.015448f, 
0.021860f, 0.015554f, 0.024553f, -0.011510f, 0.022583f, 0.014383f, 0.006524f, -0.008831f, 
-0.011898f, 0.013923f, 0.017405f, 0.000404f, -0.073691f, -0.046867f, -0.035566f, -0.065191f, 
-0.080957f, -0.027757f, -0.017655f, -0.003421f, 0.032081f, 0.011108f, -0.023816f, -0.013405f, 
-0.023707f, 0.029312f, 0.032710f, 0.007125f, -0.007287f, -0.003723f, 0.033512f, 0.017754f, 
0.002040f, 0.028124f, 0.023718f, 0.005130f, 0.009747f, -0.017659f, 0.007851f, 0.026723f, 
-0.025502f, -0.045290f, -0.064998f, -0.061951f, -0.083010f, -0.076746f, -0.040721f, -0.035745f, 
-0.025438f, -0.036688f, 0.022069f, 0.003897f, 0.003601f, -0.027650f, 0.003878f, 0.010790f, 
0.006817f, -0.014257f, 0.029811f, 0.015550f, 0.024179f, 0.013724f, 0.054325f, 0.051806f, 
-0.015389f, -0.015118f, -0.025628f, 0.001701f, 0.051356f, -0.012744f, -0.055411f, -0.076579f, 
-0.088003f, -0.086200f, -0.055731f, -0.033745f, -0.003039f, -0.059551f, -0.033366f, 0.015503f, 
-0.011370f, 0.024386f, 0.002950f, 0.019961f, 0.024132f, 0.023332f, -0.007443f, 0.000815f, 
0.020803f, 0.036661f, 0.025091f, 0.009602f, 0.041887f, -0.005779f, -0.015475f, -0.011266f, 
-0.014968f, 0.030058f, -0.034196f, -0.053789f, -0.078854f, -0.112527f, -0.076299f, -0.068622f, 
-0.060630f, -0.074759f, -0.052119f, -0.028772f, -0.007643f, 0.003364f, -0.016174f, 0.001601f, 
0.009654f, 0.002310f, 0.022372f, -0.026551f, -0.000011f, 0.017481f, 0.034813f, 0.015331f, 
0.006790f, -0.011202f, 0.020043f, -0.020914f, -0.017848f, -0.001870f, -0.036978f, -0.055767f, 
-0.075616f, -0.117131f, -0.083706f, -0.095030f, -0.076944f, -0.089722f, -0.079458f, -0.072633f, 
-0.047329f, -0.001431f, 0.037638f, 0.011145f, 0.023206f, 0.020091f, 0.004690f, 0.022252f, 
-0.030749f, 0.007137f, 0.001985f, 0.037432f, 0.012695f, -0.016373f, -0.013886f, -0.021213f, 
-0.011354f, -0.026096f, -0.015146f, -0.068811f, -0.101078f, -0.101006f, -0.094518f, -0.117886f, 
-0.085049f, -0.096008f, -0.091037f, -0.083231f, -0.077956f, -0.053633f, 0.009422f, 0.037151f, 
0.031635f, -0.007571f, 0.012783f, 0.009763f, 0.008345f, -0.002507f, 0.017814f, 0.032532f, 
0.035487f, 0.023635f, -0.008304f, -0.046013f, -0.038892f, -0.065366f, -0.060767f, -0.096831f, 
-0.097768f, -0.082056f, -0.080765f, -0.115973f, -0.094554f, -0.060739f, -0.060692f, -0.065830f, 
-0.062802f, -0.081702f, -0.053803f, -0.001956f, 0.011401f, 0.006765f, 0.012470f, -0.001844f, 
0.007680f, 0.004687f, -0.003078f, 0.012745f, 0.028271f, 0.024204f, 0.023926f, -0.000234f, 
-0.042752f, -0.045395f, -0.072961f, -0.095615f, -0.113865f, -0.111923f, -0.113795f, -0.135806f, 
-0.128122f, -0.079846f, -0.084312f, -0.072256f, -0.068672f, -0.069496f, -0.059514f, -0.043245f, 
-0.026541f, 0.014957f, -0.001850f, 0.010286f, -0.024382f, -0.024868f, -0.026245f, -0.006354f, 
0.023909f, 0.047133f, 0.057939f, -0.016463f, -0.018211f, -0.044501f, -0.064612f, -0.058968f, 
-0.098799f, -0.105013f, -0.081033f, -0.097327f, -0.082375f, -0.073301f, -0.059669f, -0.026340f, 
-0.003142f, -0.045237f, -0.042125f, -0.004198f, -0.018529f, -0.024374f, -0.018988f, -0.009257f, 
-0.013631f, -0.011334f, 0.000753f, 0.035364f, 0.004481f, 0.045460f, 0.046380f, -0.005471f, 
-0.036572f, -0.032644f, -0.029105f, -0.041185f, -0.057674f, -0.099425f, -0.126728f, -0.095858f, 
-0.062388f, -0.061794f, -0.068660f, -0.050517f, -0.027620f, -0.006369f, -0.044164f, -0.027542f, 
-0.052477f, -0.044614f, -0.050858f, 0.001468f, -0.027117f, -0.014946f, -0.022869f, 0.032814f, 
0.052386f, 0.002254f, 0.058075f, 0.046418f, -0.004769f, -0.066576f, -0.059039f, -0.052981f, 
-0.064560f, -0.060594f, -0.084787f, -0.113461f, -0.085758f, -0.092532f, -0.054429f, -0.064161f, 
-0.015117f, -0.054571f, -0.048422f, -0.031073f, -0.063447f, -0.037942f, -0.056204f, -0.012128f, 
-0.017062f, -0.034104f, -0.053392f, -0.064492f, -0.001153f, 0.025693f, 0.027581f, 0.040691f, 
0.026917f, -0.002171f, -0.046823f, -0.014209f, -0.039905f, -0.042289f, -0.057002f, -0.059572f, 
-0.058990f, -0.075328f, -0.069745f, -0.063040f, -0.057772f, -0.062531f, -0.071328f, -0.025043f, 
-0.035150f, -0.030762f, -0.047392f, -0.023117f, -0.006192f, 0.001166f, -0.008895f, -0.050862f, 
-0.083946f, -0.038612f, 0.014761f, 0.011058f, 0.051226f, 0.040222f, 0.016695f, -0.046247f, 
-0.042502f, -0.009231f, 0.007494f, -0.030165f, -0.031845f, -0.056892f, -0.064881f, -0.076596f, 
-0.040937f, -0.040085f, -0.066261f, -0.086858f, -0.039355f, -0.022404f, -0.025299f, -0.038185f, 
-0.046987f, -0.032006f, -0.017824f, -0.034873f, -0.016885f, -0.031480f, -0.017553f, -0.006387f, 
0.021102f, 0.010776f, 0.029141f, 0.021405f, -0.021932f, -0.026755f, 0.027278f, 0.003618f, 
-0.016923f, -0.016880f, -0.033384f, -0.047367f, -0.055034f, -0.027220f, -0.060700f, -0.088536f, 
-0.082574f, -0.052620f, -0.027726f, -0.042452f, -0.038763f, -0.011548f, -0.013909f, -0.056645f, 
-0.043198f, -0.016214f, -0.058164f, -0.025684f, -0.019872f, -0.002845f, 0.021595f, 0.020824f, 
0.013254f, 0.023698f, 0.025328f, -0.019765f, -0.048749f, -0.010760f, -0.007538f, -0.025506f, 
-0.034826f, -0.023628f, -0.040616f, -0.068387f, -0.080477f, -0.075279f, -0.048775f, -0.035023f, 
-0.040503f, -0.025926f, -0.011091f, -0.015705f, -0.048632f, -0.037115f, -0.029214f, -0.040928f, 
-0.019878f, -0.024774f, 0.005039f, 0.043304f, -0.025239f, -0.012777f, 0.011963f, -0.006644f, 
-0.038014f, -0.032624f, -0.014264f, -0.017834f, -0.005962f, -0.015105f, -0.026946f, -0.022723f, 
-0.030614f, -0.082826f, -0.073440f, -0.037607f, -0.028962f, -0.021332f, -0.022282f, -0.029495f, 
-0.034054f, -0.047637f, -0.040749f, -0.044715f, -0.050531f, 0.006382f, -0.002474f, -0.008330f, 
0.026812f, -0.028023f, -0.040828f, -0.002726f, -0.008482f, -0.025544f, -0.058174f, -0.037972f, 
-0.025567f, -0.019364f, -0.016562f, -0.020801f, 0.005762f, -0.033745f, -0.058978f, -0.069367f, 
-0.037278f, -0.026371f, -0.011665f, -0.002005f, 0.005839f, -0.009217f, -0.007864f, -0.005256f, 
-0.009587f, -0.046602f, 0.007734f, 0.025069f, 0.038034f, 0.009354f, -0.038285f, -0.022252f, 
0.018656f, -0.001029f, -0.051772f, -0.015284f, 0.001784f, -0.020520f, 0.013108f, 0.000059f, 
-0.006608f, -0.012322f, -0.047057f, -0.031688f, -0.035662f, -0.009353f, -0.027624f, -0.039067f, 
-0.015432f, -0.022111f, -0.018922f, 0.006255f, 0.018720f, 0.016049f, 0.019423f, -0.004933f, 
-0.026896f, -0.006060f, 0.002408f, 0.000123f, 0.008086f, 0.002988f, 0.015838f, 0.022107f, 
-0.006796f, 0.012718f, 0.010655f, -0.018245f, -0.030486f, -0.030837f, -0.007040f, -0.010413f, 
-0.009750f, 0.006083f, 0.015913f, 0.021739f, 0.007607f, 0.028931f, 0.035480f, 0.031451f, 
0.026496f, 0.014892f, 0.043043f, 0.013376f, -0.031471f, -0.007258f, 0.006688f, 0.013451f, 
-0.000171f, -0.001047f, 0.005367f, 0.033315f, 0.010067f, 0.004019f, 0.007916f, -0.003132f, 
0.008124f, -0.019121f, -0.011819f, -0.036543f, -0.033580f, -0.015339f, 0.011878f, 0.018137f, 
0.021786f, 0.038203f, 0.006638f, 0.029982f, 0.045225f, 0.049822f, 0.006589f, 0.017777f, 
-0.032593f, -0.028501f, 0.002214f, 0.029907f, -0.012550f, -0.012431f, 0.024562f, 0.013388f, 
0.016786f, 0.016943f, 0.003004f, -0.001012f, -0.007016f, 0.023569f, 0.024547f, -0.014228f, 
-0.051027f, -0.044661f, -0.020076f, 0.006564f, 0.006986f, 0.029905f, 0.024084f, 0.026987f, 
0.025945f, 0.030193f, 0.050567f, 0.022291f, 0.030543f, -0.021214f, -0.020020f, 0.005175f, 
0.009599f, -0.015491f, 0.020227f, 0.007649f, 0.014666f, 0.011626f, 0.021443f, -0.001256f, 
-0.009657f, 0.004951f, 0.000727f, 0.012843f, -0.021224f, -0.016595f, -0.025309f, -0.025250f, 
-0.030960f, -0.018351f, 0.012490f, 0.029426f, 0.021645f, 0.025627f, 0.037265f, 0.047200f, 
0.014215f, 0.006051f, 0.001874f, -0.002798f, 0.003695f, 0.003716f, 0.005453f, 0.034236f, 
0.023698f, -0.000709f, 0.010953f, -0.009162f, -0.007986f, -0.004860f, 0.004959f, -0.019866f, 
-0.016429f, 0.014065f, 0.000530f, -0.043023f, -0.038404f, -0.028731f, -0.019374f, 0.020080f, 
0.023128f, 0.012525f, 0.011493f, 0.031274f, 0.024824f, 0.020242f, -0.001449f, 0.002658f, 
-0.007850f, -0.003897f, -0.022104f, -0.005482f, 0.018828f, 0.022159f, 0.000141f, -0.014068f, 
0.011054f, 0.014094f, 0.043107f, 0.025462f, -0.005814f, -0.028886f, 0.010162f, -0.019852f, 
-0.036680f, -0.013142f, -0.048336f, -0.034383f, -0.033927f, -0.010064f, -0.019727f, -0.005114f, 
0.021401f, 0.024340f, 0.023022f, 0.004574f, -0.018985f, -0.004847f, -0.003481f, 0.013180f, 
-0.000057f, 0.035531f, 0.013942f, -0.001347f, 0.010511f, 0.030437f, 0.045305f, 0.053007f, 
0.009219f, -0.007627f, -0.013349f, -0.004516f, -0.023701f, -0.045085f, -0.039236f, -0.024929f, 
-0.025122f, -0.013236f, -0.021450f, -0.022721f, 0.015821f, 0.001154f, 0.025049f, 0.022957f, 
0.039350f, -0.021325f, -0.015188f, -0.019494f, 0.014540f, -0.010769f, -0.004062f, 0.006781f, 
0.004923f, 0.016500f, -0.005186f, -0.018093f, 0.006626f, 0.016983f, 0.011345f, -0.010297f, 
-0.013358f, -0.035126f, -0.058216f, -0.039255f, -0.031039f, -0.005145f, -0.005732f, -0.016534f, 
-0.000676f, 0.006222f, 0.004213f, -0.017815f, 0.006421f, 0.036511f, -0.008932f, -0.014264f, 
-0.008173f, -0.010859f, 0.006834f, -0.008322f, -0.003500f, 0.006987f, -0.018283f, -0.033895f, 
-0.007066f, 0.018641f, 0.025155f, 0.003667f, 0.006425f, 0.022245f, -0.027194f, -0.053485f, 
-0.027269f, -0.057638f, -0.019681f, -0.026277f, 0.006349f, -0.016530f, -0.023561f, -0.003673f, 
-0.003491f, 0.025667f, 0.025114f, -0.033961f, -0.036238f, 0.006677f, 0.006060f, -0.009073f, 
-0.010642f, 0.003972f, 0.021171f, 0.000507f, -0.026047f, 0.003063f, 0.025075f, 0.001814f, 
-0.004312f, 0.003677f, 0.029608f, -0.008029f, -0.050182f, -0.052406f, -0.064356f, -0.048478f, 
-0.011642f, -0.003522f, 0.003702f, 0.005772f, -0.003405f, -0.013589f, -0.003466f, -0.013873f, 
-0.004058f, -0.025408f, -0.033934f, -0.008383f, -0.000680f, -0.010828f, 0.017974f, -0.008270f, 
0.006672f, -0.003573f, -0.010434f, -0.006771f, -0.015226f, -0.023648f, -0.002702f, 0.003038f, 
-0.031386f, -0.036013f, -0.021022f, -0.040764f, -0.037805f, -0.023936f, -0.008556f, 0.014018f, 
0.044805f, 0.011139f, 0.008919f, -0.023619f, -0.016721f, -0.034606f, -0.037418f, -0.022632f, 
-0.019098f, -0.000797f, -0.032576f, -0.013475f, -0.025581f, 0.003296f, -0.005630f, -0.004600f, 
-0.000496f, 0.001804f, 0.008335f, -0.007865f, 0.009442f, -0.022764f, -0.048838f, -0.020902f, 
-0.042188f, -0.044352f, -0.024823f, -0.033258f, 0.004025f, 0.002380f, -0.007127f, 0.009791f, 
0.011044f, 0.016264f, -0.026610f, -0.018743f, -0.032793f, -0.021335f, -0.011121f, -0.034764f, 
-0.009037f, 0.013907f, 0.008119f, 0.029336f, -0.005600f, -0.016390f, 0.003872f, 0.013195f, 
-0.003361f, -0.007242f, -0.043722f, -0.078640f, -0.054765f, -0.036844f, -0.081016f, -0.064230f, 
0.000368f, -0.014376f, 0.000291f, 0.022581f, 0.063988f, 0.036792f, 0.038923f, 0.003635f, 
0.002550f, -0.000586f, -0.030665f, -0.011579f, -0.021014f, 0.008979f, -0.002703f, 0.003552f, 
-0.000669f, 0.029790f, 0.018584f, 0.008171f, 0.002344f, -0.008119f, -0.002258f, -0.061230f, 
-0.072400f, -0.050865f, -0.060727f, -0.058047f, -0.046814f, -0.051971f, -0.024196f, -0.008481f, 
0.014831f, 0.024189f, 0.000961f, 0.025249f, 0.002266f, -0.011865f, -0.017100f, -0.015899f, 
-0.020802f, -0.005633f, -0.006511f, -0.014450f, -0.011077f, 0.005171f, 0.015055f, 0.002466f, 
-0.000834f, 0.016829f, 0.012033f, -0.024020f, -0.081232f, -0.062042f, -0.069354f, -0.085431f, 
-0.090537f, -0.067689f, -0.041455f, -0.034103f, -0.036070f, -0.002695f, 0.009820f, -0.002219f, 
0.020322f, -0.027624f, -0.028827f, -0.022958f, -0.036460f, -0.040273f, -0.020207f, -0.019367f, 
-0.015895f, -0.012151f, -0.013137f, -0.003326f, -0.029166f, -0.022438f, -0.005622f, -0.003968f, 
-0.035167f, -0.039957f, -0.062827f, -0.046251f, -0.036968f, 0.004765f, -0.004986f, -0.015683f, 
-0.035180f, -0.023669f, 0.034362f, 0.052418f, 0.032722f, 0.033507f, -0.006461f, -0.021429f, 
-0.011651f, -0.005819f, 0.002040f, 0.006715f, -0.018538f, -0.017179f, 0.002982f, -0.021789f, 
-0.019860f, -0.017048f, 0.018685f, 0.017549f, 0.024544f, 0.028139f, 0.020603f, -0.030339f, 
-0.055010f, -0.024917f, -0.029926f, -0.048961f, -0.065440f, -0.027644f, -0.021192f, -0.006801f, 
0.022051f, 0.011712f, 0.036352f, -0.030879f, -0.032855f, -0.003544f, -0.007046f, -0.011198f, 
-0.018944f, -0.022228f, -0.023807f, -0.003196f, -0.007477f, 0.000685f, 0.005251f, 0.005846f, 
0.009962f, 0.051551f, 0.019281f, -0.026760f, -0.025758f, -0.012719f, 0.023403f, -0.028810f, 
-0.025460f, -0.019071f, -0.014962f, -0.016812f, -0.002280f, 0.048670f, 0.037442f, 0.024763f, 
-0.017958f, -0.012522f, -0.004729f, -0.013454f, -0.005920f, -0.010107f, -0.006287f, -0.003533f, 
0.002329f, 0.013326f, -0.006589f, -0.004988f, -0.014883f, -0.008516f, 0.039007f, -0.028292f, 
0.014103f, -0.013434f, -0.011167f, 0.013724f, 0.004683f, -0.011908f, -0.012421f, -0.024176f, 
-0.000631f, 0.025640f, 0.019180f, 0.037323f, 0.043903f, 0.007103f, -0.026784f, -0.008471f, 
-0.022453f, -0.008450f, -0.011153f, -0.003429f, -0.009963f, -0.016487f, -0.028823f, -0.007049f, 
0.034053f, 0.017600f, -0.033435f, -0.030643f, 0.026208f, 0.020600f, -0.031974f, 0.008914f, 
0.014012f, 0.018295f, 0.029084f, 0.009699f, -0.017832f, 0.018786f, 0.027195f, 0.002427f, 
0.037583f, 0.036742f, 0.006194f, 0.008406f, 0.004328f, 0.006233f, -0.001582f, 0.028318f, 
0.002745f, -0.011045f, 0.022652f, 0.021197f, 0.009075f, 0.031022f, -0.021446f, -0.065003f, 
-0.035446f, 0.007514f, -0.014498f, -0.004757f, 0.044566f, 0.034887f, 0.038786f, 0.029903f, 
0.006801f, 0.007274f, 0.019318f, 0.027473f, 0.047401f, 0.043231f, 0.027146f, -0.009104f, 
-0.016614f, 0.011801f, -0.006578f, 0.002675f, 0.010875f, 0.000484f, 0.026963f, 0.028837f, 
0.005531f, 0.001652f, -0.005757f, 0.008936f, -0.044133f, -0.050117f, -0.030406f, -0.010907f, 
0.008256f, 0.025703f, 0.027759f, 0.039712f, 0.022994f, 0.038747f, 0.006265f, 0.008904f, 
0.029555f, 0.035059f, 0.030034f, 0.020175f, -0.029029f, -0.013286f, 0.016551f, -0.003019f, 
0.011629f, 0.024293f, 0.007596f, -0.010452f, -0.026150f, -0.008650f, -0.009378f, 0.032130f, 
0.042870f, 0.004857f, -0.032984f, -0.037599f, -0.039926f, -0.005715f, 0.013923f, -0.007433f, 
0.012873f, 0.028395f, 0.044557f, 0.025686f, 0.017622f, 0.011549f, -0.000798f, -0.000210f, 
0.012163f, -0.010702f, -0.014628f, 0.014832f, -0.013174f, 0.004483f, 0.021935f, 0.011295f, 
-0.018773f, -0.037054f, 0.005001f, 0.016750f, 0.037992f, 0.007881f, 0.026279f, 0.011466f, 
-0.026756f, -0.031626f, 0.002255f, -0.006015f, -0.015998f, -0.007403f, 0.010683f, 0.041886f, 
0.035861f, 0.016996f, 0.031013f, 0.007024f, 0.022869f, 0.011961f, -0.038525f, -0.019665f, 
-0.011872f, -0.006594f, -0.001423f, 0.024636f, 0.020767f, -0.006795f, 0.004112f, 0.017666f, 
0.014462f, -0.017838f, 0.024218f, 0.048511f, 0.028246f, -0.018231f, -0.015775f, 0.013172f, 
-0.009122f, -0.004830f, 0.004137f, 0.034099f, 0.015672f, 0.023156f, 0.034049f, 0.044314f, 
0.038463f, 0.002130f, 0.028152f, -0.033617f, -0.016595f, -0.010978f, -0.018216f, -0.004942f, 
0.003964f, 0.028744f, 0.009606f, 0.019231f, 0.019588f, 0.003419f, 0.016622f, 0.031667f, 
0.054595f, 0.029707f, -0.014621f, 0.013262f, 0.040362f, 0.022619f, -0.003107f, 0.014050f, 
0.024325f, 0.040974f, 0.036700f, 0.015357f, 0.021078f, 0.032330f, -0.001947f, 0.009609f, 
-0.024557f, -0.014235f, -0.009665f, 0.008174f, -0.009017f, 0.021668f, 0.017784f, -0.010401f, 
0.010576f, 0.031341f, -0.000890f, 0.043091f, 0.041569f, 0.032893f, 0.035436f, 0.003268f, 
0.010011f, 0.021520f, -0.005964f, -0.003607f, -0.000685f, 0.042459f, 0.042481f, 0.020498f, 
0.045062f, 0.038895f, 0.016807f, 0.020978f, 0.009451f, -0.034585f, -0.018370f, 0.003259f, 
0.009496f, 0.016943f, 0.021191f, -0.006820f, -0.008022f, 0.011316f, 0.039431f, 0.009194f, 
0.017502f, 0.039902f, 0.046686f, 0.020615f, 0.039678f, 0.027670f, 0.014393f, 0.007260f, 
0.032850f, 0.035763f, 0.050216f, 0.024122f, 0.027109f, 0.036286f, 0.040932f, 0.009235f, 
0.038719f, 0.024768f, -0.019448f, -0.000168f, -0.010541f, 0.027538f, 0.029551f, -0.003280f, 
-0.022619f, 0.018765f, 0.025783f, 0.016560f, -0.014208f, 0.025087f, 0.015814f, 0.010829f, 
0.012877f, 0.041573f, 0.019228f, 0.006492f, 0.024816f, 0.004697f, 0.036221f, 0.028489f, 
0.036898f, 0.014203f, 0.025106f, -0.000181f, 0.026366f, 0.003920f, 0.019971f, 0.009431f, 
-0.006602f, -0.014162f, 0.009055f, -0.022027f, -0.010172f, -0.003439f, -0.014801f, -0.024293f, 
-0.021277f, -0.006851f, 0.012865f, -0.014774f, 0.015310f, -0.005890f, 0.014095f, 0.002963f, 
-0.005239f, 0.002255f, -0.007402f, -0.026768f, -0.009946f, -0.005130f, -0.026519f, -0.026605f, 
-0.007453f, -0.022697f, -0.003876f, -0.018036f, 0.001248f, -0.014157f, 0.000982f, -0.019109f, 
-0.000806f, -0.003735f, -0.001571f, -0.019435f, -0.014886f, -0.005629f, 0.009328f, -0.003988f, 
0.004095f, 0.000567f, 0.013973f, 0.008829f, 0.011058f, 0.005428f, 0.001441f, -0.016057f, 
-0.018795f, -0.010175f, -0.013325f, 0.000051f, -0.005567f, -0.009385f, -0.024508f, 0.005727f, 
0.008175f, -0.015375f, 0.011959f, 0.006244f, -0.017889f, -0.014462f, -0.016606f, 0.001261f, 
-0.023144f, -0.024208f, -0.000599f, -0.020360f, 0.007764f, -0.006191f, -0.010350f, -0.005449f, 
0.007456f, -0.000803f, 0.015394f, 0.006426f, -0.010645f, -0.000365f, -0.019228f, -0.001139f, 
-0.021176f, -0.029503f, 0.004143f, -0.003626f, -0.007920f, -0.024996f, -0.013389f, -0.004961f, 
-0.012279f, 0.003325f, -0.028212f, 0.002084f, -0.014373f, 0.011276f, 0.003753f, -0.008702f, 
-0.021170f, -0.014641f, -0.009431f, 0.003686f, 0.008206f, 0.021426f, 0.000253f, -0.014698f, 
0.002408f, -0.002708f, -0.007196f, -0.017191f, -0.014019f, 0.001661f, -0.019471f, -0.026002f, 
-0.004468f, 0.004761f, -0.014023f, 0.009871f, -0.002983f, 0.009913f, -0.014711f, -0.003983f, 
-0.000346f, -0.022209f, 0.002006f, -0.018267f, -0.014152f, 0.010171f, -0.002147f, 0.007050f, 
0.017985f, 0.016966f, 0.017917f, -0.002633f, 0.010269f, -0.001127f, -0.003619f, -0.023242f, 
-0.001377f, -0.006040f, -0.002782f, -0.026602f, -0.011225f, -0.028258f, 0.002613f, -0.017182f, 
0.000876f, -0.006490f, -0.011692f, 0.003627f, -0.014755f, -0.023941f, 0.007583f, -0.013994f, 
-0.000315f, -0.013972f, 0.018235f, 0.007658f, 0.013434f, 0.020258f, -0.001208f, 0.014262f, 
-0.005215f, -0.012759f, -0.016438f, -0.003392f, -0.007412f, -0.010888f, -0.010601f, -0.022228f, 
-0.019320f, -0.012237f, 0.003735f, -0.004623f, 0.002389f, -0.011484f, -0.002631f, 0.000725f, 
-0.016627f, 0.004440f, -0.017745f, -0.010404f, -0.012938f, -0.003875f, -0.002691f, -0.003265f, 
0.008824f, 0.003611f, 0.010195f, 0.001648f, -0.008804f, 0.013614f, -0.006664f, -0.013321f, 
-0.003309f, 0.004229f, 0.002582f, 0.005485f, 0.002219f, 0.007270f, -0.002366f, -0.014592f, 
-0.017667f, -0.020878f, 0.001499f, -0.004397f, 0.006563f, -0.017399f, -0.004528f, -0.014507f, 
0.001825f, -0.006087f, 0.006018f, -0.019304f, -0.004951f, 0.001190f, -0.011259f, -0.002678f, 
0.021187f, -0.013330f, 0.000467f, -0.002269f, 0.003623f, 0.007397f, 0.012854f, 0.016811f, 
-0.006610f, -0.014411f, 0.006045f, -0.001542f, -0.026273f, 0.005420f, -0.019315f, -0.001378f, 
-0.013303f, -0.011295f, 0.007050f, 0.003128f, -0.006226f, -0.016953f, 0.002994f, -0.019291f, 
-0.007098f, -0.006602f, 0.014905f, -0.003715f, 0.007602f, 0.006472f, -0.009809f, 0.025808f, 
0.009128f, 0.009883f, -0.015849f, -0.007062f, -0.014831f, -0.017625f, -0.012002f, -0.010371f, 
0.009570f, -0.020666f, -0.013311f, -0.000334f, -0.011262f, -0.005081f, 0.010276f, 0.008316f, 
0.010019f, 0.002346f, 0.007323f, 0.000314f, -0.013101f, -0.001696f, 0.003054f, -0.005674f, 
-0.006737f, 0.015791f, 0.008122f, 0.002527f, 0.011383f, 0.016671f, 0.017453f, 0.010121f, 
0.003948f, 0.013693f, -0.017283f, -0.015621f, -0.016552f, -0.011292f, -0.011838f, -0.000446f, 
-0.008858f, 0.014244f, 0.008701f, -0.018456f, -0.017538f, 0.012417f, -0.018043f, 0.001209f, 
-0.013291f, -0.004491f, -0.013287f, -0.008202f, -0.008361f, -0.011604f, -0.002576f, 0.014669f, 
0.012961f, 0.008722f, 0.014538f, 0.001231f, 0.020693f, 0.003033f, 0.008696f, -0.001859f, 
-0.003337f, 0.004072f, -0.005177f, 0.007627f, -0.004153f, -0.015811f, 0.003419f, 0.005906f, 
0.003204f, 0.004885f, -0.014126f, 0.013962f, 0.006745f, 0.005785f, -0.006527f, 0.013736f, 
-0.000663f, -0.007011f, 0.004971f, 0.005926f, 0.004228f, 0.015990f, 0.028044f, -0.000135f, 
0.018592f, 0.012165f, 0.010651f, -0.015305f, -0.019245f, 0.005663f, -0.025206f, 0.004818f, 
-0.003727f, -0.014249f, 0.008073f, 0.001574f, -0.011724f, 0.011928f, -0.006731f, 0.016616f, 
0.001130f, 0.007371f, -0.007710f, -0.010478f, 0.016716f, 0.016175f, -0.003487f, 0.014460f, 
-0.003777f, -0.007163f, -0.003368f, 0.030740f, 0.027239f, 0.011822f, 0.000528f, 0.018349f, 
-0.012681f, 0.000627f, -0.001999f, 0.001961f, -0.004939f, -0.019696f, -0.000236f, -0.003052f, 
0.004702f, 0.007923f, 0.012102f, 0.007954f, 0.010782f, 0.008572f, -0.008079f, -0.006990f, 
-0.001525f, -0.004843f, -0.015314f, 0.012732f, -0.000672f, -0.009655f, 0.004888f, 0.008989f, 
0.022170f, 0.025482f, 0.011104f, 0.015203f, -0.006249f, 0.008507f, 0.007060f, -0.004622f, 
-0.006540f, 0.005994f, -0.008746f, -0.009707f, -0.006974f, 0.012685f, 0.002988f, 0.001914f, 
-0.002014f, -0.002931f, 0.010379f, -0.001958f, -0.007228f, -0.015702f, -0.011911f, -0.003989f, 
-0.010443f, -0.016081f, -0.004429f, 0.008988f, 0.017525f, 0.011511f, 0.011908f, 0.033748f, 
0.020001f, 0.026926f, 0.031815f, -0.002409f, 0.017408f, -0.004641f, -0.024409f, -0.013786f, 
-0.003397f, 0.001450f, 0.011085f, 0.013513f, 0.000764f, 0.001771f, -0.002261f, -0.010219f, 
0.004712f, -0.009625f, -0.002167f, -0.004599f, -0.008208f, -0.012747f, 0.002994f, 0.020618f, 
0.025750f, 0.024353f, 0.031107f, 0.044872f, 0.036866f, 0.029610f, 0.018869f, 0.001708f, 
0.008371f, -0.005233f, 0.001499f, -0.022362f, -0.026703f, -0.009412f, -0.017867f, -0.001884f, 
0.002794f, 0.017874f, -0.010617f, 0.005789f, 0.017334f, -0.003081f, 0.016776f, -0.015270f, 
0.010354f, -0.002938f, 0.020117f, 0.014648f, 0.017992f, 0.014380f, 0.007210f, 0.004819f, 
0.019833f, 0.019129f, 0.027992f, 0.023955f, 0.002598f, 0.012935f, -0.000920f, -0.007560f, 
-0.003530f, -0.015455f, -0.016905f, -0.009556f, 0.001430f, 0.011910f, 0.011376f, -0.016456f, 
0.000783f, 0.005543f, -0.009849f, 0.000586f, 0.000104f, -0.006948f, 0.011608f, -0.004585f, 
-0.003215f, -0.002963f, 0.004931f, 0.013230f, 0.011027f, 0.004709f, 0.024287f, -0.001096f, 
0.000141f, 0.016171f, 0.006196f, 0.012681f, -0.005600f, -0.015227f, -0.007841f, 0.001695f, 
-0.017583f, 0.009790f, 0.018070f, -0.004338f, -0.005169f, -0.016476f, -0.012988f, 0.003107f, 
-0.005435f, -0.016156f, -0.012958f, 0.006401f, -0.002702f, -0.010624f, 0.016683f, -0.007320f, 
0.021399f, -0.007349f, 0.002021f, 0.015864f, 0.001196f, 0.019283f, -0.006112f, -0.000688f, 
-0.003169f, 0.007529f, -0.023908f, 0.003960f, -0.017850f, -0.005206f, -0.003344f, -0.003414f, 
0.000190f, -0.007284f, -0.000272f, -0.001857f, -0.011489f, 0.001282f, -0.019957f, 0.014352f, 
-0.016271f, -0.009931f, -0.002275f, -0.013786f, -0.007906f, -0.023872f, -0.003820f, 0.002893f, 
-0.014640f, -0.011159f, 0.011215f, -0.003138f, 0.004862f, -0.013627f, -0.001633f, -0.011121f, 
-0.013459f, -0.013336f, -0.023520f, 0.020045f, -0.003623f, 0.013839f, 0.012153f, 0.001048f, 
-0.013055f, 0.015434f, -0.015107f, -0.007167f, -0.007241f, -0.008939f, -0.000402f, -0.012876f, 
-0.017311f, 0.005746f, 0.000471f, -0.019966f, -0.014703f, 0.008093f, -0.015976f, -0.010479f, 
-0.008500f, -0.001644f, 0.009145f, -0.022265f, -0.019289f, 0.008234f, -0.004461f, 0.004300f, 
0.004083f, -0.004611f, 0.009827f, 0.003820f, -0.006686f, -0.007976f, 0.003693f, -0.003698f, 
0.011337f, -0.003311f, -0.023814f, -0.002199f, -0.003716f, -0.020642f, -0.002872f, -0.008692f, 
0.001004f, 0.001459f, 0.006950f, 0.009506f, -0.016211f, -0.002189f, -0.013413f, 0.001225f, 
-0.016413f, 0.000161f, -0.013641f, -0.001993f, -0.024563f, 0.002272f, 0.012512f, -0.010699f, 
-0.018641f, 0.005882f, -0.000469f, -0.008562f, -0.018406f, -0.024963f, -0.001477f, 0.006632f, 
-0.014450f, -0.011887f, 0.003748f, 0.010434f, -0.015539f, 0.001622f, 0.004252f, -0.004920f, 
-0.015544f, 0.005732f, -0.005462f, -0.004691f, -0.025210f, -0.014043f, -0.009438f, 0.006558f, 
-0.015345f, -0.005045f, -0.013019f, -0.015992f, -0.000115f, 0.001695f, 0.007364f, 0.006269f, 
-0.009769f, 0.006494f, -0.020770f, -0.013791f, 0.006088f, 0.008391f, -0.013392f, -0.016478f, 
-0.005054f, -0.010288f, -0.000001f, -0.022706f, -0.011087f, 0.001017f, -0.022485f, -0.023453f, 
-0.014036f, -0.001431f, -0.021628f, -0.013830f, 0.001609f, -0.002056f, 0.004490f, -0.010147f, 
0.013013f, 0.004541f, -0.015926f, -0.002586f, -0.023766f, -0.009557f, -0.016652f, -0.015388f, 
0.009942f, 0.006696f, -0.016231f, 0.003523f, -0.013217f, -0.013584f, 0.003395f, 0.002783f, 
-0.018269f, -0.013965f, 0.003586f, -0.022784f, -0.017468f, 0.006520f, 0.000923f, -0.012305f, 
-0.010025f, 0.001730f, -0.005379f, 0.000277f, 0.002801f, -0.018625f, 0.012767f, -0.013107f, 
-0.000658f, -0.006519f, -0.023702f, -0.000227f, -0.016244f, -0.011768f, -0.021946f, -0.011225f, 
0.004783f, 0.005792f, -0.002583f, -0.020456f, -0.012346f, 0.014185f, -0.000487f, -0.024263f, 
-0.024887f, -0.016996f, -0.008015f, 0.000087f, -0.017364f, -0.013308f, -0.017149f, -0.004399f, 
-0.012977f, 0.000213f, 0.011626f, -0.004756f, 0.009214f, -0.013599f, 0.008872f, 0.004470f, 
0.003064f, -0.014218f, 0.005102f, -0.015935f, 0.000009f, 0.001459f, 0.004397f, -0.001499f, 
-0.024640f, -0.003221f, -0.015201f, -0.007450f, -0.012536f, -0.016357f, -0.005285f, -0.004973f, 
-0.020091f, -0.013912f, 0.002117f, -0.018497f, -0.001054f, 0.003665f, -0.018583f, -0.003528f, 
0.009449f, -0.011299f, 0.004823f, -0.010453f, 0.000140f, 0.001974f, -0.018353f, 0.003013f, 
-0.003035f, -0.015425f, -0.015882f, -0.027160f, -0.024094f, -0.027482f, -0.010598f, -0.010554f, 
-0.001282f, -0.018525f, -0.004324f, -0.004808f, -0.026414f, -0.011426f, -0.009097f, -0.001856f, 
-0.021663f, 0.002800f, -0.003646f, -0.007823f, -0.013801f, 0.003139f, 0.001123f, -0.015476f, 
-0.016707f, 0.003141f, -0.007399f, -0.024989f, -0.022722f, -0.004230f, -0.002053f, -0.001881f, 
-0.005744f, -0.017345f, -0.027584f, -0.013475f, -0.017446f, -0.015092f, -0.011155f, -0.014718f, 
-0.017132f, -0.031447f, -0.013273f, 0.002726f, -0.030613f, -0.017485f, 0.003171f, 0.004117f, 
-0.006033f, 0.001034f, 0.017780f, 0.011343f, -0.016349f, -0.011938f, -0.010493f, -0.003812f, 
-0.027611f, -0.006397f, -0.003335f, -0.011065f, -0.018536f, -0.017951f, -0.030040f, -0.029282f, 
-0.025987f, -0.007960f, -0.029388f, -0.010256f, -0.011884f, 0.000487f, -0.024999f, 0.007193f, 
-0.011721f, -0.019045f, -0.020152f, -0.001054f, -0.025738f, -0.006464f, -0.006757f, -0.011601f, 
-0.025425f, -0.018088f, -0.024112f, -0.017466f, -0.025054f, -0.027569f, -0.024163f, -0.011991f, 
-0.027868f, -0.007093f, -0.010391f, -0.006771f, -0.031044f, -0.002944f, -0.026062f, -0.029470f, 
-0.026768f, -0.026219f, -0.000014f, -0.019995f, -0.017725f, -0.010720f, -0.014287f, 0.005501f, 
-0.020592f, -0.002296f, 0.028396f, 0.013404f, -0.000157f, -0.004274f, -0.029098f, -0.009286f, 
-0.031565f, -0.022328f, -0.021140f, -0.008331f, -0.011044f, -0.000815f, -0.022160f, -0.027932f, 
-0.005663f, -0.030084f, -0.033537f, -0.016119f, -0.027050f, -0.026343f, -0.014661f, 0.003111f, 
0.000671f, -0.015921f, -0.005542f, 0.007527f, -0.003671f, -0.018337f, -0.016888f, 0.019743f, 
-0.008541f, 0.003194f, -0.002229f, -0.004716f, -0.000648f, -0.000208f, -0.022379f, -0.015291f, 
-0.003035f, -0.002749f, 0.000779f, -0.014292f, -0.001392f, -0.004508f, -0.007687f, -0.023717f, 
-0.021636f, -0.011349f, -0.029989f, -0.010435f, 0.001150f, -0.018335f, -0.003925f, -0.010358f, 
-0.012109f, -0.008611f, -0.018271f, -0.001170f, -0.001843f, 0.004357f, -0.008815f, -0.017412f, 
-0.024718f, -0.030333f, -0.022686f, -0.028744f, -0.026894f, -0.026617f, -0.006950f, -0.008295f, 
-0.002504f, -0.009425f, -0.005067f, -0.021218f, -0.000116f, -0.006984f, -0.027726f, -0.025559f, 
-0.015370f, 0.008099f, -0.000544f, -0.011003f, -0.022999f, -0.000492f, -0.004688f, -0.024798f, 
-0.015334f, 0.001751f, -0.002750f, -0.018027f, -0.005438f, -0.016634f, -0.023125f, 0.000894f, 
-0.024213f, -0.012043f, -0.009447f, -0.024966f, -0.022532f, 0.002380f, 0.002303f, 0.004655f, 
-0.027096f, -0.019225f, -0.011662f, -0.002832f, 0.003802f, -0.000805f, -0.009793f, -0.010486f, 
-0.005415f, 0.000649f, -0.013742f, -0.020885f, -0.009794f, 0.002701f, -0.008981f, -0.012456f, 
-0.024746f, -0.019226f, -0.002618f, -0.026665f, -0.004276f, -0.005470f, -0.018840f, -0.022759f, 
-0.009717f, 0.002927f, -0.015749f, -0.014324f, -0.023926f, -0.017102f, -0.024167f, -0.018638f, 
0.012617f, 0.001817f, 0.001818f, -0.012886f, 0.003933f, 0.007211f, 0.000573f, -0.009891f, 
-0.003832f, -0.014456f, 0.003203f, -0.018531f, -0.011047f, -0.010043f, -0.018977f, 0.005758f, 
-0.020487f, -0.009965f, -0.008190f, 0.002469f, -0.013075f, -0.011027f, -0.000605f, 0.004169f, 
0.006883f, -0.005295f, -0.013702f, 0.004595f, 0.002810f, 0.015594f, 0.020465f, 0.008566f, 
0.000040f, -0.015513f, 0.008959f, -0.009538f, -0.001205f, -0.022820f, -0.011246f, -0.010559f, 
-0.015834f, -0.001313f, -0.000442f, 0.002404f, 0.002538f, -0.021213f, -0.001467f, -0.011910f, 
-0.007815f, 0.008120f, -0.015589f, 0.010323f, -0.017182f, 0.014108f, -0.004867f, -0.011524f, 
-0.006860f, -0.009591f, -0.004167f, 0.010943f, 0.009169f, 0.000421f, -0.010572f, 0.011694f, 
-0.012084f, -0.017529f, -0.029015f, -0.025993f, -0.023382f, 0.009735f, -0.013717f, -0.018654f, 
0.003473f, -0.020467f, -0.013691f, -0.001036f, -0.015693f, -0.016883f, -0.001560f, -0.006548f, 
0.006815f, -0.007715f, -0.012323f, 0.013410f, 0.000444f, 0.001311f, -0.003104f, -0.000651f, 
0.024396f, -0.006360f, -0.003226f, 0.016451f, 0.000589f, 0.002756f, -0.003157f, -0.005800f, 
-0.028390f, -0.005514f, -0.001843f, -0.002176f, -0.005045f, -0.020106f, -0.021609f, -0.009898f, 
-0.020744f, -0.017197f, 0.004164f, -0.018696f, -0.010088f, 0.007766f, 0.010540f, 0.002496f, 
0.017838f, 0.013053f, 0.027696f, 0.006484f, 0.020220f, 0.022134f, 0.008490f, -0.009149f, 
0.012650f, 0.008950f, -0.021876f, -0.003718f, -0.001197f, -0.006358f, -0.026420f, 0.013731f, 
-0.007910f, 0.010293f, 0.003456f, -0.019635f, -0.013151f, -0.010079f, -0.018640f, -0.015917f, 
-0.014182f, -0.008693f, 0.001730f, 0.014750f, 0.010116f, 0.035630f, 0.009852f, 0.023107f, 
0.012694f, 0.035788f, 0.010214f, -0.001269f, -0.004744f, 0.011737f, 0.002440f, -0.006087f, 
-0.020378f, -0.009127f, -0.012740f, -0.007321f, -0.012950f, -0.009718f, 0.016883f, 0.006244f, 
0.007266f, 0.003914f, -0.000577f, -0.001266f, -0.007056f, 0.000895f, 0.015553f, 0.009232f, 
0.018545f, 0.031485f, 0.017944f, 0.048611f, 0.049435f, 0.036845f, 0.039054f, 0.040478f, 
0.034918f, 0.007135f, 0.014720f, 0.000406f, -0.028582f, -0.028911f, -0.003619f, -0.025254f, 
-0.015528f, -0.008270f, -0.002066f, 0.007124f, 0.006787f, 0.013977f, -0.006792f, 0.001129f, 
0.000433f, -0.002627f, -0.005464f, 0.003089f, -0.002839f, 0.035282f, 0.022819f, 0.025928f, 
0.044274f, 0.043850f, 0.040785f, 0.053192f, 0.043225f, 0.039903f, 0.013094f, -0.007321f, 
0.007509f, -0.028648f, -0.011948f, -0.015677f, -0.028038f, -0.006329f, 0.013070f, 0.005599f, 
-0.002849f, 0.003403f, 0.015227f, -0.016047f, 0.013589f, -0.017756f, -0.011764f, 0.018123f, 
-0.005436f, 0.024777f, 0.000607f, 0.016710f, 0.037570f, 0.046019f, 0.033592f, 0.037693f, 
0.030215f, 0.021284f, 0.036455f, 0.019130f, 0.006820f, -0.006602f, -0.018012f, -0.005932f, 
-0.006636f, -0.009273f, -0.002290f, -0.001918f, -0.001756f, -0.005488f, -0.008425f, 0.011477f, 
0.011920f, -0.015504f, -0.011933f, 0.011769f, -0.012138f, 0.016242f, 0.019236f, 0.005111f, 
-0.003216f, 0.024894f, 0.006440f, 0.034360f, 0.022526f, 0.034513f, 0.017625f, 0.011417f, 
0.008323f, 0.013027f, -0.001153f, 0.002818f, -0.005613f, -0.014499f, -0.030840f, -0.000387f, 
0.002563f, -0.011835f, 0.004140f, -0.002749f, -0.016000f, 0.012018f, 0.007014f, 0.011964f, 
0.014502f, 0.006409f, -0.004346f, 0.022301f, -0.001829f, 0.002977f, 0.019164f, 0.001521f, 
0.022220f, 0.008414f, 0.030653f, 0.032638f, -0.003759f, 0.018972f, -0.009333f, 0.004154f, 
0.000404f, -0.033747f, -0.018691f, -0.023392f, -0.026159f, -0.011498f, -0.009926f, -0.011362f, 
-0.006469f, 0.012982f, 0.001077f, -0.009087f, -0.011759f, -0.010329f, -0.012231f, -0.015730f, 
-0.000016f, -0.003532f, -0.011319f, 0.002912f, 0.002079f, -0.003011f, -0.001812f, 0.008334f, 
0.005240f, 0.007574f, 0.000258f, 0.006178f, 0.003485f, -0.018847f, -0.001310f, -0.007800f, 
-0.012146f, -0.018523f, 0.009073f, 0.012772f, 0.012778f, -0.011449f, 0.007162f, -0.010674f, 
0.014119f, -0.005337f, -0.008608f, 0.008821f, 0.015652f, 0.011365f, 0.004145f, 0.011849f, 
0.000687f, -0.005496f, -0.005064f, -0.002988f, -0.008400f, 0.016177f, -0.010304f, 0.022129f, 
-0.008924f, -0.011621f, -0.027387f, 0.004924f, -0.018425f, -0.007860f, 0.002123f, 0.016897f, 
-0.012374f, -0.001276f, -0.007473f, 0.013762f, -0.013089f, -0.016535f, -0.013839f, 0.009022f, 
-0.013601f, 0.005143f, -0.005329f, 0.002510f, -0.004627f, -0.008710f, -0.006705f, -0.018218f, 
-0.033422f, -0.020213f, -0.006506f, -0.012093f, 0.007751f, -0.017796f, 0.011162f, -0.002316f, 
-0.006455f, -0.004588f, -0.001893f, -0.005924f, 0.009184f, -0.003456f, 0.007532f, 0.001903f, 
-0.001778f, 0.009008f, 0.007572f, -0.002896f, 0.004659f, -0.016549f, -0.013819f, -0.016223f, 
-0.010757f, -0.014840f, -0.009492f, -0.022679f, -0.026304f, -0.002052f, -0.027992f, 0.002166f, 
-0.013929f, -0.012038f, 0.006757f, -0.008897f, -0.012493f, 0.002085f, 0.012448f, 0.008908f, 
-0.016557f, -0.000603f, 0.000461f, 0.004570f, -0.017947f, -0.018070f, 0.013896f, -0.003332f, 
-0.011094f, 0.001833f, 0.010621f, 0.015318f, -0.013543f, 0.007512f, -0.001161f, 0.005689f, 
-0.003186f, 0.000539f, -0.000541f, -0.026540f, -0.003465f, -0.001942f, -0.007725f, -0.000588f, 
0.002539f, -0.019445f, -0.010337f, -0.006656f, -0.012344f, 0.006145f, -0.002867f, -0.001576f, 
-0.019661f, -0.019609f, 0.012539f, 0.009773f, 0.008736f, -0.018702f, 0.002683f, -0.008044f, 
-0.017354f, -0.006489f, 0.016759f, 0.008922f, -0.000601f, 0.012793f, 0.006075f, -0.001751f, 
-0.013062f, -0.013121f, -0.013201f, -0.013414f, 0.011173f, -0.004135f, 0.009079f, 0.004428f, 
0.018628f, -0.000437f, 0.021302f, -0.010588f, -0.009893f, 0.004139f, -0.012497f, -0.016319f, 
-0.013908f, 0.007367f, -0.009340f, -0.012224f, -0.019638f, -0.018166f, 0.005639f, 0.009520f, 
0.004837f, 0.015268f, 0.014887f, -0.007198f, 0.002289f, -0.008791f, -0.023043f, -0.020132f, 
0.004776f, -0.005120f, 0.007108f, 0.000203f, 0.021156f, 0.023718f, 0.012799f, 0.024853f, 
-0.010125f, -0.018410f, -0.002218f, -0.021099f, -0.012321f, -0.003609f, -0.006882f, -0.017877f, 
-0.012923f, 0.005151f, -0.020401f, -0.017944f, 0.017074f, 0.023500f, -0.006152f, -0.013153f, 
0.001443f, 0.001090f, 0.010311f, 0.010683f, 0.002142f, 0.005829f, 0.001857f, 0.009537f, 
-0.002757f, 0.002022f, 0.026201f, 0.017291f, 0.002648f, -0.013628f, -0.000520f, -0.001931f, 
-0.002965f, 0.006483f, -0.017881f, -0.020706f, -0.000549f, 0.009723f, -0.009598f, -0.015872f, 
-0.008617f, -0.002299f, 0.014385f, 0.016599f, -0.003227f, -0.001724f, -0.001291f, -0.009027f, 
-0.002857f, -0.005014f, 0.009956f, 0.023920f, 0.019717f, 0.002366f, 0.016669f, 0.015602f, 
0.000155f, -0.002654f, -0.002601f, 0.000638f, 0.001598f, -0.010628f, -0.007948f, -0.022685f, 
-0.001308f, -0.003022f, -0.014809f, -0.016719f, -0.020673f, -0.016680f, 0.017059f, 0.016520f, 
0.023266f, 0.020263f, -0.005052f, 0.014411f, 0.018750f, 0.005481f, 0.005052f, -0.003146f, 
0.016713f, 0.028171f, 0.011699f, 0.019054f, 0.004840f, 0.004448f, -0.000167f, -0.017475f, 
-0.014816f, -0.009274f, 0.008523f, -0.023729f, -0.023386f, -0.002199f, -0.011567f, -0.017483f, 
0.000654f, -0.015676f, -0.001870f, -0.001761f, -0.005949f, -0.009876f, 0.000421f, 0.002243f, 
0.011934f, -0.006363f, -0.000929f, 0.010300f, 0.024674f, 0.019899f, 0.021691f, 0.025730f, 
0.028109f, 0.022342f, 0.017708f, -0.005055f, 0.004923f, -0.004219f, -0.020051f, -0.008275f, 
-0.002378f, 0.009371f, -0.022332f, 0.008232f, -0.012243f, 0.007758f, 0.005521f, 0.006693f, 
-0.008185f, -0.013362f, -0.012553f, -0.002922f, 0.001895f, -0.005237f, 0.006059f, 0.006573f, 
0.019325f, 0.017599f, -0.003168f, 0.005283f, 0.022133f, 0.002299f, 0.019425f, 0.015328f, 
0.013318f, 0.002158f, -0.010422f, 0.030128f, -0.033705f, -0.041501f, -0.025691f, -0.041683f, 
-0.036649f, -0.010907f, -0.024982f, -0.018285f, -0.017379f, -0.009857f, -0.009005f, -0.025342f, 
-0.027701f, -0.019621f, -0.007149f, -0.030292f, -0.021359f, -0.021046f, 0.002442f, 0.003757f, 
-0.001280f, 0.012562f, -0.022724f, -0.014730f, -0.035872f, -0.014698f, 0.011639f, 0.013991f, 
-0.027623f, -0.034541f, -0.020831f, -0.028876f, -0.030472f, -0.037918f, -0.032421f, -0.042804f, 
-0.039341f, -0.034400f, -0.019565f, -0.009278f, -0.003241f, -0.023454f, -0.016683f, -0.003912f, 
-0.018591f, -0.024179f, -0.024228f, 0.000466f, -0.020706f, -0.020137f, 0.003293f, -0.014877f, 
-0.029810f, -0.022398f, -0.024765f, 0.029296f, -0.008090f, -0.022318f, -0.019979f, -0.032958f, 
-0.020642f, -0.039449f, -0.037123f, -0.031177f, -0.015563f, -0.012753f, -0.023322f, -0.027343f, 
-0.027087f, -0.040447f, -0.017560f, -0.016655f, -0.034078f, -0.026893f, -0.015807f, -0.001579f, 
-0.014636f, -0.019652f, -0.011400f, -0.002133f, 0.006132f, 0.006801f, -0.012655f, -0.022480f, 
-0.021797f, -0.013848f, -0.010252f, -0.017344f, -0.042252f, -0.024420f, -0.019522f, -0.023810f, 
-0.012592f, -0.012735f, -0.034733f, -0.013339f, -0.036991f, -0.030698f, -0.027422f, -0.011789f, 
-0.017223f, -0.006404f, -0.025340f, -0.020432f, 0.000783f, -0.020466f, -0.006833f, -0.013503f, 
-0.025769f, -0.003286f, -0.009406f, 0.011448f, -0.022301f, -0.025152f, -0.015408f, -0.016515f, 
-0.015674f, -0.022255f, -0.004480f, -0.003207f, -0.035787f, -0.028688f, -0.017989f, -0.006032f, 
-0.016020f, -0.036875f, -0.015703f, -0.031205f, -0.028660f, -0.024309f, -0.011548f, -0.020791f, 
-0.011786f, -0.022764f, -0.017515f, 0.002369f, -0.025062f, -0.014356f, -0.006788f, 0.010662f, 
0.012663f, 0.005945f, -0.008736f, 0.000846f, -0.024201f, -0.011973f, -0.013155f, -0.001916f, 
-0.005541f, -0.030719f, -0.028189f, -0.028880f, -0.004025f, -0.014931f, -0.023996f, -0.031283f, 
-0.008233f, -0.037038f, -0.042601f, -0.023379f, -0.012023f, -0.012739f, -0.007714f, -0.031436f, 
-0.007429f, -0.009442f, -0.008934f, 0.001060f, -0.018197f, 0.004172f, -0.002249f, -0.008571f, 
-0.012656f, -0.009470f, -0.035757f, -0.034384f, 0.000877f, -0.019512f, -0.030077f, -0.021001f, 
-0.006338f, -0.030597f, -0.004696f, -0.003363f, -0.026570f, -0.006935f, -0.023050f, -0.047631f, 
-0.010207f, -0.016017f, -0.013762f, -0.025670f, -0.010959f, -0.012836f, -0.019397f, -0.017587f, 
0.010618f, 0.001075f, -0.018211f, -0.010578f, -0.017951f, -0.004486f, -0.010089f, -0.027764f, 
-0.027848f, -0.020488f, -0.009618f, -0.008207f, -0.013304f, -0.025920f, -0.026353f, -0.021592f, 
0.000232f, -0.024487f, -0.023716f, -0.024110f, -0.034268f, -0.032468f, -0.024440f, -0.029569f, 
0.005956f, -0.011779f, 0.014021f, -0.015891f, 0.009061f, -0.005000f, -0.026260f, 0.002599f, 
0.002186f, -0.025438f, -0.018262f, 0.000180f, -0.021579f, -0.010379f, -0.000846f, -0.013042f, 
-0.021871f, 0.001817f, -0.019497f, -0.020445f, -0.018164f, 0.003996f, -0.000851f, -0.028045f, 
-0.028484f, 0.002133f, 0.001033f, -0.000952f, 0.019344f, -0.009653f, -0.003893f, -0.006739f, 
-0.013590f, 0.002809f, -0.024099f, -0.010044f, -0.014758f, -0.018565f, -0.021284f, -0.027239f, 
0.001511f, -0.028739f, -0.013601f, -0.000385f, -0.005835f, 0.008955f, 0.011500f, -0.017239f, 
-0.004762f, -0.011991f, 0.003827f, -0.003580f, -0.021860f, 0.011936f, -0.015644f, -0.002110f, 
0.004631f, 0.000279f, 0.005435f, 0.002400f, 0.010038f, 0.005719f, 0.010506f, -0.009752f, 
-0.003014f, -0.014425f, -0.010161f, 0.001779f, -0.000337f, -0.008122f, -0.002184f, -0.000388f, 
0.000473f, -0.024332f, -0.014607f, 0.001323f, -0.015402f, -0.012917f, -0.012143f, -0.014985f, 
-0.019906f, -0.007283f, 0.031048f, -0.010128f, 0.006157f, 0.001683f, 0.017825f, 0.003563f, 
-0.012130f, 0.015270f, 0.004070f, 0.000125f, -0.016991f, 0.003451f, -0.005889f, -0.006289f, 
0.010034f, -0.020937f, 0.005402f, 0.006187f, 0.006091f, -0.003623f, -0.005342f, -0.010938f, 
-0.013110f, 0.009667f, -0.011750f, 0.008465f, 0.009765f, -0.003580f, -0.002607f, 0.025872f, 
0.025160f, 0.013554f, 0.013179f, 0.027080f, -0.009239f, 0.009390f, 0.019861f, -0.000799f, 
-0.020030f, -0.006420f, -0.025773f, -0.034622f, -0.006332f, -0.000711f, 0.000950f, 0.006405f, 
-0.001208f, -0.003875f, -0.002658f, -0.003530f, -0.005123f, -0.017522f, -0.005600f, -0.011663f, 
0.005042f, -0.005151f, 0.006027f, 0.012612f, 0.014714f, 0.015059f, -0.003108f, 0.015482f, 
0.010352f, 0.001726f, -0.006107f, 0.004726f, -0.019052f, -0.029596f, -0.036301f, -0.038265f, 
-0.012894f, -0.035123f, -0.005027f, 0.001629f, -0.000816f, -0.002812f, -0.001068f, 0.011195f, 
0.001116f, -0.015128f, -0.016789f, -0.014425f, -0.002431f, 0.022049f, 0.012075f, 0.007798f, 
0.008764f, 0.023143f, 0.013156f, 0.029750f, 0.015421f, 0.007308f, 0.003633f, -0.005296f, 
-0.006475f, -0.014277f, -0.028772f, -0.028470f, -0.030710f, -0.017608f, -0.044043f, 0.016192f, 
-0.007459f, 0.004005f, -0.011640f, 0.000125f, 0.006629f, -0.007313f, 0.011032f, 0.014138f, 
-0.000313f, 0.019069f, 0.012027f, 0.020753f, 0.035734f, 0.029061f, 0.045962f, 0.029412f, 
