#ifndef MY_MODEL_H
#define MY_MODEL_H
// ======================================================
// IMPORTANT: After copying this file to your sketch folder,
// update BOTH of the following lines in your main sketch
// to match the number of classes and labels used during training:
//
//   #define NUM_CLASSES 6
//   String myClassLabels[NUM_CLASSES] = {"0Blank", "1Cup", "2Pen", "3unknown", "4Circle", "5Mouse"};
//
// Then uncomment:  #define USE_BAKED_WEIGHTS
// ======================================================
const float myModel_conv1_w[] = { 0.133568f, 0.030062f, 0.080053f, 0.058921f, -0.037861f, -0.100105f, -0.139327f, 0.089431f, 
-0.063133f, 0.229131f, -0.195419f, -0.004864f, 0.249724f, -0.055722f, 0.309672f, -0.196141f, 
0.252675f, -0.181187f, 0.279183f, 0.051782f, 0.256007f, -0.039667f, 0.155593f, 0.088371f, 
-0.034809f, -0.212984f, 0.243236f, -0.123159f, 0.309031f, 0.080831f, 0.073843f, 0.177571f, 
0.358506f, 0.184352f, 0.048869f, 0.077717f, 0.202553f, 0.363689f, 0.381121f, 0.028654f, 
0.198311f, 0.306432f, 0.029060f, 0.297944f, 0.378170f, -0.122792f, 0.319552f, 0.389659f, 
0.340763f, 0.167608f, 0.346872f, 0.084597f, 0.287269f, 0.333175f, 0.180272f, -0.161646f, 
-0.212502f, 0.072771f, -0.143606f, -0.015841f, -0.278646f, 0.066838f, -0.047205f, 0.263706f, 
-0.135414f, 0.281872f, -0.125562f, 0.203944f, 0.056580f, 0.105088f, -0.119816f, -0.100608f, 
0.099156f, 0.221935f, 0.121944f, -0.024920f, -0.230284f, 0.164809f, 0.044783f, -0.218899f, 
-0.110068f, 0.265585f, 0.094729f, 0.236732f, 0.223579f, 0.109216f, -0.078360f, 0.072417f, 
0.191392f, -0.214374f, -0.026494f, -0.134359f, -0.194323f, 0.005741f, 0.022842f, 0.066700f, 
0.068488f, -0.255886f, -0.000299f, 0.032241f, 0.000067f, -0.247924f, 0.052209f, -0.141400f, 
-0.116421f, 0.128616f, 0.232981f, -0.132030f };
const float myModel_conv1_b[] = { 0.023317f, -0.120527f, 0.013807f, -0.088030f };
const float myModel_conv2_w[] = { -0.060540f, 0.026329f, -0.019021f, 0.213902f, 0.056464f, -0.078653f, -0.085025f, -0.096600f, 
-0.258355f, 0.106561f, 0.035983f, 0.032977f, 0.171512f, -0.099460f, -0.246467f, 0.219486f, 
-0.001352f, 0.131008f, 0.217107f, -0.218782f, -0.017294f, 0.115056f, -0.078635f, 0.216848f, 
-0.199033f, -0.083546f, -0.185003f, 0.249217f, 0.226532f, 0.221100f, -0.057708f, 0.065472f, 
0.255150f, -0.065294f, 0.005208f, 0.258164f, 0.191628f, 0.109180f, -0.178257f, 0.069866f, 
0.159664f, -0.129561f, -0.147121f, 0.188919f, -0.221760f, -0.024996f, 0.205687f, 0.221627f, 
-0.187409f, 0.196413f, -0.053261f, 0.116275f, -0.211766f, -0.099346f, -0.336255f, 0.143521f, 
0.006324f, -0.229350f, -0.238461f, -0.184645f, -0.240225f, -0.043141f, -0.044852f, -0.099731f, 
0.096754f, 0.269754f, 0.048339f, -0.122895f, 0.189452f, 0.168479f, -0.073663f, 0.031035f, 
-0.251490f, -0.084546f, -0.080161f, -0.236578f, 0.107087f, 0.213818f, 0.190725f, -0.107244f, 
0.014966f, -0.212304f, -0.112785f, 0.147679f, 0.152886f, -0.159715f, 0.046979f, 0.157674f, 
-0.156505f, 0.229176f, -0.050705f, 0.038394f, 0.059171f, 0.261575f, -0.149694f, 0.307801f, 
-0.092212f, -0.088031f, 0.233520f, -0.027055f, 0.180557f, 0.323932f, -0.041592f, -0.100635f, 
0.311993f, 0.116591f, -0.108152f, 0.114475f, -0.123770f, -0.180584f, 0.059140f, 0.229113f, 
-0.020281f, -0.146191f, 0.001949f, 0.043792f, 0.049026f, 0.240379f, 0.001506f, -0.173322f, 
-0.073729f, 0.039232f, -0.174273f, -0.182321f, -0.040282f, -0.215265f, -0.109846f, 0.011818f, 
-0.105685f, 0.231476f, -0.104656f, -0.148761f, 0.053003f, -0.108818f, 0.180329f, -0.231159f, 
-0.051501f, -0.075378f, 0.027861f, -0.098959f, -0.024489f, -0.000666f, -0.131250f, 0.230556f, 
0.045205f, -0.174220f, 0.031294f, 0.045085f, -0.199574f, -0.113166f, 0.242352f, -0.078270f, 
-0.061178f, 0.103440f, 0.209371f, -0.032149f, -0.055467f, -0.038251f, 0.001371f, 0.085297f, 
-0.089849f, -0.131184f, 0.256152f, 0.215176f, 0.221973f, 0.277149f, 0.248015f, 0.391300f, 
0.054361f, 0.216403f, -0.084815f, -0.022764f, -0.104084f, -0.137961f, -0.176295f, 0.235979f, 
0.019946f, 0.215659f, 0.072313f, 0.005360f, 0.200542f, 0.099951f, 0.234696f, -0.175668f, 
-0.081714f, -0.094589f, 0.020093f, -0.205183f, 0.118087f, 0.073161f, -0.078949f, -0.158308f, 
0.104812f, 0.175866f, -0.117693f, 0.175087f, -0.125955f, -0.090675f, 0.191654f, 0.364722f, 
0.237008f, 0.032228f, 0.258689f, 0.301579f, 0.251391f, 0.311579f, 0.422693f, 0.181843f, 
0.085124f, 0.016480f, 0.067857f, -0.145885f, 0.070284f, -0.188060f, -0.048823f, 0.091804f, 
0.202968f, -0.193999f, -0.157943f, 0.195428f, -0.148872f, -0.145481f, 0.186140f, 0.255838f, 
-0.168472f, 0.202962f, -0.216103f, -0.131031f, 0.017724f, -0.044281f, -0.052645f, 0.024232f, 
0.103204f, 0.087097f, 0.101923f, 0.310038f, -0.005906f, 0.070348f, 0.446979f, -0.004576f, 
0.468614f, 0.321126f, 0.354751f, -0.107978f, 0.129291f, 0.040775f, -0.001320f, 0.079878f, 
-0.137416f, -0.143595f, -0.172418f, -0.046523f, -0.213016f, 0.082496f, 0.036825f, 0.218922f, 
-0.224252f, -0.155292f, 0.223278f, 0.022350f, 0.116250f, 0.154933f, -0.191510f, 0.170503f, 
-0.132292f, 0.025356f, -0.204763f, -0.143350f, 0.017196f, 0.092705f, -0.070794f, 0.042266f, 
0.062630f, 0.186531f, 0.192727f, -0.071811f, -0.098655f, -0.119956f, 0.208857f, -0.153115f, 
0.111703f, -0.025145f, -0.006648f, -0.110439f, 0.189733f, -0.216386f, 0.188096f, 0.084273f
 };
const float myModel_conv2_b[] = { -0.093630f, -0.081106f, -0.054078f, 0.079095f, 0.005584f, -0.000796f, 0.026303f, 0.081677f
 };
const float myModel_output_w[] = { 0.030160f, 0.002385f, 0.026190f, 0.013308f, -0.007278f, 0.000436f, 0.005811f, 0.000155f, 
-0.002200f, 0.004786f, -0.003686f, -0.000124f, -0.016997f, -0.015540f, -0.006406f, -0.006826f, 
0.000274f, -0.027359f, 0.004287f, 0.000468f, -0.017486f, 0.002740f, 0.001006f, -0.006903f, 
-0.016345f, -0.030222f, -0.010517f, -0.009764f, -0.022189f, 0.000353f, -0.004795f, -0.003916f, 
0.011232f, -0.007239f, 0.009395f, 0.000616f, 0.018316f, 0.012086f, -0.002621f, 0.012745f, 
0.008228f, 0.010992f, -0.016461f, -0.003582f, -0.007358f, 0.000185f, -0.000765f, -0.005357f, 
0.001840f, -0.023642f, -0.011429f, -0.002964f, -0.015099f, -0.019691f, -0.013826f, -0.014273f, 
-0.015835f, -0.015462f, 0.001122f, 0.021825f, 0.005307f, 0.013218f, -0.003907f, 0.012551f, 
-0.003785f, 0.011405f, 0.006573f, -0.007087f, -0.005672f, 0.012021f, -0.017877f, -0.014397f, 
-0.007851f, -0.002070f, -0.016203f, -0.007563f, 0.002354f, -0.015231f, -0.000763f, 0.001864f, 
-0.008502f, -0.016685f, 0.003554f, 0.003245f, -0.024825f, -0.027703f, -0.007973f, 0.006649f, 
0.023614f, 0.023527f, 0.009485f, -0.007678f, -0.000029f, 0.012999f, 0.001241f, -0.006631f, 
0.001936f, 0.016263f, 0.000762f, -0.012076f, 0.015091f, 0.006187f, -0.006516f, 0.011876f, 
-0.003045f, -0.013146f, -0.004628f, -0.011086f, -0.005461f, 0.000744f, -0.018963f, 0.003538f, 
-0.007058f, -0.008397f, -0.014981f, -0.021031f, -0.005444f, 0.027070f, 0.006663f, -0.002248f, 
0.016286f, 0.015868f, 0.007353f, 0.013790f, -0.006252f, 0.010255f, -0.004086f, -0.009383f, 
0.013092f, 0.010872f, 0.012659f, 0.001940f, 0.004637f, 0.000349f, -0.012313f, 0.004302f, 
0.003269f, -0.017906f, -0.006317f, -0.016062f, 0.006364f, 0.005161f, -0.001478f, -0.014830f, 
-0.015789f, 0.025360f, 0.026343f, 0.014319f, 0.017923f, 0.015857f, -0.001698f, -0.006080f, 
0.008505f, 0.009559f, 0.022071f, 0.023426f, -0.005057f, -0.010726f, 0.012379f, -0.005784f, 
-0.007020f, 0.014000f, 0.012323f, 0.003759f, 0.002577f, -0.001017f, -0.005507f, 0.004359f, 
-0.002039f, 0.000401f, -0.009845f, -0.012175f, 0.000841f, -0.020367f, 0.009058f, -0.000379f, 
0.023362f, 0.025762f, 0.023823f, 0.012805f, 0.026196f, 0.006644f, -0.002909f, -0.006065f, 
-0.008353f, 0.016796f, -0.009041f, 0.016636f, 0.002812f, -0.007025f, 0.016719f, 0.003406f, 
-0.005961f, -0.014149f, 0.013171f, 0.010144f, -0.008142f, -0.005860f, -0.001011f, -0.002209f, 
-0.012504f, 0.001436f, 0.004380f, 0.008521f, 0.012966f, -0.003086f, -0.002747f, 0.012137f, 
0.002868f, 0.024041f, 0.008765f, 0.011089f, 0.028400f, -0.001122f, 0.007128f, 0.010475f, 
-0.010563f, -0.005965f, -0.011700f, 0.003798f, -0.003177f, 0.001234f, -0.006379f, 0.007009f, 
-0.008605f, -0.002571f, -0.010008f, -0.010010f, 0.009744f, 0.001044f, -0.008980f, -0.016088f, 
0.013976f, 0.005495f, 0.002341f, 0.003705f, 0.028572f, -0.003858f, 0.017116f, 0.022796f, 
0.008684f, 0.006729f, 0.028609f, 0.011550f, -0.005693f, 0.019136f, -0.001085f, 0.019909f, 
-0.011504f, -0.007803f, -0.011709f, -0.006375f, 0.003963f, -0.015797f, 0.012643f, 0.008395f, 
-0.021653f, 0.002400f, -0.020168f, -0.016653f, -0.009323f, 0.009336f, 0.009605f, -0.003322f, 
0.000875f, 0.004282f, 0.003790f, 0.013624f, 0.017636f, -0.002526f, 0.007022f, 0.007541f, 
0.010731f, 0.017719f, 0.004049f, 0.010106f, -0.004949f, 0.005517f, -0.001469f, 0.016935f, 
0.011647f, 0.018320f, -0.006876f, -0.014858f, 0.007212f, -0.011607f, -0.004173f, -0.010467f, 
-0.006664f, -0.027362f, -0.005721f, 0.005972f, 0.002787f, 0.015980f, 0.027447f, 0.025268f, 
0.012330f, 0.018449f, 0.016921f, 0.014529f, 0.027022f, -0.006857f, 0.015708f, -0.002989f, 
0.018179f, 0.008208f, 0.015456f, -0.007559f, 0.011308f, 0.009833f, -0.002125f, -0.010737f, 
0.013908f, -0.001293f, 0.003360f, -0.023128f, 0.004679f, -0.004739f, -0.016363f, 0.013711f, 
0.012971f, 0.022309f, 0.001446f, 0.011917f, 0.012409f, 0.003850f, 0.022782f, -0.000338f, 
0.012244f, 0.027353f, 0.013962f, 0.017198f, 0.013780f, 0.009851f, 0.013278f, 0.015065f, 
0.013044f, 0.005744f, 0.007532f, 0.013555f, 0.009326f, -0.000025f, -0.001427f, -0.019007f, 
0.010983f, -0.014254f, 0.002616f, -0.009184f, -0.008913f, 0.006963f, 0.020307f, 0.015601f, 
0.000598f, 0.023384f, 0.001509f, 0.018415f, 0.018403f, 0.023427f, 0.002044f, 0.012996f, 
0.020610f, 0.007048f, 0.001741f, -0.005342f, -0.009301f, -0.006221f, 0.004242f, 0.000077f, 
0.007525f, -0.004546f, -0.007208f, 0.016725f, -0.009560f, 0.002680f, -0.007987f, -0.010250f, 
-0.028459f, 0.009887f, 0.000991f, 0.002242f, 0.013995f, 0.018303f, 0.007867f, 0.001855f, 
-0.003485f, 0.012450f, -0.002975f, 0.028998f, 0.026886f, 0.001087f, 0.019798f, 0.010186f, 
0.004751f, -0.003279f, -0.011136f, 0.001379f, 0.004382f, -0.010792f, 0.019900f, 0.008108f, 
0.001230f, 0.010997f, 0.002705f, -0.001690f, -0.006238f, -0.015808f, -0.002087f, 0.002740f, 
0.022408f, -0.001949f, -0.001276f, 0.010087f, 0.013786f, 0.019854f, 0.012054f, 0.024167f, 
0.019614f, 0.026713f, 0.013022f, 0.004562f, -0.006337f, -0.012057f, -0.012429f, -0.004699f, 
0.012294f, -0.005485f, 0.008473f, 0.004526f, 0.017729f, -0.005228f, 0.005300f, -0.013618f, 
-0.023261f, 0.001085f, -0.011962f, -0.007022f, 0.017819f, 0.000736f, 0.008165f, -0.000183f, 
0.017894f, 0.010261f, -0.004014f, 0.003604f, 0.028510f, 0.026415f, -0.000398f, 0.026259f, 
0.018272f, 0.017020f, -0.001855f, -0.012021f, 0.005693f, -0.009040f, -0.009819f, -0.000170f, 
-0.003055f, -0.004102f, -0.006093f, -0.004863f, 0.011363f, -0.019368f, -0.007672f, -0.010551f, 
0.019361f, 0.001781f, 0.000606f, 0.002145f, -0.001499f, 0.010300f, 0.023448f, 0.024364f, 
0.021080f, 0.001941f, 0.006690f, 0.012766f, 0.007674f, 0.016169f, 0.022117f, 0.013267f, 
0.016426f, -0.012730f, -0.001717f, -0.006036f, -0.009071f, -0.007787f, -0.018626f, -0.001137f, 
-0.004416f, 0.008980f, 0.004998f, -0.009631f, -0.004532f, 0.014416f, 0.007933f, 0.010544f, 
-0.004797f, 0.024792f, 0.025807f, 0.011958f, 0.017151f, 0.018388f, -0.004519f, 0.019403f, 
0.006949f, 0.020206f, 0.023193f, 0.011805f, 0.003130f, -0.013178f, 0.003581f, 0.011753f, 
-0.008221f, 0.008899f, 0.011223f, -0.009575f, 0.010779f, -0.016417f, -0.000540f, 0.000600f, 
-0.013878f, 0.006863f, -0.011809f, 0.017058f, -0.007366f, 0.021525f, 0.007478f, -0.001833f, 
-0.000903f, 0.014072f, -0.004554f, 0.028667f, 0.006591f, 0.012893f, 0.001642f, 0.005771f, 
-0.004865f, 0.018693f, 0.003726f, 0.002669f, 0.013270f, 0.006170f, -0.006973f, -0.009551f, 
-0.019740f, 0.007439f, 0.002884f, -0.002364f, -0.008753f, -0.019531f, 0.004471f, 0.007347f, 
0.007342f, 0.011394f, 0.003354f, 0.002598f, 0.017783f, -0.005968f, 0.000975f, 0.012531f, 
0.028165f, 0.006020f, 0.026786f, 0.019417f, 0.020013f, 0.004266f, 0.011956f, 0.012835f, 
0.009456f, 0.008502f, -0.013513f, 0.005289f, 0.005686f, -0.006911f, -0.009097f, -0.007613f, 
-0.007118f, 0.000071f, -0.010002f, -0.013865f, -0.009152f, 0.005690f, 0.006424f, -0.001054f, 
-0.010789f, 0.007444f, 0.007235f, 0.006877f, 0.020374f, -0.003261f, 0.014593f, 0.011739f, 
-0.007656f, 0.022767f, 0.009392f, -0.001729f, -0.010773f, 0.005646f, -0.001438f, 0.000558f, 
-0.000873f, -0.020629f, -0.003769f, -0.011732f, 0.003719f, -0.018883f, -0.020402f, -0.003293f, 
-0.012910f, -0.008301f, 0.014673f, -0.006532f, 0.011831f, 0.018354f, 0.010007f, 0.010222f, 
0.024110f, -0.001677f, 0.002011f, 0.019517f, -0.007517f, 0.003270f, 0.020002f, -0.005964f, 
0.017621f, 0.002354f, 0.017476f, -0.007162f, -0.001087f, 0.008769f, -0.017744f, -0.005735f, 
-0.006556f, 0.005595f, 0.008128f, -0.002163f, -0.001049f, -0.019922f, -0.000084f, -0.002495f, 
0.000608f, -0.004257f, 0.018984f, 0.001344f, 0.020714f, 0.010838f, 0.002902f, 0.009384f, 
0.019245f, -0.001976f, 0.015271f, -0.006550f, 0.011328f, 0.005639f, -0.013610f, 0.001756f, 
0.010175f, 0.000039f, -0.010780f, 0.000403f, -0.018977f, 0.002367f, -0.010563f, 0.015090f, 
-0.004364f, -0.015318f, 0.001847f, 0.002081f, -0.007892f, -0.005200f, 0.014565f, 0.006399f, 
0.013089f, -0.000136f, 0.011740f, 0.005752f, 0.004947f, 0.015688f, -0.013877f, -0.004631f, 
0.017537f, 0.012416f, -0.012150f, -0.014646f, 0.006530f, -0.011162f, -0.006843f, -0.011139f, 
0.010458f, 0.012919f, 0.001217f, 0.013988f, 0.014682f, -0.004160f, 0.007207f, 0.000239f, 
-0.003839f, -0.008474f, 0.005083f, -0.000903f, -0.003972f, 0.012619f, -0.008725f, 0.006320f, 
-0.011861f, 0.003801f, -0.011741f, -0.005189f, 0.018996f, -0.013362f, 0.005322f, 0.004130f, 
0.011381f, -0.018232f, 0.013786f, 0.012551f, 0.004706f, 0.005398f, 0.004113f, -0.006064f, 
0.017988f, 0.012105f, -0.009692f, 0.010275f, -0.017044f, -0.005137f, 0.008846f, 0.011647f, 
0.014314f, -0.000906f, 0.020378f, 0.006339f, -0.011627f, 0.005589f, -0.001847f, 0.004141f, 
-0.005980f, 0.008890f, 0.011717f, -0.010476f, -0.005672f, 0.004368f, -0.002459f, 0.013818f, 
0.000650f, 0.001069f, 0.013774f, -0.014823f, -0.007861f, -0.005661f, 0.011333f, -0.000237f, 
0.009168f, -0.016599f, -0.000618f, 0.013556f, 0.003141f, 0.014384f, 0.020149f, -0.012427f, 
0.011417f, -0.003368f, -0.003345f, 0.009464f, 0.015313f, 0.004637f, 0.002157f, -0.005697f, 
-0.008183f, -0.002021f, -0.006805f, -0.011116f, -0.018161f, -0.002874f, 0.010370f, -0.014531f, 
-0.005279f, 0.006033f, 0.019469f, -0.008861f, 0.017253f, 0.002606f, -0.003493f, 0.012655f, 
-0.003946f, 0.005272f, 0.005546f, -0.012870f, 0.006179f, -0.010795f, -0.011520f, 0.013768f, 
-0.005946f, 0.006828f, 0.010210f, 0.000951f, 0.007139f, 0.015933f, -0.010363f, -0.006733f, 
0.006725f, 0.008374f, 0.012406f, -0.005474f, 0.004779f, -0.001852f, 0.016200f, 0.011838f, 
0.006930f, 0.004175f, 0.010137f, -0.014555f, 0.012579f, 0.024329f, -0.003835f, 0.004392f, 
-0.000944f, 0.014739f, -0.008896f, 0.002255f, 0.001749f, 0.007950f, -0.003232f, -0.010798f, 
-0.004101f, -0.008833f, -0.013830f, 0.013421f, -0.015191f, -0.015521f, -0.017547f, -0.016017f, 
0.000529f, -0.014058f, -0.000923f, 0.000171f, -0.002616f, -0.000243f, -0.016364f, -0.011718f, 
0.008853f, 0.003762f, 0.026663f, 0.012106f, 0.009758f, 0.023294f, -0.003738f, 0.019345f, 
-0.007397f, 0.005841f, -0.009655f, -0.012389f, 0.007273f, -0.023960f, -0.014292f, -0.007333f, 
-0.004257f, -0.019672f, -0.004069f, -0.022209f, -0.016804f, -0.016933f, -0.012830f, -0.035781f, 
-0.026564f, -0.016391f, -0.016378f, -0.030356f, -0.033684f, -0.015622f, 0.018709f, 0.006040f, 
0.012931f, 0.015910f, 0.004236f, 0.016634f, -0.010952f, 0.004754f, 0.006334f, -0.024967f, 
-0.024646f, -0.015228f, -0.010739f, -0.011558f, -0.009629f, -0.003262f, -0.008303f, -0.001535f, 
-0.006155f, -0.026911f, -0.028611f, -0.020999f, -0.010278f, -0.006269f, -0.014906f, -0.008306f, 
-0.030230f, -0.029755f, -0.022326f, 0.031195f, 0.005105f, 0.021120f, 0.009740f, 0.004405f, 
-0.000618f, -0.003892f, -0.010820f, -0.012912f, -0.014144f, 0.005899f, -0.012219f, 0.004312f, 
-0.002810f, -0.019173f, -0.022994f, -0.004404f, -0.011433f, -0.029196f, -0.024086f, -0.028976f, 
-0.016270f, -0.012888f, -0.024203f, -0.024934f, -0.000876f, -0.022857f, -0.010296f, -0.012748f, 
0.010558f, 0.014329f, 0.003039f, 0.001416f, -0.001802f, 0.000953f, 0.007714f, 0.003713f, 
-0.014476f, -0.001763f, -0.016752f, 0.004599f, 0.000587f, -0.021903f, -0.022971f, -0.021829f, 
0.002597f, -0.022687f, -0.013750f, -0.006657f, -0.000155f, -0.000569f, -0.013271f, -0.007010f, 
-0.011222f, -0.028691f, -0.026649f, -0.012840f, -0.001387f, 0.006791f, 0.000865f, -0.007351f, 
0.001697f, 0.015002f, 0.021839f, -0.013968f, -0.009496f, -0.005576f, -0.014890f, -0.009655f, 
-0.007415f, -0.024751f, 0.003303f, 0.000421f, 0.006198f, 0.000083f, -0.002112f, 0.005132f, 
0.012224f, 0.002152f, -0.015470f, -0.007149f, -0.015423f, -0.009237f, -0.025076f, -0.008162f, 
-0.002967f, -0.020496f, 0.026433f, -0.006326f, 0.003294f, 0.017930f, 0.023997f, 0.014473f, 
0.008850f, -0.009883f, 0.017386f, -0.012723f, -0.005785f, -0.016142f, -0.012204f, -0.017662f, 
0.010453f, -0.016735f, -0.010107f, -0.008589f, 0.015160f, -0.011594f, 0.008261f, -0.000009f, 
-0.003242f, -0.018243f, 0.005195f, -0.008358f, -0.018751f, -0.008434f, -0.003113f, 0.028438f, 
0.005237f, 0.011251f, 0.011485f, 0.018593f, 0.026731f, -0.005655f, 0.021663f, 0.009977f, 
0.003882f, -0.001219f, 0.012575f, 0.015169f, -0.006177f, -0.016727f, 0.003832f, -0.018196f, 
0.007899f, -0.017447f, 0.003146f, -0.002853f, -0.012123f, 0.016413f, 0.010353f, 0.001004f, 
-0.022900f, -0.023150f, -0.010486f, -0.025614f, 0.011643f, -0.003420f, 0.011100f, 0.005460f, 
0.004139f, 0.022801f, 0.005086f, 0.021330f, 0.020071f, -0.002961f, 0.004831f, -0.011508f, 
0.019058f, -0.008781f, 0.017539f, -0.013013f, 0.012724f, 0.000791f, -0.001169f, -0.013621f, 
0.018074f, 0.019851f, 0.007875f, -0.000261f, -0.019419f, -0.006930f, -0.024923f, -0.010348f, 
0.001993f, 0.027444f, -0.001751f, 0.023506f, 0.024203f, 0.006708f, 0.021288f, 0.010718f, 
0.016060f, -0.003571f, 0.003603f, 0.018862f, -0.004787f, -0.006276f, -0.011222f, -0.008647f, 
-0.006460f, -0.002173f, -0.009147f, 0.012182f, -0.000012f, 0.010060f, -0.001892f, -0.005809f, 
-0.007943f, -0.006804f, -0.014631f, -0.009227f, -0.023809f, -0.009360f, 0.006131f, 0.001158f, 
0.013351f, 0.005857f, 0.014330f, 0.014037f, 0.034216f, 0.009154f, -0.001254f, 0.030119f, 
0.001678f, 0.019601f, -0.001508f, 0.015199f, 0.012718f, -0.016645f, 0.006568f, 0.018478f, 
0.013816f, -0.002160f, -0.005420f, -0.006702f, -0.020142f, -0.003142f, -0.007714f, -0.001420f, 
-0.008164f, -0.020730f, -0.006254f, 0.019118f, 0.022312f, 0.010640f, 0.030717f, 0.031025f, 
0.001663f, 0.028130f, 0.025117f, 0.011698f, -0.000261f, 0.003672f, 0.024069f, 0.020717f, 
0.015679f, -0.008385f, -0.015766f, 0.001187f, 0.014316f, -0.006854f, -0.000974f, 0.004520f, 
0.013217f, -0.006275f, -0.010828f, -0.021184f, -0.007420f, -0.028885f, 0.001122f, -0.014945f, 
0.028181f, 0.003414f, 0.016900f, 0.010538f, 0.016159f, 0.017426f, 0.023493f, 0.015338f, 
0.027422f, 0.022322f, 0.022426f, 0.012510f, -0.004539f, -0.008176f, 0.004850f, 0.012047f, 
0.008785f, -0.009939f, 0.014983f, -0.008139f, 0.004947f, -0.010444f, -0.013488f, 0.011700f, 
-0.023708f, -0.022890f, -0.025911f, -0.033386f, -0.026729f, 0.028339f, 0.015361f, 0.001850f, 
0.004227f, 0.030542f, 0.016063f, 0.023069f, 0.021564f, -0.000303f, 0.015448f, 0.023515f, 
0.004107f, 0.015407f, 0.002841f, 0.018413f, 0.009509f, 0.009005f, -0.006229f, -0.003447f, 
0.003949f, 0.016751f, -0.001041f, -0.013170f, 0.012538f, -0.007564f, -0.023452f, -0.004109f, 
-0.008624f, -0.016639f, 0.023558f, -0.002938f, 0.018760f, 0.008079f, 0.000195f, 0.015728f, 
-0.004485f, 0.023939f, 0.024524f, 0.000801f, 0.011991f, 0.022140f, 0.025452f, -0.000614f, 
-0.004278f, -0.006992f, 0.012678f, -0.005094f, -0.005127f, -0.008352f, -0.002694f, -0.009290f, 
-0.006035f, 0.013210f, -0.020154f, -0.006660f, -0.005236f, -0.009337f, -0.010973f, 0.026723f, 
0.010032f, 0.010222f, -0.005091f, 0.019553f, 0.016943f, 0.022871f, 0.024989f, 0.016415f, 
0.014221f, 0.030584f, 0.018178f, -0.000742f, 0.019167f, 0.023049f, 0.008074f, 0.014315f, 
0.015558f, 0.006065f, 0.026349f, 0.020723f, 0.016056f, 0.000964f, 0.015071f, -0.006084f, 
-0.018216f, 0.005722f, 0.003173f, -0.028927f, 0.023421f, -0.003068f, -0.000289f, 0.007397f, 
0.011945f, 0.007051f, 0.007962f, 0.018146f, 0.009332f, 0.011413f, 0.023813f, 0.025965f, 
0.016062f, 0.011083f, -0.002017f, 0.010078f, -0.007513f, 0.006105f, 0.006863f, 0.010199f, 
0.017884f, 0.004212f, -0.000488f, -0.002429f, 0.009629f, 0.005670f, 0.007003f, -0.001586f, 
-0.030665f, 0.024345f, 0.003494f, 0.000252f, -0.001980f, 0.002844f, -0.000780f, 0.017971f, 
0.001214f, 0.012775f, 0.003841f, 0.005867f, 0.016805f, 0.019306f, 0.020514f, -0.001054f, 
0.009108f, 0.012487f, -0.010222f, 0.003428f, -0.006440f, 0.008881f, 0.012821f, 0.001761f, 
-0.009928f, -0.010445f, -0.015293f, -0.007835f, -0.009605f, -0.017812f, 0.006188f, 0.001240f, 
0.004489f, 0.005995f, 0.010040f, 0.017922f, 0.016106f, 0.015500f, 0.018446f, 0.006251f, 
0.027306f, 0.013738f, 0.010860f, -0.009484f, 0.011560f, 0.003212f, -0.010124f, -0.013621f, 
0.008037f, 0.013878f, -0.006459f, -0.001190f, 0.008813f, 0.005296f, -0.009652f, -0.008115f, 
-0.018166f, -0.022927f, -0.024375f, -0.002374f, -0.002051f, -0.000781f, 0.004607f, 0.007260f, 
-0.001603f, 0.004571f, 0.000780f, 0.025644f, 0.029605f, 0.018369f, 0.007516f, -0.001980f, 
0.022006f, 0.001576f, -0.010903f, -0.010647f, -0.016267f, 0.002305f, 0.014476f, -0.017714f, 
-0.014576f, -0.013682f, -0.001408f, -0.007057f, -0.002566f, -0.016937f, -0.013435f, -0.011301f, 
-0.003898f, -0.002928f, 0.021998f, 0.005858f, 0.003882f, 0.008245f, 0.015594f, 0.004646f, 
0.027412f, 0.016704f, 0.010155f, 0.028332f, 0.005839f, -0.002560f, 0.004579f, 0.018950f, 
0.001354f, 0.017789f, -0.002024f, 0.006812f, -0.001602f, -0.000540f, -0.006987f, -0.011341f, 
0.005302f, 0.001555f, -0.014538f, -0.013574f, -0.008433f, 0.017216f, -0.008574f, 0.015597f, 
0.002735f, 0.011093f, 0.008979f, 0.014452f, 0.026991f, 0.031398f, 0.001734f, 0.001087f, 
0.011896f, 0.001470f, -0.000115f, 0.005836f, 0.012899f, 0.015694f, 0.015945f, -0.012250f, 
-0.002483f, -0.008307f, -0.012957f, 0.000300f, -0.008861f, -0.011745f, -0.025721f, -0.027442f, 
-0.028901f, -0.021615f, -0.009838f, 0.005628f, -0.008346f, 0.002229f, 0.019837f, 0.023838f, 
0.021768f, 0.015932f, 0.024510f, 0.010475f, 0.027842f, 0.003831f, 0.027189f, 0.014665f, 
0.025250f, -0.008105f, -0.008981f, -0.009213f, -0.012590f, -0.005748f, 0.003279f, 0.001679f, 
-0.025877f, -0.017527f, 0.006564f, -0.011504f, -0.000656f, 0.006265f, 0.006043f, -0.006224f, 
0.012348f, 0.010194f, 0.012730f, 0.013474f, 0.015542f, 0.015616f, 0.002368f, 0.018696f, 
0.015332f, 0.024172f, -0.001067f, -0.004841f, 0.010685f, 0.027520f, 0.002922f, 0.017195f, 
-0.016168f, -0.020127f, 0.006072f, -0.016419f, 0.004076f, 0.001059f, -0.022017f, -0.001194f, 
0.006956f, -0.014784f, -0.023168f, 0.006255f, -0.008167f, -0.001941f, 0.015027f, -0.005826f, 
0.022466f, -0.002060f, 0.024483f, 0.013147f, 0.021495f, 0.026515f, 0.014289f, 0.016326f, 
0.006294f, 0.004777f, -0.006142f, 0.004026f, 0.014359f, 0.010708f, -0.000872f, 0.009914f, 
-0.018017f, 0.007312f, -0.009928f, 0.002994f, -0.009226f, -0.005837f, -0.017374f, -0.003837f, 
-0.011283f, 0.006349f, -0.001034f, -0.000168f, -0.011512f, -0.004284f, 0.020917f, -0.006864f, 
-0.010892f, 0.019224f, -0.013173f, -0.015391f, -0.013508f, -0.010819f, 0.016463f, -0.007077f, 
0.008983f, 0.015195f, -0.014739f, 0.009543f, 0.014878f, 0.016238f, 0.002628f, 0.002521f, 
0.011528f, 0.016231f, -0.004540f, 0.006183f, 0.009757f, -0.007533f, 0.009070f, -0.002976f, 
-0.009677f, -0.006309f, 0.021908f, 0.022221f, 0.014345f, -0.012829f, -0.001165f, 0.009184f, 
0.007558f, -0.003848f, -0.003858f, -0.005380f, -0.003738f, 0.015141f, 0.012071f, -0.005706f, 
0.001216f, -0.003518f, -0.000578f, -0.004704f, 0.006000f, -0.012719f, -0.003428f, 0.004962f, 
0.012873f, -0.018120f, 0.003273f, 0.002694f, -0.011874f, 0.017886f, -0.010733f, -0.013777f, 
0.012050f, -0.016438f, 0.011575f, -0.003093f, -0.007560f, 0.002550f, 0.016512f, -0.000456f, 
0.012891f, 0.006050f, -0.003169f, 0.011383f, -0.017588f, -0.019174f, 0.004581f, 0.009929f, 
0.009066f, 0.018766f, -0.004330f, 0.001447f, -0.012592f, -0.013244f, -0.012463f, 0.001950f, 
-0.005246f, 0.005320f, -0.007238f, -0.002164f, 0.006464f, 0.001430f, 0.000138f, -0.015756f, 
-0.003797f, 0.017258f, -0.000783f, 0.009368f, -0.012670f, 0.005656f, 0.000217f, 0.008136f, 
0.006261f, -0.001115f, -0.004012f, -0.010409f, -0.000744f, -0.011189f, -0.004192f, -0.003194f, 
-0.006986f, 0.015983f, -0.008120f, -0.009096f, 0.013616f, 0.019014f, -0.003065f, 0.018807f, 
-0.015597f, -0.007715f, 0.004057f, -0.009445f, -0.006936f, 0.015775f, 0.005170f, -0.002362f, 
0.010171f, -0.020125f, -0.004350f, -0.016573f, 0.007066f, -0.001550f, -0.006369f, 0.001410f, 
-0.007604f, 0.018121f, 0.011670f, 0.014202f, -0.004005f, -0.009310f, -0.010219f, 0.014037f, 
0.000419f, 0.011654f, -0.008558f, -0.001404f, -0.013941f, 0.001851f, 0.005399f, -0.001708f, 
-0.003930f, 0.007260f, -0.003577f, -0.022629f, 0.007052f, -0.038780f, -0.024232f, -0.023423f, 
-0.012848f, -0.012000f, -0.018800f, -0.006792f, -0.008478f, -0.017290f, -0.015879f, 0.006958f, 
0.000923f, 0.005200f, -0.015894f, -0.014252f, -0.013626f, -0.037672f, -0.013450f, 0.010831f, 
0.014532f, -0.001143f, -0.018753f, -0.008097f, 0.010177f, -0.012203f, -0.013695f, 0.000087f, 
-0.008167f, 0.011449f, 0.004648f, -0.026504f, -0.001561f, 0.006963f, 0.019141f, -0.004861f, 
0.002691f, 0.000386f, -0.009088f, -0.000890f, -0.016189f, -0.002788f, -0.006483f, -0.004319f, 
-0.008859f, -0.016515f, -0.039716f, -0.043348f, 0.011606f, -0.010629f, 0.002753f, -0.015320f, 
-0.007849f, 0.020523f, 0.005478f, -0.003544f, 0.006370f, 0.002747f, 0.005991f, -0.012304f, 
-0.004465f, 0.002755f, -0.009821f, -0.000514f, 0.002000f, -0.006339f, -0.011373f, -0.003265f, 
0.009895f, -0.007624f, -0.019320f, -0.018206f, -0.007451f, -0.019352f, -0.017840f, -0.031276f, 
-0.031091f, -0.011131f, -0.009134f, 0.000004f, 0.006877f, 0.002770f, 0.014043f, -0.000070f, 
0.018826f, 0.015289f, 0.022268f, -0.006713f, 0.010790f, -0.017910f, 0.012319f, 0.007433f, 
0.021303f, -0.000841f, 0.010516f, 0.018194f, 0.002232f, 0.013412f, 0.009587f, 0.006964f, 
-0.013092f, -0.033405f, -0.015681f, -0.013437f, -0.010548f, -0.045216f, -0.016899f, -0.013770f, 
0.001057f, 0.003228f, 0.014407f, 0.013367f, 0.004656f, 0.026970f, 0.020448f, 0.020982f, 
0.027122f, 0.013997f, 0.005163f, 0.035439f, 0.010284f, 0.019252f, 0.001305f, 0.031370f, 
0.008744f, 0.018221f, 0.009324f, -0.020357f, 0.005952f, -0.025338f, -0.032459f, -0.032159f, 
-0.028745f, -0.006078f, -0.037914f, -0.003220f, -0.014258f, 0.005410f, 0.007929f, 0.000582f, 
0.006789f, 0.003422f, 0.027676f, 0.001426f, 0.026524f, 0.023170f, 0.001068f, -0.012801f, 
0.030314f, -0.004730f, 0.029880f, 0.009533f, -0.005054f, 0.017812f, 0.004419f, -0.002813f, 
-0.003568f, -0.016072f, -0.013701f, -0.012492f, -0.039937f, -0.013487f, -0.023486f, -0.047633f, 
0.025961f, -0.007180f, 0.014902f, 0.017466f, 0.029622f, 0.015534f, 0.023284f, 0.011227f, 
0.012734f, 0.034323f, -0.001408f, 0.018424f, -0.011729f, -0.002247f, 0.003785f, -0.000849f, 
0.017408f, 0.001403f, 0.021200f, 0.007550f, 0.020830f, -0.003485f, -0.026881f, -0.008338f, 
-0.033394f, -0.046327f, -0.042237f, -0.034036f, -0.039729f, 0.006818f, 0.018532f, -0.004486f, 
0.002231f, -0.001306f, 0.019984f, 0.018515f, 0.016459f, 0.025445f, 0.028874f, -0.004284f, 
-0.008596f, -0.015546f, 0.026015f, 0.017046f, 0.010960f, 0.003439f, 0.009865f, -0.010070f, 
0.022694f, 0.018365f, -0.001382f, -0.008209f, -0.046674f, -0.023967f, -0.031446f, -0.054275f, 
-0.040292f, -0.043370f, 0.000308f, 0.017444f, -0.003111f, 0.013443f, 0.026086f, 0.015715f, 
0.020291f, 0.001175f, 0.021878f, 0.004553f, 0.026745f, -0.004606f, 0.014437f, 0.026123f, 
0.016082f, 0.002834f, 0.016398f, 0.006011f, 0.007722f, 0.010084f, 0.006556f, 0.003802f, 
-0.013280f, -0.036358f, -0.033766f, -0.050175f, -0.056110f, -0.019908f, -0.028045f, 0.002172f, 
0.006701f, 0.025146f, 0.016775f, 0.004720f, 0.001496f, 0.028277f, 0.024881f, -0.004032f, 
0.025782f, 0.018662f, 0.011388f, -0.003943f, -0.004934f, 0.014079f, 0.009012f, 0.014741f, 
0.001845f, -0.015564f, 0.000370f, 0.005264f, 0.008289f, 0.005019f, 0.002256f, -0.023553f, 
-0.042347f, -0.018084f, -0.040928f, -0.033704f, 0.011960f, 0.019145f, 0.019471f, 0.018475f, 
0.022776f, 0.016569f, 0.010918f, 0.031720f, 0.020865f, -0.004719f, 0.008413f, 0.023136f, 
0.014713f, 0.007912f, 0.005000f, 0.002135f, -0.002207f, 0.016968f, 0.015461f, -0.008933f, 
0.016209f, -0.006706f, 0.007278f, -0.005320f, -0.030336f, -0.031820f, -0.031743f, -0.033340f, 
-0.040310f, 0.011509f, 0.004061f, 0.016791f, 0.002823f, 0.007911f, 0.014886f, 0.015499f, 
0.025483f, 0.023925f, 0.006765f, 0.012549f, 0.015368f, -0.011415f, 0.000284f, -0.010010f, 
0.011408f, 0.015980f, 0.007250f, -0.003791f, 0.005458f, -0.012544f, 0.022800f, -0.021194f, 
-0.023487f, -0.033623f, -0.035169f, -0.033081f, -0.015236f, -0.035499f, 0.018040f, -0.011536f, 
-0.006072f, 0.026548f, -0.005397f, 0.014234f, 0.033391f, 0.022371f, 0.027654f, 0.032114f, 
0.010863f, -0.000762f, -0.023240f, 0.004789f, -0.003099f, -0.014195f, 0.001408f, 0.002690f, 
0.005379f, 0.003895f, 0.001684f, 0.006499f, -0.022944f, -0.032700f, -0.007690f, -0.029667f, 
-0.021042f, -0.012371f, -0.038662f, -0.000185f, -0.002539f, -0.006556f, 0.018086f, 0.023773f, 
0.022889f, 0.034762f, 0.043084f, 0.018019f, 0.019049f, 0.024739f, 0.008547f, -0.006478f, 
-0.013707f, -0.020040f, -0.005791f, -0.000256f, 0.002227f, -0.006105f, 0.018727f, -0.016046f, 
-0.028107f, -0.010501f, -0.042174f, -0.027065f, -0.011097f, -0.011203f, -0.027494f, -0.021939f, 
-0.000720f, 0.013967f, 0.021406f, 0.011971f, 0.010487f, 0.039584f, 0.026381f, 0.041161f, 
0.023925f, 0.009673f, 0.013664f, 0.006091f, -0.006033f, -0.006513f, -0.003485f, -0.015749f, 
-0.021220f, -0.008457f, -0.021494f, -0.015919f, -0.007208f, -0.028593f, -0.046060f, -0.032384f, 
-0.032382f, -0.025689f, -0.021012f, -0.026793f, -0.041021f, 0.009738f, 0.009802f, -0.002711f, 
0.025567f, 0.023713f, 0.021560f, 0.025253f, 0.038448f, 0.027532f, 0.023273f, 0.015395f, 
-0.017788f, 0.006295f, -0.010197f, -0.014570f, 0.004157f, -0.009437f, -0.005163f, 0.000033f, 
-0.038057f, -0.026367f, -0.023135f, -0.037579f, -0.048768f, -0.024630f, -0.019424f, -0.011257f, 
-0.034447f, -0.032586f, 0.030286f, 0.020024f, 0.026275f, 0.014497f, 0.007405f, 0.032503f, 
0.021887f, 0.014276f, 0.009296f, 0.004953f, 0.016155f, 0.010876f, -0.007395f, -0.019284f, 
0.002812f, 0.008796f, -0.005061f, -0.039440f, -0.023036f, -0.028517f, -0.002247f, -0.018985f, 
-0.024463f, -0.044681f, -0.021450f, -0.027263f, -0.015547f, -0.004418f, -0.023996f, 0.007091f, 
0.030692f, 0.034712f, 0.023297f, 0.023339f, 0.019374f, 0.015410f, 0.036146f, 0.019099f, 
0.022907f, -0.012875f, -0.019829f, 0.002094f, -0.002885f, -0.021212f, -0.001817f, -0.008432f, 
-0.010613f, -0.010927f, -0.039228f, -0.031558f, 0.002217f, -0.021266f, -0.044076f, -0.006792f, 
-0.024790f, -0.017175f, -0.005351f, -0.003976f, 0.029195f, 0.016060f, 0.024511f, 0.016358f, 
0.018029f, 0.032189f, 0.004074f, 0.012380f, 0.011567f, 0.028387f, 0.012752f, -0.006879f, 
-0.020956f, -0.002141f, -0.022595f, -0.031962f, -0.013709f, -0.030894f, -0.020963f, -0.031678f, 
-0.015277f, 0.004225f, 0.009398f, -0.028086f, -0.007775f, -0.011922f, -0.024276f, -0.032471f, 
-0.029474f, 0.010331f, 0.020376f, 0.028424f, 0.032893f, 0.005831f, 0.015026f, 0.008288f, 
0.003331f, -0.002844f, 0.025088f, -0.006030f, -0.013615f, 0.004795f, -0.006597f, 0.004560f, 
-0.015770f, -0.032051f, -0.038575f, -0.034635f, -0.006623f, -0.024636f, -0.000080f, -0.004609f, 
-0.010141f, -0.019197f, 0.001164f, -0.029658f, -0.024844f, -0.047499f, -0.002890f, 0.024599f, 
0.015162f, 0.024239f, -0.003205f, 0.004324f, -0.003145f, 0.018682f, 0.000533f, 0.001979f, 
-0.016040f, -0.007373f, -0.001915f, -0.036509f, -0.025259f, -0.024938f, -0.028919f, -0.010430f, 
-0.044294f, -0.042776f, -0.019024f, -0.015565f, 0.015018f, 0.020415f, 0.005438f, 0.006536f, 
-0.018349f, -0.010699f, -0.008160f, 0.000470f, 0.012188f, -0.007896f, 0.025717f, 0.004270f, 
-0.009728f, 0.017953f, -0.004459f, 0.025167f, -0.004416f, 0.002708f, -0.002921f, -0.030626f, 
-0.025231f, -0.013453f, -0.030037f, -0.031866f, -0.014119f, -0.021864f, -0.033298f, -0.012445f, 
-0.017533f, 0.017076f, -0.002068f, -0.013554f, -0.011161f, -0.011712f, -0.008160f, -0.027240f, 
0.001711f, -0.001897f, 0.003802f, 0.011045f, -0.000068f, 0.014817f, -0.011639f, 0.014071f, 
0.000644f, 0.002661f, 0.005476f, -0.008972f, -0.020929f, -0.031526f, -0.032912f, -0.007683f, 
-0.016730f, -0.034436f, -0.020785f, -0.005673f, -0.013184f, 0.017321f, 0.013316f, 0.025145f, 
0.004904f, -0.026289f, -0.012930f, -0.045707f, -0.036201f, -0.008107f, 0.009034f, 0.006465f, 
0.002594f, 0.005119f, -0.015101f, -0.007499f, -0.016857f, 0.010873f, -0.024362f, -0.010084f, 
0.001958f, -0.036782f, -0.006476f, -0.021518f, -0.025158f, -0.005933f, -0.029944f, 0.006715f, 
-0.017690f, 0.008977f, 0.017224f, 0.004443f, -0.020765f, -0.008856f, 0.003592f, -0.017827f, 
-0.052397f, -0.030047f, -0.000806f, 0.017193f, 0.002565f, 0.000816f, -0.007348f, 0.000977f, 
0.021041f, -0.010949f, 0.006249f, 0.014793f, 0.023262f, -0.005503f, -0.019372f, -0.031431f, 
-0.021614f, -0.004275f, 0.005458f, -0.009451f, -0.005966f, -0.026483f, -0.005122f, -0.008988f, 
-0.022055f, 0.001918f, -0.022896f, -0.001940f, -0.015254f, -0.014237f, -0.022675f, -0.019701f, 
-0.001837f, -0.012609f, -0.004390f, -0.013314f, -0.027056f, -0.014031f, -0.013994f, -0.004111f, 
-0.005278f, -0.002856f, 0.014199f, 0.001696f, -0.038391f, -0.004998f, -0.031100f, -0.010969f, 
0.003991f, 0.010388f, 0.000471f, -0.018662f, 0.000027f, -0.003046f, -0.017295f, -0.030093f, 
-0.003742f, -0.022486f, -0.031297f, -0.033369f, -0.021801f, 0.008204f, -0.016779f, 0.005389f, 
-0.021183f, -0.023226f, -0.004258f, 0.014398f, -0.003506f, 0.010121f, -0.000477f, -0.006937f, 
-0.007999f, -0.043440f, -0.006869f, -0.008824f, 0.013950f, -0.008945f, 0.013252f, 0.002329f, 
0.013688f, -0.002576f, -0.008420f, -0.016325f, -0.010454f, -0.034860f, -0.030207f, -0.023246f, 
-0.026493f, -0.008549f, 0.004647f, -0.018866f, -0.015332f, -0.012219f, 0.012230f, -0.001308f, 
0.002089f, 0.020585f, 0.015697f, -0.014795f, 0.000208f, -0.013149f, -0.014398f, -0.028020f, 
-0.006615f, -0.012038f, -0.011354f, -0.008891f, -0.004123f, -0.006044f, -0.021138f, -0.015535f, 
-0.010456f, -0.017242f, -0.029649f, -0.059535f, -0.042445f, -0.022919f, 0.000675f, 0.018763f, 
-0.012245f, -0.010043f, -0.011008f, 0.002061f, 0.014130f, 0.005408f, -0.000706f, 0.003855f, 
-0.006725f, -0.006861f, -0.022460f, -0.027259f, -0.001307f, -0.012674f, -0.015268f, 0.014849f, 
-0.001275f, -0.018498f, -0.018871f, -0.000177f, -0.006322f, -0.025834f, -0.044353f, -0.055292f, 
-0.052009f, -0.033943f, -0.053115f, -0.013217f, -0.015249f, -0.006067f, -0.016963f, 0.011243f, 
0.001736f, 0.001507f, 0.005503f, 0.002831f, 0.008996f, 0.002691f, 0.011917f, 0.015443f, 
0.024627f, -0.004749f, 0.001046f, -0.003503f, -0.005236f, 0.024817f, 0.001577f, 0.013155f, 
0.021064f, 0.021463f, 0.002734f, 0.019475f, 0.008014f, 0.013263f, -0.000671f, 0.015254f, 
-0.017407f, 0.001665f, -0.009645f, -0.019916f, 0.002225f, -0.008667f, 0.011480f, -0.003555f, 
0.011830f, 0.015282f, -0.012609f, -0.005581f, 0.001140f, 0.006481f, 0.016767f, -0.001331f, 
0.012645f, 0.001412f, -0.008152f, 0.008218f, -0.010004f, -0.007283f, -0.003659f, 0.008491f, 
0.015173f, 0.001161f, -0.003634f, 0.000881f, 0.020392f, 0.000412f, -0.027586f, -0.023011f, 
0.001441f, 0.004180f, 0.001744f, -0.004716f, 0.008398f, -0.015408f, 0.003439f, -0.000187f, 
-0.008649f, 0.002577f, -0.001106f, 0.018793f, 0.021055f, 0.006284f, 0.022654f, -0.005425f, 
0.004258f, -0.003448f, 0.011923f, -0.002654f, -0.009090f, -0.008224f, -0.005313f, 0.009696f, 
-0.006315f, 0.005547f, 0.001147f, 0.001816f, -0.022985f, -0.014195f, -0.020997f, -0.000110f, 
0.003579f, 0.006713f, 0.012290f, -0.008188f, 0.015782f, 0.012572f, -0.001318f, -0.003590f, 
0.004708f, 0.000041f, 0.011238f, 0.003167f, -0.013895f, 0.012692f, 0.017087f, 0.017089f, 
0.013530f, 0.013691f, 0.013889f, 0.014183f, 0.016356f, 0.014502f, 0.007931f, 0.001855f, 
-0.014524f, -0.022528f, 0.005990f, -0.005266f, -0.013360f, 0.005058f, -0.001871f, -0.014582f, 
-0.000138f, -0.007235f, -0.001971f, 0.002358f, -0.010500f, -0.007570f, 0.016951f, -0.002739f, 
0.001349f, -0.002967f, -0.013462f, -0.014756f, -0.003344f, -0.002263f, 0.014884f, -0.007894f, 
0.022905f, 0.022919f, 0.003598f, 0.010405f, -0.014303f, -0.025941f, -0.015578f, -0.013017f, 
-0.005131f, -0.020558f, -0.000770f, 0.007653f, 0.003545f, -0.002714f, -0.018664f, -0.008747f, 
-0.002205f, 0.003571f, -0.011413f, 0.003379f, 0.008418f, -0.006279f, -0.005672f, 0.007040f, 
-0.002684f, -0.006516f, -0.015418f, -0.003696f, 0.007968f, 0.000533f, -0.008847f, -0.004381f, 
0.000835f, -0.004047f, -0.016944f, -0.016382f, -0.010670f, -0.006597f, -0.006600f, -0.010241f, 
-0.015270f, 0.006340f, -0.017078f, -0.003064f, -0.009466f, -0.017026f, 0.010611f, -0.002011f, 
-0.014230f, -0.007104f, 0.008622f, -0.000613f, 0.012871f, 0.011986f, -0.018446f, -0.008614f, 
0.006567f, 0.013036f, 0.010853f, 0.024664f, 0.014134f, 0.012784f, -0.019203f, -0.022137f, 
-0.018901f, -0.023923f, -0.001469f, -0.002825f, -0.002462f, 0.004648f, -0.007659f, -0.018861f, 
-0.000120f, 0.010574f, -0.008825f, -0.012874f, 0.012235f, -0.008869f, -0.015393f, -0.004459f, 
-0.003165f, 0.001982f, 0.000186f, 0.015328f, -0.008241f, -0.012653f, 0.016525f, 0.004994f, 
0.004808f, 0.021151f, 0.001462f, -0.000748f, -0.003865f, -0.000579f, -0.012223f, -0.007685f, 
-0.015203f, -0.026869f, -0.026595f, 0.005635f, -0.013485f, -0.008917f, 0.004750f, -0.017020f, 
-0.018158f, -0.010326f, -0.016565f, 0.002725f, -0.008017f, -0.013343f, 0.007798f, -0.010359f, 
-0.001112f, -0.012721f, 0.001992f, 0.006946f, -0.007108f, -0.005906f, -0.004591f, 0.012627f, 
-0.015093f, 0.005619f, -0.025877f, -0.018578f, -0.003025f, -0.009718f, 0.005625f, -0.023989f, 
-0.014904f, 0.004983f, 0.004354f, -0.005463f, -0.002247f, 0.000889f, 0.010278f, 0.007630f, 
-0.013916f, 0.003899f, 0.010685f, -0.014334f, -0.000960f, 0.017005f, 0.017400f, -0.004360f, 
0.001820f, -0.003614f, 0.014466f, 0.021918f, 0.003113f, -0.016336f, -0.005117f, 0.000576f, 
-0.001295f, -0.019026f, -0.013209f, -0.006310f, 0.002660f, 0.005193f, 0.003269f, -0.008055f, 
-0.012829f, -0.023560f, 0.009814f, 0.006811f, -0.000475f, -0.001039f, 0.002286f, -0.005871f, 
0.008021f, -0.013715f, 0.013707f, 0.012121f, 0.017823f, -0.007545f, -0.008805f, 0.008697f, 
0.001424f, 0.016631f, -0.021863f, -0.025353f, -0.024119f, 0.001675f, -0.013021f, -0.027006f, 
0.007269f, -0.024410f, -0.023615f, -0.015655f, 0.003645f, -0.016950f, -0.005126f, -0.019063f, 
-0.019050f, -0.002108f, -0.004801f, -0.005973f, -0.006573f, -0.006983f, -0.013564f, 0.008951f, 
-0.009523f, 0.004342f, 0.015666f, -0.001071f, 0.019114f, -0.000974f, 0.018894f, 0.007492f, 
0.008160f, -0.005853f, -0.014499f, -0.003721f, -0.021964f, -0.025644f, -0.013199f, -0.002030f, 
-0.016050f, -0.009454f, -0.011580f, -0.022731f, -0.007507f, 0.011972f, -0.002752f, -0.008825f, 
0.010666f, -0.014818f, 0.009843f, 0.005794f, 0.000291f, 0.013118f, 0.011012f, -0.010976f, 
-0.000993f, -0.002111f, 0.025097f, 0.026953f, 0.000535f, 0.004704f, -0.012776f, 0.005299f, 
0.006291f, -0.010595f, -0.003675f, -0.025614f, -0.000022f, -0.004834f, 0.002782f, -0.013848f, 
0.008230f, 0.007898f, 0.005827f, -0.008753f, -0.006871f, -0.010824f, 0.012615f, 0.009628f, 
-0.013116f, 0.007900f, -0.015419f, 0.007297f, 0.003427f, 0.002753f, 0.001187f, 0.019908f, 
0.015714f, 0.010266f, -0.014358f, -0.017375f, 0.003703f, 0.004917f, -0.010104f, -0.028012f, 
-0.029114f, -0.027691f, 0.002658f, 0.004930f, -0.002336f, -0.016116f, 0.001998f, -0.013914f, 
0.005213f, -0.006359f, 0.002813f, 0.003419f, -0.009494f, 0.010230f, 0.008526f, -0.003726f, 
0.014458f, 0.002062f, 0.014927f, -0.000110f, -0.009270f, 0.011486f, -0.007878f, -0.003021f, 
-0.007008f, -0.003892f, 0.005916f, -0.007696f, -0.015608f, -0.005588f, 0.002222f, -0.009391f, 
0.004653f, 0.001599f, 0.005542f, -0.007936f, 0.003881f, -0.007547f, 0.001240f, 0.010241f, 
-0.014796f, -0.013959f, 0.018236f, -0.009650f, 0.009141f, 0.008435f, 0.010359f, 0.019770f, 
0.011468f, 0.005867f, -0.000733f, -0.018851f, -0.016540f, -0.011026f, -0.000109f, -0.003937f, 
0.005528f, 0.000114f, -0.030181f, -0.010295f, -0.025907f, -0.021416f, -0.026508f, -0.012539f, 
0.011181f, -0.010929f, 0.014395f, 0.011769f, 0.005056f, -0.014714f, 0.009768f, 0.018315f, 
0.016108f, 0.008781f, 0.017481f, 0.017976f, 0.019520f, 0.004146f, 0.003352f, 0.016823f, 
-0.003534f, -0.022477f, -0.013338f, -0.021278f, -0.024335f, -0.007459f, -0.016374f, -0.015976f, 
-0.029527f, -0.010826f, -0.011170f, 0.002275f, -0.003327f, -0.014676f, -0.015936f, 0.008122f, 
0.004931f, -0.002921f, -0.006433f, 0.006619f, 0.009768f, 0.017511f, 0.007899f, -0.008828f, 
0.002060f, 0.021451f, -0.012648f, 0.005826f, 0.003510f, -0.014804f, -0.007279f, 0.003662f, 
-0.015030f, -0.017259f, 0.006426f, -0.005669f, -0.025605f, 0.004404f, -0.015861f, -0.028710f, 
-0.021082f, -0.011774f, -0.015442f, -0.008611f, -0.003104f, 0.005813f, 0.016608f, -0.007483f, 
0.001095f, 0.016978f, 0.022368f, 0.000205f, 0.012632f, 0.002599f, 0.003902f, 0.007737f, 
-0.007367f, -0.000311f, -0.022768f, -0.021517f, -0.005798f, -0.022564f, -0.008857f, -0.020469f, 
-0.013149f, -0.025812f, -0.018324f, -0.010119f, -0.003332f, -0.016829f, -0.014924f, -0.002328f, 
0.009965f, 0.004505f, -0.001980f, -0.001648f, 0.007999f, 0.002162f, -0.000440f, 0.008279f, 
-0.005553f, -0.007684f, 0.011808f, -0.003343f, 0.019326f, 0.002102f, 0.021659f, -0.004479f, 
0.002238f, -0.014467f, 0.004398f, -0.013622f, -0.011419f, -0.011720f, -0.025091f, -0.013568f, 
-0.021949f, -0.007300f, 0.005329f, -0.001774f, -0.013161f, -0.020902f, -0.012506f, -0.007242f, 
0.010707f, 0.011337f, -0.010328f, 0.005336f, -0.011511f, 0.003011f, 0.014648f, 0.001446f, 
0.006001f, 0.016893f, -0.007057f, 0.003495f, -0.009072f, -0.016975f, 0.010661f, -0.014007f, 
-0.023082f, -0.006704f, 0.000922f, -0.007408f, -0.013433f, -0.013331f, -0.020003f, -0.000099f, 
-0.007407f, 0.011195f, 0.000469f, -0.007209f, -0.013131f, 0.008614f, 0.003228f, 0.016948f, 
0.006640f, 0.011002f, 0.014327f, -0.003866f, -0.002161f, 0.007924f, -0.004592f, 0.012387f, 
0.017338f, -0.022491f, 0.010148f, -0.021119f, -0.001679f, -0.014962f, -0.011980f, 0.001289f, 
0.000091f, 0.002183f, -0.015285f, -0.011922f, -0.007946f, -0.017900f, -0.008581f, 0.010248f, 
0.006919f, 0.012779f, -0.011786f, -0.011343f, -0.009399f, -0.016711f, 0.000248f, -0.008162f, 
-0.007253f, -0.008571f, 0.001535f, -0.006141f, 0.004772f, 0.002369f, 0.010477f, -0.008709f, 
-0.002662f, -0.015023f, 0.005952f, -0.003253f, 0.005249f, -0.003076f, -0.000719f, -0.001270f, 
-0.013709f, -0.005478f, -0.020360f, 0.015172f, -0.012836f, 0.000523f, 0.011151f, 0.010687f, 
-0.005384f, 0.012820f, -0.017079f, -0.019631f, -0.021240f, -0.018782f, -0.021348f, -0.001039f, 
-0.007477f, -0.002099f, -0.014292f, -0.010806f, -0.011570f, -0.012226f, -0.008659f, -0.004950f, 
0.007469f, 0.010431f, -0.003695f, 0.000789f, 0.008490f, 0.003688f, -0.002228f, -0.017306f, 
0.001064f, -0.008443f, -0.010016f, -0.005707f, -0.001054f, -0.002066f, -0.005991f, 0.005627f, 
0.010630f, -0.011280f, -0.020814f, 0.009220f, -0.007614f, 0.009587f, 0.003603f, 0.014525f, 
-0.014731f, -0.006960f, -0.020707f, 0.001216f, -0.014501f, -0.016843f, -0.005006f, -0.004827f, 
-0.004600f, -0.014553f, 0.006350f, 0.003524f, -0.013925f, -0.011792f, 0.009455f, -0.013912f, 
0.017365f, 0.015255f, -0.007259f, -0.005539f, 0.001511f, -0.013044f, 0.002401f, -0.010790f, 
-0.015630f, 0.003528f, -0.011228f, -0.002385f, 0.008763f, 0.003438f, 0.005695f, -0.003491f, 
0.009086f, 0.008919f, -0.015735f, -0.002738f, -0.011730f, -0.005034f, -0.012568f, 0.012005f, 
0.010686f, -0.008169f, 0.010190f, 0.002148f, 0.002060f, 0.009442f, -0.011340f, 0.008309f, 
0.011327f, 0.011385f, -0.023723f, -0.019785f, -0.003944f, -0.002191f, -0.015873f, -0.015574f, 
0.012825f, -0.002016f, -0.013659f, -0.009630f, -0.020937f, 0.004196f, -0.001635f, 0.000848f, 
-0.005399f, 0.009719f, -0.005946f, 0.007398f, -0.011276f, -0.000294f, 0.007166f, -0.000264f, 
-0.014377f, -0.013904f, -0.011913f, -0.008472f, 0.001476f, -0.016367f, -0.017187f, -0.000289f, 
-0.010662f, -0.024407f, -0.002116f, -0.016765f, 0.001588f, 0.012729f, 0.017974f, -0.022623f, 
0.002771f, -0.026032f, 0.003355f, -0.007733f, 0.001149f, -0.017478f, -0.003312f, 0.011414f, 
-0.019289f, -0.013433f, 0.007768f, -0.011761f, 0.008446f, 0.009717f, 0.008285f, -0.016709f, 
-0.011523f, -0.009627f, 0.011319f, -0.016795f, -0.001089f, -0.004544f, -0.016679f, 0.009324f, 
-0.014214f, -0.006344f, -0.002765f, 0.007830f, -0.016972f, -0.042365f, -0.012660f, 0.008602f, 
-0.011417f, -0.011942f, 0.011174f, -0.007060f, -0.053900f, -0.042878f, -0.054929f, -0.045721f, 
0.018635f, 0.023294f, -0.017560f, -0.004896f, -0.022696f, -0.031460f, -0.012477f, -0.026130f, 
-0.017322f, -0.028784f, -0.064507f, -0.024395f, -0.043790f, -0.049874f, -0.071161f, -0.072447f, 
-0.030164f, -0.030162f, -0.047098f, -0.002355f, 0.034747f, -0.007673f, -0.054715f, -0.044280f, 
-0.043360f, -0.062053f, -0.090361f, -0.089628f, -0.032258f, -0.028652f, -0.038950f, -0.050009f, 
-0.045425f, -0.035352f, -0.054543f, -0.062257f, -0.048935f, -0.034487f, -0.036537f, -0.093540f, 
-0.076159f, -0.058086f, -0.040272f, -0.032710f, -0.054585f, -0.054381f, -0.031057f, -0.008948f, 
-0.023305f, -0.037952f, -0.069526f, -0.046031f, -0.050699f, -0.082402f, -0.073083f, -0.058137f, 
-0.059964f, -0.016288f, -0.009306f, -0.051978f, -0.079719f, -0.026685f, -0.038301f, -0.081018f, 
-0.094744f, -0.096116f, -0.071504f, -0.054886f, -0.068288f, -0.062313f, -0.041859f, -0.032572f, 
-0.072586f, -0.060949f, -0.034224f, -0.062455f, -0.044884f, -0.042188f, -0.052647f, -0.078544f, 
-0.094062f, -0.081142f, -0.054282f, -0.064429f, -0.060708f, -0.069442f, -0.066166f, -0.062318f, 
-0.049498f, -0.059787f, -0.049879f, -0.084582f, -0.083209f, -0.104570f, -0.093098f, -0.108853f, 
-0.100386f, -0.070943f, -0.048674f, -0.041670f, -0.029155f, -0.094415f, -0.076297f, -0.049795f, 
-0.049064f, -0.077076f, -0.050462f, -0.050207f, -0.084370f, -0.065905f, -0.080884f, -0.076514f, 
-0.052745f, -0.072161f, -0.081844f, -0.077907f, -0.056758f, -0.058149f, -0.057027f, -0.037573f, 
-0.076739f, -0.097562f, -0.084165f, -0.102449f, -0.080952f, -0.092489f, -0.053685f, -0.032137f, 
-0.054815f, -0.034781f, -0.040909f, -0.075337f, -0.046920f, -0.050321f, -0.030789f, -0.058099f, 
-0.049313f, -0.085796f, -0.060375f, -0.069428f, -0.097912f, -0.077445f, -0.076219f, -0.083769f, 
-0.080845f, -0.084025f, -0.098206f, -0.076086f, -0.065949f, -0.061160f, -0.092683f, -0.081643f, 
-0.098965f, -0.084516f, -0.084962f, -0.067023f, -0.032520f, -0.026296f, -0.044086f, -0.032059f, 
-0.016904f, -0.023835f, -0.036293f, -0.052526f, -0.041215f, -0.077569f, -0.090236f, -0.058667f, 
-0.072610f, -0.086942f, -0.062530f, -0.081187f, -0.069650f, -0.072675f, -0.081239f, -0.067553f, 
-0.044343f, -0.057671f, -0.087992f, -0.121010f, -0.124834f, -0.080696f, -0.086841f, -0.061733f, 
-0.043817f, -0.002334f, -0.014677f, -0.040865f, -0.057618f, -0.013546f, -0.011293f, -0.051639f, 
-0.068170f, -0.093484f, -0.092722f, -0.087067f, -0.091782f, -0.093675f, -0.102081f, -0.109784f, 
-0.104005f, -0.084021f, -0.076153f, -0.098615f, -0.079505f, -0.062921f, -0.056233f, -0.101411f, 
-0.109963f, -0.112582f, -0.086275f, -0.093561f, -0.061025f, -0.013974f, -0.000921f, -0.056646f, 
-0.031660f, -0.022464f, -0.002769f, -0.001731f, -0.070624f, -0.062206f, -0.098619f, -0.091562f, 
-0.082604f, -0.060034f, -0.093244f, -0.087838f, -0.113436f, -0.102096f, -0.084633f, -0.080122f, 
-0.119514f, -0.067573f, -0.096398f, -0.076132f, -0.109535f, -0.126109f, -0.101861f, -0.084786f, 
-0.074123f, -0.054196f, -0.021674f, -0.019188f, -0.011963f, -0.009039f, -0.012969f, -0.012443f, 
0.005162f, -0.071119f, -0.075478f, -0.073072f, -0.044197f, -0.068220f, -0.083364f, -0.102645f, 
-0.092839f, -0.096799f, -0.083647f, -0.097853f, -0.105787f, -0.109469f, -0.083526f, -0.087522f, 
-0.081158f, -0.077707f, -0.093880f, -0.089293f, -0.081397f, -0.074833f, -0.071542f, -0.052624f, 
-0.011949f, -0.016541f, -0.023577f, -0.041213f, -0.002502f, -0.012408f, -0.080695f, -0.055337f, 
-0.032549f, -0.040608f, -0.057148f, -0.060672f, -0.085926f, -0.067412f, -0.081499f, -0.086449f, 
-0.095346f, -0.121649f, -0.085512f, -0.096345f, -0.091053f, -0.068177f, -0.066638f, -0.100480f, 
-0.093992f, -0.099251f, -0.089317f, -0.072404f, -0.074920f, -0.030502f, -0.024102f, -0.015247f, 
0.010193f, -0.000710f, -0.012437f, -0.047773f, -0.013023f, -0.020389f, -0.041798f, -0.047491f, 
-0.055467f, -0.068364f, -0.085321f, -0.089520f, -0.103627f, -0.111022f, -0.100164f, -0.087549f, 
-0.077740f, -0.072035f, -0.067031f, -0.100664f, -0.103149f, -0.084849f, -0.090332f, -0.118117f, 
-0.069396f, -0.057506f, -0.020670f, -0.001445f, -0.006961f, -0.008763f, -0.013452f, -0.005435f, 
-0.029224f, -0.040107f, -0.042532f, -0.057961f, -0.079558f, -0.090594f, -0.095709f, -0.088408f, 
-0.125837f, -0.144510f, -0.125897f, -0.119321f, -0.098522f, -0.065349f, -0.065342f, -0.045888f, 
-0.093498f, -0.100928f, -0.081596f, -0.112712f, -0.101721f, -0.084678f, -0.066990f, -0.024217f, 
0.001147f, 0.018949f, -0.038045f, -0.033609f, -0.047687f, -0.026375f, -0.029333f, -0.060343f, 
-0.051951f, -0.080287f, -0.082663f, -0.091568f, -0.105360f, -0.134281f, -0.109334f, -0.101453f, 
-0.120483f, -0.099246f, -0.072424f, -0.069644f, -0.078768f, -0.070443f, -0.081668f, -0.097204f, 
-0.116499f, -0.099516f, -0.050759f, -0.048246f, -0.041674f, -0.041662f, -0.016356f, -0.032661f, 
-0.019013f, -0.024207f, -0.068708f, -0.041233f, -0.063272f, -0.041483f, -0.041961f, -0.078901f, 
-0.091726f, -0.098275f, -0.088357f, -0.087400f, -0.092097f, -0.069636f, -0.072076f, -0.061918f, 
-0.052050f, -0.084197f, -0.111692f, -0.102055f, -0.118374f, -0.083002f, -0.096352f, -0.088404f, 
-0.059944f, -0.049524f, -0.040105f, 0.005219f, -0.043973f, -0.003285f, -0.011979f, -0.030460f, 
-0.042280f, -0.071407f, -0.055095f, -0.053435f, -0.065179f, -0.080202f, -0.092675f, -0.074335f, 
-0.060310f, -0.050302f, -0.063410f, -0.080164f, -0.093257f, -0.090890f, -0.112027f, -0.101935f, 
-0.101674f, -0.104409f, -0.092236f, -0.072078f, -0.091392f, -0.085852f, -0.042413f, -0.004467f, 
0.008395f, -0.040878f, -0.023978f, -0.024791f, -0.040547f, -0.066004f, -0.087668f, -0.089773f, 
-0.083005f, -0.070152f, -0.071939f, -0.089436f, -0.099513f, -0.082480f, -0.113657f, -0.124916f, 
-0.093373f, -0.080043f, -0.100074f, -0.124289f, -0.105425f, -0.115122f, -0.091298f, -0.098102f, 
-0.074005f, -0.062538f, -0.067239f, -0.045426f, -0.017881f, -0.041476f, -0.055122f, -0.030992f, 
-0.052023f, -0.070646f, -0.093484f, -0.114800f, -0.106355f, -0.063347f, -0.071256f, -0.083841f, 
-0.099147f, -0.085017f, -0.087729f, -0.103575f, -0.111197f, -0.118741f, -0.102296f, -0.126741f, 
-0.108525f, -0.129269f, -0.097886f, -0.116545f, -0.087683f, -0.081060f, -0.084820f, -0.078341f, 
-0.044144f, -0.055190f, -0.047434f, -0.063836f, -0.036028f, -0.009732f, -0.046234f, -0.065433f, 
-0.089590f, -0.059462f, -0.084357f, -0.088110f, -0.083562f, -0.076993f, -0.081594f, -0.109578f, 
-0.110251f, -0.075258f, -0.098739f, -0.103041f, -0.088611f, -0.093581f, -0.106406f, -0.117915f, 
-0.097015f, -0.082145f, -0.071344f, -0.055164f, -0.059529f, -0.061128f, -0.061512f, -0.066743f, 
-0.067920f, -0.033319f, -0.020662f, -0.054147f, -0.058007f, -0.049917f, -0.041275f, -0.058894f, 
-0.074760f, -0.062061f, -0.089173f, -0.075632f, -0.100531f, -0.106363f, -0.127828f, -0.090396f, 
-0.093786f, -0.123158f, -0.116100f, -0.129378f, -0.106191f, -0.104970f, -0.051685f, -0.066459f, 
-0.067018f, -0.065252f, -0.076237f, -0.078904f, -0.066713f, -0.044719f, -0.054880f, -0.044450f, 
-0.052828f, -0.047746f, -0.070802f, -0.083946f, -0.053183f, -0.065158f, -0.044097f, -0.064546f, 
-0.095640f, -0.090824f, -0.085840f, -0.074087f, -0.064791f, -0.043758f, -0.053446f, -0.081020f, 
-0.068285f, -0.057233f, -0.044801f, -0.043532f, -0.051858f, -0.088765f, -0.082021f, -0.077774f, 
-0.097098f, -0.085271f, -0.056476f, -0.050479f, -0.037143f, -0.085603f, -0.010291f, -0.057551f, 
-0.057207f, -0.064830f, -0.067071f, -0.088798f, -0.092251f, -0.094895f, -0.055573f, -0.048071f, 
-0.063168f, -0.041140f, -0.035936f, -0.024547f, -0.051521f, -0.064734f, -0.039276f, -0.029247f, 
-0.027951f, -0.067261f, -0.090607f, -0.086790f, -0.076524f, -0.078487f, -0.067643f, -0.064714f, 
-0.019788f, 0.005964f, -0.046859f, -0.023666f, -0.054593f, -0.047609f, -0.058561f, -0.067464f, 
-0.043160f, -0.029464f, -0.034059f, -0.026728f, -0.008105f, -0.057076f, -0.061175f, -0.029011f, 
-0.026244f, -0.029363f, -0.055512f, -0.050822f, -0.044081f, -0.065952f, -0.083140f, -0.085835f, 
-0.097437f, -0.100385f, -0.050886f, -0.020649f, -0.022467f, -0.030450f, -0.051868f, -0.008173f, 
-0.054895f, -0.054844f, -0.073787f, -0.043496f, -0.034501f, -0.049423f, -0.034893f, -0.027069f, 
0.003173f, -0.027277f, -0.033441f, -0.069421f, -0.020567f, -0.024386f, -0.033388f, -0.063849f, 
-0.071894f, -0.042329f, -0.079277f, -0.086284f, -0.089142f, -0.102947f, -0.047378f, -0.038030f, 
-0.014517f, -0.014022f, -0.027624f, -0.036112f, -0.037080f, -0.081304f, -0.069121f, -0.089525f, 
-0.064733f, -0.039996f, -0.044951f, -0.058152f, -0.040345f, -0.023032f, -0.064691f, -0.058599f, 
-0.081744f, -0.006902f, -0.013973f, -0.051320f, -0.065441f, -0.075228f, -0.045931f, -0.078182f, 
-0.071860f, -0.082881f, -0.079366f, -0.037800f, -0.035705f, -0.021570f, -0.036446f, -0.040401f, 
-0.051320f, -0.080549f, -0.072594f, -0.087332f, -0.067418f, -0.023841f, -0.018414f, -0.025294f, 
-0.049541f, -0.040842f, -0.058233f, -0.094358f, -0.078306f, -0.053922f, -0.024510f, -0.050643f, 
-0.069678f, -0.041211f, -0.063874f, -0.058325f, -0.061159f, -0.083781f, -0.061843f, -0.064038f, 
-0.034224f, -0.041956f, -0.053496f, -0.037905f, -0.027756f, -0.014408f, -0.050195f, -0.047542f, 
-0.031809f, -0.030314f, -0.027111f, -0.026956f, -0.039233f, -0.020242f, -0.039821f, -0.034274f, 
-0.068383f, -0.055132f, 0.001159f, -0.019004f, -0.011998f, -0.044517f, -0.031072f, -0.046239f, 
-0.074864f, -0.058614f, -0.064720f, -0.085967f, -0.096469f, -0.052610f, -0.036191f, -0.008922f, 
-0.029200f, -0.016146f, 0.004866f, -0.077284f, -0.062355f, -0.048218f, -0.062015f, -0.044497f, 
-0.035891f, -0.051571f, -0.056047f, -0.047507f, -0.068747f, -0.050414f, -0.059571f, -0.034830f, 
-0.045324f, -0.030993f, -0.050928f, -0.097180f, -0.049807f, -0.038237f, -0.069647f, -0.105577f, 
-0.106017f, -0.080848f, -0.049177f, 0.002475f, 0.034846f, 0.013975f, -0.015757f, -0.031532f, 
-0.073858f, -0.058018f, -0.079395f, -0.076937f, -0.086315f, -0.066958f, -0.066685f, -0.080796f, 
-0.056224f, -0.062372f, -0.055784f, -0.054303f, -0.044944f, -0.050055f, -0.050066f, -0.078915f, 
-0.059412f, -0.066657f, -0.074567f, -0.082734f, -0.086527f, -0.063840f, -0.065788f, -0.029432f, 
-0.012681f, -0.009169f, -0.002918f, 0.003249f, -0.019515f, -0.033797f, -0.031659f, 0.005896f, 
-0.009228f, 0.002495f, 0.021381f, 0.007479f, 0.013163f, -0.003806f, -0.031301f, -0.067620f, 
-0.013643f, 0.021536f, -0.000987f, -0.016832f, -0.009028f, -0.039838f, -0.034056f, -0.019860f, 
-0.005477f, 0.003064f, -0.011693f, -0.014765f, 0.008848f, -0.020713f, -0.021254f, -0.019211f, 
-0.010101f, -0.025525f, -0.028100f, -0.042422f, -0.022881f, -0.024466f, -0.031077f, -0.040440f, 
-0.018790f, -0.050598f, -0.047772f, -0.040700f, -0.080921f, -0.016744f, -0.013049f, -0.009276f, 
-0.027113f, -0.022646f, -0.036362f, -0.056281f, -0.052546f, -0.039252f, -0.026169f, -0.010984f, 
-0.049773f, -0.024520f, -0.018962f, -0.041524f, -0.041849f, -0.022887f, -0.039776f, -0.059944f, 
-0.024778f, -0.000982f, -0.025564f, -0.058825f, -0.061141f, -0.031346f, -0.035941f, -0.048179f, 
-0.061008f, -0.058920f, -0.004286f, -0.018558f, -0.033899f, -0.037799f, -0.030128f, -0.033065f, 
-0.077963f, -0.076598f, -0.046093f, -0.039967f, -0.046272f, -0.032247f, -0.006684f, -0.002740f, 
-0.040932f, -0.044237f, -0.036760f, -0.006492f, -0.047941f, -0.051672f, -0.024649f, -0.032249f, 
-0.036336f, -0.065582f, -0.049451f, -0.053209f, -0.036034f, -0.037242f, -0.055855f, -0.031913f, 
-0.006366f, -0.035399f, -0.008141f, -0.029282f, -0.037554f, -0.076708f, -0.063111f, -0.061963f, 
-0.029408f, -0.018875f, -0.036817f, -0.007715f, -0.008247f, -0.038284f, -0.051702f, -0.031901f, 
0.005991f, -0.092551f, -0.044982f, -0.071207f, -0.054202f, -0.067063f, -0.068847f, -0.046631f, 
-0.060473f, -0.025141f, -0.066537f, -0.074185f, -0.033341f, -0.013410f, -0.043551f, -0.003586f, 
-0.022983f, -0.060426f, -0.089193f, -0.102114f, -0.071103f, -0.033557f, -0.052476f, -0.037527f, 
-0.033623f, -0.006452f, -0.036738f, -0.056235f, -0.025843f, 0.005724f, -0.064716f, -0.068495f, 
-0.072168f, -0.096872f, -0.088825f, -0.076469f, -0.076662f, -0.056788f, -0.053664f, -0.062488f, 
-0.078879f, -0.046877f, -0.015568f, -0.038430f, -0.018736f, -0.018139f, -0.042691f, -0.063712f, 
-0.088269f, -0.060056f, -0.049901f, -0.045845f, -0.032936f, -0.017061f, -0.011923f, -0.027367f, 
-0.062369f, -0.028139f, 0.001965f, -0.093191f, -0.073741f, -0.071354f, -0.096605f, -0.058014f, 
-0.067553f, -0.086558f, -0.060663f, -0.056414f, -0.071007f, -0.071796f, -0.039984f, -0.056917f, 
-0.046318f, 0.000927f, -0.028097f, -0.057811f, -0.064738f, -0.088172f, -0.093050f, -0.063877f, 
-0.048196f, -0.030777f, -0.015659f, -0.024693f, -0.015576f, -0.042513f, -0.015427f, 0.002717f, 
-0.072822f, -0.083514f, -0.073582f, -0.083601f, -0.084592f, -0.071534f, -0.084337f, -0.087066f, 
-0.078816f, -0.089327f, -0.076979f, -0.038244f, -0.049097f, -0.028512f, -0.030922f, -0.030532f, 
-0.062070f, -0.087751f, -0.083863f, -0.085533f, -0.069567f, -0.059086f, -0.018084f, -0.023165f, 
-0.003093f, -0.006955f, -0.036250f, -0.004166f, -0.027744f, -0.073512f, -0.084940f, -0.092420f, 
-0.086685f, -0.082998f, -0.073399f, -0.104123f, -0.099777f, -0.077514f, -0.081100f, -0.081641f, 
-0.057503f, -0.053076f, -0.022567f, -0.023928f, -0.033858f, -0.053988f, -0.068016f, -0.067867f, 
-0.063574f, -0.053691f, -0.029536f, -0.030765f, -0.021611f, -0.041344f, -0.006580f, -0.035834f, 
-0.017331f, -0.028353f, -0.087818f, -0.060609f, -0.079328f, -0.059269f, -0.065446f, -0.086018f, 
-0.096410f, -0.087203f, -0.087102f, -0.059587f, -0.091595f, -0.081898f, -0.034605f, -0.019368f, 
-0.039130f, -0.043831f, -0.058440f, -0.078474f, -0.097476f, -0.062266f, -0.050829f, -0.038510f, 
-0.009058f, -0.016083f, -0.025486f, -0.008291f, -0.017432f, -0.010904f, -0.009030f, -0.071743f, 
-0.040295f, -0.071300f, -0.069296f, -0.055663f, -0.068101f, -0.091073f, -0.103311f, -0.088614f, 
-0.088859f, -0.093097f, -0.075911f, -0.049216f, -0.020537f, -0.041264f, -0.055337f, -0.073644f, 
-0.079676f, -0.077523f, -0.061604f, -0.050911f, -0.042596f, -0.009010f, 0.000266f, 0.000743f, 
-0.000472f, -0.001736f, -0.011125f, -0.017206f, -0.083968f, -0.070368f, -0.047625f, -0.070384f, 
-0.083534f, -0.081545f, -0.076889f, -0.104111f, -0.104078f, -0.113986f, -0.085700f, -0.085402f, 
-0.069857f, -0.050352f, -0.046343f, -0.053901f, -0.090359f, -0.067962f, -0.079136f, -0.067118f, 
-0.065407f, -0.031064f, -0.024580f, 0.009779f, 0.025483f, 0.010768f, -0.001881f, -0.014232f, 
-0.030658f, -0.067759f, -0.048868f, -0.053003f, -0.079324f, -0.093558f, -0.069693f, -0.075969f, 
-0.086314f, -0.101616f, -0.105213f, -0.084725f, -0.068324f, -0.048785f, -0.048971f, -0.047053f, 
-0.074840f, -0.053011f, -0.071600f, -0.091686f, -0.079661f, -0.064324f, -0.058369f, -0.040773f, 
-0.004154f, 0.001122f, 0.031426f, 0.005542f, -0.000791f, -0.022432f, -0.061193f, -0.064768f, 
-0.053558f, -0.055569f, -0.081309f, -0.084313f, -0.075905f, -0.082553f, -0.088070f, -0.083734f, 
-0.104001f, -0.055935f, -0.059205f, -0.041335f, -0.037571f, -0.062678f, -0.075468f, -0.074374f, 
-0.087140f, -0.084731f, -0.081428f, -0.046037f, -0.003493f, -0.008217f, 0.002372f, 0.036359f, 
-0.013234f, 0.013101f, 0.015415f, -0.077375f, -0.051860f, -0.046423f, -0.070252f, -0.096027f, 
-0.072504f, -0.069955f, -0.077185f, -0.097402f, -0.071280f, -0.079594f, -0.077062f, -0.038432f, 
-0.051081f, -0.033922f, -0.089838f, -0.063298f, -0.059906f, -0.098258f, -0.084044f, -0.073772f, 
-0.062372f, -0.051117f, -0.018498f, -0.009715f, -0.014175f, -0.008242f, -0.010532f, 0.017497f, 
-0.078111f, -0.076279f, -0.067637f, -0.086471f, -0.084597f, -0.083598f, -0.067279f, -0.085250f, 
-0.087676f, -0.075412f, -0.071219f, -0.093521f, -0.063263f, -0.035618f, -0.057062f, -0.090059f, 
-0.065371f, -0.089805f, -0.076833f, -0.092457f, -0.081911f, -0.078080f, -0.044416f, -0.033173f, 
-0.016323f, -0.028246f, -0.020038f, -0.017442f, 0.017133f, -0.071907f, -0.085568f, -0.077656f, 
-0.085187f, -0.084324f, -0.097517f, -0.090046f, -0.081351f, -0.088150f, -0.075702f, -0.066733f, 
-0.070950f, -0.065446f, -0.045545f, -0.084869f, -0.089082f, -0.082595f, -0.076002f, -0.088393f, 
-0.073901f, -0.092581f, -0.070959f, -0.061583f, -0.040636f, -0.025101f, -0.032935f, -0.032694f, 
0.011362f, -0.003326f, -0.073802f, -0.096775f, -0.072955f, -0.072948f, -0.062860f, -0.077180f, 
-0.105938f, -0.070309f, -0.075763f, -0.085062f, -0.065037f, -0.098324f, -0.076835f, -0.089924f, 
-0.077198f, -0.072265f, -0.085664f, -0.087780f, -0.079377f, -0.057304f, -0.049420f, -0.066935f, 
-0.067274f, -0.057328f, -0.041943f, -0.033374f, -0.030495f, -0.012422f, 0.006725f, -0.066751f, 
-0.084749f, -0.079942f, -0.068753f, -0.085898f, -0.098765f, -0.114740f, -0.088147f, -0.088906f, 
-0.104650f, -0.096656f, -0.102117f, -0.095346f, -0.081217f, -0.074025f, -0.085126f, -0.107346f, 
-0.092895f, -0.067720f, -0.067720f, -0.058794f, -0.060842f, -0.075834f, -0.045725f, -0.044278f, 
-0.049205f, -0.030796f, -0.023300f, 0.008007f, -0.087912f, -0.094229f, -0.098510f, -0.091679f, 
-0.085270f, -0.069129f, -0.070989f, -0.100691f, -0.109479f, -0.090423f, -0.107952f, -0.091544f, 
-0.090740f, -0.066831f, -0.058063f, -0.094588f, -0.069211f, -0.047145f, -0.052490f, -0.048545f, 
-0.026290f, -0.064759f, -0.052560f, -0.040530f, -0.043639f, -0.058353f, -0.044736f, -0.033037f, 
-0.017362f, -0.062994f, -0.055821f, -0.053498f, -0.099022f, -0.072155f, -0.056056f, -0.092272f, 
-0.093540f, -0.103266f, -0.089623f, -0.094646f, -0.078576f, -0.079208f, -0.073409f, -0.068284f, 
-0.065277f, -0.049530f, -0.057569f, -0.041923f, -0.052015f, -0.036353f, -0.068498f, -0.046109f, 
-0.056184f, -0.059395f, -0.058126f, -0.017927f, -0.020694f, -0.001360f, -0.047683f, -0.031142f, 
-0.049898f, -0.095438f, -0.066174f, -0.060203f, -0.055366f, -0.089201f, -0.084573f, -0.076759f, 
-0.088282f, -0.071294f, -0.068007f, -0.074350f, -0.065267f, -0.081247f, -0.046538f, -0.049259f, 
-0.032542f, -0.063123f, -0.061224f, -0.052603f, -0.071207f, -0.048710f, -0.057323f, -0.024474f, 
-0.020802f, -0.014997f, -0.018615f, -0.034691f, -0.024034f, -0.058110f, -0.078457f, -0.064662f, 
-0.074241f, -0.052760f, -0.056657f, -0.041366f, -0.078663f, -0.078610f, -0.070893f, -0.063923f, 
-0.037097f, -0.068828f, -0.062793f, -0.053141f, -0.049238f, -0.046788f, -0.075124f, -0.064343f, 
-0.071765f, -0.037869f, -0.042716f, -0.025799f, 0.003863f, 0.010168f, 0.022664f, -0.017230f, 
-0.048369f, -0.048343f, -0.078776f, -0.073290f, -0.048052f, -0.038830f, -0.039274f, -0.045248f, 
-0.063545f, -0.034642f, -0.045536f, -0.064627f, -0.050678f, -0.049045f, -0.057259f, -0.090856f, 
-0.040440f, -0.026059f, -0.041409f, -0.076635f, -0.075951f, -0.070278f, -0.061664f, -0.015954f, 
-0.020097f, -0.014016f, -0.012957f, -0.016947f, -0.004791f, -0.041752f, -0.034296f, -0.073274f, 
-0.053655f, -0.052404f, -0.058633f, -0.053482f, -0.014482f, -0.036370f, -0.027695f, -0.048693f, 
-0.060051f, -0.030044f, -0.037162f, -0.036128f, -0.062400f, -0.056181f, -0.052401f, -0.058381f, 
-0.079347f, -0.069400f, -0.069907f, -0.071430f, -0.025728f, 0.011862f, 0.003526f, -0.016962f, 
-0.012779f, 0.000418f, -0.059936f, -0.036883f, -0.057420f, -0.065205f, -0.050884f, -0.052505f, 
-0.035840f, -0.007450f, -0.023279f, -0.054146f, -0.080492f, -0.044238f, -0.031326f, -0.027074f, 
-0.041087f, -0.046764f, -0.067115f, -0.061138f, -0.070075f, -0.054662f, -0.088442f, -0.089890f, 
-0.084621f, -0.020227f, -0.002389f, 0.014595f, -0.027531f, -0.019276f, -0.018516f, -0.069314f, 
-0.041358f, -0.041696f, -0.059897f, -0.030092f, -0.049954f, -0.052806f, -0.052470f, -0.055060f, 
-0.047200f, -0.052394f, -0.041547f, -0.027137f, -0.010896f, -0.024298f, -0.050769f, -0.080894f, 
-0.059372f, -0.069121f, -0.079552f, -0.081086f, -0.089831f, -0.066343f, -0.045635f, -0.019833f, 
0.012763f, -0.011129f, -0.017214f, -0.036018f, -0.058911f, -0.033701f, -0.022067f, -0.069973f, 
-0.041306f, -0.036397f, -0.049065f, -0.060652f, -0.048729f, -0.024473f, -0.061760f, -0.044113f, 
-0.021614f, -0.021820f, -0.038295f, -0.056090f, -0.038519f, -0.060807f, -0.061287f, -0.086111f, 
-0.092772f, -0.082207f, -0.057168f, -0.029243f, -0.001755f, 0.016813f, 0.010242f, -0.013419f, 
-0.003733f, -0.067950f, -0.036120f, -0.031103f, -0.051598f, -0.044804f, -0.037563f, -0.043157f, 
-0.029989f, -0.034111f, -0.039946f, -0.040156f, -0.037039f, -0.031493f, -0.009537f, -0.019707f, 
-0.045535f, -0.063109f, -0.053231f, -0.058311f, -0.084035f, -0.057336f, -0.070236f, -0.071003f, 
-0.031462f, -0.020514f, -0.025452f, -0.005950f, -0.008703f, 0.010950f, 0.011410f, 0.003406f, 
0.013059f, 0.021434f, 0.002702f, -0.002632f, 0.018385f, 0.025625f, 0.024490f, 0.018283f, 
-0.027110f, -0.002996f, 0.037264f, 0.023075f, -0.001761f, -0.019481f, 0.018929f, 0.006891f, 
0.018775f, 0.028722f, 0.031948f, 0.031882f, 0.024686f, 0.046180f, 0.032735f, 0.021470f, 
0.018334f, 0.016024f, 0.030148f, 0.012118f, -0.020211f, 0.029629f, 0.028038f, 0.011386f, 
-0.006466f, 0.018682f, 0.026652f, 0.046425f, 0.031048f, -0.015415f, -0.014984f, 0.020018f, 
0.037989f, -0.001730f, -0.010028f, -0.026650f, -0.016275f, -0.009551f, 0.018393f, 0.026251f, 
0.020381f, 0.040585f, 0.028255f, 0.037294f, 0.028800f, 0.031884f, 0.005097f, 0.028095f, 
-0.023737f, -0.012879f, 0.022579f, 0.060365f, 0.010912f, 0.003327f, 0.038633f, 0.025337f, 
0.023869f, 0.001940f, -0.011337f, -0.005072f, 0.016733f, 0.025163f, 0.019334f, 0.001227f, 
-0.044852f, -0.041776f, -0.022775f, -0.001724f, 0.025347f, 0.033460f, 0.019654f, 0.035990f, 
0.025760f, 0.018373f, 0.027713f, -0.000869f, 0.033960f, -0.020212f, -0.028172f, 0.010827f, 
0.037833f, 0.001023f, 0.016576f, 0.011501f, 0.032774f, 0.029339f, 0.028919f, 0.000668f, 
-0.002000f, 0.029011f, 0.005459f, -0.001178f, -0.004213f, 0.011628f, -0.015890f, -0.044058f, 
-0.039139f, -0.013638f, 0.013488f, 0.020221f, 0.026962f, 0.022616f, 0.036453f, 0.037676f, 
0.004561f, 0.022648f, -0.028885f, -0.025088f, 0.011713f, 0.008293f, -0.023335f, 0.014067f, 
0.013523f, 0.012035f, 0.021179f, 0.001654f, -0.003768f, -0.011168f, 0.030835f, -0.002449f, 
-0.016471f, 0.044044f, 0.013450f, -0.049681f, -0.067004f, -0.063816f, -0.025594f, 0.018250f, 
0.013938f, 0.007882f, 0.027928f, 0.038658f, 0.008351f, -0.017802f, 0.026446f, -0.051110f, 
-0.047021f, -0.018928f, -0.039148f, -0.046166f, -0.017503f, -0.008332f, -0.002659f, -0.003778f, 
-0.002079f, -0.013878f, -0.012849f, 0.020709f, -0.000925f, -0.022291f, 0.014299f, -0.025379f, 
-0.050727f, -0.050341f, -0.076581f, -0.053333f, -0.039648f, 0.005368f, 0.008185f, 0.013651f, 
0.031834f, 0.006632f, -0.009801f, 0.007520f, -0.069769f, -0.057657f, -0.029920f, -0.024340f, 
-0.057140f, -0.016268f, -0.041912f, -0.016979f, -0.003822f, -0.024361f, -0.022551f, -0.027424f, 
-0.005656f, -0.017532f, -0.030780f, -0.005503f, -0.028160f, -0.056364f, -0.072538f, -0.058832f, 
-0.063511f, -0.040798f, -0.020688f, -0.010143f, 0.004013f, -0.013710f, 0.023503f, -0.018532f, 
0.016686f, -0.057528f, -0.055664f, -0.065293f, -0.052258f, -0.071126f, -0.046498f, -0.059160f, 
-0.065357f, -0.036106f, -0.044812f, -0.051991f, -0.056565f, -0.008990f, -0.004231f, -0.022781f, 
-0.008564f, -0.037791f, -0.066146f, -0.070986f, -0.077150f, -0.061756f, -0.062835f, -0.036886f, 
-0.004722f, -0.001350f, -0.008836f, -0.018831f, -0.022776f, 0.006279f, -0.066020f, -0.067344f, 
-0.079708f, -0.085087f, -0.058399f, -0.058185f, -0.095953f, -0.090060f, -0.072268f, -0.060571f, 
-0.052635f, -0.054798f, -0.013624f, -0.011563f, 0.011648f, 0.015521f, -0.035344f, -0.071346f, 
-0.052349f, -0.085915f, -0.052571f, -0.057512f, -0.016710f, -0.031688f, -0.033062f, -0.004965f, 
-0.006928f, -0.001040f, 0.024647f, -0.073934f, -0.088673f, -0.069100f, -0.065203f, -0.077846f, 
-0.073777f, -0.073340f, -0.070395f, -0.074601f, -0.084150f, -0.046077f, -0.059767f, -0.046103f, 
-0.028191f, -0.007539f, -0.001351f, -0.040133f, -0.078558f, -0.082765f, -0.074742f, -0.065464f, 
-0.031253f, 0.000517f, -0.001979f, -0.014895f, 0.003690f, 0.000414f, 0.006299f, 0.010168f, 
-0.049541f, -0.066434f, -0.093697f, -0.091988f, -0.079458f, -0.092728f, -0.076972f, -0.104186f, 
-0.087441f, -0.083774f, -0.075246f, -0.099587f, -0.075071f, -0.048976f, -0.034581f, -0.026870f, 
-0.059363f, -0.061235f, -0.065407f, -0.067833f, -0.050535f, -0.046349f, -0.024547f, -0.001296f, 
0.026700f, 0.006766f, 0.010782f, -0.008049f, -0.004891f, -0.097248f, -0.101269f, -0.097256f, 
-0.107354f, -0.086492f, -0.122592f, -0.091464f, -0.097868f, -0.085847f, -0.079054f, -0.076908f, 
-0.076880f, -0.061081f, -0.030539f, -0.045961f, -0.025386f, -0.040973f, -0.069700f, -0.075819f, 
-0.077471f, -0.055251f, -0.044226f, -0.046244f, 0.005959f, 0.033374f, 0.008741f, 0.005132f, 
0.024891f, 0.030030f, -0.115558f, -0.100933f, -0.109798f, -0.098039f, -0.068548f, -0.086765f, 
-0.069260f, -0.050617f, -0.079201f, -0.058348f, -0.080290f, -0.077236f, -0.055230f, -0.035806f, 
-0.065303f, -0.045296f, -0.057333f, -0.095884f, -0.089896f, -0.076162f, -0.091063f, -0.073176f, 
-0.027531f, -0.003773f, 0.019443f, 0.006633f, 0.031919f, 0.018455f, 0.045249f, -0.087294f, 
-0.074467f, -0.055731f, -0.085586f, -0.067697f, -0.070551f, -0.044507f, -0.047762f, -0.073011f, 
-0.089350f, -0.061141f, -0.058146f, -0.066948f, -0.055764f, -0.071357f, -0.058458f, -0.072974f, 
-0.072219f, -0.081704f, -0.097763f, -0.082202f, -0.071621f, -0.079043f, -0.030648f, -0.011677f, 
-0.009005f, 0.022077f, 0.001597f, 0.042920f, -0.082064f, -0.093877f, -0.090661f, -0.079118f, 
-0.093035f, -0.077666f, -0.066576f, -0.071682f, -0.077119f, -0.076931f, -0.077920f, -0.088853f, 
-0.071610f, -0.044577f, -0.039522f, -0.084781f, -0.101315f, -0.061666f, -0.073504f, -0.109690f, 
-0.109249f, -0.113769f, -0.080640f, -0.050388f, -0.046378f, -0.030119f, -0.016141f, -0.024653f, 
-0.000635f, -0.087168f, -0.091375f, -0.085079f, -0.077167f, -0.092599f, -0.087919f, -0.094099f, 
-0.091874f, -0.080726f, -0.063887f, -0.048607f, -0.062242f, -0.052531f, -0.042259f, -0.045448f, 
-0.089613f, -0.102484f, -0.083675f, -0.059339f, -0.072981f, -0.066893f, -0.075636f, -0.070540f, 
-0.051607f, -0.046610f, -0.030825f, -0.035986f, -0.043681f, 0.017065f, -0.050816f, -0.069941f, 
-0.069995f, -0.059529f, -0.070220f, -0.096395f, -0.126182f, -0.098691f, -0.064357f, -0.064938f, 
-0.041107f, -0.051901f, -0.035593f, -0.040683f, -0.034013f, -0.035326f, -0.065451f, -0.068058f, 
-0.073625f, -0.078393f, -0.070284f, -0.092305f, -0.095864f, -0.047557f, -0.049483f, -0.045968f, 
-0.033308f, -0.017480f, 0.047706f, -0.046622f, -0.067178f, -0.061032f, -0.065202f, -0.079737f, 
-0.098717f, -0.115242f, -0.113896f, -0.078773f, -0.063363f, -0.057692f, -0.057101f, -0.068740f, 
-0.046357f, -0.007690f, -0.048712f, -0.081050f, -0.063144f, -0.059713f, -0.044228f, -0.056459f, 
-0.053440f, -0.054625f, -0.039296f, -0.020231f, -0.013329f, 0.004797f, -0.005316f, 0.009642f, 
-0.042501f, -0.053896f, -0.074998f, -0.086218f, -0.070130f, -0.070721f, -0.095258f, -0.116235f, 
-0.098877f, -0.082929f, -0.081240f, -0.083434f, -0.078166f, -0.079735f, -0.042546f, -0.090891f, 
-0.073995f, -0.080093f, -0.062985f, -0.049618f, -0.037481f, -0.052200f, -0.056684f, -0.053046f, 
-0.025984f, -0.028976f, -0.036483f, -0.000309f, 0.024711f, -0.000944f, -0.077750f, -0.079715f, 
-0.090943f, -0.069698f, -0.069524f, -0.068690f, -0.095924f, -0.105971f, -0.107381f, -0.089801f, 
-0.062663f, -0.072164f, -0.085040f, -0.077496f, -0.050489f, -0.071945f, -0.075176f, -0.047119f, 
-0.036490f, -0.043105f, -0.027625f, -0.037541f, -0.062526f, -0.036037f, -0.015925f, -0.021869f, 
0.033729f, 0.034028f, 0.020771f, -0.026339f, -0.059742f, -0.070537f, -0.091595f, -0.060402f, 
-0.064899f, -0.072212f, -0.068125f, -0.107161f, -0.114336f, -0.091248f, -0.110494f, -0.111725f, 
-0.079868f, -0.067411f, -0.082094f, -0.067050f, -0.052419f, -0.047949f, -0.024055f, -0.041008f, 
-0.028151f, -0.030387f, -0.031999f, -0.009142f, 0.033946f, 0.058361f, 0.039308f, -0.018663f, 
-0.031201f, -0.033560f, -0.059721f, -0.072305f, -0.079343f, -0.067634f, -0.042235f, -0.051974f, 
-0.084374f, -0.087936f, -0.096677f, -0.063583f, -0.096386f, -0.090476f, -0.084451f, -0.062638f, 
-0.042831f, -0.040295f, -0.029894f, -0.031224f, -0.054754f, 0.001203f, -0.024263f, -0.015782f, 
0.005390f, 0.021901f, 0.041274f, 0.036843f, -0.048096f, -0.008290f, -0.005442f, -0.039368f, 
-0.046811f, -0.050620f, -0.055948f, -0.054173f, -0.082677f, -0.067579f, -0.089725f, -0.056715f, 
-0.034583f, -0.040458f, -0.062851f, -0.068867f, -0.084727f, -0.044722f, -0.003501f, -0.047205f, 
-0.047721f, -0.045353f, -0.012177f, 0.002328f, -0.002631f, 0.002267f, -0.011612f, 0.008990f, 
0.056154f, -0.017274f, 0.007120f, 0.003113f, -0.038603f, -0.029260f, -0.035742f, -0.060026f, 
-0.054796f, -0.058763f, -0.034767f, -0.050724f, -0.039093f, -0.051227f, -0.036703f, -0.032039f, 
-0.064096f, -0.091828f, -0.047114f, -0.036746f, -0.035387f, -0.058774f, -0.076336f, -0.040238f, 
0.009126f, -0.012016f, 0.002758f, -0.007865f, 0.028698f, 0.048528f, -0.028768f, -0.003721f, 
-0.024593f, -0.035067f, -0.024285f, -0.018642f, -0.033788f, -0.026750f, 0.010027f, -0.002137f, 
-0.015871f, -0.069737f, -0.038414f, -0.004554f, -0.007787f, -0.043966f, -0.094987f, -0.067428f, 
-0.062913f, -0.036282f, -0.064119f, -0.066801f, -0.069610f, -0.022730f, 0.014294f, 0.051838f, 
0.036859f, 0.006231f, 0.036937f, -0.014047f, -0.028481f, -0.044965f, -0.056099f, -0.022055f, 
-0.003745f, -0.006985f, -0.023501f, 0.017971f, 0.010730f, -0.023853f, -0.031126f, -0.022750f, 
0.006660f, -0.006125f, -0.045692f, -0.064926f, -0.059197f, -0.063752f, -0.056582f, -0.057415f, 
-0.080380f, -0.055388f, 0.001037f, 0.023428f, 0.029175f, 0.034348f, 0.007105f, 0.022883f, 
-0.024784f, -0.017636f, -0.036306f, -0.013288f, -0.021644f, 0.013597f, 0.001446f, -0.038222f, 
-0.004557f, 0.005317f, -0.029366f, -0.002842f, 0.002296f, -0.003938f, 0.010195f, -0.035732f, 
-0.062052f, -0.062976f, -0.085677f, -0.060552f, -0.060057f, -0.065427f, -0.043725f, -0.022576f, 
0.013437f, 0.024325f, 0.015552f, 0.011138f, 0.006354f, -0.022402f, -0.007784f, 0.017039f, 
0.021317f, 0.005970f, 0.029402f, -0.009363f, -0.009081f, -0.006775f, 0.027852f, -0.009576f, 
-0.018884f, 0.010216f, 0.018027f, 0.009457f, 0.020888f, 0.008344f, -0.041326f, -0.056762f, 
-0.029349f, -0.037738f, -0.037232f, -0.045654f, -0.025040f, -0.020943f, 0.004064f, -0.001453f, 
0.015055f, 0.029622f, -0.001287f, 0.020017f, 0.014789f, 0.053482f, 0.041742f, 0.028740f, 
-0.019231f, 0.007121f, 0.021103f, 0.020458f, -0.014154f, 0.013807f, 0.012481f, 0.007477f, 
0.034880f, 0.046140f, 0.017239f, -0.020095f, -0.024453f, -0.063256f, -0.034409f, -0.047750f, 
-0.033976f, -0.049259f, -0.024584f, -0.007694f, 0.033778f, 0.007177f, 0.026515f, -0.007819f, 
-0.019808f, -0.019825f, 0.004823f, -0.020950f, -0.006350f, 0.002805f, -0.006525f, -0.011624f, 
-0.008634f, 0.002878f, 0.021879f, -0.005108f, 0.027706f, 0.005426f, 0.025433f, 0.017531f, 
0.011002f, 0.022960f, 0.015711f, -0.002804f, 0.014018f, 0.019097f, -0.003048f, -0.004703f, 
0.012440f, -0.003788f, 0.011762f, 0.002878f, -0.015236f, -0.022515f, -0.005410f, -0.019586f, 
0.001837f, 0.002074f, 0.005340f, -0.010113f, -0.007809f, 0.003211f, 0.018473f, 0.003964f, 
0.011759f, 0.009447f, 0.022301f, 0.016965f, 0.019967f, 0.018495f, 0.018555f, 0.001407f, 
0.001609f, 0.011597f, 0.006829f, 0.020455f, 0.016162f, 0.011859f, -0.004973f, 0.024213f, 
0.023703f, -0.025453f, 0.002111f, 0.002183f, -0.017977f, -0.010282f, -0.010484f, 0.006892f, 
-0.017009f, -0.017446f, 0.004682f, -0.013729f, 0.014155f, 0.000157f, -0.006750f, -0.002418f, 
0.013511f, 0.008794f, 0.025272f, 0.020748f, 0.003906f, 0.016762f, -0.000747f, 0.016766f, 
-0.004285f, -0.010433f, 0.024252f, 0.018939f, 0.010690f, -0.004779f, -0.023856f, -0.013119f, 
-0.016638f, 0.001278f, -0.024520f, 0.005201f, -0.010953f, 0.013238f, 0.008718f, -0.002847f, 
-0.016641f, -0.012798f, -0.006745f, 0.004242f, 0.010155f, 0.024162f, 0.004442f, -0.005896f, 
0.008527f, 0.005635f, 0.006095f, -0.001740f, 0.001031f, 0.017704f, -0.000913f, -0.005037f, 
0.013981f, 0.025004f, 0.005649f, 0.000706f, -0.009256f, 0.006385f, -0.012931f, -0.002132f, 
0.001470f, -0.022117f, 0.002837f, -0.015824f, -0.013107f, 0.009388f, -0.005629f, 0.002143f, 
0.018959f, 0.016202f, 0.017469f, -0.000642f, 0.011507f, 0.004603f, 0.004490f, -0.013235f, 
0.010298f, 0.006717f, 0.011629f, -0.008056f, 0.004814f, -0.009292f, 0.021995f, 0.002906f, 
-0.005934f, -0.012150f, -0.013624f, 0.004272f, -0.014158f, -0.025436f, 0.006742f, -0.015044f, 
-0.001177f, -0.017719f, 0.011934f, 0.001894f, 0.006248f, 0.017137f, -0.003738f, 0.013335f, 
-0.004091f, -0.010248f, -0.013857f, 0.003219f, -0.000036f, -0.002813f, -0.002200f, -0.010207f, 
-0.007149f, 0.004130f, 0.020158f, 0.014352f, 0.021763f, -0.016570f, -0.006782f, -0.000704f, 
-0.017818f, 0.003629f, -0.018444f, -0.013254f, -0.016660f, -0.009082f, -0.006589f, -0.005414f, 
0.004524f, -0.001492f, 0.004491f, -0.002992f, -0.009789f, 0.012367f, -0.005414f, -0.010440f, 
-0.002184f, 0.003972f, 0.004702f, 0.008864f, 0.009894f, 0.018016f, 0.012537f, 0.002169f, 
0.001613f, -0.002983f, -0.003819f, -0.008725f, 0.003397f, -0.018866f, -0.007640f, -0.017355f, 
-0.003303f, -0.010479f, 0.001658f, -0.022876f, -0.005458f, -0.002439f, -0.017192f, -0.004677f, 
0.014605f, -0.014537f, -0.003067f, -0.005438f, 0.002802f, 0.006781f, 0.014664f, 0.016721f, 
-0.002966f, -0.006451f, 0.017372f, 0.009895f, -0.010150f, 0.023185f, 0.000076f, -0.009519f, 
-0.018842f, -0.015589f, 0.003244f, -0.000748f, -0.010393f, -0.023580f, -0.004850f, -0.027490f, 
-0.013689f, -0.010780f, 0.008718f, -0.010498f, 0.001447f, 0.003727f, -0.015752f, 0.017308f, 
0.001334f, 0.004566f, -0.017954f, -0.005137f, -0.009382f, -0.012528f, -0.004028f, 0.000952f, 
0.020920f, -0.006694f, 0.005153f, 0.021953f, -0.019355f, -0.011050f, 0.004106f, 0.003415f, 
0.004156f, -0.003193f, 0.001758f, -0.006391f, -0.021566f, -0.008904f, -0.004393f, -0.011495f, 
-0.013841f, 0.008980f, 0.003806f, -0.004227f, -0.000461f, 0.007828f, 0.010041f, 0.004943f, 
0.002324f, 0.017050f, -0.010175f, -0.005762f, -0.008732f, 0.001723f, 0.002562f, 0.014708f, 
0.009322f, 0.006321f, 0.000775f, -0.024793f, -0.024411f, 0.001892f, -0.026448f, -0.005156f, 
-0.019856f, -0.011386f, -0.021821f, -0.016167f, -0.016713f, -0.019912f, -0.007734f, 0.008964f, 
0.004321f, -0.002164f, 0.003977f, -0.007225f, 0.011806f, -0.005546f, 0.011539f, 0.004849f, 
0.005647f, 0.015335f, 0.005451f, 0.021461f, 0.009049f, -0.000537f, -0.005641f, -0.002577f, 
-0.006220f, -0.001923f, -0.020914f, 0.007971f, 0.002788f, 0.000988f, -0.013629f, 0.004645f, 
-0.009765f, -0.017152f, -0.002390f, -0.001066f, -0.000889f, 0.006872f, 0.014185f, -0.011305f, 
0.007991f, 0.000130f, 0.002852f, -0.013189f, -0.011705f, 0.014747f, -0.012886f, 0.016731f, 
0.006438f, -0.004121f, 0.020840f, -0.007578f, -0.020182f, 0.004545f, -0.016304f, 0.008604f, 
-0.005051f, 0.002991f, -0.013424f, -0.018758f, 0.005791f, 0.005412f, -0.014742f, 0.005674f, 
-0.012911f, -0.017118f, -0.014900f, 0.014339f, 0.013513f, -0.002796f, -0.014368f, 0.011918f, 
-0.014945f, 0.002589f, -0.000045f, 0.007286f, 0.006610f, -0.008220f, 0.011829f, 0.008891f, 
-0.003223f, -0.001769f, 0.003757f, -0.000835f, 0.001662f, 0.003305f, -0.016179f, -0.014166f, 
-0.009827f, -0.015925f, -0.028927f, 0.000978f, -0.011137f, -0.018126f, -0.008078f, -0.007949f, 
0.000783f, 0.005708f, -0.008769f, 0.003430f, -0.016033f, 0.003538f, 0.004025f, -0.005284f, 
0.000749f, 0.019164f, 0.007761f, 0.006104f, 0.006582f, 0.005753f, -0.004968f, -0.006577f, 
-0.012126f, -0.011805f, 0.002509f, -0.009908f, -0.018463f, -0.025269f, -0.022025f, -0.015221f, 
-0.019136f, -0.024369f, -0.016734f, -0.005565f, -0.002009f, -0.011643f, -0.015391f, 0.015204f, 
0.001197f, 0.013180f, 0.015107f, -0.012274f, 0.015625f, 0.002759f, -0.010680f, -0.000944f, 
0.009427f, 0.013739f, 0.002807f, 0.007015f, -0.008005f, -0.006681f, -0.011243f, -0.020266f, 
-0.007419f, -0.020344f, -0.016261f, -0.013233f, -0.017085f, -0.021998f, -0.006295f, 0.003795f, 
0.006526f, -0.003075f, -0.001517f, 0.016003f, 0.010198f, 0.009817f, -0.004543f, -0.012843f, 
0.000292f, -0.002132f, 0.008728f, -0.008246f, -0.011853f, 0.005933f, -0.002820f, -0.009797f, 
-0.005033f, 0.008350f, -0.021090f, -0.004482f, 0.007929f, -0.014897f, 0.003209f, -0.028815f, 
-0.006293f, -0.019131f, 0.003520f, -0.001167f, 0.000352f, -0.009198f, -0.019199f, -0.017394f, 
-0.007343f, 0.002176f, 0.013341f, 0.015497f, -0.002569f, 0.014367f, 0.004615f, 0.005957f, 
0.013683f, 0.001902f, -0.001918f, 0.005076f, -0.007241f, 0.004324f, 0.003948f, -0.024089f, 
-0.005995f, -0.001903f, -0.018033f, -0.011371f, -0.014335f, -0.020968f, -0.002853f, -0.017336f, 
-0.020809f, -0.024797f, -0.013551f, -0.000054f, -0.009787f, -0.012197f, 0.010881f, -0.008950f, 
-0.003582f, 0.015023f, 0.011083f, 0.021795f, 0.006550f, -0.000776f, 0.005043f, 0.013294f, 
-0.005032f, 0.000847f, 0.011056f, -0.011656f, -0.011474f, -0.021734f, -0.019280f, -0.003649f, 
-0.016095f, -0.026095f, -0.023434f, -0.004386f, -0.015348f, -0.026043f, 0.002815f, -0.020581f, 
0.006893f, -0.020897f, -0.006531f, 0.014558f, -0.000161f, 0.021200f, -0.002441f, 0.006257f, 
0.008607f, 0.019561f, -0.010061f, 0.018710f, -0.002470f, 0.010913f, -0.011599f, -0.009611f, 
-0.004676f, -0.011665f, -0.003565f, -0.004332f, -0.015513f, -0.002289f, -0.026899f, 0.004698f, 
-0.026858f, -0.020322f, -0.014184f, -0.019805f, -0.013861f, -0.020931f, -0.007793f, 0.007985f, 
-0.007250f, -0.002513f, 0.018109f, 0.003971f, 0.016499f, -0.001131f, 0.012635f, 0.002137f, 
-0.000449f, 0.002294f, -0.006247f, 0.010039f, -0.010002f, 0.009223f, 0.009759f, -0.002553f, 
-0.017622f, 0.008781f, -0.022561f, -0.015813f, -0.015448f, -0.015108f, -0.002754f, -0.019989f, 
-0.022564f, 0.004062f, -0.000074f, -0.015517f, -0.004336f, 0.015168f, -0.008940f, -0.001270f, 
-0.000806f, 0.007508f, 0.019952f, -0.013616f, -0.009908f, 0.017710f, 0.006999f, 0.016689f, 
-0.005165f, -0.009623f, 0.009795f, 0.003721f, -0.005743f, -0.008995f, 0.002454f, -0.005815f, 
0.009625f, -0.002801f, -0.021952f, -0.003592f, -0.006627f, -0.023709f, -0.004784f, -0.005005f, 
0.004936f, 0.012405f, 0.015679f, 0.018870f, -0.007084f, 0.006860f, -0.004460f, 0.007816f, 
-0.007603f, 0.009512f, -0.006163f, 0.006714f, -0.011925f, -0.007836f, 0.008258f, -0.009196f, 
-0.016787f, 0.007610f, 0.000560f, -0.009557f, -0.018745f, -0.022899f, 0.000415f, 0.010360f, 
-0.011622f, -0.012365f, -0.002407f, 0.008598f, -0.016491f, 0.008680f, 0.009330f, 0.003035f, 
-0.005711f, 0.014287f, 0.003769f, 0.000617f, -0.017988f, -0.010016f, -0.006893f, 0.011606f, 
-0.009322f, 0.006694f, -0.022370f, -0.018394f, -0.000037f, 0.005052f, 0.008550f, 0.008946f, 
-0.007114f, 0.009714f, -0.019262f, -0.008807f, 0.010177f, 0.012867f, -0.014244f, -0.019777f, 
-0.007992f, -0.010284f, 0.003759f, -0.017677f, -0.008819f, 0.004334f, -0.013352f, -0.015853f, 
-0.010173f, -0.000613f, -0.020551f, -0.010004f, 0.000842f, -0.000962f, 0.008707f, -0.020704f, 
0.007904f, 0.003188f, -0.016754f, 0.001993f, -0.018710f, -0.005484f, -0.014126f, -0.009649f, 
0.014727f, 0.011248f, -0.012894f, 0.004876f, -0.015287f, -0.016000f, 0.006546f, 0.007026f, 
-0.014281f, -0.013809f, 0.006549f, -0.017210f, -0.013010f, 0.007923f, 0.005009f, -0.012215f, 
-0.007809f, 0.002228f, -0.001940f, 0.006124f, -0.009139f, -0.025968f, 0.008277f, -0.014484f, 
0.002586f, -0.002630f, -0.017848f, 0.005851f, -0.010209f, -0.010156f, -0.020134f, -0.010115f, 
0.007357f, 0.006114f, 0.002005f, -0.015809f, -0.005606f, 0.019752f, 0.001755f, -0.018479f, 
-0.017122f, -0.011368f, -0.008261f, -0.001428f, -0.016018f, -0.012951f, -0.015133f, -0.000747f, 
-0.009717f, -0.011586f, 0.005768f, -0.008152f, 0.008474f, -0.011281f, 0.012724f, 0.010676f, 
0.010254f, -0.007811f, 0.007920f, -0.013366f, 0.004212f, 0.007712f, 0.010242f, 0.003568f, 
-0.013348f, 0.008411f, -0.005619f, 0.002020f, -0.005671f, -0.007845f, -0.001149f, -0.003647f, 
-0.021792f, -0.015657f, -0.001282f, -0.020773f, 0.003353f, 0.011033f, -0.028658f, -0.010013f, 
0.006663f, -0.010897f, 0.004992f, -0.006924f, 0.005718f, 0.011211f, -0.012364f, 0.008725f, 
0.000895f, -0.007475f, -0.007347f, -0.018240f, -0.012835f, -0.016773f, 0.001887f, 0.000110f, 
0.007434f, -0.007664f, 0.005891f, -0.000723f, -0.025972f, -0.011518f, -0.009039f, 0.000226f, 
-0.016565f, 0.010793f, 0.005384f, -0.018889f, -0.021327f, -0.000398f, 0.002481f, -0.014092f, 
-0.013945f, 0.011391f, 0.001848f, -0.017355f, -0.015265f, 0.005546f, 0.006739f, 0.008631f, 
0.004505f, -0.005946f, -0.015575f, -0.001080f, -0.007489f, -0.003720f, -0.003061f, -0.007937f, 
-0.011931f, -0.027342f, -0.010723f, 0.007031f, -0.024400f, -0.006922f, 0.013495f, 0.013537f, 
-0.012712f, -0.010937f, 0.007057f, 0.006468f, -0.017568f, -0.010022f, -0.004896f, 0.004547f, 
-0.020026f, 0.002353f, 0.004950f, -0.004420f, -0.012517f, -0.011777f, -0.025225f, -0.025857f, 
-0.027222f, -0.010314f, -0.031410f, -0.014058f, -0.012775f, 0.002065f, -0.026272f, 0.002448f, 
-0.019930f, -0.025975f, -0.027299f, -0.010968f, -0.040568f, -0.021751f, -0.017895f, -0.015396f, 
-0.023047f, -0.015650f, -0.023009f, -0.012794f, -0.017990f, -0.020012f, -0.014640f, -0.002285f, 
-0.018803f, 0.001749f, -0.002292f, 0.000607f, -0.026140f, 0.000528f, -0.023084f, -0.028839f, 
-0.029193f, -0.029723f, -0.000345f, -0.018084f, -0.016715f, -0.012649f, -0.019196f, -0.003555f, 
-0.029341f, -0.011311f, 0.011243f, 0.006372f, 0.002396f, 0.001770f, -0.024890f, -0.005012f, 
-0.025051f, -0.015868f, -0.013879f, -0.000155f, -0.002169f, 0.008582f, -0.011389f, -0.017864f, 
0.002538f, -0.021614f, -0.027348f, -0.013676f, -0.027777f, -0.025215f, -0.012615f, 0.006136f, 
0.002442f, -0.013631f, -0.001633f, 0.005590f, -0.012085f, -0.025495f, -0.023189f, 0.009426f, 
-0.009190f, 0.006993f, 0.001848f, -0.001569f, 0.002177f, 0.004567f, -0.018043f, -0.008533f, 
0.006326f, 0.006060f, 0.012002f, -0.004121f, 0.007816f, 0.005111f, 0.002543f, -0.013785f, 
-0.013708f, -0.010994f, -0.031098f, -0.007845f, 0.007012f, -0.012459f, 0.003762f, -0.002347f, 
-0.008642f, -0.007213f, -0.018077f, 0.000070f, -0.006445f, 0.007103f, -0.007075f, -0.013894f, 
-0.021124f, -0.030091f, -0.020053f, -0.027083f, -0.023497f, -0.018744f, 0.001038f, 0.002424f, 
0.004399f, -0.004904f, -0.000948f, -0.016888f, 0.005241f, -0.000021f, -0.025228f, -0.026779f, 
-0.013328f, 0.012052f, 0.002112f, -0.002426f, -0.013531f, 0.005273f, 0.000811f, -0.017314f, 
-0.009566f, 0.001603f, 0.000415f, -0.015144f, -0.001548f, -0.012027f, -0.020859f, 0.003361f, 
-0.022129f, -0.009157f, -0.000700f, -0.017034f, -0.013358f, 0.007370f, 0.003159f, 0.004558f, 
-0.027834f, -0.017945f, -0.011205f, -0.000478f, 0.000418f, 0.000494f, -0.006793f, -0.006442f, 
0.000680f, 0.009885f, -0.005222f, -0.012732f, 0.004546f, 0.012524f, -0.010088f, -0.012648f, 
-0.021641f, -0.017538f, -0.002334f, -0.029162f, -0.002482f, -0.003679f, -0.016484f, -0.016393f, 
-0.003985f, 0.008497f, -0.014044f, -0.016646f, -0.024987f, -0.018460f, -0.026476f, -0.022706f, 
0.010118f, -0.002387f, 0.000859f, -0.013104f, 0.008018f, 0.011977f, 0.010720f, 0.000450f, 
0.007947f, 0.002712f, 0.016075f, -0.020566f, -0.014374f, -0.007349f, -0.016804f, 0.007125f, 
-0.018912f, -0.006147f, -0.008392f, -0.000223f, -0.015066f, -0.013181f, -0.003811f, -0.001622f, 
-0.002626f, -0.012354f, -0.020934f, -0.003898f, -0.005159f, 0.009210f, 0.012179f, 0.001927f, 
-0.000070f, -0.012980f, 0.013812f, -0.001523f, 0.007837f, -0.010301f, 0.005394f, 0.002933f, 
-0.019005f, -0.006367f, 0.001496f, 0.005023f, 0.004871f, -0.017023f, 0.001831f, -0.010786f, 
-0.012845f, 0.002338f, -0.019035f, 0.006272f, -0.024380f, 0.003397f, -0.013413f, -0.022596f, 
-0.020090f, -0.019776f, -0.011133f, -0.000112f, -0.003437f, -0.003204f, -0.009384f, 0.017312f, 
-0.001421f, -0.006853f, -0.013274f, -0.012878f, -0.010989f, 0.005676f, -0.020227f, -0.019418f, 
0.006226f, -0.017719f, -0.011733f, -0.000216f, -0.015683f, -0.023687f, -0.009269f, -0.011941f, 
0.001070f, -0.014803f, -0.019387f, 0.007076f, -0.010083f, -0.012258f, -0.016648f, -0.014629f, 
0.010755f, -0.020689f, -0.004761f, 0.017572f, 0.007974f, 0.014102f, 0.011649f, 0.011945f, 
-0.014335f, 0.008582f, -0.007194f, -0.006997f, -0.006506f, -0.015253f, -0.018313f, -0.005534f, 
-0.019071f, -0.013874f, 0.001928f, -0.024023f, -0.015359f, 0.001666f, 0.002043f, -0.006094f, 
0.010054f, 0.004001f, 0.017914f, -0.005810f, 0.005864f, 0.008279f, -0.004303f, -0.011157f, 
0.016176f, 0.017339f, -0.007686f, 0.014222f, 0.016227f, 0.008173f, -0.010212f, 0.008721f, 
-0.010279f, 0.008635f, 0.007736f, -0.014471f, -0.010417f, -0.011466f, -0.017638f, -0.015570f, 
-0.019252f, -0.011697f, 0.000170f, 0.010294f, 0.003752f, 0.027492f, 0.001187f, 0.010916f, 
-0.001560f, 0.021223f, -0.003094f, -0.010612f, -0.004766f, 0.017301f, 0.013842f, 0.012806f, 
0.001384f, 0.009324f, 0.001859f, 0.008721f, -0.016916f, -0.010042f, 0.016616f, 0.008853f, 
0.015206f, 0.007681f, -0.002376f, -0.004245f, -0.008270f, -0.004789f, 0.011038f, 0.004330f, 
0.014490f, 0.029411f, 0.014834f, 0.041857f, 0.037551f, 0.022591f, 0.021988f, 0.027184f, 
0.022606f, 0.005170f, 0.021761f, 0.015151f, -0.004244f, -0.004973f, 0.015352f, -0.009791f, 
0.000797f, -0.010579f, -0.001302f, 0.007720f, 0.008581f, 0.021622f, 0.002326f, 0.003381f, 
-0.000500f, -0.003299f, -0.007652f, -0.002182f, -0.007893f, 0.032847f, 0.024323f, 0.025321f, 
0.038933f, 0.034089f, 0.028717f, 0.037341f, 0.029221f, 0.027214f, 0.012265f, 0.002467f, 
0.026476f, -0.000390f, 0.014221f, 0.005613f, -0.010347f, 0.008241f, 0.011773f, 0.005768f, 
-0.001004f, 0.005702f, 0.021787f, -0.007528f, 0.015513f, -0.018754f, -0.013649f, 0.015116f, 
-0.009526f, 0.020836f, -0.002390f, 0.017031f, 0.037101f, 0.042805f, 0.026237f, 0.026412f, 
0.017007f, 0.007825f, 0.025767f, 0.019707f, 0.018983f, 0.012309f, 0.005922f, 0.018042f, 
0.013007f, 0.007738f, 0.010085f, -0.003075f, -0.002055f, -0.004526f, -0.003859f, 0.017357f, 
0.019459f, -0.011614f, -0.013599f, 0.007380f, -0.021815f, 0.007909f, 0.012143f, 0.001301f, 
-0.005403f, 0.021814f, 0.002963f, 0.028741f, 0.013834f, 0.023509f, 0.006516f, 0.005101f, 
0.011892f, 0.026418f, 0.015591f, 0.022769f, 0.016788f, 0.003960f, -0.016063f, 0.009187f, 
0.001591f, -0.013004f, 0.004143f, 0.000622f, -0.010709f, 0.020519f, 0.014663f, 0.013267f, 
0.011976f, -0.000719f, -0.015390f, 0.014038f, -0.004355f, 0.001937f, 0.017474f, -0.000267f, 
0.018047f, 0.003033f, 0.023119f, 0.027289f, -0.003052f, 0.028026f, 0.003197f, 0.016058f, 
0.015739f, -0.015285f, -0.002926f, -0.009624f, -0.016690f, -0.012194f, -0.011526f, -0.011178f, 
-0.005752f, 0.015448f, 0.006771f, -0.002024f, -0.009650f, -0.012437f, -0.019748f, -0.027503f, 
-0.011577f, -0.008217f, -0.013375f, 0.001796f, 0.001221f, -0.003263f, -0.004130f, 0.004358f, 
0.004726f, 0.015244f, 0.012890f, 0.016456f, 0.013312f, -0.005630f, 0.012636f, 0.002291f, 
-0.004005f, -0.012869f, 0.008350f, 0.012131f, 0.014155f, -0.010021f, 0.009735f, -0.007662f, 
0.016671f, -0.003061f, -0.012077f, -0.001423f, -0.001142f, -0.004409f, -0.007501f, 0.004706f, 
-0.007218f, -0.010828f, -0.005942f, -0.002152f, -0.006694f, 0.020700f, -0.000656f, 0.032551f, 
-0.001995f, -0.004713f, -0.015972f, 0.016310f, -0.009960f, -0.001562f, 0.007114f, 0.017382f, 
-0.011991f, -0.000514f, -0.006285f, 0.015824f, -0.011376f, -0.017083f, -0.013764f, 0.007590f, 
-0.022224f, -0.010608f, -0.022613f, -0.009188f, -0.010805f, -0.013171f, -0.010894f, -0.017367f, 
-0.024923f, -0.008132f, 0.007556f, 0.003267f, 0.020714f, -0.008654f, 0.018493f, 0.006940f, 
0.001512f, 0.000831f, 0.001263f, -0.001852f, 0.011128f, -0.002470f, 0.008905f, 0.002352f, 
-0.001144f, 0.009314f, 0.004981f, -0.006672f, 0.000533f, -0.027279f, -0.031030f, -0.033761f, 
-0.027674f, -0.026948f, -0.021051f, -0.029483f, -0.025823f, 0.007043f, -0.014950f, 0.017689f, 
0.000696f, 0.000322f, 0.016160f, -0.000189f, -0.005291f, 0.008116f, 0.015193f, 0.010106f, 
-0.014898f, 0.002684f, 0.002282f, 0.005885f, -0.018265f, -0.018477f, 0.012209f, -0.007216f, 
-0.018007f, -0.005577f, -0.001170f, 0.000702f, -0.030012f, -0.011036f, -0.018759f, -0.009437f, 
-0.009807f, 0.002687f, 0.008673f, -0.010399f, 0.013840f, 0.012746f, 0.004569f, 0.009804f, 
0.010367f, -0.014947f, -0.007347f, -0.005924f, -0.012971f, 0.004701f, 0.001096f, 0.001699f, 
-0.017883f, -0.020368f, 0.011184f, 0.006347f, 0.003618f, -0.027160f, -0.007239f, -0.019146f, 
-0.032335f, -0.022228f, 0.001914f, -0.003967f, -0.011975f, 0.006806f, 0.007212f, 0.007343f, 
0.002601f, 0.004710f, 0.001070f, -0.001741f, 0.017534f, -0.000646f, 0.010647f, 0.003671f, 
0.016050f, -0.004042f, 0.017354f, -0.006118f, -0.007053f, 0.004613f, -0.013980f, -0.018295f, 
-0.018642f, 0.001073f, -0.017982f, -0.022578f, -0.032432f, -0.033635f, -0.011872f, -0.002680f, 
-0.005708f, 0.005719f, 0.009720f, -0.004734f, 0.010477f, 0.004510f, -0.008374f, -0.009344f, 
0.013149f, -0.000031f, 0.008117f, -0.001306f, 0.017317f, 0.017774f, 0.006212f, 0.018340f, 
-0.005418f, -0.014934f, -0.001667f, -0.022151f, -0.014769f, -0.008361f, -0.014321f, -0.027918f, 
-0.023622f, -0.008047f, -0.034427f, -0.033303f, 0.004150f, 0.012777f, -0.014634f, -0.015553f, 
0.003133f, 0.006275f, 0.019360f, 0.020108f, 0.009024f, 0.009277f, 0.003174f, 0.009109f, 
-0.005168f, -0.002687f, 0.018894f, 0.008794f, -0.004910f, -0.009735f, 0.001835f, -0.002150f, 
-0.004223f, 0.003706f, -0.022263f, -0.027679f, -0.009059f, -0.000561f, -0.021620f, -0.027884f, 
-0.021181f, -0.013735f, 0.006675f, 0.011988f, -0.004688f, -0.001071f, 0.001581f, -0.004032f, 
0.002433f, -0.000885f, 0.012210f, 0.023556f, 0.017005f, -0.001772f, 0.011321f, 0.009493f, 
-0.006642f, -0.010161f, 0.003597f, 0.003463f, 0.000854f, -0.011878f, -0.011387f, -0.028708f, 
-0.008665f, -0.011752f, -0.024411f, -0.026867f, -0.030037f, -0.027429f, 0.006476f, 0.010014f, 
0.018946f, 0.016772f, -0.007537f, 0.012682f, 0.018884f, 0.006650f, 0.006096f, -0.000507f, 
0.017482f, 0.027223f, 0.007244f, 0.011673f, -0.002790f, -0.002979f, -0.007809f, -0.010449f, 
-0.011502f, -0.008542f, 0.008451f, -0.025961f, -0.027815f, -0.007754f, -0.018954f, -0.024827f, 
-0.006358f, -0.022960f, -0.009287f, -0.010368f, -0.011476f, -0.012408f, -0.001209f, 0.000523f, 
0.008792f, -0.007872f, -0.000787f, 0.010789f, 0.024224f, 0.019980f, 0.020398f, 0.023288f, 
0.023017f, 0.016763f, 0.011231f, -0.013501f, 0.012650f, 0.000536f, -0.017457f, -0.006506f, 
-0.003445f, 0.005866f, -0.026588f, 0.000869f, -0.018954f, 0.001376f, -0.001043f, 0.001459f, 
-0.015115f, -0.018530f, -0.015490f, -0.006320f, -0.000621f, -0.009420f, 0.002635f, 0.006040f, 
0.018805f, 0.016271f, -0.005092f, 0.004249f, 0.019912f, -0.002284f, 0.014001f, 0.009427f, 
0.004934f, -0.020427f, -0.035771f, 0.004713f, -0.034517f, -0.032582f, -0.018085f, -0.027200f, 
-0.024974f, -0.005433f, -0.026299f, -0.025255f, -0.031903f, -0.021541f, -0.017911f, -0.031729f, 
-0.033783f, -0.018719f, 0.001720f, -0.031213f, -0.036714f, -0.034438f, -0.009364f, -0.014852f, 
-0.028149f, -0.021924f, -0.045599f, -0.041985f, -0.059405f, -0.044507f, -0.020435f, -0.012243f, 
-0.027737f, -0.028692f, -0.017573f, -0.019290f, -0.015087f, -0.033329f, -0.029754f, -0.044697f, 
-0.048944f, -0.048694f, -0.033367f, -0.027266f, -0.022456f, -0.040286f, -0.018558f, -0.000585f, 
-0.009575f, -0.019163f, -0.031094f, -0.009185f, -0.028050f, -0.034755f, -0.017669f, -0.047597f, 
-0.078125f, -0.066010f, -0.055510f, 0.008768f, -0.004258f, -0.015039f, -0.017809f, -0.030181f, 
-0.012229f, -0.031035f, -0.033461f, -0.022734f, -0.010841f, -0.005089f, -0.019186f, -0.022458f, 
-0.030373f, -0.047922f, -0.023001f, -0.024378f, -0.039990f, -0.028172f, -0.007620f, 0.007687f, 
-0.012978f, -0.020385f, -0.011216f, -0.012207f, -0.021383f, -0.025068f, -0.039665f, -0.054349f, 
-0.018556f, -0.004900f, -0.004936f, -0.010291f, -0.035760f, -0.015507f, -0.013083f, -0.014886f, 
0.000624f, -0.002262f, -0.016692f, 0.007917f, -0.017829f, -0.015626f, -0.014928f, -0.013416f, 
-0.022211f, -0.010985f, -0.035907f, -0.017387f, 0.011283f, -0.016830f, -0.013099f, -0.015958f, 
-0.026585f, -0.023290f, -0.027356f, -0.008494f, -0.039144f, -0.018046f, -0.010477f, -0.011311f, 
-0.006774f, -0.017351f, 0.006911f, 0.007682f, -0.025774f, -0.011900f, 0.004278f, 0.021145f, 
0.018881f, -0.008464f, 0.011788f, -0.008195f, -0.016840f, -0.019720f, -0.016802f, -0.028128f, 
-0.012360f, -0.017408f, -0.008921f, 0.000212f, -0.028131f, -0.018768f, -0.016118f, 0.006631f, 
-0.001528f, -0.014884f, -0.000705f, 0.003010f, -0.018523f, -0.008956f, -0.019735f, -0.000631f, 
0.005001f, -0.011009f, -0.002165f, 0.002451f, 0.024011f, 0.015458f, -0.004819f, -0.004162f, 
0.013746f, -0.012352f, -0.025773f, -0.023383f, -0.010658f, -0.015227f, 0.001518f, -0.016154f, 
0.005954f, -0.002934f, -0.010730f, 0.000657f, -0.009381f, 0.006155f, -0.017546f, -0.004017f, 
-0.009921f, -0.006462f, -0.034848f, -0.035741f, 0.004750f, -0.006037f, -0.009910f, 0.001539f, 
0.015050f, -0.018055f, 0.004939f, -0.010182f, -0.018217f, -0.002238f, -0.007924f, -0.034626f, 
0.000849f, -0.006232f, -0.002904f, -0.019350f, 0.001477f, 0.009028f, -0.006844f, -0.006392f, 
0.015196f, 0.018921f, -0.002272f, -0.005836f, -0.015454f, -0.000135f, -0.008519f, -0.030729f, 
-0.029317f, -0.011317f, -0.003474f, 0.000201f, -0.006510f, -0.024220f, -0.024736f, -0.026886f, 
-0.018237f, -0.031902f, -0.026731f, -0.019960f, -0.031776f, -0.018156f, -0.012932f, -0.014705f, 
0.007421f, -0.007382f, 0.020742f, -0.000814f, 0.021280f, 0.013952f, -0.008409f, 0.020153f, 
0.016065f, -0.020118f, -0.014386f, 0.003798f, -0.025813f, -0.011121f, -0.004166f, -0.021309f, 
-0.023372f, -0.001828f, -0.020853f, -0.017688f, -0.025135f, -0.003439f, -0.000961f, -0.024466f, 
-0.027789f, 0.002757f, 0.006393f, -0.006845f, 0.017247f, -0.014250f, -0.002596f, -0.011048f, 
-0.006588f, 0.010254f, 0.004542f, 0.015910f, 0.002710f, -0.000607f, -0.016278f, -0.024557f, 
0.006629f, -0.029515f, -0.005034f, -0.010954f, -0.014558f, -0.002667f, 0.005086f, -0.022228f, 
-0.008569f, -0.020847f, -0.002448f, -0.003991f, -0.021819f, 0.004080f, -0.014783f, -0.010593f, 
-0.013894f, -0.014365f, -0.004825f, 0.008649f, 0.005666f, 0.014169f, 0.008414f, 0.015132f, 
0.014914f, 0.003962f, 0.009050f, 0.002918f, 0.004876f, 0.000050f, 0.003651f, 0.016603f, 
-0.002986f, -0.032575f, -0.028148f, -0.010144f, -0.022702f, -0.020071f, -0.018909f, -0.025516f, 
-0.026713f, -0.024110f, 0.009521f, -0.021126f, -0.015020f, -0.016522f, 0.001178f, -0.003170f, 
-0.003666f, 0.019422f, 0.008182f, 0.005739f, -0.003737f, 0.007888f, 0.006948f, 0.003551f, 
0.007039f, -0.012750f, 0.012819f, 0.011712f, 0.021364f, -0.003966f, -0.013696f, -0.022176f, 
-0.026830f, -0.001291f, -0.021246f, -0.005607f, -0.004185f, -0.011072f, -0.011583f, 0.014672f, 
0.009440f, -0.004539f, -0.002637f, 0.017906f, -0.007947f, 0.013819f, 0.027383f, 0.009171f, 
-0.002513f, 0.010948f, -0.013056f, -0.021223f, 0.003632f, -0.003531f, 0.007785f, 0.009878f, 
0.000650f, 0.002158f, 0.005721f, 0.004108f, -0.001729f, -0.016338f, -0.003001f, -0.013531f, 
-0.007079f, -0.009790f, 0.007441f, 0.018671f, 0.018182f, 0.012873f, -0.005075f, 0.009596f, 
